#include <math.h>
#include <string.h>
void score(double * input, double * output) {
    double var0;
    if ((input[24]) >= (0.1)) {
        if ((input[13]) >= (0.5)) {
            if ((input[2]) >= (0.5)) {
                var0 = 0.18623982;
            } else {
                var0 = 0.09018472;
            }
        } else {
            if ((input[70]) >= (1.5)) {
                var0 = 0.13893993;
            } else {
                var0 = -0.043782838;
            }
        }
    } else {
        if ((input[48]) >= (0.125)) {
            if ((input[47]) >= (0.07575)) {
                var0 = 0.12434506;
            } else {
                var0 = -0.008247423;
            }
        } else {
            if ((input[70]) >= (2.5)) {
                var0 = 0.038131226;
            } else {
                var0 = -0.18970864;
            }
        }
    }
    double var1;
    if ((input[24]) >= (0.1)) {
        if ((input[14]) >= (0.29165)) {
            if ((input[66]) >= (623.5)) {
                var1 = 0.16499676;
            } else {
                var1 = 0.054594178;
            }
        } else {
            if ((input[66]) >= (3430.0)) {
                var1 = 0.099204324;
            } else {
                var1 = -0.07905846;
            }
        }
    } else {
        if ((input[48]) >= (0.125)) {
            if ((input[47]) >= (0.07575)) {
                var1 = 0.11237512;
            } else {
                var1 = -0.0074252407;
            }
        } else {
            if ((input[70]) >= (2.5)) {
                var1 = 0.03433628;
            } else {
                var1 = -0.1723371;
            }
        }
    }
    double var2;
    if ((input[24]) >= (0.1)) {
        if ((input[2]) >= (0.5)) {
            if ((input[13]) >= (0.5)) {
                var2 = 0.1566455;
            } else {
                var2 = 0.075933225;
            }
        } else {
            if ((input[70]) >= (2.5)) {
                var2 = 0.123217426;
            } else {
                var2 = -0.044659328;
            }
        }
    } else {
        if ((input[48]) >= (0.125)) {
            if ((input[47]) >= (0.28785)) {
                var2 = 0.10234252;
            } else {
                var2 = -0.0064665684;
            }
        } else {
            if ((input[70]) >= (1.5)) {
                var2 = 0.02202858;
            } else {
                var2 = -0.15965502;
            }
        }
    }
    double var3;
    if ((input[24]) >= (0.1)) {
        if ((input[3]) >= (0.45)) {
            if ((input[71]) >= (122.5)) {
                var3 = 0.14179157;
            } else {
                var3 = -0.029359741;
            }
        } else {
            if ((input[32]) >= (0.5)) {
                var3 = 0.09239463;
            } else {
                var3 = -0.062160935;
            }
        }
    } else {
        if ((input[70]) >= (1.5)) {
            if ((input[61]) >= (0.00985)) {
                var3 = 0.07778638;
            } else {
                var3 = -0.18177976;
            }
        } else {
            if ((input[47]) >= (0.045450002)) {
                var3 = 0.0774167;
            } else {
                var3 = -0.14794524;
            }
        }
    }
    double var4;
    if ((input[33]) >= (0.225)) {
        if ((input[71]) >= (172.5)) {
            if ((input[14]) >= (0.45)) {
                var4 = 0.13678037;
            } else {
                var4 = 0.061337568;
            }
        } else {
            if ((input[47]) >= (0.045450002)) {
                var4 = 0.03125305;
            } else {
                var4 = -0.123381115;
            }
        }
    } else {
        if ((input[48]) >= (0.125)) {
            if ((input[66]) >= (3343.0)) {
                var4 = 0.11914744;
            } else {
                var4 = 0.0064926455;
            }
        } else {
            if ((input[70]) >= (2.5)) {
                var4 = 0.02132528;
            } else {
                var4 = -0.14345956;
            }
        }
    }
    double var5;
    if ((input[14]) >= (0.36665)) {
        if ((input[3]) >= (0.225)) {
            if ((input[66]) >= (2088.5)) {
                var5 = 0.13307151;
            } else {
                var5 = 0.067405626;
            }
        } else {
            if ((input[47]) >= (0.07575)) {
                var5 = 0.077669315;
            } else {
                var5 = -0.09339633;
            }
        }
    } else {
        if ((input[47]) >= (0.045450002)) {
            if ((input[47]) >= (0.56065)) {
                var5 = 0.13057405;
            } else {
                var5 = 0.04098709;
            }
        } else {
            if ((input[70]) >= (3.5)) {
                var5 = 0.017047068;
            } else {
                var5 = -0.13641022;
            }
        }
    }
    double var6;
    if ((input[33]) >= (0.225)) {
        if ((input[71]) >= (149.5)) {
            if ((input[24]) >= (0.45)) {
                var6 = 0.12778899;
            } else {
                var6 = 0.06564908;
            }
        } else {
            if ((input[47]) >= (0.045450002)) {
                var6 = 0.015371041;
            } else {
                var6 = -0.116505556;
            }
        }
    } else {
        if ((input[47]) >= (0.045450002)) {
            if ((input[47]) >= (0.80305)) {
                var6 = 0.12821876;
            } else {
                var6 = 0.051957138;
            }
        } else {
            if ((input[13]) >= (0.5)) {
                var6 = -0.011026212;
            } else {
                var6 = -0.13250016;
            }
        }
    }
    double var7;
    if ((input[3]) >= (0.225)) {
        if ((input[13]) >= (0.5)) {
            if ((input[66]) >= (2085.5)) {
                var7 = 0.123617016;
            } else {
                var7 = 0.075557716;
            }
        } else {
            if ((input[32]) >= (0.5)) {
                var7 = 0.08348327;
            } else {
                var7 = -0.06460497;
            }
        }
    } else {
        if ((input[47]) >= (0.045450002)) {
            if ((input[47]) >= (0.95455)) {
                var7 = 0.13234483;
            } else {
                var7 = 0.04364049;
            }
        } else {
            if ((input[70]) >= (2.5)) {
                var7 = 0.0036328253;
            } else {
                var7 = -0.12699373;
            }
        }
    }
    double var8;
    if ((input[33]) >= (0.225)) {
        if ((input[71]) >= (262.5)) {
            if ((input[48]) >= (0.125)) {
                var8 = 0.11601756;
            } else {
                var8 = 0.0524864;
            }
        } else {
            if ((input[64]) >= (38.5)) {
                var8 = -0.11210276;
            } else {
                var8 = 0.051695265;
            }
        }
    } else {
        if ((input[2]) >= (0.5)) {
            if ((input[66]) >= (2848.5)) {
                var8 = 0.078425825;
            } else {
                var8 = -0.0732524;
            }
        } else {
            if ((input[47]) >= (0.28785)) {
                var8 = 0.04303436;
            } else {
                var8 = -0.122634105;
            }
        }
    }
    double var9;
    if ((input[14]) >= (0.225)) {
        if ((input[2]) >= (0.5)) {
            if ((input[66]) >= (3162.5)) {
                var9 = 0.11653848;
            } else {
                var9 = 0.07258588;
            }
        } else {
            if ((input[70]) >= (1.5)) {
                var9 = 0.071779795;
            } else {
                var9 = -0.060834285;
            }
        }
    } else {
        if ((input[47]) >= (0.28785)) {
            if ((input[47]) >= (0.80305)) {
                var9 = 0.119980216;
            } else {
                var9 = 0.030407256;
            }
        } else {
            if ((input[70]) >= (2.5)) {
                var9 = 0.007887567;
            } else {
                var9 = -0.11865981;
            }
        }
    }
    double var10;
    if ((input[33]) >= (0.225)) {
        if ((input[2]) >= (0.5)) {
            if ((input[24]) >= (0.70835)) {
                var10 = 0.11450131;
            } else {
                var10 = 0.076611094;
            }
        } else {
            if ((input[33]) >= (0.70835)) {
                var10 = 0.060882688;
            } else {
                var10 = -0.037406545;
            }
        }
    } else {
        if ((input[48]) >= (0.125)) {
            if ((input[56]) >= (30.2446)) {
                var10 = 0.07904164;
            } else {
                var10 = -0.02342954;
            }
        } else {
            if ((input[70]) >= (2.5)) {
                var10 = 0.019115446;
            } else {
                var10 = -0.113645904;
            }
        }
    }
    double var11;
    if ((input[24]) >= (0.225)) {
        if ((input[66]) >= (1053.5)) {
            if ((input[32]) >= (0.5)) {
                var11 = 0.110294715;
            } else {
                var11 = 0.06805371;
            }
        } else {
            if ((input[64]) >= (38.5)) {
                var11 = -0.089047536;
            } else {
                var11 = 0.09283074;
            }
        }
    } else {
        if ((input[70]) >= (1.5)) {
            if ((input[61]) >= (0.01385)) {
                var11 = 0.056642216;
            } else {
                var11 = -0.13361892;
            }
        } else {
            if ((input[47]) >= (0.28785)) {
                var11 = 0.033256188;
            } else {
                var11 = -0.10548425;
            }
        }
    }
    double var12;
    if ((input[48]) >= (0.125)) {
        if ((input[66]) >= (2487.5)) {
            if ((input[32]) >= (0.5)) {
                var12 = 0.11175225;
            } else {
                var12 = 0.07985367;
            }
        } else {
            if ((input[64]) >= (38.5)) {
                var12 = -0.012218879;
            } else {
                var12 = 0.097404875;
            }
        }
    } else {
        if ((input[13]) >= (0.5)) {
            if ((input[66]) >= (2785.5)) {
                var12 = 0.07345868;
            } else {
                var12 = -0.05676451;
            }
        } else {
            if ((input[70]) >= (4.5)) {
                var12 = 0.01177649;
            } else {
                var12 = -0.10810741;
            }
        }
    }
    double var13;
    if ((input[32]) >= (0.5)) {
        if ((input[71]) >= (348.5)) {
            if ((input[48]) >= (0.29165)) {
                var13 = 0.10795593;
            } else {
                var13 = 0.06780753;
            }
        } else {
            if ((input[64]) >= (38.5)) {
                var13 = -0.08572995;
            } else {
                var13 = 0.05190018;
            }
        }
    } else {
        if ((input[62]) >= (67.0662)) {
            if ((input[70]) >= (0.5)) {
                var13 = 0.071491145;
            } else {
                var13 = -0.043079767;
            }
        } else {
            if ((input[47]) >= (0.92425)) {
                var13 = 0.0926634;
            } else {
                var13 = -0.10509733;
            }
        }
    }
    double var14;
    if ((input[3]) >= (0.225)) {
        if ((input[13]) >= (0.5)) {
            if ((input[66]) >= (3445.5)) {
                var14 = 0.10148223;
            } else {
                var14 = 0.053153742;
            }
        } else {
            if ((input[70]) >= (3.5)) {
                var14 = 0.06425532;
            } else {
                var14 = -0.04113246;
            }
        }
    } else {
        if ((input[48]) >= (0.125)) {
            if ((input[47]) >= (0.98485)) {
                var14 = 0.11470198;
            } else {
                var14 = 0.004885693;
            }
        } else {
            if ((input[32]) >= (0.5)) {
                var14 = -0.0011310475;
            } else {
                var14 = -0.10503832;
            }
        }
    }
    double var15;
    if ((input[33]) >= (0.45)) {
        if ((input[71]) >= (344.5)) {
            if ((input[48]) >= (0.41665)) {
                var15 = 0.101065;
            } else {
                var15 = 0.058881965;
            }
        } else {
            if ((input[64]) >= (38.5)) {
                var15 = -0.08776914;
            } else {
                var15 = 0.042551044;
            }
        }
    } else {
        if ((input[62]) >= (54.33025)) {
            if ((input[64]) >= (47.5)) {
                var15 = -0.062265694;
            } else {
                var15 = 0.049903676;
            }
        } else {
            if ((input[47]) >= (0.98485)) {
                var15 = 0.102936916;
            } else {
                var15 = -0.10111604;
            }
        }
    }
    double var16;
    if ((input[14]) >= (0.225)) {
        if ((input[2]) >= (0.5)) {
            if ((input[66]) >= (3162.5)) {
                var16 = 0.09581778;
            } else {
                var16 = 0.045886785;
            }
        } else {
            if ((input[70]) >= (5.5)) {
                var16 = 0.07052875;
            } else {
                var16 = -0.035017192;
            }
        }
    } else {
        if ((input[70]) >= (1.5)) {
            if ((input[56]) >= (2.04515)) {
                var16 = 0.044668864;
            } else {
                var16 = -0.10334637;
            }
        } else {
            if ((input[47]) >= (0.86364996)) {
                var16 = 0.11340667;
            } else {
                var16 = -0.09669073;
            }
        }
    }
    double var17;
    if ((input[32]) >= (0.5)) {
        if ((input[24]) >= (0.45)) {
            if ((input[71]) >= (3346.5)) {
                var17 = 0.10320014;
            } else {
                var17 = 0.07100143;
            }
        } else {
            if ((input[71]) >= (127.5)) {
                var17 = 0.044858236;
            } else {
                var17 = -0.06491846;
            }
        }
    } else {
        if ((input[62]) >= (71.269455)) {
            if ((input[64]) >= (48.5)) {
                var17 = -0.07191329;
            } else {
                var17 = 0.045941114;
            }
        } else {
            if ((input[47]) >= (0.28785)) {
                var17 = 0.015937978;
            } else {
                var17 = -0.099265166;
            }
        }
    }
    double var18;
    if ((input[48]) >= (0.125)) {
        if ((input[66]) >= (3568.5)) {
            if ((input[64]) >= (45.5)) {
                var18 = 0.060944237;
            } else {
                var18 = 0.10115888;
            }
        } else {
            if ((input[64]) >= (43.5)) {
                var18 = -0.13512826;
            } else {
                var18 = 0.049156487;
            }
        }
    } else {
        if ((input[71]) >= (3606.5)) {
            if ((input[64]) >= (46.5)) {
                var18 = -0.047580626;
            } else {
                var18 = 0.072044656;
            }
        } else {
            if ((input[64]) >= (38.5)) {
                var18 = -0.098344356;
            } else {
                var18 = 0.068969816;
            }
        }
    }
    double var19;
    if ((input[3]) >= (0.1)) {
        if ((input[66]) >= (2471.5)) {
            if ((input[64]) >= (45.5)) {
                var19 = 0.02514246;
            } else {
                var19 = 0.09068231;
            }
        } else {
            if ((input[64]) >= (38.5)) {
                var19 = -0.056832742;
            } else {
                var19 = 0.07842199;
            }
        }
    } else {
        if ((input[48]) >= (0.125)) {
            if ((input[48]) >= (0.875)) {
                var19 = 0.10475234;
            } else {
                var19 = 0.000033986114;
            }
        } else {
            if ((input[70]) >= (6.5)) {
                var19 = 0.025641417;
            } else {
                var19 = -0.0974324;
            }
        }
    }
    double var20;
    if ((input[32]) >= (0.5)) {
        if ((input[24]) >= (0.70835)) {
            if ((input[66]) >= (723.0)) {
                var20 = 0.09449217;
            } else {
                var20 = 0.043410122;
            }
        } else {
            if ((input[66]) >= (8045.5)) {
                var20 = 0.077314004;
            } else {
                var20 = 0.01163818;
            }
        }
    } else {
        if ((input[70]) >= (1.5)) {
            if ((input[61]) >= (0.0058500003)) {
                var20 = 0.047070313;
            } else {
                var20 = -0.13647057;
            }
        } else {
            if ((input[48]) >= (0.58335)) {
                var20 = 0.054021098;
            } else {
                var20 = -0.08401552;
            }
        }
    }
    double var21;
    if ((input[24]) >= (0.225)) {
        if ((input[66]) >= (1290.5)) {
            if ((input[64]) >= (43.5)) {
                var21 = 0.048201714;
            } else {
                var21 = 0.08982289;
            }
        } else {
            if ((input[64]) >= (38.5)) {
                var21 = -0.06117331;
            } else {
                var21 = 0.066604346;
            }
        }
    } else {
        if ((input[3]) >= (0.1)) {
            if ((input[66]) >= (16422.5)) {
                var21 = 0.07474021;
            } else {
                var21 = -0.021100868;
            }
        } else {
            if ((input[47]) >= (0.045450002)) {
                var21 = 0.035785392;
            } else {
                var21 = -0.08905007;
            }
        }
    }
    double var22;
    if ((input[14]) >= (0.1)) {
        if ((input[66]) >= (4565.5)) {
            if ((input[64]) >= (45.5)) {
                var22 = 0.03015661;
            } else {
                var22 = 0.09329719;
            }
        } else {
            if ((input[64]) >= (43.5)) {
                var22 = -0.12510851;
            } else {
                var22 = 0.025305241;
            }
        }
    } else {
        if ((input[48]) >= (0.125)) {
            if ((input[48]) >= (0.875)) {
                var22 = 0.103389494;
            } else {
                var22 = -0.0001861503;
            }
        } else {
            if ((input[49]) >= (0.125)) {
                var22 = 0.024640994;
            } else {
                var22 = -0.093017615;
            }
        }
    }
    double var23;
    if ((input[32]) >= (0.5)) {
        if ((input[48]) >= (0.58335)) {
            if ((input[66]) >= (592.5)) {
                var23 = 0.0939348;
            } else {
                var23 = 0.04178987;
            }
        } else {
            if ((input[66]) >= (5369.5)) {
                var23 = 0.069352746;
            } else {
                var23 = -0.0023892291;
            }
        }
    } else {
        if ((input[62]) >= (97.3357)) {
            if ((input[28]) >= (4.5)) {
                var23 = -0.029194564;
            } else {
                var23 = 0.054490503;
            }
        } else {
            if ((input[64]) >= (43.5)) {
                var23 = -0.10327864;
            } else {
                var23 = -0.026981642;
            }
        }
    }
    double var24;
    if ((input[48]) >= (0.125)) {
        if ((input[71]) >= (3421.5)) {
            if ((input[64]) >= (45.5)) {
                var24 = 0.048530336;
            } else {
                var24 = 0.09237029;
            }
        } else {
            if ((input[47]) >= (0.86364996)) {
                var24 = 0.07956233;
            } else {
                var24 = -0.0052629802;
            }
        }
    } else {
        if ((input[71]) >= (2305.5)) {
            if ((input[64]) >= (45.5)) {
                var24 = -0.03360176;
            } else {
                var24 = 0.06846073;
            }
        } else {
            if ((input[64]) >= (38.5)) {
                var24 = -0.09277504;
            } else {
                var24 = 0.06008136;
            }
        }
    }
    double var25;
    if ((input[70]) >= (1.5)) {
        if ((input[56]) >= (0.3409)) {
            if ((input[70]) >= (19.5)) {
                var25 = 0.10158302;
            } else {
                var25 = 0.046352476;
            }
        } else {
            if ((input[60]) >= (0.1102)) {
                var25 = -0.05824263;
            } else {
                var25 = -0.14695571;
            }
        }
    } else {
        if ((input[71]) >= (11070.5)) {
            if ((input[64]) >= (48.5)) {
                var25 = -0.024884002;
            } else {
                var25 = 0.08645951;
            }
        } else {
            if ((input[64]) >= (43.5)) {
                var25 = -0.10378601;
            } else {
                var25 = -0.010033092;
            }
        }
    }
    double var26;
    if ((input[48]) >= (0.29165)) {
        if ((input[24]) >= (0.9)) {
            if ((input[66]) >= (622.5)) {
                var26 = 0.08967482;
            } else {
                var26 = 0.03262741;
            }
        } else {
            if ((input[57]) >= (0.08595)) {
                var26 = 0.04185311;
            } else {
                var26 = -0.14808597;
            }
        }
    } else {
        if ((input[66]) >= (1822.5)) {
            if ((input[64]) >= (43.5)) {
                var26 = -0.02680998;
            } else {
                var26 = 0.07274725;
            }
        } else {
            if ((input[64]) >= (38.5)) {
                var26 = -0.09274545;
            } else {
                var26 = 0.04199528;
            }
        }
    }
    double var27;
    if ((input[32]) >= (0.5)) {
        if ((input[24]) >= (0.9)) {
            if ((input[71]) >= (564.5)) {
                var27 = 0.08786785;
            } else {
                var27 = 0.033183973;
            }
        } else {
            if ((input[66]) >= (17849.5)) {
                var27 = 0.080613516;
            } else {
                var27 = 0.012842933;
            }
        }
    } else {
        if ((input[62]) >= (52.8204)) {
            if ((input[51]) >= (3.5)) {
                var27 = -0.026441768;
            } else {
                var27 = 0.046882514;
            }
        } else {
            if ((input[64]) >= (43.5)) {
                var27 = -0.09980359;
            } else {
                var27 = -0.026105214;
            }
        }
    }
    double var28;
    if ((input[70]) >= (0.5)) {
        if ((input[71]) >= (573.5)) {
            if ((input[64]) >= (40.5)) {
                var28 = 0.032550063;
            } else {
                var28 = 0.083462365;
            }
        } else {
            if ((input[64]) >= (38.5)) {
                var28 = -0.07840511;
            } else {
                var28 = 0.03215803;
            }
        }
    } else {
        if ((input[66]) >= (18931.5)) {
            if ((input[64]) >= (49.5)) {
                var28 = -0.041476548;
            } else {
                var28 = 0.08315744;
            }
        } else {
            if ((input[47]) >= (0.28785)) {
                var28 = 0.02304811;
            } else {
                var28 = -0.08630149;
            }
        }
    }
    double var29;
    if ((input[48]) >= (0.41665)) {
        if ((input[66]) >= (8314.0)) {
            if ((input[64]) >= (45.5)) {
                var29 = 0.060034852;
            } else {
                var29 = 0.09718355;
            }
        } else {
            if ((input[64]) >= (43.5)) {
                var29 = -0.07446518;
            } else {
                var29 = 0.04746553;
            }
        }
    } else {
        if ((input[71]) >= (5165.5)) {
            if ((input[64]) >= (48.5)) {
                var29 = -0.04255512;
            } else {
                var29 = 0.056045424;
            }
        } else {
            if ((input[64]) >= (43.5)) {
                var29 = -0.103768244;
            } else {
                var29 = -0.014168533;
            }
        }
    }
    double var30;
    if ((input[33]) >= (0.70835)) {
        if ((input[71]) >= (319.5)) {
            if ((input[24]) >= (1.1)) {
                var30 = 0.0873173;
            } else {
                var30 = 0.042388074;
            }
        } else {
            if ((input[56]) >= (1.0803499)) {
                var30 = 0.005611393;
            } else {
                var30 = -0.09943724;
            }
        }
    } else {
        if ((input[66]) >= (16464.0)) {
            if ((input[64]) >= (48.5)) {
                var30 = -0.011189664;
            } else {
                var30 = 0.08344904;
            }
        } else {
            if ((input[64]) >= (43.5)) {
                var30 = -0.09187227;
            } else {
                var30 = -0.006275358;
            }
        }
    }
    double var31;
    if ((input[70]) >= (3.5)) {
        if ((input[56]) >= (0.32235)) {
            if ((input[70]) >= (19.5)) {
                var31 = 0.095432244;
            } else {
                var31 = 0.037212864;
            }
        } else {
            if ((input[55]) >= (39.142197)) {
                var31 = -0.14419435;
            } else {
                var31 = -0.057754178;
            }
        }
    } else {
        if ((input[71]) >= (8850.0)) {
            if ((input[64]) >= (48.5)) {
                var31 = -0.026669992;
            } else {
                var31 = 0.06707984;
            }
        } else {
            if ((input[64]) >= (43.5)) {
                var31 = -0.09832179;
            } else {
                var31 = -0.0083603775;
            }
        }
    }
    double var32;
    if ((input[48]) >= (0.41665)) {
        if ((input[47]) >= (0.98485)) {
            if ((input[57]) >= (2.72535)) {
                var32 = 0.09403;
            } else {
                var32 = 0.06368912;
            }
        } else {
            if ((input[71]) >= (3331.5)) {
                var32 = 0.06774873;
            } else {
                var32 = -0.003327567;
            }
        }
    } else {
        if ((input[66]) >= (1318.5)) {
            if ((input[64]) >= (43.5)) {
                var32 = -0.026491424;
            } else {
                var32 = 0.05574307;
            }
        } else {
            if ((input[64]) >= (38.5)) {
                var32 = -0.09045579;
            } else {
                var32 = 0.03119784;
            }
        }
    }
    double var33;
    if ((input[1]) >= (0.037699997)) {
        if ((input[71]) >= (18807.5)) {
            if ((input[64]) >= (49.5)) {
                var33 = -0.022392297;
            } else {
                var33 = 0.08579465;
            }
        } else {
            if ((input[64]) >= (45.5)) {
                var33 = -0.08627641;
            } else {
                var33 = 0.03113444;
            }
        }
    } else {
        if ((input[64]) >= (38.5)) {
            if ((input[47]) >= (0.98485)) {
                var33 = 0.08914017;
            } else {
                var33 = -0.07869623;
            }
        } else {
            if ((input[71]) >= (126.5)) {
                var33 = 0.05893114;
            } else {
                var33 = -0.08543317;
            }
        }
    }
    double var34;
    if ((input[12]) >= (0.01525)) {
        if ((input[64]) >= (40.5)) {
            if ((input[66]) >= (5380.0)) {
                var34 = 0.038863968;
            } else {
                var34 = -0.053009655;
            }
        } else {
            if ((input[66]) >= (659.5)) {
                var34 = 0.08162912;
            } else {
                var34 = -0.0021252243;
            }
        }
    } else {
        if ((input[0]) >= (6.0)) {
            if ((input[71]) >= (268.5)) {
                var34 = 0.044520397;
            } else {
                var34 = -0.050114304;
            }
        } else {
            if ((input[47]) >= (0.28785)) {
                var34 = 0.041319538;
            } else {
                var34 = -0.09428189;
            }
        }
    }
    double var35;
    if ((input[70]) >= (4.5)) {
        if ((input[56]) >= (0.32235)) {
            if ((input[70]) >= (19.5)) {
                var35 = 0.090135984;
            } else {
                var35 = 0.03294327;
            }
        } else {
            if ((input[55]) >= (39.142197)) {
                var35 = -0.13990186;
            } else {
                var35 = -0.0514169;
            }
        }
    } else {
        if ((input[71]) >= (3118.5)) {
            if ((input[64]) >= (46.5)) {
                var35 = -0.038452256;
            } else {
                var35 = 0.048730545;
            }
        } else {
            if ((input[64]) >= (38.5)) {
                var35 = -0.06405443;
            } else {
                var35 = 0.039734274;
            }
        }
    }
    double var36;
    if ((input[48]) >= (0.70835)) {
        if ((input[47]) >= (0.98485)) {
            if ((input[57]) >= (2.72535)) {
                var36 = 0.091289766;
            } else {
                var36 = 0.056236412;
            }
        } else {
            if ((input[71]) >= (1647.5)) {
                var36 = 0.061409533;
            } else {
                var36 = -0.011794213;
            }
        }
    } else {
        if ((input[66]) >= (1317.5)) {
            if ((input[64]) >= (43.5)) {
                var36 = -0.022159519;
            } else {
                var36 = 0.049767125;
            }
        } else {
            if ((input[64]) >= (38.5)) {
                var36 = -0.0802119;
            } else {
                var36 = 0.02473295;
            }
        }
    }
    double var37;
    if ((input[66]) >= (16916.0)) {
        if ((input[64]) >= (49.5)) {
            if ((input[71]) >= (65956.0)) {
                var37 = 0.024700904;
            } else {
                var37 = -0.1079852;
            }
        } else {
            if ((input[66]) >= (34302.0)) {
                var37 = 0.086357065;
            } else {
                var37 = 0.0454881;
            }
        }
    } else {
        if ((input[64]) >= (43.5)) {
            if ((input[64]) >= (46.5)) {
                var37 = -0.106958106;
            } else {
                var37 = -0.051453557;
            }
        } else {
            if ((input[66]) >= (653.5)) {
                var37 = 0.040086012;
            } else {
                var37 = -0.02971083;
            }
        }
    }
    double var38;
    if ((input[71]) >= (12896.5)) {
        if ((input[64]) >= (48.5)) {
            if ((input[71]) >= (50578.5)) {
                var38 = 0.03980548;
            } else {
                var38 = -0.064184934;
            }
        } else {
            if ((input[66]) >= (37538.5)) {
                var38 = 0.092621006;
            } else {
                var38 = 0.052874077;
            }
        }
    } else {
        if ((input[64]) >= (43.5)) {
            if ((input[64]) >= (46.5)) {
                var38 = -0.103962414;
            } else {
                var38 = -0.049486674;
            }
        } else {
            if ((input[66]) >= (653.5)) {
                var38 = 0.03569597;
            } else {
                var38 = -0.02677743;
            }
        }
    }
    double var39;
    if ((input[37]) >= (0.5)) {
        if ((input[71]) >= (7917.0)) {
            if ((input[64]) >= (46.5)) {
                var39 = -0.01565138;
            } else {
                var39 = 0.060424663;
            }
        } else {
            if ((input[64]) >= (43.5)) {
                var39 = -0.0844247;
            } else {
                var39 = -0.006785056;
            }
        }
    } else {
        if ((input[71]) >= (141.5)) {
            if ((input[64]) >= (40.5)) {
                var39 = 0.040753096;
            } else {
                var39 = 0.07465064;
            }
        } else {
            if ((input[58]) >= (11.558849)) {
                var39 = 0.06486319;
            } else {
                var39 = -0.066173635;
            }
        }
    }
    double var40;
    if ((input[47]) >= (0.80305)) {
        if ((input[63]) >= (0.99995)) {
            if ((input[60]) >= (2.9872)) {
                var40 = 0.054339927;
            } else {
                var40 = 0.003579265;
            }
        } else {
            if ((input[48]) >= (0.875)) {
                var40 = 0.080017015;
            } else {
                var40 = 0.046226963;
            }
        }
    } else {
        if ((input[71]) >= (2182.5)) {
            if ((input[64]) >= (45.5)) {
                var40 = -0.015176921;
            } else {
                var40 = 0.04700458;
            }
        } else {
            if ((input[64]) >= (40.5)) {
                var40 = -0.072739676;
            } else {
                var40 = 0.0011042603;
            }
        }
    }
    double var41;
    if ((input[70]) >= (7.5)) {
        if ((input[61]) >= (0.01155)) {
            if ((input[70]) >= (19.5)) {
                var41 = 0.084462166;
            } else {
                var41 = 0.040174026;
            }
        } else {
            if ((input[56]) >= (1.53525)) {
                var41 = 0.0053260447;
            } else {
                var41 = -0.10545526;
            }
        }
    } else {
        if ((input[71]) >= (22781.5)) {
            if ((input[64]) >= (49.5)) {
                var41 = -0.023531506;
            } else {
                var41 = 0.06607852;
            }
        } else {
            if ((input[64]) >= (45.5)) {
                var41 = -0.08365654;
            } else {
                var41 = -0.0033740923;
            }
        }
    }
    double var42;
    if ((input[12]) >= (0.1454)) {
        if ((input[71]) >= (22781.5)) {
            if ((input[64]) >= (48.5)) {
                var42 = 0.022270365;
            } else {
                var42 = 0.08424809;
            }
        } else {
            if ((input[64]) >= (46.5)) {
                var42 = -0.0872536;
            } else {
                var42 = 0.019582337;
            }
        }
    } else {
        if ((input[0]) >= (6.0)) {
            if ((input[71]) >= (267.5)) {
                var42 = 0.043789655;
            } else {
                var42 = -0.039355703;
            }
        } else {
            if ((input[47]) >= (0.28785)) {
                var42 = 0.02335812;
            } else {
                var42 = -0.07653489;
            }
        }
    }
    double var43;
    if ((input[32]) >= (1.5)) {
        if ((input[12]) >= (0.0167)) {
            if ((input[66]) >= (30503.0)) {
                var43 = 0.09580117;
            } else {
                var43 = 0.052221067;
            }
        } else {
            if ((input[62]) >= (0.3513)) {
                var43 = 0.014807293;
            } else {
                var43 = -0.13405862;
            }
        }
    } else {
        if ((input[71]) >= (2953.5)) {
            if ((input[64]) >= (45.5)) {
                var43 = -0.014068208;
            } else {
                var43 = 0.047042042;
            }
        } else {
            if ((input[64]) >= (40.5)) {
                var43 = -0.05788479;
            } else {
                var43 = 0.006459677;
            }
        }
    }
    double var44;
    if ((input[37]) >= (0.5)) {
        if ((input[66]) >= (17862.5)) {
            if ((input[64]) >= (48.5)) {
                var44 = -0.013843979;
            } else {
                var44 = 0.06188981;
            }
        } else {
            if ((input[64]) >= (45.5)) {
                var44 = -0.083343215;
            } else {
                var44 = -0.0068413313;
            }
        }
    } else {
        if ((input[71]) >= (141.5)) {
            if ((input[66]) >= (53971.5)) {
                var44 = 0.10455163;
            } else {
                var44 = 0.04485895;
            }
        } else {
            if ((input[58]) >= (9.9826)) {
                var44 = 0.041326072;
            } else {
                var44 = -0.06779645;
            }
        }
    }
    double var45;
    if ((input[47]) >= (0.95455)) {
        if ((input[63]) >= (0.99995)) {
            if ((input[64]) >= (40.5)) {
                var45 = -0.0004947501;
            } else {
                var45 = 0.04601696;
            }
        } else {
            if ((input[46]) >= (4.5112)) {
                var45 = 0.07000759;
            } else {
                var45 = -0.058321506;
            }
        }
    } else {
        if ((input[66]) >= (927.5)) {
            if ((input[64]) >= (40.5)) {
                var45 = -0.0054345736;
            } else {
                var45 = 0.052763898;
            }
        } else {
            if ((input[64]) >= (38.5)) {
                var45 = -0.07518585;
            } else {
                var45 = 0.014191537;
            }
        }
    }
    double var46;
    if ((input[70]) >= (21.5)) {
        if ((input[46]) >= (3.2178)) {
            if ((input[57]) >= (0.32880002)) {
                var46 = 0.08340591;
            } else {
                var46 = -0.020426644;
            }
        } else {
            if ((input[42]) >= (4.5)) {
                var46 = -0.1493045;
            } else {
                var46 = 0.03547732;
            }
        }
    } else {
        if ((input[71]) >= (8674.5)) {
            if ((input[64]) >= (45.5)) {
                var46 = 0.008538703;
            } else {
                var46 = 0.06749804;
            }
        } else {
            if ((input[64]) >= (44.5)) {
                var46 = -0.07358854;
            } else {
                var46 = -0.00063868746;
            }
        }
    }
    double var47;
    if ((input[47]) >= (0.95455)) {
        if ((input[57]) >= (2.69535)) {
            if ((input[48]) >= (0.875)) {
                var47 = 0.08401775;
            } else {
                var47 = 0.045596987;
            }
        } else {
            if ((input[64]) >= (40.5)) {
                var47 = 0.008760963;
            } else {
                var47 = 0.05242903;
            }
        }
    } else {
        if ((input[66]) >= (653.5)) {
            if ((input[0]) >= (6.0)) {
                var47 = 0.055011135;
            } else {
                var47 = -0.005583183;
            }
        } else {
            if ((input[64]) >= (38.5)) {
                var47 = -0.074653;
            } else {
                var47 = 0.003385643;
            }
        }
    }
    double var48;
    if ((input[1]) >= (0.0646)) {
        if ((input[70]) >= (27.5)) {
            if ((input[46]) >= (3.2178)) {
                var48 = 0.08167149;
            } else {
                var48 = -0.040624578;
            }
        } else {
            if ((input[71]) >= (32729.5)) {
                var48 = 0.058808036;
            } else {
                var48 = -0.000954156;
            }
        }
    } else {
        if ((input[47]) >= (0.28785)) {
            if ((input[33]) >= (0.1)) {
                var48 = -0.006201617;
            } else {
                var48 = 0.07468741;
            }
        } else {
            if ((input[0]) >= (6.0)) {
                var48 = 0.021858979;
            } else {
                var48 = -0.0777387;
            }
        }
    }
    double var49;
    if ((input[32]) >= (1.5)) {
        if ((input[12]) >= (0.0167)) {
            if ((input[66]) >= (30503.0)) {
                var49 = 0.090940766;
            } else {
                var49 = 0.04516191;
            }
        } else {
            if ((input[57]) >= (3.55035)) {
                var49 = 0.057505038;
            } else {
                var49 = -0.025979033;
            }
        }
    } else {
        if ((input[37]) >= (0.5)) {
            if ((input[71]) >= (2925.5)) {
                var49 = 0.0040618335;
            } else {
                var49 = -0.03405497;
            }
        } else {
            if ((input[62]) >= (0.065249994)) {
                var49 = 0.032537922;
            } else {
                var49 = -0.14044853;
            }
        }
    }
    double var50;
    if ((input[70]) >= (7.5)) {
        if ((input[61]) >= (0.01155)) {
            if ((input[70]) >= (26.5)) {
                var50 = 0.07706631;
            } else {
                var50 = 0.033401597;
            }
        } else {
            if ((input[71]) >= (1204.5)) {
                var50 = 0.024970055;
            } else {
                var50 = -0.094826385;
            }
        }
    } else {
        if ((input[47]) >= (0.98485)) {
            if ((input[47]) >= (1.0151501)) {
                var50 = 0.029894829;
            } else {
                var50 = 0.08216377;
            }
        } else {
            if ((input[0]) >= (6.0)) {
                var50 = 0.024368389;
            } else {
                var50 = -0.026858374;
            }
        }
    }
    double var51;
    if ((input[66]) >= (34304.5)) {
        if ((input[64]) >= (48.5)) {
            if ((input[12]) >= (1.58335)) {
                var51 = 0.042241026;
            } else {
                var51 = -0.04192578;
            }
        } else {
            if ((input[61]) >= (1.05365)) {
                var51 = -0.084042996;
            } else {
                var51 = 0.07806588;
            }
        }
    } else {
        if ((input[64]) >= (46.5)) {
            if ((input[1]) >= (3.93615)) {
                var51 = -0.033479568;
            } else {
                var51 = -0.096073695;
            }
        } else {
            if ((input[71]) >= (1104.5)) {
                var51 = 0.021329973;
            } else {
                var51 = -0.01686368;
            }
        }
    }
    double var52;
    if ((input[32]) >= (1.5)) {
        if ((input[12]) >= (0.0282)) {
            if ((input[24]) >= (1.29165)) {
                var52 = 0.08008697;
            } else {
                var52 = 0.039638013;
            }
        } else {
            if ((input[62]) >= (0.3435)) {
                var52 = 0.008081979;
            } else {
                var52 = -0.13235602;
            }
        }
    } else {
        if ((input[71]) >= (4569.5)) {
            if ((input[64]) >= (46.5)) {
                var52 = -0.019455891;
            } else {
                var52 = 0.03595578;
            }
        } else {
            if ((input[64]) >= (43.5)) {
                var52 = -0.07029853;
            } else {
                var52 = -0.0035921545;
            }
        }
    }
    double var53;
    if ((input[70]) >= (21.5)) {
        if ((input[46]) >= (3.2178)) {
            if ((input[56]) >= (1.61655)) {
                var53 = 0.0756889;
            } else {
                var53 = 0.0015237476;
            }
        } else {
            if ((input[42]) >= (4.5)) {
                var53 = -0.12897308;
            } else {
                var53 = 0.031644434;
            }
        }
    } else {
        if ((input[71]) >= (32729.5)) {
            if ((input[64]) >= (49.5)) {
                var53 = -0.010367158;
            } else {
                var53 = 0.059550613;
            }
        } else {
            if ((input[64]) >= (46.5)) {
                var53 = -0.07627254;
            } else {
                var53 = -0.00085972634;
            }
        }
    }
    double var54;
    if ((input[37]) >= (0.5)) {
        if ((input[70]) >= (9.5)) {
            if ((input[61]) >= (0.02265)) {
                var54 = 0.055511992;
            } else {
                var54 = -0.0533871;
            }
        } else {
            if ((input[47]) >= (0.95455)) {
                var54 = 0.03513288;
            } else {
                var54 = -0.021233333;
            }
        }
    } else {
        if ((input[71]) >= (141.5)) {
            if ((input[66]) >= (53971.5)) {
                var54 = 0.09938817;
            } else {
                var54 = 0.033617254;
            }
        } else {
            if ((input[58]) >= (11.558849)) {
                var54 = 0.06613953;
            } else {
                var54 = -0.054230656;
            }
        }
    }
    double var55;
    if ((input[64]) >= (40.5)) {
        if ((input[71]) >= (3351.5)) {
            if ((input[26]) >= (0.45)) {
                var55 = 0.04537598;
            } else {
                var55 = -0.005825349;
            }
        } else {
            if ((input[47]) >= (0.28785)) {
                var55 = -0.0027700288;
            } else {
                var55 = -0.05961136;
            }
        }
    } else {
        if ((input[71]) >= (328.5)) {
            if ((input[1]) >= (0.07045)) {
                var55 = 0.057746496;
            } else {
                var55 = 0.019335527;
            }
        } else {
            if ((input[57]) >= (0.010299999)) {
                var55 = -0.017810283;
            } else {
                var55 = -0.12319427;
            }
        }
    }
    double var56;
    if ((input[57]) >= (0.28935)) {
        if ((input[49]) >= (2.125)) {
            if ((input[61]) >= (0.044150002)) {
                var56 = 0.048581857;
            } else {
                var56 = -0.005032709;
            }
        } else {
            if ((input[0]) >= (6.0)) {
                var56 = 0.027738428;
            } else {
                var56 = -0.01688858;
            }
        }
    } else {
        if ((input[47]) >= (0.98485)) {
            if ((input[55]) >= (100.910904)) {
                var56 = -0.060584214;
            } else {
                var56 = 0.10107491;
            }
        } else {
            if ((input[5]) >= (6.875)) {
                var56 = -0.11393452;
            } else {
                var56 = -0.07899036;
            }
        }
    }
    double var57;
    if ((input[71]) >= (22781.5)) {
        if ((input[64]) >= (48.5)) {
            if ((input[1]) >= (3.93505)) {
                var57 = 0.053153094;
            } else {
                var57 = -0.025691649;
            }
        } else {
            if ((input[1]) >= (0.0001)) {
                var57 = 0.06638515;
            } else {
                var57 = -0.023588406;
            }
        }
    } else {
        if ((input[64]) >= (46.5)) {
            if ((input[1]) >= (3.93615)) {
                var57 = -0.037588596;
            } else {
                var57 = -0.0915548;
            }
        } else {
            if ((input[71]) >= (922.5)) {
                var57 = 0.015552307;
            } else {
                var57 = -0.015711471;
            }
        }
    }
    double var58;
    if ((input[47]) >= (0.98485)) {
        if ((input[63]) >= (0.99995)) {
            if ((input[64]) >= (37.5)) {
                var58 = -0.0022197883;
            } else {
                var58 = 0.06284245;
            }
        } else {
            if ((input[51]) >= (3.5)) {
                var58 = 0.07923143;
            } else {
                var58 = 0.040305372;
            }
        }
    } else {
        if ((input[71]) >= (1485.5)) {
            if ((input[64]) >= (43.5)) {
                var58 = -0.008715137;
            } else {
                var58 = 0.03332388;
            }
        } else {
            if ((input[64]) >= (38.5)) {
                var58 = -0.042014435;
            } else {
                var58 = 0.016527921;
            }
        }
    }
    double var59;
    if ((input[70]) >= (21.5)) {
        if ((input[46]) >= (3.2178)) {
            if ((input[61]) >= (0.05395)) {
                var59 = 0.07450633;
            } else {
                var59 = 0.035967264;
            }
        } else {
            if ((input[24]) >= (0.1)) {
                var59 = 0.03383368;
            } else {
                var59 = -0.120338954;
            }
        }
    } else {
        if ((input[71]) >= (39336.0)) {
            if ((input[58]) >= (649.5345)) {
                var59 = 0.027702942;
            } else {
                var59 = 0.091479816;
            }
        } else {
            if ((input[64]) >= (45.5)) {
                var59 = -0.04801045;
            } else {
                var59 = 0.0025718764;
            }
        }
    }
    double var60;
    if ((input[71]) >= (10058.5)) {
        if ((input[12]) >= (2.24605)) {
            if ((input[64]) >= (49.5)) {
                var60 = -0.0037338508;
            } else {
                var60 = 0.06098597;
            }
        } else {
            if ((input[64]) >= (47.5)) {
                var60 = -0.04787132;
            } else {
                var60 = 0.030158391;
            }
        }
    } else {
        if ((input[64]) >= (44.5)) {
            if ((input[0]) >= (6.0)) {
                var60 = 0.0190448;
            } else {
                var60 = -0.064850144;
            }
        } else {
            if ((input[57]) >= (0.05895)) {
                var60 = 0.006847355;
            } else {
                var60 = -0.09998812;
            }
        }
    }
    double var61;
    if ((input[12]) >= (0.14515)) {
        if ((input[64]) >= (40.5)) {
            if ((input[71]) >= (5014.5)) {
                var61 = 0.022276413;
            } else {
                var61 = -0.026796177;
            }
        } else {
            if ((input[71]) >= (605.5)) {
                var61 = 0.058623154;
            } else {
                var61 = 0.0037127677;
            }
        }
    } else {
        if ((input[64]) >= (44.5)) {
            if ((input[66]) >= (106338.0)) {
                var61 = 0.13205509;
            } else {
                var61 = -0.0716286;
            }
        } else {
            if ((input[47]) >= (0.98485)) {
                var61 = 0.04704858;
            } else {
                var61 = -0.013361878;
            }
        }
    }
    double var62;
    if ((input[37]) >= (0.5)) {
        if ((input[0]) >= (6.0)) {
            if ((input[66]) >= (337.5)) {
                var62 = 0.041981947;
            } else {
                var62 = -0.033080187;
            }
        } else {
            if ((input[47]) >= (0.28785)) {
                var62 = 0.009295749;
            } else {
                var62 = -0.026690414;
            }
        }
    } else {
        if ((input[60]) >= (0.1102)) {
            if ((input[71]) >= (66673.0)) {
                var62 = 0.10345042;
            } else {
                var62 = 0.02452449;
            }
        } else {
            if ((input[24]) >= (0.225)) {
                var62 = -0.16269815;
            } else {
                var62 = -0.03326011;
            }
        }
    }
    double var63;
    if ((input[70]) >= (26.5)) {
        if ((input[71]) >= (984.5)) {
            if ((input[61]) >= (0.86765003)) {
                var63 = -0.04979324;
            } else {
                var63 = 0.081002004;
            }
        } else {
            if ((input[47]) >= (0.01515)) {
                var63 = 0.0076733367;
            } else {
                var63 = 0.064314134;
            }
        }
    } else {
        if ((input[57]) >= (0.060000002)) {
            if ((input[0]) >= (6.0)) {
                var63 = 0.02421296;
            } else {
                var63 = -0.007939646;
            }
        } else {
            if ((input[18]) >= (4.5)) {
                var63 = -0.04485616;
            } else {
                var63 = -0.10873031;
            }
        }
    }
    double var64;
    if ((input[1]) >= (0.0167)) {
        if ((input[64]) >= (40.5)) {
            if ((input[66]) >= (8629.5)) {
                var64 = 0.021248015;
            } else {
                var64 = -0.0219276;
            }
        } else {
            if ((input[71]) >= (605.5)) {
                var64 = 0.054233372;
            } else {
                var64 = -0.0033065346;
            }
        }
    } else {
        if ((input[47]) >= (0.28785)) {
            if ((input[33]) >= (0.1)) {
                var64 = -0.013253758;
            } else {
                var64 = 0.08536855;
            }
        } else {
            if ((input[0]) >= (3.0)) {
                var64 = 0.0023729582;
            } else {
                var64 = -0.085054725;
            }
        }
    }
    double var65;
    if ((input[49]) >= (2.29165)) {
        if ((input[61]) >= (0.045649998)) {
            if ((input[70]) >= (2.5)) {
                var65 = 0.04210469;
            } else {
                var65 = 0.09810025;
            }
        } else {
            if ((input[46]) >= (4.0708)) {
                var65 = -0.0008250801;
            } else {
                var65 = -0.09029502;
            }
        }
    } else {
        if ((input[70]) >= (7.5)) {
            if ((input[57]) >= (0.74895)) {
                var65 = 0.036378212;
            } else {
                var65 = -0.04101977;
            }
        } else {
            if ((input[0]) >= (6.0)) {
                var65 = 0.016031787;
            } else {
                var65 = -0.017958147;
            }
        }
    }
    double var66;
    if ((input[71]) >= (3368.5)) {
        if ((input[64]) >= (45.5)) {
            if ((input[71]) >= (15334.0)) {
                var66 = 0.012997294;
            } else {
                var66 = -0.047511768;
            }
        } else {
            if ((input[12]) >= (0.24329999)) {
                var66 = 0.052537628;
            } else {
                var66 = 0.0069102864;
            }
        }
    } else {
        if ((input[64]) >= (43.5)) {
            if ((input[47]) >= (0.07575)) {
                var66 = 0.0030934678;
            } else {
                var66 = -0.07370663;
            }
        } else {
            if ((input[57]) >= (0.05625)) {
                var66 = 0.0012909445;
            } else {
                var66 = -0.08908411;
            }
        }
    }
    double var67;
    if ((input[71]) >= (199898.0)) {
        if ((input[56]) >= (1587.9824)) {
            if ((input[16]) >= (2.325)) {
                var67 = 0.088873215;
            } else {
                var67 = -0.0006896407;
            }
        } else {
            if ((input[61]) >= (0.05435)) {
                var67 = 0.106898546;
            } else {
                var67 = -0.012408318;
            }
        }
    } else {
        if ((input[64]) >= (47.5)) {
            if ((input[12]) >= (2.39115)) {
                var67 = -0.0029403146;
            } else {
                var67 = -0.072822005;
            }
        } else {
            if ((input[71]) >= (3368.5)) {
                var67 = 0.024293361;
            } else {
                var67 = -0.006216318;
            }
        }
    }
    double var68;
    if ((input[70]) >= (19.5)) {
        if ((input[46]) >= (3.2178)) {
            if ((input[60]) >= (0.25245)) {
                var68 = 0.057497155;
            } else {
                var68 = -0.052233674;
            }
        } else {
            if ((input[66]) >= (4387.0)) {
                var68 = -0.1855237;
            } else {
                var68 = -0.005801331;
            }
        }
    } else {
        if ((input[71]) >= (39336.0)) {
            if ((input[62]) >= (1498.6306)) {
                var68 = -0.023015102;
            } else {
                var68 = 0.051872052;
            }
        } else {
            if ((input[64]) >= (47.5)) {
                var68 = -0.060885735;
            } else {
                var68 = -0.0009575531;
            }
        }
    }
    double var69;
    if ((input[32]) >= (1.5)) {
        if ((input[12]) >= (0.0282)) {
            if ((input[66]) >= (30503.0)) {
                var69 = 0.07516322;
            } else {
                var69 = 0.030508876;
            }
        } else {
            if ((input[57]) >= (3.55035)) {
                var69 = 0.04492994;
            } else {
                var69 = -0.027852941;
            }
        }
    } else {
        if ((input[0]) >= (6.0)) {
            if ((input[71]) >= (173.5)) {
                var69 = 0.032262456;
            } else {
                var69 = -0.044968616;
            }
        } else {
            if ((input[47]) >= (0.95455)) {
                var69 = 0.033747207;
            } else {
                var69 = -0.015936777;
            }
        }
    }
    double var70;
    if ((input[37]) >= (0.5)) {
        if ((input[0]) >= (1.5)) {
            if ((input[66]) >= (663.5)) {
                var70 = 0.01643881;
            } else {
                var70 = -0.027372027;
            }
        } else {
            if ((input[47]) >= (0.98485)) {
                var70 = 0.037195217;
            } else {
                var70 = -0.0281292;
            }
        }
    } else {
        if ((input[46]) >= (4.0019503)) {
            if ((input[14]) >= (0.29165)) {
                var70 = 0.013126443;
            } else {
                var70 = 0.051255465;
            }
        } else {
            if ((input[66]) >= (182.5)) {
                var70 = -0.026563033;
            } else {
                var70 = -0.1411048;
            }
        }
    }
    double var71;
    if ((input[57]) >= (0.28935)) {
        if ((input[49]) >= (2.29165)) {
            if ((input[61]) >= (0.045649998)) {
                var71 = 0.052113503;
            } else {
                var71 = -0.0059883776;
            }
        } else {
            if ((input[0]) >= (6.0)) {
                var71 = 0.0184579;
            } else {
                var71 = -0.009745961;
            }
        }
    } else {
        if ((input[47]) >= (0.98485)) {
            if ((input[55]) >= (127.936905)) {
                var71 = -0.070606016;
            } else {
                var71 = 0.084190734;
            }
        } else {
            if ((input[51]) >= (3.5)) {
                var71 = -0.048770685;
            } else {
                var71 = -0.088986665;
            }
        }
    }
    double var72;
    if ((input[71]) >= (12887.0)) {
        if ((input[64]) >= (49.5)) {
            if ((input[71]) >= (65956.0)) {
                var72 = 0.0092015825;
            } else {
                var72 = -0.100280896;
            }
        } else {
            if ((input[1]) >= (0.00035000002)) {
                var72 = 0.037116528;
            } else {
                var72 = -0.038416382;
            }
        }
    } else {
        if ((input[64]) >= (45.5)) {
            if ((input[0]) >= (6.0)) {
                var72 = 0.016344575;
            } else {
                var72 = -0.07671215;
            }
        } else {
            if ((input[3]) >= (0.29165)) {
                var72 = -0.0070442767;
            } else {
                var72 = 0.01996987;
            }
        }
    }
    double var73;
    if ((input[64]) >= (40.5)) {
        if ((input[71]) >= (3351.5)) {
            if ((input[64]) >= (45.5)) {
                var73 = -0.008096742;
            } else {
                var73 = 0.026600717;
            }
        } else {
            if ((input[47]) >= (0.07575)) {
                var73 = -0.00081037654;
            } else {
                var73 = -0.042674664;
            }
        }
    } else {
        if ((input[71]) >= (334.5)) {
            if ((input[12]) >= (0.01525)) {
                var73 = 0.04302026;
            } else {
                var73 = 0.0087767085;
            }
        } else {
            if ((input[46]) >= (4.5088997)) {
                var73 = -0.008289749;
            } else {
                var73 = -0.053073496;
            }
        }
    }
    double var74;
    if ((input[71]) >= (199898.0)) {
        if ((input[56]) >= (1587.9824)) {
            if ((input[16]) >= (2.325)) {
                var74 = 0.08592545;
            } else {
                var74 = -0.0018826615;
            }
        } else {
            if ((input[61]) >= (0.05435)) {
                var74 = 0.10303906;
            } else {
                var74 = -0.02031426;
            }
        }
    } else {
        if ((input[64]) >= (49.5)) {
            if ((input[3]) >= (1.1)) {
                var74 = -0.27855492;
            } else {
                var74 = -0.063146636;
            }
        } else {
            if ((input[14]) >= (0.29165)) {
                var74 = -0.0073108333;
            } else {
                var74 = 0.014531085;
            }
        }
    }
    double var75;
    if ((input[70]) >= (26.5)) {
        if ((input[71]) >= (984.5)) {
            if ((input[61]) >= (0.034649998)) {
                var75 = 0.07705354;
            } else {
                var75 = 0.0024980244;
            }
        } else {
            if ((input[12]) >= (13.7815)) {
                var75 = -0.021230638;
            } else {
                var75 = 0.04492374;
            }
        }
    } else {
        if ((input[57]) >= (0.060000002)) {
            if ((input[64]) >= (40.5)) {
                var75 = -0.008196427;
            } else {
                var75 = 0.012669288;
            }
        } else {
            if ((input[18]) >= (4.5)) {
                var75 = -0.025417676;
            } else {
                var75 = -0.09767003;
            }
        }
    }
    double var76;
    if ((input[71]) >= (22761.5)) {
        if ((input[12]) >= (10.39415)) {
            if ((input[33]) >= (0.1)) {
                var76 = 0.07084229;
            } else {
                var76 = 0.15289913;
            }
        } else {
            if ((input[64]) >= (45.5)) {
                var76 = 0.0026087584;
            } else {
                var76 = 0.07032847;
            }
        }
    } else {
        if ((input[64]) >= (46.5)) {
            if ((input[71]) >= (-3984.0)) {
                var76 = -0.061576456;
            } else {
                var76 = 0.16365223;
            }
        } else {
            if ((input[71]) >= (2182.5)) {
                var76 = 0.014798777;
            } else {
                var76 = -0.007360503;
            }
        }
    }
    double var77;
    if ((input[12]) >= (0.14515)) {
        if ((input[61]) >= (0.02925)) {
            if ((input[49]) >= (0.875)) {
                var77 = 0.033359982;
            } else {
                var77 = 0.0028785958;
            }
        } else {
            if ((input[46]) >= (4.0099497)) {
                var77 = -0.013346642;
            } else {
                var77 = -0.08170228;
            }
        }
    } else {
        if ((input[58]) >= (21.648499)) {
            if ((input[71]) >= (62837.5)) {
                var77 = 0.07809927;
            } else {
                var77 = -0.043956965;
            }
        } else {
            if ((input[71]) >= (413.5)) {
                var77 = 0.021766389;
            } else {
                var77 = -0.024798803;
            }
        }
    }
    double var78;
    if ((input[33]) >= (1.45)) {
        if ((input[66]) >= (608.5)) {
            if ((input[24]) >= (1.29165)) {
                var78 = 0.07992858;
            } else {
                var78 = 0.032830104;
            }
        } else {
            if ((input[62]) >= (0.45735002)) {
                var78 = 0.0138490945;
            } else {
                var78 = -0.10603771;
            }
        }
    } else {
        if ((input[3]) >= (0.29165)) {
            if ((input[24]) >= (0.1)) {
                var78 = -0.01998676;
            } else {
                var78 = 0.00854313;
            }
        } else {
            if ((input[71]) >= (908.5)) {
                var78 = 0.025907317;
            } else {
                var78 = -0.014115703;
            }
        }
    }
    double var79;
    if ((input[64]) >= (40.5)) {
        if ((input[71]) >= (5265.5)) {
            if ((input[12]) >= (2.2536502)) {
                var79 = 0.028377179;
            } else {
                var79 = -0.0067018303;
            }
        } else {
            if ((input[47]) >= (0.95455)) {
                var79 = 0.02767905;
            } else {
                var79 = -0.02673298;
            }
        }
    } else {
        if ((input[71]) >= (573.5)) {
            if ((input[1]) >= (0.07045)) {
                var79 = 0.046743136;
            } else {
                var79 = 0.012285036;
            }
        } else {
            if ((input[66]) >= (177.5)) {
                var79 = 0.0031066914;
            } else {
                var79 = -0.033816297;
            }
        }
    }
    double var80;
    if ((input[64]) >= (43.5)) {
        if ((input[66]) >= (15191.5)) {
            if ((input[57]) >= (4.50705)) {
                var80 = -0.07972821;
            } else {
                var80 = 0.016255207;
            }
        } else {
            if ((input[0]) >= (1.5)) {
                var80 = -0.0154063925;
            } else {
                var80 = -0.059042346;
            }
        }
    } else {
        if ((input[66]) >= (1855.5)) {
            if ((input[3]) >= (0.29165)) {
                var80 = 0.016111372;
            } else {
                var80 = 0.06314932;
            }
        } else {
            if ((input[58]) >= (94.990555)) {
                var80 = -0.06258467;
            } else {
                var80 = 0.00008797399;
            }
        }
    }
    double var81;
    if ((input[71]) >= (199898.0)) {
        if ((input[56]) >= (1587.9824)) {
            if ((input[64]) >= (50.5)) {
                var81 = -0.0350351;
            } else {
                var81 = 0.06118538;
            }
        } else {
            if ((input[55]) >= (124.6688)) {
                var81 = 0.02377977;
            } else {
                var81 = 0.10821878;
            }
        }
    } else {
        if ((input[64]) >= (49.5)) {
            if ((input[12]) >= (19.14735)) {
                var81 = 0.057492804;
            } else {
                var81 = -0.07902559;
            }
        } else {
            if ((input[14]) >= (0.29165)) {
                var81 = -0.0074661346;
            } else {
                var81 = 0.014982009;
            }
        }
    }
    double var82;
    if ((input[37]) >= (0.5)) {
        if ((input[70]) >= (9.5)) {
            if ((input[46]) >= (3.18755)) {
                var82 = 0.033831846;
            } else {
                var82 = -0.08701992;
            }
        } else {
            if ((input[0]) >= (6.0)) {
                var82 = 0.013260135;
            } else {
                var82 = -0.013667098;
            }
        }
    } else {
        if ((input[71]) >= (66673.0)) {
            if ((input[5]) >= (4.45)) {
                var82 = 0.048282895;
            } else {
                var82 = 0.12505966;
            }
        } else {
            if ((input[63]) >= (0.99995)) {
                var82 = -0.01157238;
            } else {
                var82 = 0.023278477;
            }
        }
    }
    double var83;
    if ((input[47]) >= (0.98485)) {
        if ((input[47]) >= (1.0151501)) {
            if ((input[47]) >= (1.25755)) {
                var83 = 0.027931143;
            } else {
                var83 = -0.030309662;
            }
        } else {
            if ((input[70]) >= (1.5)) {
                var83 = -0.0065192915;
            } else {
                var83 = 0.09538587;
            }
        }
    } else {
        if ((input[1]) >= (0.0133)) {
            if ((input[24]) >= (0.1)) {
                var83 = -0.006470208;
            } else {
                var83 = 0.02296501;
            }
        } else {
            if ((input[0]) >= (3.0)) {
                var83 = 0.00092554325;
            } else {
                var83 = -0.055918884;
            }
        }
    }
    double var84;
    if ((input[64]) >= (45.5)) {
        if ((input[66]) >= (15769.0)) {
            if ((input[3]) >= (0.55)) {
                var84 = -0.025478745;
            } else {
                var84 = 0.029635796;
            }
        } else {
            if ((input[0]) >= (6.0)) {
                var84 = 0.01439012;
            } else {
                var84 = -0.06989471;
            }
        }
    } else {
        if ((input[71]) >= (6900.5)) {
            if ((input[12]) >= (0.066300005)) {
                var84 = 0.0503555;
            } else {
                var84 = -0.00015847826;
            }
        } else {
            if ((input[3]) >= (0.29165)) {
                var84 = -0.008994216;
            } else {
                var84 = 0.016137771;
            }
        }
    }
    double var85;
    if ((input[71]) >= (199898.0)) {
        if ((input[57]) >= (2.85905)) {
            if ((input[66]) >= (650390.5)) {
                var85 = 0.09916681;
            } else {
                var85 = 0.03340939;
            }
        } else {
            if ((input[28]) >= (2.5)) {
                var85 = 0.15353398;
            } else {
                var85 = 0.015370841;
            }
        }
    } else {
        if ((input[64]) >= (48.5)) {
            if ((input[3]) >= (1.36665)) {
                var85 = -0.20152132;
            } else {
                var85 = -0.034137685;
            }
        } else {
            if ((input[14]) >= (0.29165)) {
                var85 = -0.0054121776;
            } else {
                var85 = 0.015392645;
            }
        }
    }
    double var86;
    if ((input[57]) >= (0.060000002)) {
        if ((input[49]) >= (2.29165)) {
            if ((input[70]) >= (2.5)) {
                var86 = 0.0073109055;
            } else {
                var86 = 0.06813092;
            }
        } else {
            if ((input[42]) >= (3.5)) {
                var86 = -0.008431968;
            } else {
                var86 = 0.013651753;
            }
        }
    } else {
        if ((input[18]) >= (4.5)) {
            if ((input[47]) >= (0.2727)) {
                var86 = 0.11529409;
            } else {
                var86 = -0.08986672;
            }
        } else {
            if ((input[70]) >= (32.0)) {
                var86 = 0.048450425;
            } else {
                var86 = -0.09086838;
            }
        }
    }
    double var87;
    if ((input[71]) >= (50130.5)) {
        if ((input[58]) >= (649.5345)) {
            if ((input[57]) >= (3.02405)) {
                var87 = -0.00825363;
            } else {
                var87 = 0.067112245;
            }
        } else {
            if ((input[12]) >= (0.6173)) {
                var87 = 0.12573029;
            } else {
                var87 = 0.019498235;
            }
        }
    } else {
        if ((input[64]) >= (48.5)) {
            if ((input[0]) >= (6.0)) {
                var87 = 0.0031624683;
            } else {
                var87 = -0.0901645;
            }
        } else {
            if ((input[14]) >= (0.225)) {
                var87 = -0.005710014;
            } else {
                var87 = 0.013724436;
            }
        }
    }
    double var88;
    if ((input[64]) >= (40.5)) {
        if ((input[66]) >= (5383.0)) {
            if ((input[24]) >= (0.1)) {
                var88 = -0.0059928047;
            } else {
                var88 = 0.02416567;
            }
        } else {
            if ((input[56]) >= (409.24384)) {
                var88 = -0.10173096;
            } else {
                var88 = -0.015789963;
            }
        }
    } else {
        if ((input[71]) >= (573.5)) {
            if ((input[3]) >= (0.29165)) {
                var88 = 0.02274262;
            } else {
                var88 = 0.06422346;
            }
        } else {
            if ((input[66]) >= (152.5)) {
                var88 = 0.001143927;
            } else {
                var88 = -0.034362253;
            }
        }
    }
    double var89;
    if ((input[64]) >= (43.5)) {
        if ((input[66]) >= (5386.5)) {
            if ((input[14]) >= (0.36665)) {
                var89 = -0.016281074;
            } else {
                var89 = 0.02246768;
            }
        } else {
            if ((input[47]) >= (0.28785)) {
                var89 = 0.0037501757;
            } else {
                var89 = -0.0601757;
            }
        }
    } else {
        if ((input[71]) >= (2082.5)) {
            if ((input[1]) >= (0.09925)) {
                var89 = 0.03981908;
            } else {
                var89 = -0.0012365234;
            }
        } else {
            if ((input[64]) >= (38.5)) {
                var89 = -0.012192228;
            } else {
                var89 = 0.014776118;
            }
        }
    }
    double var90;
    if ((input[71]) >= (199898.0)) {
        if ((input[57]) >= (4.55445)) {
            if ((input[64]) >= (49.5)) {
                var90 = -0.10572519;
            } else {
                var90 = 0.063929394;
            }
        } else {
            if ((input[61]) >= (0.05435)) {
                var90 = 0.07243028;
            } else {
                var90 = -0.035699572;
            }
        }
    } else {
        if ((input[57]) >= (4.44985)) {
            if ((input[37]) >= (0.5)) {
                var90 = -0.12262865;
            } else {
                var90 = 0.07058828;
            }
        } else {
            if ((input[64]) >= (49.5)) {
                var90 = -0.053991385;
            } else {
                var90 = 0.0012320125;
            }
        }
    }
    double var91;
    if ((input[47]) >= (0.98485)) {
        if ((input[47]) >= (1.0151501)) {
            if ((input[47]) >= (1.92425)) {
                var91 = 0.06872835;
            } else {
                var91 = -0.0052956603;
            }
        } else {
            if ((input[70]) >= (1.5)) {
                var91 = -0.005606577;
            } else {
                var91 = 0.09264799;
            }
        }
    } else {
        if ((input[12]) >= (0.00035000002)) {
            if ((input[3]) >= (0.29165)) {
                var91 = -0.0067178854;
            } else {
                var91 = 0.019822385;
            }
        } else {
            if ((input[47]) >= (0.28785)) {
                var91 = 0.023679411;
            } else {
                var91 = -0.038659807;
            }
        }
    }
    double var92;
    if ((input[62]) >= (0.06765)) {
        if ((input[64]) >= (38.5)) {
            if ((input[62]) >= (0.19154999)) {
                var92 = -0.003815462;
            } else {
                var92 = 0.09720556;
            }
        } else {
            if ((input[66]) >= (148.5)) {
                var92 = 0.03202602;
            } else {
                var92 = -0.037154924;
            }
        }
    } else {
        if ((input[47]) >= (0.2727)) {
            if ((input[55]) >= (47.4397)) {
                var92 = -0.08358319;
            } else {
                var92 = 0.08105984;
            }
        } else {
            if ((input[3]) >= (0.55)) {
                var92 = -0.14534138;
            } else {
                var92 = -0.082228236;
            }
        }
    }
    double var93;
    if ((input[71]) >= (39336.0)) {
        if ((input[57]) >= (2.38805)) {
            if ((input[64]) >= (47.5)) {
                var93 = -0.0075335214;
            } else {
                var93 = 0.05256998;
            }
        } else {
            if ((input[70]) >= (4.5)) {
                var93 = 0.03472016;
            } else {
                var93 = 0.11807954;
            }
        }
    } else {
        if ((input[64]) >= (47.5)) {
            if ((input[33]) >= (0.1)) {
                var93 = -0.022780044;
            } else {
                var93 = -0.078280866;
            }
        } else {
            if ((input[14]) >= (0.29165)) {
                var93 = -0.005211794;
            } else {
                var93 = 0.0133311;
            }
        }
    }
    double var94;
    if ((input[70]) >= (27.5)) {
        if ((input[71]) >= (984.5)) {
            if ((input[61]) >= (0.86765003)) {
                var94 = -0.09375613;
            } else {
                var94 = 0.06473314;
            }
        } else {
            if ((input[70]) >= (59.5)) {
                var94 = -0.0025036538;
            } else {
                var94 = 0.07024054;
            }
        }
    } else {
        if ((input[59]) >= (0.95505)) {
            if ((input[71]) >= (56884.0)) {
                var94 = 0.029342338;
            } else {
                var94 = -0.010170258;
            }
        } else {
            if ((input[66]) >= (371.5)) {
                var94 = 0.019655887;
            } else {
                var94 = -0.013747716;
            }
        }
    }
    double var95;
    if ((input[64]) >= (44.5)) {
        if ((input[71]) >= (8962.5)) {
            if ((input[12]) >= (2.39115)) {
                var95 = 0.024385294;
            } else {
                var95 = -0.016431538;
            }
        } else {
            if ((input[71]) >= (-3557.5)) {
                var95 = -0.033130836;
            } else {
                var95 = 0.1797068;
            }
        }
    } else {
        if ((input[71]) >= (3191.0)) {
            if ((input[12]) >= (0.24814999)) {
                var95 = 0.04505192;
            } else {
                var95 = 0.004573399;
            }
        } else {
            if ((input[58]) >= (74.7563)) {
                var95 = -0.03179403;
            } else {
                var95 = 0.0040327176;
            }
        }
    }
    double var96;
    if ((input[60]) >= (0.0673)) {
        if ((input[0]) >= (6.0)) {
            if ((input[3]) >= (0.45)) {
                var96 = -0.0067413165;
            } else {
                var96 = 0.034447588;
            }
        } else {
            if ((input[64]) >= (45.5)) {
                var96 = -0.023088826;
            } else {
                var96 = 0.0028235929;
            }
        }
    } else {
        if ((input[47]) >= (0.2727)) {
            if ((input[55]) >= (61.0)) {
                var96 = -0.07335301;
            } else {
                var96 = 0.063068025;
            }
        } else {
            if ((input[66]) >= (6172.0)) {
                var96 = -0.010354729;
            } else {
                var96 = -0.09918817;
            }
        }
    }
    double var97;
    if ((input[1]) >= (0.03575)) {
        if ((input[24]) >= (0.1)) {
            if ((input[64]) >= (40.5)) {
                var97 = -0.013705132;
            } else {
                var97 = 0.018344983;
            }
        } else {
            if ((input[71]) >= (1154.0)) {
                var97 = 0.035103768;
            } else {
                var97 = -0.013727747;
            }
        }
    } else {
        if ((input[47]) >= (0.28785)) {
            if ((input[33]) >= (0.1)) {
                var97 = -0.015893715;
            } else {
                var97 = 0.07902827;
            }
        } else {
            if ((input[0]) >= (3.0)) {
                var97 = 0.004144792;
            } else {
                var97 = -0.064901195;
            }
        }
    }
    double var98;
    if ((input[71]) >= (-187.5)) {
        if ((input[71]) >= (1104.5)) {
            if ((input[64]) >= (40.5)) {
                var98 = -0.0007581979;
            } else {
                var98 = 0.030767305;
            }
        } else {
            if ((input[47]) >= (0.28785)) {
                var98 = 0.004439893;
            } else {
                var98 = -0.027108151;
            }
        }
    } else {
        if ((input[33]) >= (0.1)) {
            if ((input[20]) >= (2.5)) {
                var98 = -0.022023695;
            } else {
                var98 = 0.11043189;
            }
        } else {
            if ((input[47]) >= (0.25755)) {
                var98 = 0.018285709;
            } else {
                var98 = -0.0851098;
            }
        }
    }
    double var99;
    if ((input[71]) >= (199898.0)) {
        if ((input[56]) >= (1587.9824)) {
            if ((input[66]) >= (683184.0)) {
                var99 = 0.09497329;
            } else {
                var99 = -0.006048945;
            }
        } else {
            if ((input[55]) >= (124.6688)) {
                var99 = 0.009855781;
            } else {
                var99 = 0.097820096;
            }
        }
    } else {
        if ((input[57]) >= (4.44985)) {
            if ((input[37]) >= (0.5)) {
                var99 = -0.109597065;
            } else {
                var99 = 0.06633884;
            }
        } else {
            if ((input[64]) >= (48.5)) {
                var99 = -0.029639928;
            } else {
                var99 = 0.0019275204;
            }
        }
    }
    double var100;
    var100 = (1.0) / ((1.0) + (exp((0.0) - ((((((((((((((((((((((((((((((((((((((((((((((((((((((((((((((((((((((((((((((((((((((((((((((((((((var0) + (var1)) + (var2)) + (var3)) + (var4)) + (var5)) + (var6)) + (var7)) + (var8)) + (var9)) + (var10)) + (var11)) + (var12)) + (var13)) + (var14)) + (var15)) + (var16)) + (var17)) + (var18)) + (var19)) + (var20)) + (var21)) + (var22)) + (var23)) + (var24)) + (var25)) + (var26)) + (var27)) + (var28)) + (var29)) + (var30)) + (var31)) + (var32)) + (var33)) + (var34)) + (var35)) + (var36)) + (var37)) + (var38)) + (var39)) + (var40)) + (var41)) + (var42)) + (var43)) + (var44)) + (var45)) + (var46)) + (var47)) + (var48)) + (var49)) + (var50)) + (var51)) + (var52)) + (var53)) + (var54)) + (var55)) + (var56)) + (var57)) + (var58)) + (var59)) + (var60)) + (var61)) + (var62)) + (var63)) + (var64)) + (var65)) + (var66)) + (var67)) + (var68)) + (var69)) + (var70)) + (var71)) + (var72)) + (var73)) + (var74)) + (var75)) + (var76)) + (var77)) + (var78)) + (var79)) + (var80)) + (var81)) + (var82)) + (var83)) + (var84)) + (var85)) + (var86)) + (var87)) + (var88)) + (var89)) + (var90)) + (var91)) + (var92)) + (var93)) + (var94)) + (var95)) + (var96)) + (var97)) + (var98)) + (var99)))));
    memcpy(output, (double[]){(1.0) - (var100), var100}, 2 * sizeof(double));
}
