#include <math.h>
#include <string.h>
void score(double * input, double * output) {
    double var0;
    if ((input[60]) >= (2.5)) {
        if ((input[60]) >= (7.5)) {
            if ((input[60]) >= (13.5)) {
                var0 = -0.17476486;
            } else {
                var0 = -0.12518509;
            }
        } else {
            if ((input[60]) >= (4.5)) {
                var0 = -0.065671;
            } else {
                var0 = -0.009885817;
            }
        }
    } else {
        if ((input[61]) >= (400.5)) {
            if ((input[61]) >= (5077.5)) {
                var0 = -0.011931102;
            } else {
                var0 = 0.056883957;
            }
        } else {
            if ((input[61]) >= (57.5)) {
                var0 = 0.13735625;
            } else {
                var0 = 0.19363602;
            }
        }
    }
    double var1;
    if ((input[60]) >= (2.5)) {
        if ((input[60]) >= (7.5)) {
            if ((input[60]) >= (12.5)) {
                var1 = -0.15750726;
            } else {
                var1 = -0.1094988;
            }
        } else {
            if ((input[40]) >= (1.5)) {
                var1 = -0.010155753;
            } else {
                var1 = -0.063556604;
            }
        }
    } else {
        if ((input[61]) >= (472.5)) {
            if ((input[54]) >= (40.5)) {
                var1 = 0.0547675;
            } else {
                var1 = -0.01627479;
            }
        } else {
            if ((input[61]) >= (80.5)) {
                var1 = 0.1163724;
            } else {
                var1 = 0.17471516;
            }
        }
    }
    double var2;
    if ((input[60]) >= (3.5)) {
        if ((input[60]) >= (9.5)) {
            if ((input[39]) >= (6.58335)) {
                var2 = -0.15031219;
            } else {
                var2 = -0.12347058;
            }
        } else {
            if ((input[60]) >= (5.5)) {
                var2 = -0.07466714;
            } else {
                var2 = -0.026703639;
            }
        }
    } else {
        if ((input[61]) >= (488.5)) {
            if ((input[54]) >= (40.5)) {
                var2 = 0.042623814;
            } else {
                var2 = -0.018509692;
            }
        } else {
            if ((input[60]) >= (1.5)) {
                var2 = 0.07532926;
            } else {
                var2 = 0.15769474;
            }
        }
    }
    double var3;
    if ((input[60]) >= (2.5)) {
        if ((input[60]) >= (8.5)) {
            if ((input[60]) >= (13.5)) {
                var3 = -0.13565464;
            } else {
                var3 = -0.09807482;
            }
        } else {
            if ((input[60]) >= (4.5)) {
                var3 = -0.05426926;
            } else {
                var3 = -0.0055253073;
            }
        }
    } else {
        if ((input[61]) >= (223.5)) {
            if ((input[61]) >= (5057.5)) {
                var3 = -0.017900094;
            } else {
                var3 = 0.0526087;
            }
        } else {
            if ((input[43]) >= (1.5)) {
                var3 = 0.07659771;
            } else {
                var3 = 0.15012859;
            }
        }
    }
    double var4;
    if ((input[60]) >= (3.5)) {
        if ((input[60]) >= (9.5)) {
            if ((input[40]) >= (1.5)) {
                var4 = -0.10241293;
            } else {
                var4 = -0.12997577;
            }
        } else {
            if ((input[40]) >= (1.5)) {
                var4 = -0.022101138;
            } else {
                var4 = -0.06442111;
            }
        }
    } else {
        if ((input[61]) >= (289.5)) {
            if ((input[61]) >= (5099.5)) {
                var4 = -0.023429597;
            } else {
                var4 = 0.03952527;
            }
        } else {
            if ((input[41]) >= (0.5)) {
                var4 = 0.13664149;
            } else {
                var4 = 0.008588126;
            }
        }
    }
    double var5;
    if ((input[60]) >= (2.5)) {
        if ((input[57]) >= (0.5)) {
            if ((input[40]) >= (1.5)) {
                var5 = -0.0052923188;
            } else {
                var5 = -0.05076949;
            }
        } else {
            if ((input[60]) >= (14.5)) {
                var5 = -0.120334364;
            } else {
                var5 = -0.08537926;
            }
        }
    } else {
        if ((input[61]) >= (142.5)) {
            if ((input[61]) >= (3149.0)) {
                var5 = -0.0062770443;
            } else {
                var5 = 0.052361216;
            }
        } else {
            if ((input[60]) >= (1.5)) {
                var5 = 0.0776219;
            } else {
                var5 = 0.13775687;
            }
        }
    }
    double var6;
    if ((input[60]) >= (2.5)) {
        if ((input[60]) >= (7.5)) {
            if ((input[60]) >= (13.5)) {
                var6 = -0.11275692;
            } else {
                var6 = -0.07336116;
            }
        } else {
            if ((input[40]) >= (1.5)) {
                var6 = -0.0019999433;
            } else {
                var6 = -0.043059163;
            }
        }
    } else {
        if ((input[61]) >= (115.5)) {
            if ((input[54]) >= (37.5)) {
                var6 = 0.040299214;
            } else {
                var6 = -0.02990973;
            }
        } else {
            if ((input[43]) >= (1.5)) {
                var6 = 0.06089852;
            } else {
                var6 = 0.13163243;
            }
        }
    }
    double var7;
    if ((input[60]) >= (4.5)) {
        if ((input[60]) >= (11.5)) {
            if ((input[39]) >= (6.58335)) {
                var7 = -0.114100866;
            } else {
                var7 = -0.088355936;
            }
        } else {
            if ((input[47]) >= (2.34565)) {
                var7 = -0.018985337;
            } else {
                var7 = -0.0633431;
            }
        }
    } else {
        if ((input[61]) >= (560.5)) {
            if ((input[54]) >= (40.5)) {
                var7 = 0.027224991;
            } else {
                var7 = -0.029081315;
            }
        } else {
            if ((input[40]) >= (1.5)) {
                var7 = 0.11694046;
            } else {
                var7 = 0.02810947;
            }
        }
    }
    double var8;
    if ((input[60]) >= (1.5)) {
        if ((input[60]) >= (6.5)) {
            if ((input[60]) >= (13.5)) {
                var8 = -0.10135549;
            } else {
                var8 = -0.060124297;
            }
        } else {
            if ((input[61]) >= (3511.5)) {
                var8 = -0.039148096;
            } else {
                var8 = 0.013284044;
            }
        }
    } else {
        if ((input[61]) >= (161.5)) {
            if ((input[54]) >= (37.5)) {
                var8 = 0.04521063;
            } else {
                var8 = -0.03747297;
            }
        } else {
            if ((input[54]) >= (35.5)) {
                var8 = 0.12700409;
            } else {
                var8 = 0.08679124;
            }
        }
    }
    double var9;
    if ((input[60]) >= (1.5)) {
        if ((input[60]) >= (6.5)) {
            if ((input[60]) >= (13.5)) {
                var9 = -0.096291;
            } else {
                var9 = -0.05522408;
            }
        } else {
            if ((input[61]) >= (2797.5)) {
                var9 = -0.03261846;
            } else {
                var9 = 0.014004171;
            }
        }
    } else {
        if ((input[61]) >= (102.5)) {
            if ((input[61]) >= (10661.5)) {
                var9 = -0.031339124;
            } else {
                var9 = 0.042815745;
            }
        } else {
            if ((input[54]) >= (35.5)) {
                var9 = 0.1244747;
            } else {
                var9 = 0.090532996;
            }
        }
    }
    double var10;
    if ((input[60]) >= (1.5)) {
        if ((input[60]) >= (8.5)) {
            if ((input[39]) >= (6.58335)) {
                var10 = -0.096116655;
            } else {
                var10 = -0.06335167;
            }
        } else {
            if ((input[40]) >= (0.5)) {
                var10 = -0.000035556102;
            } else {
                var10 = -0.051781442;
            }
        }
    } else {
        if ((input[61]) >= (102.5)) {
            if ((input[54]) >= (37.5)) {
                var10 = 0.042012032;
            } else {
                var10 = -0.028859764;
            }
        } else {
            if ((input[54]) >= (35.5)) {
                var10 = 0.12112991;
            } else {
                var10 = 0.086053304;
            }
        }
    }
    double var11;
    if ((input[60]) >= (3.5)) {
        if ((input[60]) >= (11.5)) {
            if ((input[24]) >= (8.0)) {
                var11 = -0.10898413;
            } else {
                var11 = -0.07591759;
            }
        } else {
            if ((input[47]) >= (2.3452501)) {
                var11 = -0.0029436664;
            } else {
                var11 = -0.04206957;
            }
        }
    } else {
        if ((input[61]) >= (93.5)) {
            if ((input[61]) >= (1760.5)) {
                var11 = -0.01044752;
            } else {
                var11 = 0.04253259;
            }
        } else {
            if ((input[43]) >= (1.5)) {
                var11 = 0.017536737;
            } else {
                var11 = 0.11174818;
            }
        }
    }
    double var12;
    if ((input[60]) >= (1.5)) {
        if ((input[60]) >= (10.5)) {
            if ((input[40]) >= (0.5)) {
                var12 = -0.06601437;
            } else {
                var12 = -0.09770944;
            }
        } else {
            if ((input[40]) >= (0.5)) {
                var12 = -0.0017337017;
            } else {
                var12 = -0.04917489;
            }
        }
    } else {
        if ((input[61]) >= (81.5)) {
            if ((input[54]) >= (37.5)) {
                var12 = 0.038625635;
            } else {
                var12 = -0.026659457;
            }
        } else {
            if ((input[54]) >= (35.5)) {
                var12 = 0.116554;
            } else {
                var12 = 0.08138927;
            }
        }
    }
    double var13;
    if ((input[60]) >= (4.5)) {
        if ((input[60]) >= (15.5)) {
            if ((input[32]) >= (3.5)) {
                var13 = -0.03913502;
            } else {
                var13 = -0.087209396;
            }
        } else {
            if ((input[47]) >= (2.34425)) {
                var13 = -0.009635212;
            } else {
                var13 = -0.049904015;
            }
        }
    } else {
        if ((input[61]) >= (64.5)) {
            if ((input[61]) >= (6372.5)) {
                var13 = -0.0317489;
            } else {
                var13 = 0.025184369;
            }
        } else {
            if ((input[43]) >= (0.5)) {
                var13 = 0.040108763;
            } else {
                var13 = 0.11291998;
            }
        }
    }
    double var14;
    if ((input[60]) >= (1.5)) {
        if ((input[60]) >= (10.5)) {
            if ((input[24]) >= (8.0)) {
                var14 = -0.09900472;
            } else {
                var14 = -0.061187226;
            }
        } else {
            if ((input[24]) >= (8.0)) {
                var14 = -0.06910907;
            } else {
                var14 = -0.0039332756;
            }
        }
    } else {
        if ((input[61]) >= (229.5)) {
            if ((input[54]) >= (40.5)) {
                var14 = 0.040075026;
            } else {
                var14 = -0.023378896;
            }
        } else {
            if ((input[54]) >= (36.5)) {
                var14 = 0.11135794;
            } else {
                var14 = 0.06264037;
            }
        }
    }
    double var15;
    if ((input[60]) >= (1.5)) {
        if ((input[60]) >= (6.5)) {
            if ((input[60]) >= (15.5)) {
                var15 = -0.07451568;
            } else {
                var15 = -0.037816547;
            }
        } else {
            if ((input[61]) >= (4457.5)) {
                var15 = -0.030119544;
            } else {
                var15 = 0.010967547;
            }
        }
    } else {
        if ((input[61]) >= (49.5)) {
            if ((input[61]) >= (1046.5)) {
                var15 = -0.002081628;
            } else {
                var15 = 0.0509309;
            }
        } else {
            if ((input[54]) >= (35.5)) {
                var15 = 0.1120633;
            } else {
                var15 = 0.084697776;
            }
        }
    }
    double var16;
    if ((input[60]) >= (4.5)) {
        if ((input[60]) >= (15.5)) {
            if ((input[32]) >= (3.5)) {
                var16 = -0.025340555;
            } else {
                var16 = -0.07669272;
            }
        } else {
            if ((input[47]) >= (1.90855)) {
                var16 = -0.010251782;
            } else {
                var16 = -0.04937014;
            }
        }
    } else {
        if ((input[61]) >= (44.5)) {
            if ((input[61]) >= (1670.5)) {
                var16 = -0.01172094;
            } else {
                var16 = 0.032901656;
            }
        } else {
            if ((input[40]) >= (0.5)) {
                var16 = 0.099891685;
            } else {
                var16 = -0.037613776;
            }
        }
    }
    double var17;
    if ((input[1]) >= (1.1953)) {
        if ((input[57]) >= (0.5)) {
            if ((input[54]) >= (36.5)) {
                var17 = 0.0038360532;
            } else {
                var17 = -0.057563614;
            }
        } else {
            if ((input[54]) >= (36.5)) {
                var17 = -0.045662936;
            } else {
                var17 = -0.083865434;
            }
        }
    } else {
        if ((input[60]) >= (1.5)) {
            if ((input[60]) >= (5.5)) {
                var17 = -0.014619017;
            } else {
                var17 = 0.037059244;
            }
        } else {
            if ((input[61]) >= (49.5)) {
                var17 = 0.049862258;
            } else {
                var17 = 0.10762211;
            }
        }
    }
    double var18;
    if ((input[12]) >= (0.0703)) {
        if ((input[60]) >= (5.5)) {
            if ((input[24]) >= (8.0)) {
                var18 = -0.08217959;
            } else {
                var18 = -0.035532575;
            }
        } else {
            if ((input[61]) >= (1046.5)) {
                var18 = -0.009669214;
            } else {
                var18 = 0.03482434;
            }
        }
    } else {
        if ((input[44]) >= (2.5)) {
            if ((input[1]) >= (0.0391)) {
                var18 = 0.078021206;
            } else {
                var18 = 0.1083534;
            }
        } else {
            if ((input[60]) >= (2.5)) {
                var18 = -0.016711032;
            } else {
                var18 = 0.06998733;
            }
        }
    }
    double var19;
    if ((input[40]) >= (2.5)) {
        if ((input[61]) >= (308.5)) {
            if ((input[54]) >= (40.5)) {
                var19 = 0.034060042;
            } else {
                var19 = -0.014911853;
            }
        } else {
            if ((input[54]) >= (35.5)) {
                var19 = 0.09933911;
            } else {
                var19 = 0.02742963;
            }
        }
    } else {
        if ((input[60]) >= (10.5)) {
            if ((input[24]) >= (8.0)) {
                var19 = -0.088948615;
            } else {
                var19 = -0.05187012;
            }
        } else {
            if ((input[12]) >= (2.9453)) {
                var19 = -0.02300044;
            } else {
                var19 = 0.012937632;
            }
        }
    }
    double var20;
    if ((input[1]) >= (0.0703)) {
        if ((input[54]) >= (36.5)) {
            if ((input[61]) >= (1047.5)) {
                var20 = -0.016705178;
            } else {
                var20 = 0.040597998;
            }
        } else {
            if ((input[56]) >= (18.5)) {
                var20 = -0.060131457;
            } else {
                var20 = 0.05589942;
            }
        }
    } else {
        if ((input[44]) >= (1.5)) {
            if ((input[56]) >= (72.5)) {
                var20 = 0.071379304;
            } else {
                var20 = 0.10453039;
            }
        } else {
            if ((input[45]) >= (82.96875)) {
                var20 = -0.06689583;
            } else {
                var20 = 0.03505007;
            }
        }
    }
    double var21;
    if ((input[12]) >= (0.0703)) {
        if ((input[60]) >= (5.5)) {
            if ((input[24]) >= (8.0)) {
                var21 = -0.07432572;
            } else {
                var21 = -0.02932264;
            }
        } else {
            if ((input[61]) >= (10602.0)) {
                var21 = -0.035305258;
            } else {
                var21 = 0.01635657;
            }
        }
    } else {
        if ((input[60]) >= (1.5)) {
            if ((input[51]) >= (0.00135)) {
                var21 = 0.049492966;
            } else {
                var21 = -0.053501662;
            }
        } else {
            if ((input[61]) >= (30.5)) {
                var21 = 0.07024064;
            } else {
                var21 = 0.10609317;
            }
        }
    }
    double var22;
    if ((input[1]) >= (2.4766002)) {
        if ((input[54]) >= (37.5)) {
            if ((input[61]) >= (6372.5)) {
                var22 = -0.027609766;
            } else {
                var22 = 0.01624294;
            }
        } else {
            if ((input[12]) >= (2.4766002)) {
                var22 = -0.062160224;
            } else {
                var22 = -0.008681739;
            }
        }
    } else {
        if ((input[60]) >= (0.5)) {
            if ((input[32]) >= (3.5)) {
                var22 = 0.053798843;
            } else {
                var22 = 0.0061170454;
            }
        } else {
            if ((input[56]) >= (65.5)) {
                var22 = 0.05574155;
            } else {
                var22 = 0.105315164;
            }
        }
    }
    double var23;
    if ((input[40]) >= (2.5)) {
        if ((input[61]) >= (148.5)) {
            if ((input[54]) >= (37.5)) {
                var23 = 0.023190875;
            } else {
                var23 = -0.025690332;
            }
        } else {
            if ((input[0]) >= (6.0)) {
                var23 = 0.04019716;
            } else {
                var23 = 0.099520564;
            }
        }
    } else {
        if ((input[60]) >= (12.5)) {
            if ((input[0]) >= (6.0)) {
                var23 = -0.07657185;
            } else {
                var23 = -0.042973403;
            }
        } else {
            if ((input[0]) >= (6.0)) {
                var23 = -0.040622126;
            } else {
                var23 = -0.00093086326;
            }
        }
    }
    double var24;
    if ((input[56]) >= (23.5)) {
        if ((input[40]) >= (1.5)) {
            if ((input[61]) >= (1047.5)) {
                var24 = -0.006676331;
            } else {
                var24 = 0.034011;
            }
        } else {
            if ((input[24]) >= (8.0)) {
                var24 = -0.07302002;
            } else {
                var24 = -0.021307265;
            }
        }
    } else {
        if ((input[60]) >= (1.5)) {
            if ((input[51]) >= (0.00315)) {
                var24 = 0.053477544;
            } else {
                var24 = -0.07114252;
            }
        } else {
            if ((input[56]) >= (-148.0)) {
                var24 = 0.102818586;
            } else {
                var24 = -0.00068501855;
            }
        }
    }
    double var25;
    if ((input[1]) >= (0.0703)) {
        if ((input[54]) >= (37.5)) {
            if ((input[61]) >= (3890.5)) {
                var25 = -0.01679638;
            } else {
                var25 = 0.031544667;
            }
        } else {
            if ((input[61]) >= (443.5)) {
                var25 = -0.0557531;
            } else {
                var25 = -0.007755381;
            }
        }
    } else {
        if ((input[43]) >= (0.5)) {
            if ((input[60]) >= (2.5)) {
                var25 = -0.037134137;
            } else {
                var25 = 0.04639728;
            }
        } else {
            if ((input[56]) >= (72.5)) {
                var25 = 0.05916208;
            } else {
                var25 = 0.10195171;
            }
        }
    }
    double var26;
    if ((input[60]) >= (0.5)) {
        if ((input[40]) >= (0.5)) {
            if ((input[1]) >= (4.7578)) {
                var26 = -0.013023085;
            } else {
                var26 = 0.01883925;
            }
        } else {
            if ((input[47]) >= (0.32665002)) {
                var26 = -0.038240075;
            } else {
                var26 = -0.10757935;
            }
        }
    } else {
        if ((input[56]) >= (751.5)) {
            if ((input[54]) >= (40.5)) {
                var26 = 0.046606716;
            } else {
                var26 = -0.063117474;
            }
        } else {
            if ((input[54]) >= (37.5)) {
                var26 = 0.10468073;
            } else {
                var26 = 0.052267205;
            }
        }
    }
    double var27;
    if ((input[56]) >= (22.5)) {
        if ((input[54]) >= (36.5)) {
            if ((input[61]) >= (799.5)) {
                var27 = -0.008857443;
            } else {
                var27 = 0.03766239;
            }
        } else {
            if ((input[1]) >= (1.7890999)) {
                var27 = -0.05822865;
            } else {
                var27 = -0.01261826;
            }
        }
    } else {
        if ((input[60]) >= (1.5)) {
            if ((input[51]) >= (0.00315)) {
                var27 = 0.051488083;
            } else {
                var27 = -0.059768546;
            }
        } else {
            if ((input[56]) >= (-43.0)) {
                var27 = 0.101229504;
            } else {
                var27 = 0.011353689;
            }
        }
    }
    double var28;
    if ((input[56]) >= (22.5)) {
        if ((input[54]) >= (40.5)) {
            if ((input[61]) >= (12248.5)) {
                var28 = -0.020746758;
            } else {
                var28 = 0.04013175;
            }
        } else {
            if ((input[1]) >= (4.3515997)) {
                var28 = -0.036851816;
            } else {
                var28 = 0.005072538;
            }
        }
    } else {
        if ((input[60]) >= (1.5)) {
            if ((input[51]) >= (0.022950001)) {
                var28 = 0.09200631;
            } else {
                var28 = -0.02835396;
            }
        } else {
            if ((input[56]) >= (-43.0)) {
                var28 = 0.100325935;
            } else {
                var28 = 0.010394668;
            }
        }
    }
    double var29;
    if ((input[32]) >= (3.5)) {
        if ((input[56]) >= (884.5)) {
            if ((input[47]) >= (2.3590999)) {
                var29 = 0.029236717;
            } else {
                var29 = -0.017888196;
            }
        } else {
            if ((input[43]) >= (1.5)) {
                var29 = 0.0015529975;
            } else {
                var29 = 0.08216678;
            }
        }
    } else {
        if ((input[60]) >= (12.5)) {
            if ((input[54]) >= (40.5)) {
                var29 = -0.010495513;
            } else {
                var29 = -0.054578066;
            }
        } else {
            if ((input[54]) >= (41.5)) {
                var29 = 0.020830547;
            } else {
                var29 = -0.012617879;
            }
        }
    }
    double var30;
    if ((input[12]) >= (1.8672)) {
        if ((input[54]) >= (40.5)) {
            if ((input[61]) >= (16682.5)) {
                var30 = -0.029118387;
            } else {
                var30 = 0.026971525;
            }
        } else {
            if ((input[0]) >= (6.0)) {
                var30 = -0.062459625;
            } else {
                var30 = -0.015928233;
            }
        }
    } else {
        if ((input[56]) >= (11.5)) {
            if ((input[54]) >= (35.5)) {
                var30 = 0.03231707;
            } else {
                var30 = -0.023809174;
            }
        } else {
            if ((input[43]) >= (2.5)) {
                var30 = -0.017847842;
            } else {
                var30 = 0.10080623;
            }
        }
    }
    double var31;
    if ((input[40]) >= (3.5)) {
        if ((input[61]) >= (81.5)) {
            if ((input[61]) >= (9117.5)) {
                var31 = -0.019834442;
            } else {
                var31 = 0.033447802;
            }
        } else {
            if ((input[54]) >= (35.5)) {
                var31 = 0.10053235;
            } else {
                var31 = 0.06843825;
            }
        }
    } else {
        if ((input[24]) >= (8.0)) {
            if ((input[56]) >= (13.5)) {
                var31 = -0.05567036;
            } else {
                var31 = 0.06673235;
            }
        } else {
            if ((input[61]) >= (6233.5)) {
                var31 = -0.025839617;
            } else {
                var31 = 0.007758646;
            }
        }
    }
    double var32;
    if ((input[56]) >= (11.5)) {
        if ((input[0]) >= (6.0)) {
            if ((input[47]) >= (1.4672501)) {
                var32 = -0.018135887;
            } else {
                var32 = -0.06402599;
            }
        } else {
            if ((input[61]) >= (450.5)) {
                var32 = -0.0063751685;
            } else {
                var32 = 0.043914005;
            }
        }
    } else {
        if ((input[43]) >= (2.5)) {
            if ((input[47]) >= (0.2368)) {
                var32 = 0.07210023;
            } else {
                var32 = -0.09480789;
            }
        } else {
            if ((input[52]) >= (1381.3267)) {
                var32 = -0.11257142;
            } else {
                var32 = 0.09874846;
            }
        }
    }
    double var33;
    if ((input[56]) >= (23.5)) {
        if ((input[54]) >= (37.5)) {
            if ((input[61]) >= (2767.5)) {
                var33 = -0.008597693;
            } else {
                var33 = 0.030909443;
            }
        } else {
            if ((input[12]) >= (4.64845)) {
                var33 = -0.043732684;
            } else {
                var33 = -0.0058773747;
            }
        }
    } else {
        if ((input[60]) >= (1.5)) {
            if ((input[51]) >= (0.00315)) {
                var33 = 0.043088578;
            } else {
                var33 = -0.050298627;
            }
        } else {
            if ((input[60]) >= (0.5)) {
                var33 = 0.07621725;
            } else {
                var33 = 0.10188466;
            }
        }
    }
    double var34;
    if ((input[17]) >= (2.5)) {
        if ((input[12]) >= (3.71095)) {
            if ((input[47]) >= (1.7295)) {
                var34 = 0.021247959;
            } else {
                var34 = -0.03379209;
            }
        } else {
            if ((input[32]) >= (4.5)) {
                var34 = 0.077194184;
            } else {
                var34 = 0.032705225;
            }
        }
    } else {
        if ((input[40]) >= (0.5)) {
            if ((input[61]) >= (46.5)) {
                var34 = -0.0065796035;
            } else {
                var34 = 0.041982304;
            }
        } else {
            if ((input[51]) >= (0.01715)) {
                var34 = -0.027450174;
            } else {
                var34 = -0.07563906;
            }
        }
    }
    double var35;
    if ((input[56]) >= (11.5)) {
        if ((input[0]) >= (6.0)) {
            if ((input[46]) >= (1.04625)) {
                var35 = -0.02261751;
            } else {
                var35 = -0.07992369;
            }
        } else {
            if ((input[61]) >= (402.5)) {
                var35 = -0.0046875007;
            } else {
                var35 = 0.040656675;
            }
        }
    } else {
        if ((input[60]) >= (0.5)) {
            if ((input[45]) >= (95.8125)) {
                var35 = 0.01808944;
            } else {
                var35 = 0.081385;
            }
        } else {
            if ((input[56]) >= (-59.0)) {
                var35 = 0.10221501;
            } else {
                var35 = 0.012209161;
            }
        }
    }
    double var36;
    if ((input[39]) >= (0.875)) {
        if ((input[53]) >= (0.98975)) {
            if ((input[1]) >= (3.33595)) {
                var36 = -0.031032214;
            } else {
                var36 = 0.00037399065;
            }
        } else {
            if ((input[60]) >= (16.5)) {
                var36 = -0.03531633;
            } else {
                var36 = 0.018255083;
            }
        }
    } else {
        if ((input[61]) >= (178.5)) {
            if ((input[47]) >= (2.11815)) {
                var36 = 0.03192646;
            } else {
                var36 = -0.015378541;
            }
        } else {
            if ((input[54]) >= (35.5)) {
                var36 = 0.08584243;
            } else {
                var36 = 0.03869068;
            }
        }
    }
    double var37;
    if ((input[32]) >= (2.5)) {
        if ((input[61]) >= (3545.5)) {
            if ((input[48]) >= (1203.7109)) {
                var37 = 0.008773006;
            } else {
                var37 = -0.03688955;
            }
        } else {
            if ((input[56]) >= (70.5)) {
                var37 = 0.029779136;
            } else {
                var37 = 0.0881887;
            }
        }
    } else {
        if ((input[54]) >= (41.5)) {
            if ((input[61]) >= (21195.0)) {
                var37 = -0.026912317;
            } else {
                var37 = 0.027539948;
            }
        } else {
            if ((input[61]) >= (662.5)) {
                var37 = -0.034298815;
            } else {
                var37 = -0.00046876175;
            }
        }
    }
    double var38;
    if ((input[56]) >= (11.5)) {
        if ((input[47]) >= (2.3691502)) {
            if ((input[61]) >= (5122.5)) {
                var38 = -0.007030014;
            } else {
                var38 = 0.037300896;
            }
        } else {
            if ((input[61]) >= (496.5)) {
                var38 = -0.029219031;
            } else {
                var38 = 0.005236144;
            }
        }
    } else {
        if ((input[60]) >= (0.5)) {
            if ((input[45]) >= (95.8125)) {
                var38 = 0.014988367;
            } else {
                var38 = 0.07604759;
            }
        } else {
            if ((input[48]) >= (51.4121)) {
                var38 = 0.0050782803;
            } else {
                var38 = 0.10179023;
            }
        }
    }
    double var39;
    if ((input[54]) >= (41.5)) {
        if ((input[61]) >= (15808.0)) {
            if ((input[54]) >= (43.5)) {
                var39 = 0.00705003;
            } else {
                var39 = -0.035502806;
            }
        } else {
            if ((input[60]) >= (1.5)) {
                var39 = 0.01827275;
            } else {
                var39 = 0.05863582;
            }
        }
    } else {
        if ((input[61]) >= (2866.5)) {
            if ((input[53]) >= (0.97905)) {
                var39 = -0.05489127;
            } else {
                var39 = -0.011812194;
            }
        } else {
            if ((input[47]) >= (2.07285)) {
                var39 = 0.030836046;
            } else {
                var39 = -0.011369204;
            }
        }
    }
    double var40;
    if ((input[24]) >= (8.0)) {
        if ((input[54]) >= (43.5)) {
            if ((input[21]) >= (0.5)) {
                var40 = 0.06184208;
            } else {
                var40 = -0.0017860804;
            }
        } else {
            if ((input[1]) >= (19.773449)) {
                var40 = -0.06516254;
            } else {
                var40 = -0.036633745;
            }
        }
    } else {
        if ((input[56]) >= (65.5)) {
            if ((input[47]) >= (1.7458501)) {
                var40 = 0.010370931;
            } else {
                var40 = -0.022945916;
            }
        } else {
            if ((input[54]) >= (35.5)) {
                var40 = 0.087025754;
            } else {
                var40 = 0.0009790886;
            }
        }
    }
    double var41;
    if ((input[1]) >= (10.4766)) {
        if ((input[48]) >= (765.91797)) {
            if ((input[61]) >= (17430.0)) {
                var41 = -0.032152362;
            } else {
                var41 = 0.008531182;
            }
        } else {
            if ((input[60]) >= (17.5)) {
                var41 = -0.07321731;
            } else {
                var41 = -0.031983826;
            }
        }
    } else {
        if ((input[6]) >= (2.5)) {
            if ((input[12]) >= (0.0078)) {
                var41 = 0.02578178;
            } else {
                var41 = 0.08554926;
            }
        } else {
            if ((input[47]) >= (1.1099)) {
                var41 = 0.008067711;
            } else {
                var41 = -0.026371425;
            }
        }
    }
    double var42;
    if ((input[54]) >= (37.5)) {
        if ((input[56]) >= (1389.5)) {
            if ((input[47]) >= (2.69915)) {
                var42 = 0.020279871;
            } else {
                var42 = -0.015778912;
            }
        } else {
            if ((input[0]) >= (6.0)) {
                var42 = -0.012223617;
            } else {
                var42 = 0.055214334;
            }
        }
    } else {
        if ((input[61]) >= (93.5)) {
            if ((input[48]) >= (9.20115)) {
                var42 = -0.021189159;
            } else {
                var42 = -0.08090092;
            }
        } else {
            if ((input[43]) >= (0.5)) {
                var42 = -0.015831484;
            } else {
                var42 = 0.054640573;
            }
        }
    }
    double var43;
    if ((input[12]) >= (9.02345)) {
        if ((input[54]) >= (40.5)) {
            if ((input[61]) >= (30481.0)) {
                var43 = -0.04344009;
            } else {
                var43 = 0.011326189;
            }
        } else {
            if ((input[53]) >= (0.53985)) {
                var43 = -0.035361435;
            } else {
                var43 = 0.02059658;
            }
        }
    } else {
        if ((input[56]) >= (11.5)) {
            if ((input[47]) >= (1.1001999)) {
                var43 = 0.014870728;
            } else {
                var43 = -0.021342272;
            }
        } else {
            if ((input[60]) >= (1.5)) {
                var43 = 0.033599656;
            } else {
                var43 = 0.09794467;
            }
        }
    }
    double var44;
    if ((input[54]) >= (43.5)) {
        if ((input[61]) >= (20075.0)) {
            if ((input[61]) >= (44702.5)) {
                var44 = -0.04204583;
            } else {
                var44 = 0.0170013;
            }
        } else {
            if ((input[41]) >= (2.5)) {
                var44 = 0.08512401;
            } else {
                var44 = 0.039533474;
            }
        }
    } else {
        if ((input[61]) >= (5349.5)) {
            if ((input[47]) >= (2.90435)) {
                var44 = -0.0064292075;
            } else {
                var44 = -0.041639104;
            }
        } else {
            if ((input[48]) >= (705.1387)) {
                var44 = 0.03122519;
            } else {
                var44 = -0.0047858707;
            }
        }
    }
    double var45;
    if ((input[17]) >= (1.5)) {
        if ((input[61]) >= (289.5)) {
            if ((input[48]) >= (10.4492)) {
                var45 = 0.011849888;
            } else {
                var45 = -0.07612083;
            }
        } else {
            if ((input[0]) >= (6.0)) {
                var45 = -0.00633089;
            } else {
                var45 = 0.061749704;
            }
        }
    } else {
        if ((input[10]) >= (0.5)) {
            if ((input[56]) >= (298.5)) {
                var45 = -0.0005569537;
            } else {
                var45 = 0.0374281;
            }
        } else {
            if ((input[39]) >= (6.58335)) {
                var45 = -0.031191874;
            } else {
                var45 = -0.005635024;
            }
        }
    }
    double var46;
    if ((input[12]) >= (3.7422)) {
        if ((input[48]) >= (730.06055)) {
            if ((input[61]) >= (5784.5)) {
                var46 = -0.0107243;
            } else {
                var46 = 0.025999714;
            }
        } else {
            if ((input[61]) >= (1253.5)) {
                var46 = -0.042973906;
            } else {
                var46 = -0.013713528;
            }
        }
    } else {
        if ((input[56]) >= (11.5)) {
            if ((input[54]) >= (35.5)) {
                var46 = 0.017567366;
            } else {
                var46 = -0.019357955;
            }
        } else {
            if ((input[60]) >= (1.5)) {
                var46 = 0.022636306;
            } else {
                var46 = 0.09742139;
            }
        }
    }
    double var47;
    if ((input[53]) >= (0.98535)) {
        if ((input[61]) >= (1670.5)) {
            if ((input[54]) >= (41.5)) {
                var47 = -0.001374738;
            } else {
                var47 = -0.043432906;
            }
        } else {
            if ((input[54]) >= (37.5)) {
                var47 = 0.028679723;
            } else {
                var47 = -0.014525557;
            }
        }
    } else {
        if ((input[61]) >= (10565.5)) {
            if ((input[54]) >= (40.5)) {
                var47 = 0.0060625845;
            } else {
                var47 = -0.048987452;
            }
        } else {
            if ((input[46]) >= (129.614)) {
                var47 = 0.039007608;
            } else {
                var47 = 0.0040082703;
            }
        }
    }
    double var48;
    if ((input[1]) >= (10.4766)) {
        if ((input[47]) >= (2.00735)) {
            if ((input[54]) >= (43.5)) {
                var48 = 0.033617254;
            } else {
                var48 = -0.009015694;
            }
        } else {
            if ((input[56]) >= (61.5)) {
                var48 = -0.042808924;
            } else {
                var48 = 0.030767078;
            }
        }
    } else {
        if ((input[43]) >= (1.5)) {
            if ((input[47]) >= (0.81215)) {
                var48 = -0.006854493;
            } else {
                var48 = -0.067230605;
            }
        } else {
            if ((input[61]) >= (41.5)) {
                var48 = 0.00818327;
            } else {
                var48 = 0.05566327;
            }
        }
    }
    double var49;
    if ((input[54]) >= (40.5)) {
        if ((input[61]) >= (10212.5)) {
            if ((input[61]) >= (30107.5)) {
                var49 = -0.036285497;
            } else {
                var49 = 0.002925692;
            }
        } else {
            if ((input[60]) >= (1.5)) {
                var49 = 0.013381818;
            } else {
                var49 = 0.051408555;
            }
        }
    } else {
        if ((input[61]) >= (2002.5)) {
            if ((input[47]) >= (2.69915)) {
                var49 = -0.0074971425;
            } else {
                var49 = -0.044626568;
            }
        } else {
            if ((input[47]) >= (1.89445)) {
                var49 = 0.027077395;
            } else {
                var49 = -0.011322479;
            }
        }
    }
    double var50;
    if ((input[0]) >= (6.0)) {
        if ((input[1]) >= (0.0703)) {
            if ((input[46]) >= (1.0531)) {
                var50 = -0.020533668;
            } else {
                var50 = -0.07164039;
            }
        } else {
            if ((input[43]) >= (0.5)) {
                var50 = -0.017439937;
            } else {
                var50 = 0.062760025;
            }
        }
    } else {
        if ((input[56]) >= (263.5)) {
            if ((input[48]) >= (14.20115)) {
                var50 = 0.003499883;
            } else {
                var50 = -0.050777387;
            }
        } else {
            if ((input[43]) >= (0.5)) {
                var50 = 0.01465892;
            } else {
                var50 = 0.07317357;
            }
        }
    }
    double var51;
    if ((input[24]) >= (8.0)) {
        if ((input[39]) >= (0.125)) {
            if ((input[4]) >= (9.5)) {
                var51 = -0.05940796;
            } else {
                var51 = -0.030055061;
            }
        } else {
            if ((input[61]) >= (735.5)) {
                var51 = -0.011147966;
            } else {
                var51 = 0.042494863;
            }
        }
    } else {
        if ((input[56]) >= (109.5)) {
            if ((input[48]) >= (9.185551)) {
                var51 = 0.0044458914;
            } else {
                var51 = -0.040934246;
            }
        } else {
            if ((input[43]) >= (0.5)) {
                var51 = 0.003685267;
            } else {
                var51 = 0.06765999;
            }
        }
    }
    double var52;
    if ((input[54]) >= (43.5)) {
        if ((input[61]) >= (38633.0)) {
            if ((input[31]) >= (1.5)) {
                var52 = -0.040427994;
            } else {
                var52 = 0.008971758;
            }
        } else {
            if ((input[56]) >= (3005.0)) {
                var52 = 0.035012655;
            } else {
                var52 = 0.08542098;
            }
        }
    } else {
        if ((input[61]) >= (7912.5)) {
            if ((input[54]) >= (40.5)) {
                var52 = -0.014986879;
            } else {
                var52 = -0.04559261;
            }
        } else {
            if ((input[47]) >= (2.78765)) {
                var52 = 0.03226558;
            } else {
                var52 = -0.0034454581;
            }
        }
    }
    double var53;
    if ((input[12]) >= (13.6016)) {
        if ((input[46]) >= (1227.6785)) {
            if ((input[60]) >= (103.5)) {
                var53 = -0.052637886;
            } else {
                var53 = 0.009412355;
            }
        } else {
            if ((input[54]) >= (43.5)) {
                var53 = 0.008212427;
            } else {
                var53 = -0.032765422;
            }
        }
    } else {
        if ((input[54]) >= (37.5)) {
            if ((input[61]) >= (1203.5)) {
                var53 = 0.0038239032;
            } else {
                var53 = 0.0402253;
            }
        } else {
            if ((input[61]) >= (142.5)) {
                var53 = -0.01854813;
            } else {
                var53 = 0.012720219;
            }
        }
    }
    double var54;
    if ((input[53]) >= (0.97495)) {
        if ((input[61]) >= (595.5)) {
            if ((input[54]) >= (41.5)) {
                var54 = 0.005084223;
            } else {
                var54 = -0.029742667;
            }
        } else {
            if ((input[43]) >= (0.5)) {
                var54 = -0.014112115;
            } else {
                var54 = 0.034655306;
            }
        }
    } else {
        if ((input[61]) >= (18264.0)) {
            if ((input[54]) >= (40.5)) {
                var54 = -0.004187572;
            } else {
                var54 = -0.05576644;
            }
        } else {
            if ((input[46]) >= (179.9252)) {
                var54 = 0.031123156;
            } else {
                var54 = 0.002183959;
            }
        }
    }
    double var55;
    if ((input[0]) >= (6.0)) {
        if ((input[56]) >= (9.5)) {
            if ((input[51]) >= (0.00315)) {
                var55 = -0.01755209;
            } else {
                var55 = -0.0882936;
            }
        } else {
            if ((input[56]) >= (7.5)) {
                var55 = 0.037568834;
            } else {
                var55 = 0.09457844;
            }
        }
    } else {
        if ((input[56]) >= (59.5)) {
            if ((input[47]) >= (0.66845)) {
                var55 = 0.0046583116;
            } else {
                var55 = -0.046081893;
            }
        } else {
            if ((input[44]) >= (0.5)) {
                var55 = 0.08885377;
            } else {
                var55 = 0.0050142673;
            }
        }
    }
    double var56;
    if ((input[1]) >= (3.14845)) {
        if ((input[48]) >= (729.9746)) {
            if ((input[56]) >= (2956.5)) {
                var56 = -0.0017212833;
            } else {
                var56 = 0.042738426;
            }
        } else {
            if ((input[61]) >= (704.5)) {
                var56 = -0.03499685;
            } else {
                var56 = -0.0083664665;
            }
        }
    } else {
        if ((input[6]) >= (3.5)) {
            if ((input[54]) >= (35.5)) {
                var56 = 0.05070079;
            } else {
                var56 = -0.010859969;
            }
        } else {
            if ((input[61]) >= (4427.5)) {
                var56 = -0.015685324;
            } else {
                var56 = 0.012172584;
            }
        }
    }
    double var57;
    if ((input[54]) >= (37.5)) {
        if ((input[56]) >= (298.5)) {
            if ((input[48]) >= (14.873051)) {
                var57 = 0.0068608015;
            } else {
                var57 = -0.044197094;
            }
        } else {
            if ((input[0]) >= (6.0)) {
                var57 = -0.00012376814;
            } else {
                var57 = 0.08143332;
            }
        }
    } else {
        if ((input[61]) >= (350.5)) {
            if ((input[32]) >= (4.5)) {
                var57 = 0.031026168;
            } else {
                var57 = -0.03353453;
            }
        } else {
            if ((input[46]) >= (13.613001)) {
                var57 = 0.038915735;
            } else {
                var57 = -0.014686892;
            }
        }
    }
    double var58;
    if ((input[53]) >= (0.98945)) {
        if ((input[61]) >= (1827.5)) {
            if ((input[54]) >= (43.5)) {
                var58 = 0.018584859;
            } else {
                var58 = -0.02788482;
            }
        } else {
            if ((input[54]) >= (37.5)) {
                var58 = 0.02208819;
            } else {
                var58 = -0.012729446;
            }
        }
    } else {
        if ((input[56]) >= (6386.0)) {
            if ((input[54]) >= (40.5)) {
                var58 = 0.010000155;
            } else {
                var58 = -0.028903186;
            }
        } else {
            if ((input[46]) >= (429.62476)) {
                var58 = 0.046903815;
            } else {
                var58 = 0.00868652;
            }
        }
    }
    double var59;
    if ((input[12]) >= (21.242199)) {
        if ((input[54]) >= (43.5)) {
            if ((input[39]) >= (0.125)) {
                var59 = 0.00013053848;
            } else {
                var59 = 0.049104486;
            }
        } else {
            if ((input[60]) >= (16.5)) {
                var59 = -0.04671247;
            } else {
                var59 = -0.01771003;
            }
        }
    } else {
        if ((input[47]) >= (1.5522499)) {
            if ((input[61]) >= (3245.5)) {
                var59 = -0.0040672934;
            } else {
                var59 = 0.023876032;
            }
        } else {
            if ((input[61]) >= (20.5)) {
                var59 = -0.023340002;
            } else {
                var59 = 0.027407808;
            }
        }
    }
    double var60;
    if ((input[47]) >= (2.61685)) {
        if ((input[60]) >= (64.5)) {
            if ((input[61]) >= (2158.5)) {
                var60 = -0.05265349;
            } else {
                var60 = -0.00054759363;
            }
        } else {
            if ((input[61]) >= (3961.5)) {
                var60 = 0.006459606;
            } else {
                var60 = 0.036336076;
            }
        }
    } else {
        if ((input[61]) >= (261.5)) {
            if ((input[48]) >= (8.9492)) {
                var60 = -0.010471974;
            } else {
                var60 = -0.07024484;
            }
        } else {
            if ((input[43]) >= (0.5)) {
                var60 = -0.008017136;
            } else {
                var60 = 0.037699617;
            }
        }
    }
    double var61;
    if ((input[0]) >= (6.0)) {
        if ((input[56]) >= (14.5)) {
            if ((input[46]) >= (0.8456)) {
                var61 = -0.013972414;
            } else {
                var61 = -0.06858781;
            }
        } else {
            if ((input[56]) >= (7.5)) {
                var61 = 0.02761577;
            } else {
                var61 = 0.09199306;
            }
        }
    } else {
        if ((input[56]) >= (59.5)) {
            if ((input[54]) >= (42.5)) {
                var61 = 0.02275305;
            } else {
                var61 = -0.0028968595;
            }
        } else {
            if ((input[60]) >= (1.5)) {
                var61 = 0.031734016;
            } else {
                var61 = 0.09349312;
            }
        }
    }
    double var62;
    if ((input[61]) >= (18260.5)) {
        if ((input[54]) >= (43.5)) {
            if ((input[61]) >= (44702.5)) {
                var62 = -0.037644908;
            } else {
                var62 = 0.013576572;
            }
        } else {
            if ((input[47]) >= (2.30835)) {
                var62 = -0.030874332;
            } else {
                var62 = -0.067634635;
            }
        }
    } else {
        if ((input[54]) >= (41.5)) {
            if ((input[56]) >= (1863.5)) {
                var62 = 0.014616805;
            } else {
                var62 = 0.05351311;
            }
        } else {
            if ((input[53]) >= (0.85125)) {
                var62 = -0.008688419;
            } else {
                var62 = 0.018850587;
            }
        }
    }
    double var63;
    if ((input[1]) >= (16.5391)) {
        if ((input[54]) >= (43.5)) {
            if ((input[61]) >= (37324.0)) {
                var63 = -0.021373888;
            } else {
                var63 = 0.023376394;
            }
        } else {
            if ((input[47]) >= (2.6178498)) {
                var63 = -0.0049431804;
            } else {
                var63 = -0.030292137;
            }
        }
    } else {
        if ((input[48]) >= (705.1387)) {
            if ((input[61]) >= (1978.5)) {
                var63 = 0.006892805;
            } else {
                var63 = 0.054744195;
            }
        } else {
            if ((input[61]) >= (704.5)) {
                var63 = -0.018579861;
            } else {
                var63 = 0.009578034;
            }
        }
    }
    double var64;
    if ((input[43]) >= (1.5)) {
        if ((input[51]) >= (0.00315)) {
            if ((input[46]) >= (613.72217)) {
                var64 = 0.0030481922;
            } else {
                var64 = -0.021368962;
            }
        } else {
            if ((input[61]) >= (4.5)) {
                var64 = -0.11970482;
            } else {
                var64 = -0.03543761;
            }
        }
    } else {
        if ((input[61]) >= (1732.5)) {
            if ((input[48]) >= (1391.0)) {
                var64 = 0.007906114;
            } else {
                var64 = -0.019812634;
            }
        } else {
            if ((input[48]) >= (692.52344)) {
                var64 = 0.05048374;
            } else {
                var64 = 0.009864658;
            }
        }
    }
    double var65;
    if ((input[12]) >= (14.8828)) {
        if ((input[47]) >= (2.60145)) {
            if ((input[60]) >= (49.5)) {
                var65 = -0.039194312;
            } else {
                var65 = 0.0073285825;
            }
        } else {
            if ((input[53]) >= (0.32755)) {
                var65 = -0.025707064;
            } else {
                var65 = 0.058588088;
            }
        }
    } else {
        if ((input[47]) >= (0.96545)) {
            if ((input[61]) >= (93.5)) {
                var65 = 0.004989247;
            } else {
                var65 = 0.04186198;
            }
        } else {
            if ((input[61]) >= (13.5)) {
                var65 = -0.036324676;
            } else {
                var65 = 0.02014062;
            }
        }
    }
    double var66;
    if ((input[0]) >= (6.0)) {
        if ((input[1]) >= (0.02345)) {
            if ((input[48]) >= (1.36525)) {
                var66 = -0.0152100995;
            } else {
                var66 = -0.056148853;
            }
        } else {
            if ((input[4]) >= (9.5)) {
                var66 = 0.13695166;
            } else {
                var66 = 0.012355594;
            }
        }
    } else {
        if ((input[56]) >= (460.5)) {
            if ((input[48]) >= (64.63865)) {
                var66 = 0.003372301;
            } else {
                var66 = -0.035323985;
            }
        } else {
            if ((input[54]) >= (37.5)) {
                var66 = 0.061643846;
            } else {
                var66 = 0.01483185;
            }
        }
    }
    double var67;
    if ((input[54]) >= (40.5)) {
        if ((input[61]) >= (10212.5)) {
            if ((input[61]) >= (30107.5)) {
                var67 = -0.031961888;
            } else {
                var67 = 0.00088883;
            }
        } else {
            if ((input[1]) >= (21.898449)) {
                var67 = -0.0056519257;
            } else {
                var67 = 0.03151971;
            }
        }
    } else {
        if ((input[61]) >= (936.5)) {
            if ((input[47]) >= (2.00005)) {
                var67 = -0.0065098666;
            } else {
                var67 = -0.0454471;
            }
        } else {
            if ((input[48]) >= (32.74805)) {
                var67 = 0.026224226;
            } else {
                var67 = -0.010604701;
            }
        }
    }
    double var68;
    if ((input[53]) >= (0.68625)) {
        if ((input[1]) >= (2.71095)) {
            if ((input[48]) >= (786.74805)) {
                var68 = 0.002196686;
            } else {
                var68 = -0.020058645;
            }
        } else {
            if ((input[56]) >= (7.5)) {
                var68 = 0.008202765;
            } else {
                var68 = 0.08527691;
            }
        }
    } else {
        if ((input[56]) >= (6539.5)) {
            if ((input[60]) >= (115.5)) {
                var68 = -0.05778717;
            } else {
                var68 = 0.007862157;
            }
        } else {
            if ((input[48]) >= (204.56055)) {
                var68 = 0.05347788;
            } else {
                var68 = -0.0014044967;
            }
        }
    }
    double var69;
    if ((input[47]) >= (2.90315)) {
        if ((input[60]) >= (78.5)) {
            if ((input[16]) >= (10.55)) {
                var69 = -0.06294976;
            } else {
                var69 = -0.023675375;
            }
        } else {
            if ((input[61]) >= (4428.5)) {
                var69 = 0.008402822;
            } else {
                var69 = 0.04112808;
            }
        }
    } else {
        if ((input[61]) >= (2768.5)) {
            if ((input[54]) >= (43.5)) {
                var69 = 0.0136197405;
            } else {
                var69 = -0.023780834;
            }
        } else {
            if ((input[48]) >= (1257.2109)) {
                var69 = 0.03998407;
            } else {
                var69 = -0.0006609166;
            }
        }
    }
    double var70;
    if ((input[54]) >= (37.5)) {
        if ((input[56]) >= (875.5)) {
            if ((input[48]) >= (201.07419)) {
                var70 = 0.005744586;
            } else {
                var70 = -0.02594339;
            }
        } else {
            if ((input[60]) >= (1.5)) {
                var70 = 0.007729176;
            } else {
                var70 = 0.06468779;
            }
        }
    } else {
        if ((input[61]) >= (93.5)) {
            if ((input[46]) >= (0.4839)) {
                var70 = -0.017004458;
            } else {
                var70 = -0.14380918;
            }
        } else {
            if ((input[51]) >= (0.00084999995)) {
                var70 = 0.023790171;
            } else {
                var70 = -0.04816125;
            }
        }
    }
    double var71;
    if ((input[61]) >= (21716.5)) {
        if ((input[54]) >= (43.5)) {
            if ((input[61]) >= (44702.5)) {
                var71 = -0.032613255;
            } else {
                var71 = 0.0066647492;
            }
        } else {
            if ((input[47]) >= (2.51645)) {
                var71 = -0.028361056;
            } else {
                var71 = -0.060256895;
            }
        }
    } else {
        if ((input[54]) >= (42.5)) {
            if ((input[0]) >= (6.0)) {
                var71 = -0.0036986673;
            } else {
                var71 = 0.032124206;
            }
        } else {
            if ((input[53]) >= (0.71564996)) {
                var71 = -0.0055871406;
            } else {
                var71 = 0.020379527;
            }
        }
    }
    double var72;
    if ((input[12]) >= (21.242199)) {
        if ((input[45]) >= (145.64844)) {
            if ((input[56]) >= (358.5)) {
                var72 = -0.057326652;
            } else {
                var72 = 0.020187235;
            }
        } else {
            if ((input[60]) >= (16.5)) {
                var72 = -0.034736983;
            } else {
                var72 = -0.005934634;
            }
        }
    } else {
        if ((input[47]) >= (0.15834999)) {
            if ((input[61]) >= (45.5)) {
                var72 = 0.0024177753;
            } else {
                var72 = 0.033983085;
            }
        } else {
            if ((input[61]) >= (13.5)) {
                var72 = -0.10862023;
            } else {
                var72 = 0.0021476517;
            }
        }
    }
    double var73;
    if ((input[0]) >= (6.0)) {
        if ((input[56]) >= (14.5)) {
            if ((input[46]) >= (4.9613)) {
                var73 = -0.007898534;
            } else {
                var73 = -0.042810947;
            }
        } else {
            if ((input[60]) >= (1.5)) {
                var73 = 0.018479025;
            } else {
                var73 = 0.0800434;
            }
        }
    } else {
        if ((input[56]) >= (59.5)) {
            if ((input[51]) >= (0.00135)) {
                var73 = 0.0029930752;
            } else {
                var73 = -0.07581385;
            }
        } else {
            if ((input[60]) >= (1.5)) {
                var73 = 0.025273873;
            } else {
                var73 = 0.0910637;
            }
        }
    }
    double var74;
    if ((input[43]) >= (1.5)) {
        if ((input[46]) >= (0.0526)) {
            if ((input[46]) >= (1042.3885)) {
                var74 = 0.005416441;
            } else {
                var74 = -0.017602937;
            }
        } else {
            if ((input[61]) >= (3.5)) {
                var74 = -0.10874515;
            } else {
                var74 = -0.029635584;
            }
        }
    } else {
        if ((input[61]) >= (3239.5)) {
            if ((input[54]) >= (43.5)) {
                var74 = 0.020170307;
            } else {
                var74 = -0.013162871;
            }
        } else {
            if ((input[54]) >= (40.5)) {
                var74 = 0.04116634;
            } else {
                var74 = 0.00575624;
            }
        }
    }
    double var75;
    if ((input[47]) >= (1.80825)) {
        if ((input[61]) >= (2144.5)) {
            if ((input[54]) >= (37.5)) {
                var75 = 0.0013367898;
            } else {
                var75 = -0.02980991;
            }
        } else {
            if ((input[48]) >= (439.99023)) {
                var75 = 0.036782894;
            } else {
                var75 = 0.0110868625;
            }
        }
    } else {
        if ((input[61]) >= (43.5)) {
            if ((input[46]) >= (0.14144999)) {
                var75 = -0.015385406;
            } else {
                var75 = -0.104217306;
            }
        } else {
            if ((input[60]) >= (1.5)) {
                var75 = -0.0027545884;
            } else {
                var75 = 0.06437027;
            }
        }
    }
    double var76;
    if ((input[24]) >= (8.0)) {
        if ((input[4]) >= (9.5)) {
            if ((input[61]) >= (290.5)) {
                var76 = -0.05347655;
            } else {
                var76 = 0.0026797268;
            }
        } else {
            if ((input[38]) >= (2.875)) {
                var76 = 0.0071457075;
            } else {
                var76 = -0.024164375;
            }
        }
    } else {
        if ((input[61]) >= (29862.5)) {
            if ((input[55]) >= (40.5)) {
                var76 = -0.014128357;
            } else {
                var76 = -0.04695853;
            }
        } else {
            if ((input[54]) >= (42.5)) {
                var76 = 0.021603541;
            } else {
                var76 = -0.00009904821;
            }
        }
    }
    double var77;
    if ((input[12]) >= (6.6640997)) {
        if ((input[48]) >= (1336.1055)) {
            if ((input[56]) >= (4062.5)) {
                var77 = -0.0010225602;
            } else {
                var77 = 0.0328553;
            }
        } else {
            if ((input[61]) >= (559.5)) {
                var77 = -0.025073683;
            } else {
                var77 = -0.0027194947;
            }
        }
    } else {
        if ((input[52]) >= (13.5809)) {
            if ((input[61]) >= (306.5)) {
                var77 = 0.0063920603;
            } else {
                var77 = 0.048350316;
            }
        } else {
            if ((input[61]) >= (88.5)) {
                var77 = -0.032507706;
            } else {
                var77 = 0.011420465;
            }
        }
    }
    double var78;
    if ((input[47]) >= (2.95295)) {
        if ((input[56]) >= (6789.5)) {
            if ((input[54]) >= (37.5)) {
                var78 = 0.0074238777;
            } else {
                var78 = -0.041485284;
            }
        } else {
            if ((input[60]) >= (60.5)) {
                var78 = -0.01975377;
            } else {
                var78 = 0.033806864;
            }
        }
    } else {
        if ((input[61]) >= (229.5)) {
            if ((input[48]) >= (14.20115)) {
                var78 = -0.004753351;
            } else {
                var78 = -0.04816822;
            }
        } else {
            if ((input[46]) >= (29.323)) {
                var78 = 0.050495632;
            } else {
                var78 = 0.0013755038;
            }
        }
    }
    double var79;
    if ((input[53]) >= (0.85125)) {
        if ((input[1]) >= (0.8672)) {
            if ((input[54]) >= (36.5)) {
                var79 = -0.003695337;
            } else {
                var79 = -0.026268313;
            }
        } else {
            if ((input[40]) >= (3.5)) {
                var79 = 0.041164845;
            } else {
                var79 = 0.0090211155;
            }
        }
    } else {
        if ((input[61]) >= (9114.0)) {
            if ((input[61]) >= (42615.5)) {
                var79 = -0.044437833;
            } else {
                var79 = 0.0013217455;
            }
        } else {
            if ((input[48]) >= (85.71875)) {
                var79 = 0.031338584;
            } else {
                var79 = -0.0018825595;
            }
        }
    }
    double var80;
    if ((input[0]) >= (6.0)) {
        if ((input[56]) >= (9.5)) {
            if ((input[48]) >= (1.0429499)) {
                var80 = -0.009993525;
            } else {
                var80 = -0.046417933;
            }
        } else {
            if ((input[60]) >= (1.5)) {
                var80 = 0.028406987;
            } else {
                var80 = 0.08684213;
            }
        }
    } else {
        if ((input[56]) >= (603.5)) {
            if ((input[48]) >= (440.08398)) {
                var80 = 0.0050671487;
            } else {
                var80 = -0.017472088;
            }
        } else {
            if ((input[54]) >= (37.5)) {
                var80 = 0.047755934;
            } else {
                var80 = 0.011390212;
            }
        }
    }
    double var81;
    if ((input[1]) >= (8.2422)) {
        if ((input[46]) >= (709.3192)) {
            if ((input[61]) >= (3939.5)) {
                var81 = -0.005410834;
            } else {
                var81 = 0.020830376;
            }
        } else {
            if ((input[60]) >= (18.5)) {
                var81 = -0.047823805;
            } else {
                var81 = -0.014728735;
            }
        }
    } else {
        if ((input[47]) >= (0.81215)) {
            if ((input[61]) >= (4174.5)) {
                var81 = -0.006534904;
            } else {
                var81 = 0.014676656;
            }
        } else {
            if ((input[56]) >= (7.5)) {
                var81 = -0.021621697;
            } else {
                var81 = 0.09130949;
            }
        }
    }
    double var82;
    if ((input[54]) >= (44.5)) {
        if ((input[61]) >= (20075.0)) {
            if ((input[61]) >= (43771.5)) {
                var82 = -0.031774346;
            } else {
                var82 = 0.010180778;
            }
        } else {
            if ((input[60]) >= (1.5)) {
                var82 = 0.013382459;
            } else {
                var82 = 0.0640025;
            }
        }
    } else {
        if ((input[61]) >= (12273.5)) {
            if ((input[53]) >= (0.97925)) {
                var82 = -0.037643213;
            } else {
                var82 = -0.010598852;
            }
        } else {
            if ((input[47]) >= (2.0704498)) {
                var82 = 0.009237956;
            } else {
                var82 = -0.006932293;
            }
        }
    }
    double var83;
    if ((input[12]) >= (0.5078)) {
        if ((input[48]) >= (65.06055)) {
            if ((input[61]) >= (560.5)) {
                var83 = -0.0015426185;
            } else {
                var83 = 0.032927435;
            }
        } else {
            if ((input[56]) >= (121.5)) {
                var83 = -0.026604628;
            } else {
                var83 = 0.008728904;
            }
        }
    } else {
        if ((input[6]) >= (3.5)) {
            if ((input[23]) >= (0.9)) {
                var83 = 0.026545305;
            } else {
                var83 = 0.08305548;
            }
        } else {
            if ((input[47]) >= (0.4154)) {
                var83 = 0.017793326;
            } else {
                var83 = -0.018235527;
            }
        }
    }
    double var84;
    if ((input[54]) >= (40.5)) {
        if ((input[56]) >= (1863.5)) {
            if ((input[46]) >= (183.4375)) {
                var84 = 0.0084951185;
            } else {
                var84 = -0.023850499;
            }
        } else {
            if ((input[60]) >= (1.5)) {
                var84 = -0.0007357471;
            } else {
                var84 = 0.079094104;
            }
        }
    } else {
        if ((input[61]) >= (151.5)) {
            if ((input[48]) >= (14.20115)) {
                var84 = -0.006130491;
            } else {
                var84 = -0.04856849;
            }
        } else {
            if ((input[52]) >= (24.3202)) {
                var84 = 0.052204933;
            } else {
                var84 = 0.0022712636;
            }
        }
    }
    double var85;
    if ((input[60]) >= (97.5)) {
        if ((input[53]) >= (0.1448)) {
            if ((input[60]) >= (135.5)) {
                var85 = -0.059724163;
            } else {
                var85 = -0.028850341;
            }
        } else {
            if ((input[12]) >= (30.835949)) {
                var85 = 0.26568264;
            } else {
                var85 = -0.004891755;
            }
        }
    } else {
        if ((input[53]) >= (0.92904997)) {
            if ((input[61]) >= (1148.5)) {
                var85 = -0.0108981235;
            } else {
                var85 = 0.005024958;
            }
        } else {
            if ((input[36]) >= (4.64555)) {
                var85 = 0.017253196;
            } else {
                var85 = -0.007548522;
            }
        }
    }
    double var86;
    if ((input[43]) >= (1.5)) {
        if ((input[46]) >= (0.0526)) {
            if ((input[36]) >= (5.05345)) {
                var86 = 0.0062018516;
            } else {
                var86 = -0.015987573;
            }
        } else {
            if ((input[61]) >= (4.5)) {
                var86 = -0.097434126;
            } else {
                var86 = -0.027043892;
            }
        }
    } else {
        if ((input[61]) >= (1540.5)) {
            if ((input[48]) >= (1391.0)) {
                var86 = 0.0069710836;
            } else {
                var86 = -0.014068996;
            }
        } else {
            if ((input[54]) >= (37.5)) {
                var86 = 0.026903376;
            } else {
                var86 = 0.0013505955;
            }
        }
    }
    double var87;
    if ((input[12]) >= (24.757801)) {
        if ((input[56]) >= (87.5)) {
            if ((input[36]) >= (4.6883)) {
                var87 = -0.0085901525;
            } else {
                var87 = -0.028790807;
            }
        } else {
            if ((input[60]) >= (15.5)) {
                var87 = -0.07380319;
            } else {
                var87 = 0.0480573;
            }
        }
    } else {
        if ((input[54]) >= (40.5)) {
            if ((input[61]) >= (6238.5)) {
                var87 = 0.0012750438;
            } else {
                var87 = 0.025394326;
            }
        } else {
            if ((input[14]) >= (2.9)) {
                var87 = 0.0069677853;
            } else {
                var87 = -0.01208449;
            }
        }
    }
    double var88;
    if ((input[56]) >= (27.5)) {
        if ((input[46]) >= (0.087400004)) {
            if ((input[0]) >= (6.0)) {
                var88 = -0.013403784;
            } else {
                var88 = 0.0030857895;
            }
        } else {
            if ((input[45]) >= (77.015656)) {
                var88 = -0.08984407;
            } else {
                var88 = -0.022600971;
            }
        }
    } else {
        if ((input[60]) >= (1.5)) {
            if ((input[45]) >= (55.164047)) {
                var88 = -0.01865795;
            } else {
                var88 = 0.044782363;
            }
        } else {
            if ((input[56]) >= (-43.0)) {
                var88 = 0.07249187;
            } else {
                var88 = -0.36457744;
            }
        }
    }
    double var89;
    if ((input[56]) >= (109.5)) {
        if ((input[48]) >= (32.82615)) {
            if ((input[61]) >= (421.5)) {
                var89 = -0.000829708;
            } else {
                var89 = 0.030783473;
            }
        } else {
            if ((input[1]) >= (3.33595)) {
                var89 = -0.035862286;
            } else {
                var89 = -0.010864266;
            }
        }
    } else {
        if ((input[54]) >= (35.5)) {
            if ((input[60]) >= (1.5)) {
                var89 = 0.013808275;
            } else {
                var89 = 0.07297513;
            }
        } else {
            if ((input[51]) >= (0.022550002)) {
                var89 = 0.02736353;
            } else {
                var89 = -0.023011377;
            }
        }
    }
    double var90;
    if ((input[53]) >= (0.41365)) {
        if ((input[12]) >= (4.0078)) {
            if ((input[48]) >= (1019.3672)) {
                var90 = 0.002891426;
            } else {
                var90 = -0.014771153;
            }
        } else {
            if ((input[61]) >= (9114.0)) {
                var90 = -0.018954484;
            } else {
                var90 = 0.009538494;
            }
        }
    } else {
        if ((input[61]) >= (4306.0)) {
            if ((input[46]) >= (2326.0894)) {
                var90 = 0.03181304;
            } else {
                var90 = -0.0022767028;
            }
        } else {
            if ((input[48]) >= (218.97461)) {
                var90 = 0.065139785;
            } else {
                var90 = 0.010299314;
            }
        }
    }
    double var91;
    if ((input[54]) >= (44.5)) {
        if ((input[61]) >= (16876.5)) {
            if ((input[61]) >= (41550.5)) {
                var91 = -0.027617956;
            } else {
                var91 = 0.011716015;
            }
        } else {
            if ((input[60]) >= (0.5)) {
                var91 = 0.029039158;
            } else {
                var91 = 0.08928869;
            }
        }
    } else {
        if ((input[61]) >= (11574.5)) {
            if ((input[47]) >= (3.09375)) {
                var91 = -0.0011216202;
            } else {
                var91 = -0.026885852;
            }
        } else {
            if ((input[14]) >= (2.225)) {
                var91 = 0.00478744;
            } else {
                var91 = -0.014421779;
            }
        }
    }
    double var92;
    if ((input[60]) >= (68.5)) {
        if ((input[48]) >= (3409.6055)) {
            if ((input[56]) >= (1580.0)) {
                var92 = -0.005839202;
            } else {
                var92 = 0.2195361;
            }
        } else {
            if ((input[36]) >= (5.13845)) {
                var92 = -0.021588324;
            } else {
                var92 = -0.05186486;
            }
        }
    } else {
        if ((input[47]) >= (2.46705)) {
            if ((input[61]) >= (1749.5)) {
                var92 = 0.004714631;
            } else {
                var92 = 0.030014848;
            }
        } else {
            if ((input[61]) >= (261.5)) {
                var92 = -0.010439439;
            } else {
                var92 = 0.008390851;
            }
        }
    }
    double var93;
    if ((input[54]) >= (37.5)) {
        if ((input[56]) >= (298.5)) {
            if ((input[46]) >= (5.6547003)) {
                var93 = 0.003990318;
            } else {
                var93 = -0.038198836;
            }
        } else {
            if ((input[60]) >= (1.5)) {
                var93 = 0.012087645;
            } else {
                var93 = 0.07309189;
            }
        }
    } else {
        if ((input[61]) >= (175.5)) {
            if ((input[47]) >= (1.95175)) {
                var93 = -0.006160046;
            } else {
                var93 = -0.031970453;
            }
        } else {
            if ((input[47]) >= (0.70860004)) {
                var93 = 0.01815108;
            } else {
                var93 = -0.026150316;
            }
        }
    }
    double var94;
    if ((input[36]) >= (4.69445)) {
        if ((input[61]) >= (1304.5)) {
            if ((input[48]) >= (113.30855)) {
                var94 = 0.0017607812;
            } else {
                var94 = -0.046118375;
            }
        } else {
            if ((input[48]) >= (72.61525)) {
                var94 = 0.03210873;
            } else {
                var94 = 0.0030753096;
            }
        }
    } else {
        if ((input[61]) >= (18.5)) {
            if ((input[52]) >= (8.438351)) {
                var94 = -0.0053527206;
            } else {
                var94 = -0.045595143;
            }
        } else {
            if ((input[60]) >= (2.5)) {
                var94 = -0.009114004;
            } else {
                var94 = 0.06296943;
            }
        }
    }
    double var95;
    if ((input[54]) >= (40.5)) {
        if ((input[61]) >= (5438.5)) {
            if ((input[46]) >= (195.69876)) {
                var95 = 0.0018606838;
            } else {
                var95 = -0.040811684;
            }
        } else {
            if ((input[60]) >= (1.5)) {
                var95 = 0.0064622634;
            } else {
                var95 = 0.04331122;
            }
        }
    } else {
        if ((input[61]) >= (808.5)) {
            if ((input[14]) >= (2.775)) {
                var95 = -0.0065318174;
            } else {
                var95 = -0.04133398;
            }
        } else {
            if ((input[48]) >= (558.2949)) {
                var95 = 0.045936424;
            } else {
                var95 = -0.00046230477;
            }
        }
    }
    double var96;
    if ((input[0]) >= (6.0)) {
        if ((input[56]) >= (13.5)) {
            if ((input[48]) >= (1.7246001)) {
                var96 = -0.008638318;
            } else {
                var96 = -0.040554356;
            }
        } else {
            if ((input[45]) >= (56.84375)) {
                var96 = 0.016675161;
            } else {
                var96 = 0.07408542;
            }
        }
    } else {
        if ((input[56]) >= (77.5)) {
            if ((input[54]) >= (42.5)) {
                var96 = 0.014990187;
            } else {
                var96 = -0.001959605;
            }
        } else {
            if ((input[41]) >= (1.5)) {
                var96 = 0.08045725;
            } else {
                var96 = 0.014674807;
            }
        }
    }
    double var97;
    if ((input[61]) >= (29862.5)) {
        if ((input[54]) >= (43.5)) {
            if ((input[53]) >= (0.98875)) {
                var97 = -0.029996792;
            } else {
                var97 = 0.0036901017;
            }
        } else {
            if ((input[47]) >= (2.3162)) {
                var97 = -0.033033065;
            } else {
                var97 = -0.06443291;
            }
        }
    } else {
        if ((input[54]) >= (42.5)) {
            if ((input[56]) >= (5154.5)) {
                var97 = 0.0067723775;
            } else {
                var97 = 0.031347673;
            }
        } else {
            if ((input[38]) >= (2.875)) {
                var97 = 0.007378839;
            } else {
                var97 = -0.0072063874;
            }
        }
    }
    double var98;
    if ((input[1]) >= (11.8828)) {
        if ((input[46]) >= (1286.2963)) {
            if ((input[56]) >= (2998.0)) {
                var98 = -0.0019608897;
            } else {
                var98 = 0.047904253;
            }
        } else {
            if ((input[56]) >= (416.5)) {
                var98 = -0.019742958;
            } else {
                var98 = 0.008591896;
            }
        }
    } else {
        if ((input[47]) >= (1.34025)) {
            if ((input[61]) >= (3253.5)) {
                var98 = -0.00283273;
            } else {
                var98 = 0.015093817;
            }
        } else {
            if ((input[61]) >= (13.5)) {
                var98 = -0.015989382;
            } else {
                var98 = 0.01889823;
            }
        }
    }
    double var99;
    if ((input[47]) >= (3.04985)) {
        if ((input[60]) >= (106.5)) {
            if ((input[61]) >= (696.5)) {
                var99 = -0.05152908;
            } else {
                var99 = 0.1718484;
            }
        } else {
            if ((input[61]) >= (7742.0)) {
                var99 = 0.0053493767;
            } else {
                var99 = 0.026650125;
            }
        }
    } else {
        if ((input[61]) >= (2768.5)) {
            if ((input[54]) >= (44.5)) {
                var99 = 0.0130158765;
            } else {
                var99 = -0.014481711;
            }
        } else {
            if ((input[43]) >= (0.5)) {
                var99 = -0.006369736;
            } else {
                var99 = 0.012103517;
            }
        }
    }
    double var100;
    var100 = (1.0) / ((1.0) + (exp((0.0) - ((((((((((((((((((((((((((((((((((((((((((((((((((((((((((((((((((((((((((((((((((((((((((((((((((((var0) + (var1)) + (var2)) + (var3)) + (var4)) + (var5)) + (var6)) + (var7)) + (var8)) + (var9)) + (var10)) + (var11)) + (var12)) + (var13)) + (var14)) + (var15)) + (var16)) + (var17)) + (var18)) + (var19)) + (var20)) + (var21)) + (var22)) + (var23)) + (var24)) + (var25)) + (var26)) + (var27)) + (var28)) + (var29)) + (var30)) + (var31)) + (var32)) + (var33)) + (var34)) + (var35)) + (var36)) + (var37)) + (var38)) + (var39)) + (var40)) + (var41)) + (var42)) + (var43)) + (var44)) + (var45)) + (var46)) + (var47)) + (var48)) + (var49)) + (var50)) + (var51)) + (var52)) + (var53)) + (var54)) + (var55)) + (var56)) + (var57)) + (var58)) + (var59)) + (var60)) + (var61)) + (var62)) + (var63)) + (var64)) + (var65)) + (var66)) + (var67)) + (var68)) + (var69)) + (var70)) + (var71)) + (var72)) + (var73)) + (var74)) + (var75)) + (var76)) + (var77)) + (var78)) + (var79)) + (var80)) + (var81)) + (var82)) + (var83)) + (var84)) + (var85)) + (var86)) + (var87)) + (var88)) + (var89)) + (var90)) + (var91)) + (var92)) + (var93)) + (var94)) + (var95)) + (var96)) + (var97)) + (var98)) + (var99)))));
    memcpy(output, (double[]){(1.0) - (var100), var100}, 2 * sizeof(double));
}
