#include <math.h>
#include <string.h>
void score(double * input, double * output) {
    double var0;
    if ((input[70]) >= (5.5)) {
        if ((input[49]) >= (4.29165)) {
            if ((input[49]) >= (6.29165)) {
                var0 = -0.17240322;
            } else {
                var0 = -0.11686778;
            }
        } else {
            if ((input[26]) >= (4.45)) {
                var0 = -0.07700355;
            } else {
                var0 = -0.0015719974;
            }
        }
    } else {
        if ((input[49]) >= (4.41665)) {
            if ((input[70]) >= (1.5)) {
                var0 = -0.0722652;
            } else {
                var0 = 0.04845674;
            }
        } else {
            if ((input[71]) >= (2924.5)) {
                var0 = 0.04845486;
            } else {
                var0 = 0.13897122;
            }
        }
    }
    double var1;
    if ((input[70]) >= (1.5)) {
        if ((input[49]) >= (4.29165)) {
            if ((input[70]) >= (7.5)) {
                var1 = -0.14893846;
            } else {
                var1 = -0.07404138;
            }
        } else {
            if ((input[70]) >= (7.5)) {
                var1 = -0.047278326;
            } else {
                var1 = 0.039627653;
            }
        }
    } else {
        if ((input[71]) >= (1304.5)) {
            if ((input[26]) >= (5.775)) {
                var1 = -0.018137842;
            } else {
                var1 = 0.07810906;
            }
        } else {
            if ((input[64]) >= (37.5)) {
                var1 = 0.15302506;
            } else {
                var1 = 0.046723377;
            }
        }
    }
    double var2;
    if ((input[70]) >= (1.5)) {
        if ((input[49]) >= (4.29165)) {
            if ((input[70]) >= (7.5)) {
                var2 = -0.1364931;
            } else {
                var2 = -0.06697738;
            }
        } else {
            if ((input[67]) >= (0.5)) {
                var2 = 0.03570979;
            } else {
                var2 = -0.0438751;
            }
        }
    } else {
        if ((input[71]) >= (907.5)) {
            if ((input[49]) >= (2.625)) {
                var2 = -0.004268553;
            } else {
                var2 = 0.07777845;
            }
        } else {
            if ((input[64]) >= (38.5)) {
                var2 = 0.15029772;
            } else {
                var2 = 0.091424726;
            }
        }
    }
    double var3;
    if ((input[70]) >= (4.5)) {
        if ((input[26]) >= (6.45)) {
            if ((input[49]) >= (5.625)) {
                var3 = -0.1401171;
            } else {
                var3 = -0.082482874;
            }
        } else {
            if ((input[51]) >= (2.5)) {
                var3 = 0.019326737;
            } else {
                var3 = -0.05280252;
            }
        }
    } else {
        if ((input[49]) >= (2.875)) {
            if ((input[49]) >= (6.70835)) {
                var3 = -0.060607523;
            } else {
                var3 = 0.0192068;
            }
        } else {
            if ((input[71]) >= (2852.5)) {
                var3 = 0.03949004;
            } else {
                var3 = 0.114550434;
            }
        }
    }
    double var4;
    if ((input[70]) >= (1.5)) {
        if ((input[51]) >= (1.5)) {
            if ((input[26]) >= (2.1)) {
                var4 = -0.03163557;
            } else {
                var4 = 0.035592295;
            }
        } else {
            if ((input[26]) >= (5.325)) {
                var4 = -0.11477023;
            } else {
                var4 = -0.046417996;
            }
        }
    } else {
        if ((input[71]) >= (827.5)) {
            if ((input[26]) >= (5.775)) {
                var4 = -0.01954193;
            } else {
                var4 = 0.06517575;
            }
        } else {
            if ((input[64]) >= (37.5)) {
                var4 = 0.12649599;
            } else {
                var4 = 0.030009583;
            }
        }
    }
    double var5;
    if ((input[70]) >= (6.5)) {
        if ((input[49]) >= (4.29165)) {
            if ((input[16]) >= (8.9)) {
                var5 = -0.12150254;
            } else {
                var5 = -0.07219159;
            }
        } else {
            if ((input[27]) >= (1.5)) {
                var5 = -0.01014412;
            } else {
                var5 = -0.06445983;
            }
        }
    } else {
        if ((input[51]) >= (2.5)) {
            if ((input[71]) >= (1776.5)) {
                var5 = 0.039131824;
            } else {
                var5 = 0.104202084;
            }
        } else {
            if ((input[70]) >= (1.5)) {
                var5 = -0.031704143;
            } else {
                var5 = 0.042493884;
            }
        }
    }
    double var6;
    if ((input[70]) >= (2.5)) {
        if ((input[26]) >= (6.45)) {
            if ((input[49]) >= (6.58335)) {
                var6 = -0.11544591;
            } else {
                var6 = -0.061055362;
            }
        } else {
            if ((input[49]) >= (2.125)) {
                var6 = -0.031190416;
            } else {
                var6 = 0.028119737;
            }
        }
    } else {
        if ((input[71]) >= (189.5)) {
            if ((input[26]) >= (3.775)) {
                var6 = -0.015490117;
            } else {
                var6 = 0.06650252;
            }
        } else {
            if ((input[64]) >= (37.5)) {
                var6 = 0.12219514;
            } else {
                var6 = 0.03588005;
            }
        }
    }
    double var7;
    if ((input[70]) >= (7.5)) {
        if ((input[49]) >= (6.125)) {
            if ((input[57]) >= (2.07535)) {
                var7 = -0.08980086;
            } else {
                var7 = -0.12352015;
            }
        } else {
            if ((input[27]) >= (1.5)) {
                var7 = -0.02210852;
            } else {
                var7 = -0.06836099;
            }
        }
    } else {
        if ((input[49]) >= (2.125)) {
            if ((input[51]) >= (1.5)) {
                var7 = 0.022479866;
            } else {
                var7 = -0.042663038;
            }
        } else {
            if ((input[71]) >= (2718.5)) {
                var7 = 0.024077743;
            } else {
                var7 = 0.09409019;
            }
        }
    }
    double var8;
    if ((input[70]) >= (1.5)) {
        if ((input[26]) >= (6.45)) {
            if ((input[49]) >= (6.58335)) {
                var8 = -0.10010274;
            } else {
                var8 = -0.047847763;
            }
        } else {
            if ((input[70]) >= (10.5)) {
                var8 = -0.04045005;
            } else {
                var8 = 0.01884663;
            }
        }
    } else {
        if ((input[71]) >= (189.5)) {
            if ((input[28]) >= (1.5)) {
                var8 = 0.06144458;
            } else {
                var8 = -0.008668999;
            }
        } else {
            if ((input[64]) >= (38.5)) {
                var8 = 0.1256144;
            } else {
                var8 = 0.06798099;
            }
        }
    }
    double var9;
    if ((input[51]) >= (1.5)) {
        if ((input[70]) >= (1.5)) {
            if ((input[51]) >= (3.5)) {
                var9 = 0.03802436;
            } else {
                var9 = -0.013512417;
            }
        } else {
            if ((input[71]) >= (3056.5)) {
                var9 = 0.022240162;
            } else {
                var9 = 0.08810056;
            }
        }
    } else {
        if ((input[70]) >= (8.5)) {
            if ((input[57]) >= (2.19635)) {
                var9 = -0.0671302;
            } else {
                var9 = -0.11175276;
            }
        } else {
            if ((input[56]) >= (1.1870999)) {
                var9 = -0.011953951;
            } else {
                var9 = -0.08193082;
            }
        }
    }
    double var10;
    if ((input[70]) >= (5.5)) {
        if ((input[49]) >= (5.41665)) {
            if ((input[57]) >= (1.78355)) {
                var10 = -0.07141035;
            } else {
                var10 = -0.11019527;
            }
        } else {
            if ((input[16]) >= (6.675)) {
                var10 = -0.047881305;
            } else {
                var10 = -0.0018001177;
            }
        }
    } else {
        if ((input[26]) >= (2.1)) {
            if ((input[66]) >= (18.5)) {
                var10 = -0.008937961;
            } else {
                var10 = 0.108483076;
            }
        } else {
            if ((input[71]) >= (1814.5)) {
                var10 = 0.02768741;
            } else {
                var10 = 0.08627162;
            }
        }
    }
    double var11;
    if ((input[51]) >= (2.5)) {
        if ((input[70]) >= (3.5)) {
            if ((input[57]) >= (1.6171501)) {
                var11 = 0.018997192;
            } else {
                var11 = -0.028399909;
            }
        } else {
            if ((input[71]) >= (3965.0)) {
                var11 = 0.019793386;
            } else {
                var11 = 0.08055347;
            }
        }
    } else {
        if ((input[70]) >= (8.5)) {
            if ((input[57]) >= (1.8499501)) {
                var11 = -0.0542602;
            } else {
                var11 = -0.101839;
            }
        } else {
            if ((input[16]) >= (6.9)) {
                var11 = -0.03337139;
            } else {
                var11 = 0.017802319;
            }
        }
    }
    double var12;
    if ((input[49]) >= (4.29165)) {
        if ((input[70]) >= (8.5)) {
            if ((input[57]) >= (1.9491)) {
                var12 = -0.05671499;
            } else {
                var12 = -0.10072114;
            }
        } else {
            if ((input[58]) >= (0.59145)) {
                var12 = -0.0097966315;
            } else {
                var12 = -0.08677255;
            }
        }
    } else {
        if ((input[70]) >= (1.5)) {
            if ((input[51]) >= (3.5)) {
                var12 = 0.031480603;
            } else {
                var12 = -0.01115025;
            }
        } else {
            if ((input[71]) >= (1425.5)) {
                var12 = 0.026670752;
            } else {
                var12 = 0.08268222;
            }
        }
    }
    double var13;
    if ((input[26]) >= (4.55)) {
        if ((input[70]) >= (2.5)) {
            if ((input[49]) >= (6.58335)) {
                var13 = -0.08268797;
            } else {
                var13 = -0.034695048;
            }
        } else {
            if ((input[71]) >= (69.5)) {
                var13 = -0.017780552;
            } else {
                var13 = 0.08238481;
            }
        }
    } else {
        if ((input[70]) >= (3.5)) {
            if ((input[57]) >= (1.0109)) {
                var13 = 0.009578847;
            } else {
                var13 = -0.064341165;
            }
        } else {
            if ((input[71]) >= (896.5)) {
                var13 = 0.024551325;
            } else {
                var13 = 0.083156906;
            }
        }
    }
    double var14;
    if ((input[49]) >= (2.125)) {
        if ((input[70]) >= (7.5)) {
            if ((input[57]) >= (1.57955)) {
                var14 = -0.043379217;
            } else {
                var14 = -0.09179353;
            }
        } else {
            if ((input[66]) >= (18.5)) {
                var14 = -0.010837212;
            } else {
                var14 = 0.094380766;
            }
        }
    } else {
        if ((input[66]) >= (2721.5)) {
            if ((input[64]) >= (43.5)) {
                var14 = 0.027030021;
            } else {
                var14 = -0.016123489;
            }
        } else {
            if ((input[70]) >= (0.5)) {
                var14 = 0.046169233;
            } else {
                var14 = 0.09844463;
            }
        }
    }
    double var15;
    if ((input[28]) >= (1.5)) {
        if ((input[12]) >= (0.96140003)) {
            if ((input[57]) >= (0.36575)) {
                var15 = 0.009154371;
            } else {
                var15 = -0.092280515;
            }
        } else {
            if ((input[70]) >= (1.5)) {
                var15 = 0.032431196;
            } else {
                var15 = 0.07341119;
            }
        }
    } else {
        if ((input[51]) >= (0.5)) {
            if ((input[66]) >= (74.5)) {
                var15 = -0.029492786;
            } else {
                var15 = 0.05329029;
            }
        } else {
            if ((input[70]) >= (10.5)) {
                var15 = -0.09192316;
            } else {
                var15 = -0.054350007;
            }
        }
    }
    double var16;
    if ((input[51]) >= (1.5)) {
        if ((input[66]) >= (116.5)) {
            if ((input[26]) >= (2.1)) {
                var16 = -0.013149123;
            } else {
                var16 = 0.027187282;
            }
        } else {
            if ((input[64]) >= (38.5)) {
                var16 = 0.10337508;
            } else {
                var16 = 0.040261384;
            }
        }
    } else {
        if ((input[70]) >= (10.5)) {
            if ((input[57]) >= (2.41425)) {
                var16 = -0.042556714;
            } else {
                var16 = -0.08910244;
            }
        } else {
            if ((input[58]) >= (1.0345)) {
                var16 = -0.008562881;
            } else {
                var16 = -0.07495987;
            }
        }
    }
    double var17;
    if ((input[16]) >= (6.1)) {
        if ((input[70]) >= (3.5)) {
            if ((input[57]) >= (1.5813501)) {
                var17 = -0.029795527;
            } else {
                var17 = -0.07581689;
            }
        } else {
            if ((input[71]) >= (77.5)) {
                var17 = -0.010274734;
            } else {
                var17 = 0.056671828;
            }
        }
    } else {
        if ((input[66]) >= (1364.5)) {
            if ((input[64]) >= (43.5)) {
                var17 = 0.026758347;
            } else {
                var17 = -0.008468617;
            }
        } else {
            if ((input[70]) >= (4.5)) {
                var17 = 0.00906837;
            } else {
                var17 = 0.06676815;
            }
        }
    }
    double var18;
    if ((input[49]) >= (6.58335)) {
        if ((input[70]) >= (10.5)) {
            if ((input[57]) >= (1.95705)) {
                var18 = -0.056892194;
            } else {
                var18 = -0.09417592;
            }
        } else {
            if ((input[57]) >= (0.40545)) {
                var18 = -0.019196875;
            } else {
                var18 = -0.093222834;
            }
        }
    } else {
        if ((input[12]) >= (0.5581)) {
            if ((input[51]) >= (3.5)) {
                var18 = 0.029060563;
            } else {
                var18 = -0.01269412;
            }
        } else {
            if ((input[70]) >= (0.5)) {
                var18 = 0.034292333;
            } else {
                var18 = 0.08128218;
            }
        }
    }
    double var19;
    if ((input[28]) >= (0.5)) {
        if ((input[12]) >= (2.5483499)) {
            if ((input[57]) >= (0.55055)) {
                var19 = -0.0011992109;
            } else {
                var19 = -0.08430327;
            }
        } else {
            if ((input[70]) >= (1.5)) {
                var19 = 0.018238397;
            } else {
                var19 = 0.057323404;
            }
        }
    } else {
        if ((input[66]) >= (45.5)) {
            if ((input[50]) >= (0.5)) {
                var19 = -0.030673442;
            } else {
                var19 = -0.07694169;
            }
        } else {
            if ((input[56]) >= (0.38605)) {
                var19 = 0.08056635;
            } else {
                var19 = -0.008453577;
            }
        }
    }
    double var20;
    if ((input[70]) >= (10.5)) {
        if ((input[27]) >= (0.5)) {
            if ((input[57]) >= (1.6150501)) {
                var20 = -0.012664949;
            } else {
                var20 = -0.05594005;
            }
        } else {
            if ((input[57]) >= (1.3310001)) {
                var20 = -0.054938298;
            } else {
                var20 = -0.09453316;
            }
        }
    } else {
        if ((input[51]) >= (3.5)) {
            if ((input[71]) >= (2695.5)) {
                var20 = 0.012551804;
            } else {
                var20 = 0.060194463;
            }
        } else {
            if ((input[4]) >= (1.5)) {
                var20 = -0.013563714;
            } else {
                var20 = 0.022215532;
            }
        }
    }
    double var21;
    if ((input[70]) >= (3.5)) {
        if ((input[58]) >= (0.9671)) {
            if ((input[70]) >= (12.5)) {
                var21 = -0.037141774;
            } else {
                var21 = 0.0020399704;
            }
        } else {
            if ((input[66]) >= (24.5)) {
                var21 = -0.0946038;
            } else {
                var21 = 0.033489835;
            }
        }
    } else {
        if ((input[71]) >= (127.5)) {
            if ((input[57]) >= (0.49844998)) {
                var21 = 0.015241238;
            } else {
                var21 = -0.078541234;
            }
        } else {
            if ((input[64]) >= (38.5)) {
                var21 = 0.08824018;
            } else {
                var21 = 0.029530156;
            }
        }
    }
    double var22;
    if ((input[7]) >= (1.5)) {
        if ((input[66]) >= (3820.5)) {
            if ((input[64]) >= (43.5)) {
                var22 = 0.015653647;
            } else {
                var22 = -0.019026797;
            }
        } else {
            if ((input[70]) >= (0.5)) {
                var22 = 0.029207988;
            } else {
                var22 = 0.080297686;
            }
        }
    } else {
        if ((input[51]) >= (0.5)) {
            if ((input[66]) >= (91.5)) {
                var22 = -0.016103435;
            } else {
                var22 = 0.045759555;
            }
        } else {
            if ((input[57]) >= (1.57735)) {
                var22 = -0.03771644;
            } else {
                var22 = -0.07738654;
            }
        }
    }
    double var23;
    if ((input[49]) >= (2.125)) {
        if ((input[57]) >= (1.0121)) {
            if ((input[70]) >= (13.5)) {
                var23 = -0.038291916;
            } else {
                var23 = 0.0022284158;
            }
        } else {
            if ((input[66]) >= (18.5)) {
                var23 = -0.060274508;
            } else {
                var23 = 0.069696955;
            }
        }
    } else {
        if ((input[66]) >= (2721.5)) {
            if ((input[64]) >= (43.5)) {
                var23 = 0.017441278;
            } else {
                var23 = -0.015961444;
            }
        } else {
            if ((input[70]) >= (0.5)) {
                var23 = 0.029889166;
            } else {
                var23 = 0.07840472;
            }
        }
    }
    double var24;
    if ((input[5]) >= (8.225)) {
        if ((input[66]) >= (18.5)) {
            if ((input[50]) >= (0.5)) {
                var24 = -0.019132566;
            } else {
                var24 = -0.06365249;
            }
        } else {
            if ((input[22]) >= (34.153847)) {
                var24 = -0.037311994;
            } else {
                var24 = 0.07850032;
            }
        }
    } else {
        if ((input[1]) >= (2.9819)) {
            if ((input[57]) >= (1.00055)) {
                var24 = 0.0015307886;
            } else {
                var24 = -0.05563118;
            }
        } else {
            if ((input[66]) >= (4080.0)) {
                var24 = 0.005405584;
            } else {
                var24 = 0.039644953;
            }
        }
    }
    double var25;
    if ((input[18]) >= (1.5)) {
        if ((input[66]) >= (620.5)) {
            if ((input[58]) >= (9.81415)) {
                var25 = 0.012380899;
            } else {
                var25 = -0.044799596;
            }
        } else {
            if ((input[64]) >= (38.5)) {
                var25 = 0.06882351;
            } else {
                var25 = 0.0048931492;
            }
        }
    } else {
        if ((input[1]) >= (1.8657)) {
            if ((input[56]) >= (6.29445)) {
                var25 = -0.021413906;
            } else {
                var25 = -0.06568627;
            }
        } else {
            if ((input[62]) >= (3.95015)) {
                var25 = 0.022337388;
            } else {
                var25 = -0.018235339;
            }
        }
    }
    double var26;
    if ((input[70]) >= (4.5)) {
        if ((input[57]) >= (1.7665501)) {
            if ((input[12]) >= (7.08495)) {
                var26 = -0.02495454;
            } else {
                var26 = 0.009258502;
            }
        } else {
            if ((input[58]) >= (0.62855005)) {
                var26 = -0.03592616;
            } else {
                var26 = -0.09307758;
            }
        }
    } else {
        if ((input[71]) >= (70.5)) {
            if ((input[58]) >= (6.9007998)) {
                var26 = 0.01695515;
            } else {
                var26 = -0.021928275;
            }
        } else {
            if ((input[70]) >= (2.5)) {
                var26 = 0.011895549;
            } else {
                var26 = 0.07287168;
            }
        }
    }
    double var27;
    if ((input[70]) >= (0.5)) {
        if ((input[12]) >= (6.9966)) {
            if ((input[57]) >= (1.5066)) {
                var27 = -0.019472657;
            } else {
                var27 = -0.06202781;
            }
        } else {
            if ((input[56]) >= (4.84405)) {
                var27 = 0.013653859;
            } else {
                var27 = -0.020243745;
            }
        }
    } else {
        if ((input[66]) >= (4468.5)) {
            if ((input[64]) >= (41.5)) {
                var27 = 0.020058155;
            } else {
                var27 = -0.06299167;
            }
        } else {
            if ((input[64]) >= (43.5)) {
                var27 = 0.10059595;
            } else {
                var27 = 0.04839936;
            }
        }
    }
    double var28;
    if ((input[26]) >= (0.9)) {
        if ((input[49]) >= (6.875)) {
            if ((input[1]) >= (9.74755)) {
                var28 = -0.07117987;
            } else {
                var28 = -0.034438286;
            }
        } else {
            if ((input[66]) >= (91.5)) {
                var28 = -0.010035321;
            } else {
                var28 = 0.03926829;
            }
        }
    } else {
        if ((input[66]) >= (3036.5)) {
            if ((input[64]) >= (44.5)) {
                var28 = 0.02182244;
            } else {
                var28 = -0.014115204;
            }
        } else {
            if ((input[61]) >= (0.06025)) {
                var28 = 0.061989285;
            } else {
                var28 = 0.02269721;
            }
        }
    }
    double var29;
    if ((input[15]) >= (0.5)) {
        if ((input[51]) >= (0.5)) {
            if ((input[66]) >= (47.5)) {
                var29 = -0.008635415;
            } else {
                var29 = 0.047762413;
            }
        } else {
            if ((input[58]) >= (0.62855005)) {
                var29 = -0.03419861;
            } else {
                var29 = -0.085687265;
            }
        }
    } else {
        if ((input[66]) >= (104.5)) {
            if ((input[61]) >= (0.03085)) {
                var29 = 0.01912193;
            } else {
                var29 = -0.015699098;
            }
        } else {
            if ((input[64]) >= (38.5)) {
                var29 = 0.08758738;
            } else {
                var29 = 0.030056259;
            }
        }
    }
    double var30;
    if ((input[12]) >= (0.53470004)) {
        if ((input[56]) >= (6.2962)) {
            if ((input[66]) >= (1445.5)) {
                var30 = -0.009101414;
            } else {
                var30 = 0.026945507;
            }
        } else {
            if ((input[66]) >= (55.5)) {
                var30 = -0.04719387;
            } else {
                var30 = 0.027491817;
            }
        }
    } else {
        if ((input[70]) >= (0.5)) {
            if ((input[62]) >= (4.76475)) {
                var30 = 0.03252262;
            } else {
                var30 = 0.000974877;
            }
        } else {
            if ((input[66]) >= (690.5)) {
                var30 = 0.021484911;
            } else {
                var30 = 0.07717427;
            }
        }
    }
    double var31;
    if ((input[70]) >= (10.5)) {
        if ((input[0]) >= (0.5)) {
            if ((input[24]) >= (0.9)) {
                var31 = -0.0014340468;
            } else {
                var31 = -0.046419024;
            }
        } else {
            if ((input[49]) >= (5.375)) {
                var31 = -0.069078356;
            } else {
                var31 = -0.029976616;
            }
        }
    } else {
        if ((input[71]) >= (5728.5)) {
            if ((input[64]) >= (45.5)) {
                var31 = 0.0059641483;
            } else {
                var31 = -0.025498768;
            }
        } else {
            if ((input[56]) >= (7.67135)) {
                var31 = 0.032651912;
            } else {
                var31 = -0.0038595402;
            }
        }
    }
    double var32;
    if ((input[70]) >= (0.5)) {
        if ((input[12]) >= (3.7837)) {
            if ((input[57]) >= (1.34005)) {
                var32 = -0.011405492;
            } else {
                var32 = -0.05316774;
            }
        } else {
            if ((input[56]) >= (3.2044501)) {
                var32 = 0.014227924;
            } else {
                var32 = -0.015433149;
            }
        }
    } else {
        if ((input[66]) >= (5395.5)) {
            if ((input[64]) >= (41.5)) {
                var32 = 0.012892074;
            } else {
                var32 = -0.057932585;
            }
        } else {
            if ((input[64]) >= (43.5)) {
                var32 = 0.094399914;
            } else {
                var32 = 0.036161553;
            }
        }
    }
    double var33;
    if ((input[1]) >= (0.21435)) {
        if ((input[57]) >= (0.33315)) {
            if ((input[5]) >= (8.225)) {
                var33 = -0.018486569;
            } else {
                var33 = 0.0059749037;
            }
        } else {
            if ((input[66]) >= (19.5)) {
                var33 = -0.07011407;
            } else {
                var33 = 0.049268354;
            }
        }
    } else {
        if ((input[70]) >= (2.5)) {
            if ((input[56]) >= (0.35145)) {
                var33 = 0.021938782;
            } else {
                var33 = -0.074155465;
            }
        } else {
            if ((input[64]) >= (38.5)) {
                var33 = 0.06428462;
            } else {
                var33 = 0.0051680747;
            }
        }
    }
    double var34;
    if ((input[66]) >= (55.5)) {
        if ((input[27]) >= (0.5)) {
            if ((input[57]) >= (0.19929999)) {
                var34 = 0.006459601;
            } else {
                var34 = -0.051344223;
            }
        } else {
            if ((input[49]) >= (8.375)) {
                var34 = -0.051919457;
            } else {
                var34 = -0.016918505;
            }
        }
    } else {
        if ((input[64]) >= (38.5)) {
            if ((input[71]) >= (-19.5)) {
                var34 = 0.103512526;
            } else {
                var34 = 0.054421213;
            }
        } else {
            if ((input[56]) >= (0.27685)) {
                var34 = 0.054418396;
            } else {
                var34 = -0.01951028;
            }
        }
    }
    double var35;
    if ((input[1]) >= (3.8608499)) {
        if ((input[57]) >= (1.32355)) {
            if ((input[70]) >= (16.5)) {
                var35 = -0.030545404;
            } else {
                var35 = 0.0003324365;
            }
        } else {
            if ((input[51]) >= (1.5)) {
                var35 = -0.024449337;
            } else {
                var35 = -0.066097945;
            }
        }
    } else {
        if ((input[64]) >= (43.5)) {
            if ((input[66]) >= (10201.5)) {
                var35 = 0.0061675287;
            } else {
                var35 = 0.057457626;
            }
        } else {
            if ((input[12]) >= (0.0747)) {
                var35 = -0.0032723595;
            } else {
                var35 = 0.029673731;
            }
        }
    }
    double var36;
    if ((input[66]) >= (189.5)) {
        if ((input[61]) >= (0.03475)) {
            if ((input[66]) >= (1711.5)) {
                var36 = -0.005664455;
            } else {
                var36 = 0.024460914;
            }
        } else {
            if ((input[12]) >= (2.3472)) {
                var36 = -0.049104046;
            } else {
                var36 = -0.01694795;
            }
        }
    } else {
        if ((input[64]) >= (38.5)) {
            if ((input[70]) >= (1.5)) {
                var36 = 0.031161407;
            } else {
                var36 = 0.08428508;
            }
        } else {
            if ((input[56]) >= (2.6231499)) {
                var36 = 0.033711445;
            } else {
                var36 = -0.024736682;
            }
        }
    }
    double var37;
    if ((input[51]) >= (3.5)) {
        if ((input[71]) >= (659.5)) {
            if ((input[64]) >= (43.5)) {
                var37 = 0.026801798;
            } else {
                var37 = -0.008193343;
            }
        } else {
            if ((input[64]) >= (38.5)) {
                var37 = 0.06379239;
            } else {
                var37 = -0.010009026;
            }
        }
    } else {
        if ((input[12]) >= (8.634251)) {
            if ((input[46]) >= (4.6661997)) {
                var37 = -0.019625887;
            } else {
                var37 = -0.05828872;
            }
        } else {
            if ((input[56]) >= (3.20745)) {
                var37 = 0.007000282;
            } else {
                var37 = -0.019974642;
            }
        }
    }
    double var38;
    if ((input[66]) >= (47.5)) {
        if ((input[5]) >= (8.775)) {
            if ((input[58]) >= (0.59145)) {
                var38 = -0.013899493;
            } else {
                var38 = -0.058214992;
            }
        } else {
            if ((input[71]) >= (58922.0)) {
                var38 = -0.021549871;
            } else {
                var38 = 0.008815123;
            }
        }
    } else {
        if ((input[70]) >= (0.5)) {
            if ((input[60]) >= (0.36815)) {
                var38 = 0.050111353;
            } else {
                var38 = 0.0047669723;
            }
        } else {
            if ((input[46]) >= (7.08585)) {
                var38 = -0.09686163;
            } else {
                var38 = 0.08424299;
            }
        }
    }
    double var39;
    if ((input[66]) >= (218.5)) {
        if ((input[57]) >= (1.6477499)) {
            if ((input[47]) >= (2.6764998)) {
                var39 = -0.044986136;
            } else {
                var39 = 0.005581354;
            }
        } else {
            if ((input[64]) >= (43.5)) {
                var39 = 0.0018572084;
            } else {
                var39 = -0.03410663;
            }
        }
    } else {
        if ((input[64]) >= (38.5)) {
            if ((input[70]) >= (2.5)) {
                var39 = 0.012093718;
            } else {
                var39 = 0.0758473;
            }
        } else {
            if ((input[62]) >= (5.12945)) {
                var39 = 0.035320114;
            } else {
                var39 = -0.017871836;
            }
        }
    }
    double var40;
    if ((input[18]) >= (3.5)) {
        if ((input[66]) >= (10415.0)) {
            if ((input[57]) >= (2.4697)) {
                var40 = 0.005115039;
            } else {
                var40 = -0.029152278;
            }
        } else {
            if ((input[64]) >= (43.5)) {
                var40 = 0.063324474;
            } else {
                var40 = 0.015684864;
            }
        }
    } else {
        if ((input[1]) >= (8.89795)) {
            if ((input[22]) >= (8.8618)) {
                var40 = -0.030299043;
            } else {
                var40 = 0.002191376;
            }
        } else {
            if ((input[64]) >= (43.5)) {
                var40 = 0.020272095;
            } else {
                var40 = -0.00485553;
            }
        }
    }
    double var41;
    if ((input[66]) >= (101.5)) {
        if ((input[61]) >= (0.03475)) {
            if ((input[66]) >= (1711.5)) {
                var41 = -0.0048159803;
            } else {
                var41 = 0.023764096;
            }
        } else {
            if ((input[58]) >= (0.28320003)) {
                var41 = -0.01583162;
            } else {
                var41 = -0.061166674;
            }
        }
    } else {
        if ((input[64]) >= (38.5)) {
            if ((input[71]) >= (-85.5)) {
                var41 = 0.0826573;
            } else {
                var41 = 0.029727167;
            }
        } else {
            if ((input[56]) >= (2.5655499)) {
                var41 = 0.045299884;
            } else {
                var41 = -0.010707596;
            }
        }
    }
    double var42;
    if ((input[70]) >= (11.5)) {
        if ((input[71]) >= (431.5)) {
            if ((input[2]) >= (2.5)) {
                var42 = 0.0070680166;
            } else {
                var42 = -0.020516088;
            }
        } else {
            if ((input[57]) >= (1.15435)) {
                var42 = -0.037077416;
            } else {
                var42 = -0.07955764;
            }
        }
    } else {
        if ((input[71]) >= (886.5)) {
            if ((input[64]) >= (43.5)) {
                var42 = 0.011577538;
            } else {
                var42 = -0.01699937;
            }
        } else {
            if ((input[58]) >= (10.34115)) {
                var42 = 0.051452685;
            } else {
                var42 = 0.0029596786;
            }
        }
    }
    double var43;
    if ((input[1]) >= (0.76119995)) {
        if ((input[60]) >= (2.18505)) {
            if ((input[66]) >= (643.5)) {
                var43 = -0.0041453145;
            } else {
                var43 = 0.03031261;
            }
        } else {
            if ((input[66]) >= (284.5)) {
                var43 = -0.041926272;
            } else {
                var43 = -0.008136128;
            }
        }
    } else {
        if ((input[64]) >= (38.5)) {
            if ((input[66]) >= (467.5)) {
                var43 = 0.009638387;
            } else {
                var43 = 0.052033544;
            }
        } else {
            if ((input[66]) >= (18.5)) {
                var43 = -0.004582495;
            } else {
                var43 = 0.05265355;
            }
        }
    }
    double var44;
    if ((input[70]) >= (0.5)) {
        if ((input[57]) >= (2.07545)) {
            if ((input[66]) >= (2998.5)) {
                var44 = -0.004290708;
            } else {
                var44 = 0.022460094;
            }
        } else {
            if ((input[70]) >= (3.5)) {
                var44 = -0.022971727;
            } else {
                var44 = 0.002145042;
            }
        }
    } else {
        if ((input[66]) >= (5395.5)) {
            if ((input[64]) >= (44.5)) {
                var44 = 0.010696393;
            } else {
                var44 = -0.044818867;
            }
        } else {
            if ((input[64]) >= (43.5)) {
                var44 = 0.085517;
            } else {
                var44 = 0.021213174;
            }
        }
    }
    double var45;
    if ((input[0]) >= (0.5)) {
        if ((input[66]) >= (375.5)) {
            if ((input[57]) >= (1.64765)) {
                var45 = 0.006267605;
            } else {
                var45 = -0.021304062;
            }
        } else {
            if ((input[64]) >= (40.5)) {
                var45 = 0.066280834;
            } else {
                var45 = 0.010570362;
            }
        }
    } else {
        if ((input[70]) >= (12.5)) {
            if ((input[32]) >= (1.5)) {
                var45 = -0.02691879;
            } else {
                var45 = -0.07157116;
            }
        } else {
            if ((input[71]) >= (114.5)) {
                var45 = -0.017821584;
            } else {
                var45 = 0.012571774;
            }
        }
    }
    double var46;
    if ((input[5]) >= (0.1)) {
        if ((input[12]) >= (8.5347)) {
            if ((input[46]) >= (4.8261003)) {
                var46 = -0.0129857985;
            } else {
                var46 = -0.042870592;
            }
        } else {
            if ((input[64]) >= (43.5)) {
                var46 = 0.019532321;
            } else {
                var46 = -0.003497239;
            }
        }
    } else {
        if ((input[71]) >= (6718.5)) {
            if ((input[60]) >= (18.9131)) {
                var46 = 0.013109586;
            } else {
                var46 = -0.01383781;
            }
        } else {
            if ((input[64]) >= (43.5)) {
                var46 = 0.06522661;
            } else {
                var46 = 0.014801807;
            }
        }
    }
    double var47;
    if ((input[66]) >= (55.5)) {
        if ((input[58]) >= (0.97134995)) {
            if ((input[47]) >= (2.6764998)) {
                var47 = -0.037931696;
            } else {
                var47 = 0.002253068;
            }
        } else {
            if ((input[70]) >= (2.5)) {
                var47 = -0.057311136;
            } else {
                var47 = -0.0064088055;
            }
        }
    } else {
        if ((input[70]) >= (2.5)) {
            if ((input[58]) >= (0.2426)) {
                var47 = 0.03694992;
            } else {
                var47 = -0.072347365;
            }
        } else {
            if ((input[1]) >= (0.0033999998)) {
                var47 = 0.03373813;
            } else {
                var47 = 0.07055719;
            }
        }
    }
    double var48;
    if ((input[1]) >= (0.0991)) {
        if ((input[46]) >= (3.36055)) {
            if ((input[64]) >= (43.5)) {
                var48 = 0.011984747;
            } else {
                var48 = -0.0066701914;
            }
        } else {
            if ((input[53]) >= (0.5)) {
                var48 = -0.07113653;
            } else {
                var48 = -0.021015363;
            }
        }
    } else {
        if ((input[64]) >= (38.5)) {
            if ((input[70]) >= (2.5)) {
                var48 = 0.0032398615;
            } else {
                var48 = 0.056514204;
            }
        } else {
            if ((input[3]) >= (1.45)) {
                var48 = 0.03079519;
            } else {
                var48 = -0.013595114;
            }
        }
    }
    double var49;
    if ((input[1]) >= (2.7036)) {
        if ((input[58]) >= (30.639751)) {
            if ((input[66]) >= (1711.5)) {
                var49 = -0.007423149;
            } else {
                var49 = 0.026839033;
            }
        } else {
            if ((input[66]) >= (394.5)) {
                var49 = -0.048318144;
            } else {
                var49 = 0.00019137992;
            }
        }
    } else {
        if ((input[62]) >= (6.2564497)) {
            if ((input[71]) >= (1986.5)) {
                var49 = 0.0024450845;
            } else {
                var49 = 0.031056179;
            }
        } else {
            if ((input[66]) >= (18.5)) {
                var49 = -0.0089998795;
            } else {
                var49 = 0.041677188;
            }
        }
    }
    double var50;
    if ((input[0]) >= (0.5)) {
        if ((input[55]) >= (43.9966)) {
            if ((input[57]) >= (1.0026)) {
                var50 = 0.0027252722;
            } else {
                var50 = -0.023364915;
            }
        } else {
            if ((input[66]) >= (54.5)) {
                var50 = 0.015813353;
            } else {
                var50 = 0.058512896;
            }
        }
    } else {
        if ((input[70]) >= (13.5)) {
            if ((input[33]) >= (1.63335)) {
                var50 = -0.020401536;
            } else {
                var50 = -0.06305099;
            }
        } else {
            if ((input[71]) >= (156.5)) {
                var50 = -0.016291639;
            } else {
                var50 = 0.008648401;
            }
        }
    }
    double var51;
    if ((input[71]) >= (58764.5)) {
        if ((input[70]) >= (5.5)) {
            if ((input[70]) >= (404.5)) {
                var51 = -0.055252332;
            } else {
                var51 = 0.0014605167;
            }
        } else {
            if ((input[62]) >= (1287.0669)) {
                var51 = -0.022988794;
            } else {
                var51 = -0.049462344;
            }
        }
    } else {
        if ((input[57]) >= (2.57755)) {
            if ((input[70]) >= (17.5)) {
                var51 = -0.005928364;
            } else {
                var51 = 0.022752022;
            }
        } else {
            if ((input[70]) >= (4.5)) {
                var51 = -0.015490212;
            } else {
                var51 = 0.0047897794;
            }
        }
    }
    double var52;
    if ((input[64]) >= (43.5)) {
        if ((input[66]) >= (8239.5)) {
            if ((input[1]) >= (11.21385)) {
                var52 = -0.027169898;
            } else {
                var52 = 0.0038062935;
            }
        } else {
            if ((input[62]) >= (64.2185)) {
                var52 = 0.06507691;
            } else {
                var52 = 0.014897803;
            }
        }
    } else {
        if ((input[66]) >= (200.5)) {
            if ((input[58]) >= (0.39005)) {
                var52 = -0.0070161032;
            } else {
                var52 = -0.08124497;
            }
        } else {
            if ((input[64]) >= (38.5)) {
                var52 = 0.046983507;
            } else {
                var52 = -0.0010577779;
            }
        }
    }
    double var53;
    if ((input[1]) >= (8.9058)) {
        if ((input[22]) >= (8.8618)) {
            if ((input[57]) >= (1.8985)) {
                var53 = -0.01001061;
            } else {
                var53 = -0.04229177;
            }
        } else {
            if ((input[66]) >= (684.5)) {
                var53 = 0.0015831793;
            } else {
                var53 = 0.031030009;
            }
        }
    } else {
        if ((input[64]) >= (43.5)) {
            if ((input[66]) >= (9723.5)) {
                var53 = 0.0023696087;
            } else {
                var53 = 0.039732054;
            }
        } else {
            if ((input[12]) >= (0.0454)) {
                var53 = -0.00420305;
            } else {
                var53 = 0.018240165;
            }
        }
    }
    double var54;
    if ((input[57]) >= (0.3323)) {
        if ((input[66]) >= (386.5)) {
            if ((input[58]) >= (29.97945)) {
                var54 = 0.0023579334;
            } else {
                var54 = -0.019395858;
            }
        } else {
            if ((input[64]) >= (38.5)) {
                var54 = 0.04749313;
            } else {
                var54 = -0.0011085424;
            }
        }
    } else {
        if ((input[70]) >= (2.5)) {
            if ((input[22]) >= (3.4433498)) {
                var54 = -0.07205498;
            } else {
                var54 = -0.03206381;
            }
        } else {
            if ((input[71]) >= (98.5)) {
                var54 = -0.04847417;
            } else {
                var54 = 0.049883515;
            }
        }
    }
    double var55;
    if ((input[20]) >= (0.5)) {
        if ((input[46]) >= (3.3920002)) {
            if ((input[58]) >= (0.24419999)) {
                var55 = -0.0012595797;
            } else {
                var55 = -0.038360815;
            }
        } else {
            if ((input[70]) >= (1.5)) {
                var55 = -0.062850855;
            } else {
                var55 = 0.010337255;
            }
        }
    } else {
        if ((input[66]) >= (3889.0)) {
            if ((input[47]) >= (2.5147)) {
                var55 = -0.033238657;
            } else {
                var55 = 0.0027762258;
            }
        } else {
            if ((input[60]) >= (3.90185)) {
                var55 = 0.041927762;
            } else {
                var55 = 0.0037638966;
            }
        }
    }
    double var56;
    if ((input[12]) >= (3.2427)) {
        if ((input[46]) >= (3.44525)) {
            if ((input[0]) >= (0.5)) {
                var56 = -0.00077162933;
            } else {
                var56 = -0.024613872;
            }
        } else {
            if ((input[66]) >= (71.5)) {
                var56 = -0.057841867;
            } else {
                var56 = 0.05324861;
            }
        }
    } else {
        if ((input[58]) >= (6.94215)) {
            if ((input[66]) >= (620.5)) {
                var56 = 0.0056006047;
            } else {
                var56 = 0.043786112;
            }
        } else {
            if ((input[66]) >= (47.5)) {
                var56 = -0.01050263;
            } else {
                var56 = 0.02272236;
            }
        }
    }
    double var57;
    if ((input[64]) >= (40.5)) {
        if ((input[66]) >= (510.5)) {
            if ((input[56]) >= (28.3871)) {
                var57 = 0.0066428143;
            } else {
                var57 = -0.025293548;
            }
        } else {
            if ((input[70]) >= (2.5)) {
                var57 = 0.006609419;
            } else {
                var57 = 0.062458355;
            }
        }
    } else {
        if ((input[66]) >= (55.5)) {
            if ((input[58]) >= (0.29365)) {
                var57 = -0.0072938264;
            } else {
                var57 = -0.0751222;
            }
        } else {
            if ((input[60]) >= (0.31005)) {
                var57 = 0.033653572;
            } else {
                var57 = -0.0021171311;
            }
        }
    }
    double var58;
    if ((input[71]) >= (58764.5)) {
        if ((input[67]) >= (0.5)) {
            if ((input[47]) >= (2.2647)) {
                var58 = -0.052616384;
            } else {
                var58 = -0.022313835;
            }
        } else {
            if ((input[70]) >= (404.5)) {
                var58 = -0.050138563;
            } else {
                var58 = 0.01167391;
            }
        }
    } else {
        if ((input[57]) >= (2.57915)) {
            if ((input[66]) >= (4437.5)) {
                var58 = 0.0072440705;
            } else {
                var58 = 0.026170377;
            }
        } else {
            if ((input[64]) >= (46.5)) {
                var58 = 0.037009925;
            } else {
                var58 = -0.00598741;
            }
        }
    }
    double var59;
    if ((input[12]) >= (0.0757)) {
        if ((input[46]) >= (3.36055)) {
            if ((input[47]) >= (2.6764998)) {
                var59 = -0.031036338;
            } else {
                var59 = 0.00052926573;
            }
        } else {
            if ((input[53]) >= (1.5)) {
                var59 = -0.06970612;
            } else {
                var59 = -0.023578888;
            }
        }
    } else {
        if ((input[64]) >= (38.5)) {
            if ((input[70]) >= (1.5)) {
                var59 = 0.006848179;
            } else {
                var59 = 0.05581404;
            }
        } else {
            if ((input[3]) >= (1.45)) {
                var59 = 0.028568981;
            } else {
                var59 = -0.017071351;
            }
        }
    }
    double var60;
    if ((input[0]) >= (0.5)) {
        if ((input[55]) >= (43.9966)) {
            if ((input[0]) >= (6.0)) {
                var60 = -0.015268599;
            } else {
                var60 = 0.004011169;
            }
        } else {
            if ((input[12]) >= (0.1284)) {
                var60 = 0.009032229;
            } else {
                var60 = 0.028677016;
            }
        }
    } else {
        if ((input[70]) >= (16.5)) {
            if ((input[33]) >= (1.63335)) {
                var60 = -0.01762653;
            } else {
                var60 = -0.0599145;
            }
        } else {
            if ((input[58]) >= (0.5855)) {
                var60 = -0.0026110357;
            } else {
                var60 = -0.033695176;
            }
        }
    }
    double var61;
    if ((input[66]) >= (1315.5)) {
        if ((input[57]) >= (2.46645)) {
            if ((input[71]) >= (53495.5)) {
                var61 = -0.013434692;
            } else {
                var61 = 0.010698254;
            }
        } else {
            if ((input[2]) >= (2.5)) {
                var61 = 0.0080574;
            } else {
                var61 = -0.020300843;
            }
        }
    } else {
        if ((input[64]) >= (38.5)) {
            if ((input[56]) >= (26.06025)) {
                var61 = 0.059444737;
            } else {
                var61 = 0.0101043675;
            }
        } else {
            if ((input[66]) >= (18.5)) {
                var61 = -0.013000718;
            } else {
                var61 = 0.042846765;
            }
        }
    }
    double var62;
    if ((input[64]) >= (43.5)) {
        if ((input[66]) >= (8483.5)) {
            if ((input[60]) >= (18.38035)) {
                var62 = 0.0066909133;
            } else {
                var62 = -0.019632462;
            }
        } else {
            if ((input[60]) >= (10.18505)) {
                var62 = 0.068855666;
            } else {
                var62 = 0.018424725;
            }
        }
    } else {
        if ((input[66]) >= (218.5)) {
            if ((input[58]) >= (1.50665)) {
                var62 = -0.00491629;
            } else {
                var62 = -0.044816546;
            }
        } else {
            if ((input[58]) >= (10.260099)) {
                var62 = 0.065120876;
            } else {
                var62 = 0.004980089;
            }
        }
    }
    double var63;
    if ((input[64]) >= (46.5)) {
        if ((input[66]) >= (12651.0)) {
            if ((input[58]) >= (194.9013)) {
                var63 = 0.002514055;
            } else {
                var63 = -0.063143775;
            }
        } else {
            if ((input[70]) >= (3.5)) {
                var63 = 0.019603858;
            } else {
                var63 = 0.082237616;
            }
        }
    } else {
        if ((input[66]) >= (639.5)) {
            if ((input[58]) >= (32.184547)) {
                var63 = -0.0011747228;
            } else {
                var63 = -0.025496075;
            }
        } else {
            if ((input[58]) >= (10.309)) {
                var63 = 0.03812802;
            } else {
                var63 = -0.0010195117;
            }
        }
    }
    double var64;
    if ((input[1]) >= (10.51415)) {
        if ((input[51]) >= (0.5)) {
            if ((input[66]) >= (8829.0)) {
                var64 = -0.018153882;
            } else {
                var64 = 0.0034356534;
            }
        } else {
            if ((input[22]) >= (9.9848995)) {
                var64 = -0.045447275;
            } else {
                var64 = 0.00034208148;
            }
        }
    } else {
        if ((input[64]) >= (43.5)) {
            if ((input[66]) >= (1004.5)) {
                var64 = 0.0102290865;
            } else {
                var64 = 0.062319525;
            }
        } else {
            if ((input[1]) >= (0.21435)) {
                var64 = -0.0046032136;
            } else {
                var64 = 0.010769725;
            }
        }
    }
    double var65;
    if ((input[57]) >= (2.36825)) {
        if ((input[66]) >= (4458.5)) {
            if ((input[60]) >= (22.1968)) {
                var65 = 0.008236683;
            } else {
                var65 = -0.009016865;
            }
        } else {
            if ((input[64]) >= (38.5)) {
                var65 = 0.03207097;
            } else {
                var65 = 0.0010873821;
            }
        }
    } else {
        if ((input[66]) >= (478.5)) {
            if ((input[58]) >= (61.1257)) {
                var65 = -0.0032798667;
            } else {
                var65 = -0.02333127;
            }
        } else {
            if ((input[64]) >= (38.5)) {
                var65 = 0.026195986;
            } else {
                var65 = -0.010192915;
            }
        }
    }
    double var66;
    if ((input[57]) >= (0.19665)) {
        if ((input[66]) >= (1445.5)) {
            if ((input[61]) >= (0.31155002)) {
                var66 = 0.0072879614;
            } else {
                var66 = -0.00890288;
            }
        } else {
            if ((input[64]) >= (38.5)) {
                var66 = 0.022354139;
            } else {
                var66 = -0.0053151543;
            }
        }
    } else {
        if ((input[70]) >= (1.5)) {
            if ((input[47]) >= (2.4411998)) {
                var66 = 0.16584007;
            } else {
                var66 = -0.050396647;
            }
        } else {
            if ((input[71]) >= (71.5)) {
                var66 = -0.038782027;
            } else {
                var66 = 0.08171598;
            }
        }
    }
    double var67;
    if ((input[64]) >= (46.5)) {
        if ((input[66]) >= (23184.0)) {
            if ((input[57]) >= (2.6823502)) {
                var67 = 0.0008422739;
            } else {
                var67 = -0.037273727;
            }
        } else {
            if ((input[70]) >= (3.5)) {
                var67 = 0.013538294;
            } else {
                var67 = 0.07041224;
            }
        }
    } else {
        if ((input[14]) >= (0.55)) {
            if ((input[1]) >= (0.050300002)) {
                var67 = -0.0016534664;
            } else {
                var67 = 0.022523355;
            }
        } else {
            if ((input[66]) >= (98.5)) {
                var67 = -0.025226876;
            } else {
                var67 = 0.011360408;
            }
        }
    }
    double var68;
    if ((input[61]) >= (0.07305)) {
        if ((input[66]) >= (2722.5)) {
            if ((input[47]) >= (2.5147)) {
                var68 = -0.025845347;
            } else {
                var68 = 0.000015935035;
            }
        } else {
            if ((input[64]) >= (40.5)) {
                var68 = 0.04919566;
            } else {
                var68 = 0.008096871;
            }
        }
    } else {
        if ((input[66]) >= (285.5)) {
            if ((input[59]) >= (1.0165501)) {
                var68 = -0.0085803205;
            } else {
                var68 = -0.032799397;
            }
        } else {
            if ((input[64]) >= (39.5)) {
                var68 = 0.033926588;
            } else {
                var68 = -0.0036579717;
            }
        }
    }
    double var69;
    if ((input[46]) >= (3.4022)) {
        if ((input[71]) >= (58764.5)) {
            if ((input[70]) >= (5.5)) {
                var69 = 0.0011811311;
            } else {
                var69 = -0.02817589;
            }
        } else {
            if ((input[64]) >= (46.5)) {
                var69 = 0.031305145;
            } else {
                var69 = 0.0009870896;
            }
        }
    } else {
        if ((input[53]) >= (1.5)) {
            if ((input[57]) >= (1.3965499)) {
                var69 = -0.02499432;
            } else {
                var69 = -0.075437136;
            }
        } else {
            if ((input[12]) >= (0.12745)) {
                var69 = -0.023406113;
            } else {
                var69 = 0.053647626;
            }
        }
    }
    double var70;
    if ((input[57]) >= (2.41715)) {
        if ((input[71]) >= (53495.5)) {
            if ((input[70]) >= (9.5)) {
                var70 = 0.008888982;
            } else {
                var70 = -0.019346291;
            }
        } else {
            if ((input[64]) >= (45.5)) {
                var70 = 0.028076887;
            } else {
                var70 = 0.007874335;
            }
        }
    } else {
        if ((input[66]) >= (513.5)) {
            if ((input[46]) >= (5.37685)) {
                var70 = -0.0039731236;
            } else {
                var70 = -0.024649544;
            }
        } else {
            if ((input[64]) >= (40.5)) {
                var70 = 0.032717694;
            } else {
                var70 = -0.0036699164;
            }
        }
    }
    double var71;
    if ((input[0]) >= (0.5)) {
        if ((input[13]) >= (0.5)) {
            if ((input[66]) >= (2670.5)) {
                var71 = -0.00036645474;
            } else {
                var71 = 0.012681519;
            }
        } else {
            if ((input[0]) >= (6.0)) {
                var71 = -0.027757792;
            } else {
                var71 = -0.0019535997;
            }
        }
    } else {
        if ((input[1]) >= (2.0874)) {
            if ((input[66]) >= (72.5)) {
                var71 = -0.023683809;
            } else {
                var71 = 0.034332182;
            }
        } else {
            if ((input[68]) >= (0.5)) {
                var71 = 0.020145586;
            } else {
                var71 = -0.0074359984;
            }
        }
    }
    double var72;
    if ((input[64]) >= (43.5)) {
        if ((input[66]) >= (6364.5)) {
            if ((input[58]) >= (221.5432)) {
                var72 = 0.0020585502;
            } else {
                var72 = -0.037906267;
            }
        } else {
            if ((input[62]) >= (116.72975)) {
                var72 = 0.06599393;
            } else {
                var72 = 0.0151211275;
            }
        }
    } else {
        if ((input[57]) >= (0.19665)) {
            if ((input[66]) >= (192.5)) {
                var72 = -0.0046693054;
            } else {
                var72 = 0.013485933;
            }
        } else {
            if ((input[66]) >= (12.5)) {
                var72 = -0.04121686;
            } else {
                var72 = 0.092291795;
            }
        }
    }
    double var73;
    if ((input[61]) >= (0.04515)) {
        if ((input[66]) >= (1698.5)) {
            if ((input[72]) >= (23.5)) {
                var73 = -0.005640031;
            } else {
                var73 = 0.009208634;
            }
        } else {
            if ((input[64]) >= (38.5)) {
                var73 = 0.03415092;
            } else {
                var73 = 0.00093098276;
            }
        }
    } else {
        if ((input[66]) >= (101.5)) {
            if ((input[46]) >= (4.8955)) {
                var73 = -0.007323885;
            } else {
                var73 = -0.027517943;
            }
        } else {
            if ((input[71]) >= (-118.5)) {
                var73 = 0.01591287;
            } else {
                var73 = -0.037491396;
            }
        }
    }
    double var74;
    if ((input[61]) >= (0.30835)) {
        if ((input[66]) >= (2949.5)) {
            if ((input[72]) >= (32.5)) {
                var74 = -0.0015122549;
            } else {
                var74 = 0.016824527;
            }
        } else {
            if ((input[64]) >= (40.5)) {
                var74 = 0.070374034;
            } else {
                var74 = 0.020126572;
            }
        }
    } else {
        if ((input[66]) >= (1229.5)) {
            if ((input[46]) >= (5.3769503)) {
                var74 = -0.003938466;
            } else {
                var74 = -0.024794107;
            }
        } else {
            if ((input[64]) >= (43.5)) {
                var74 = 0.049246266;
            } else {
                var74 = 0.00047297517;
            }
        }
    }
    double var75;
    if ((input[56]) >= (11.5659)) {
        if ((input[66]) >= (1193.5)) {
            if ((input[12]) >= (14.1089)) {
                var75 = -0.01408721;
            } else {
                var75 = 0.002367648;
            }
        } else {
            if ((input[64]) >= (38.5)) {
                var75 = 0.041070618;
            } else {
                var75 = -0.00012208127;
            }
        }
    } else {
        if ((input[22]) >= (3.2612)) {
            if ((input[66]) >= (220.5)) {
                var75 = -0.033396434;
            } else {
                var75 = -0.00042981855;
            }
        } else {
            if ((input[71]) >= (53.5)) {
                var75 = -0.0054943818;
            } else {
                var75 = 0.014766584;
            }
        }
    }
    double var76;
    if ((input[64]) >= (40.5)) {
        if ((input[66]) >= (3033.5)) {
            if ((input[58]) >= (221.68785)) {
                var76 = 0.0021049145;
            } else {
                var76 = -0.020586744;
            }
        } else {
            if ((input[58]) >= (86.38015)) {
                var76 = 0.053837746;
            } else {
                var76 = 0.006186249;
            }
        }
    } else {
        if ((input[58]) >= (1.5215499)) {
            if ((input[70]) >= (1.5)) {
                var76 = 0.0025683453;
            } else {
                var76 = -0.02122295;
            }
        } else {
            if ((input[66]) >= (23.5)) {
                var76 = -0.031841222;
            } else {
                var76 = 0.032948013;
            }
        }
    }
    double var77;
    if ((input[64]) >= (43.5)) {
        if ((input[66]) >= (9355.5)) {
            if ((input[24]) >= (0.775)) {
                var77 = 0.0026235802;
            } else {
                var77 = -0.027486786;
            }
        } else {
            if ((input[70]) >= (1.5)) {
                var77 = 0.0055588577;
            } else {
                var77 = 0.045963358;
            }
        }
    } else {
        if ((input[2]) >= (2.5)) {
            if ((input[66]) >= (47753.0)) {
                var77 = -0.011285025;
            } else {
                var77 = 0.015315217;
            }
        } else {
            if ((input[66]) >= (317.5)) {
                var77 = -0.011738407;
            } else {
                var77 = 0.0054915915;
            }
        }
    }
    double var78;
    if ((input[57]) >= (2.68085)) {
        if ((input[71]) >= (97289.5)) {
            if ((input[70]) >= (5.5)) {
                var78 = 0.0010348106;
            } else {
                var78 = -0.03143237;
            }
        } else {
            if ((input[12]) >= (19.03955)) {
                var78 = -0.012721996;
            } else {
                var78 = 0.013992964;
            }
        }
    } else {
        if ((input[2]) >= (2.5)) {
            if ((input[0]) >= (0.5)) {
                var78 = 0.017187301;
            } else {
                var78 = -0.007568308;
            }
        } else {
            if ((input[66]) >= (1069.5)) {
                var78 = -0.01326518;
            } else {
                var78 = 0.00086030253;
            }
        }
    }
    double var79;
    if ((input[64]) >= (46.5)) {
        if ((input[66]) >= (23184.0)) {
            if ((input[24]) >= (2.225)) {
                var79 = 0.03886422;
            } else {
                var79 = -0.0099622;
            }
        } else {
            if ((input[66]) >= (5269.0)) {
                var79 = 0.03109551;
            } else {
                var79 = 0.08064755;
            }
        }
    } else {
        if ((input[14]) >= (1.1)) {
            if ((input[12]) >= (0.02)) {
                var79 = 0.00040607067;
            } else {
                var79 = 0.027007872;
            }
        } else {
            if ((input[70]) >= (10.5)) {
                var79 = -0.033287406;
            } else {
                var79 = -0.006068373;
            }
        }
    }
    double var80;
    if ((input[46]) >= (3.36075)) {
        if ((input[47]) >= (2.6764998)) {
            if ((input[71]) >= (526.5)) {
                var80 = -0.024797892;
            } else {
                var80 = 0.052575227;
            }
        } else {
            if ((input[61]) >= (0.12735)) {
                var80 = 0.007597481;
            } else {
                var80 = -0.0026127931;
            }
        }
    } else {
        if ((input[53]) >= (0.5)) {
            if ((input[48]) >= (1.875)) {
                var80 = 0.07149143;
            } else {
                var80 = -0.051707324;
            }
        } else {
            if ((input[1]) >= (0.117699996)) {
                var80 = -0.013119345;
            } else {
                var80 = 0.071804926;
            }
        }
    }
    double var81;
    if ((input[0]) >= (0.5)) {
        if ((input[13]) >= (0.5)) {
            if ((input[1]) >= (0.050300002)) {
                var81 = 0.0026253115;
            } else {
                var81 = 0.022549892;
            }
        } else {
            if ((input[0]) >= (6.0)) {
                var81 = -0.024809169;
            } else {
                var81 = -0.0013091163;
            }
        }
    } else {
        if ((input[70]) >= (64.5)) {
            if ((input[55]) >= (56.4121)) {
                var81 = -0.06300096;
            } else {
                var81 = -0.011666719;
            }
        } else {
            if ((input[58]) >= (0.59055)) {
                var81 = -0.0031683862;
            } else {
                var81 = -0.031467266;
            }
        }
    }
    double var82;
    if ((input[64]) >= (40.5)) {
        if ((input[66]) >= (746.5)) {
            if ((input[58]) >= (58.43605)) {
                var82 = 0.005365647;
            } else {
                var82 = -0.02201784;
            }
        } else {
            if ((input[70]) >= (2.5)) {
                var82 = -0.0007535092;
            } else {
                var82 = 0.04375894;
            }
        }
    } else {
        if ((input[56]) >= (0.0731)) {
            if ((input[70]) >= (1.5)) {
                var82 = 0.0009250763;
            } else {
                var82 = -0.019441074;
            }
        } else {
            if ((input[66]) >= (17.5)) {
                var82 = -0.05930556;
            } else {
                var82 = 0.06191904;
            }
        }
    }
    double var83;
    if ((input[72]) >= (23.5)) {
        if ((input[66]) >= (4573.5)) {
            if ((input[67]) >= (0.5)) {
                var83 = -0.01350721;
            } else {
                var83 = 0.0012106255;
            }
        } else {
            if ((input[64]) >= (46.5)) {
                var83 = 0.07546467;
            } else {
                var83 = 0.00062536064;
            }
        }
    } else {
        if ((input[46]) >= (5.61175)) {
            if ((input[71]) >= (151488.5)) {
                var83 = -0.018249502;
            } else {
                var83 = 0.016232535;
            }
        } else {
            if ((input[22]) >= (9.74855)) {
                var83 = -0.019139497;
            } else {
                var83 = 0.004123474;
            }
        }
    }
    double var84;
    if ((input[20]) >= (0.5)) {
        if ((input[14]) >= (1.1)) {
            if ((input[12]) >= (0.02)) {
                var84 = -0.00087421125;
            } else {
                var84 = 0.024209296;
            }
        } else {
            if ((input[22]) >= (5.5620003)) {
                var84 = -0.024430761;
            } else {
                var84 = -0.0026145112;
            }
        }
    } else {
        if ((input[0]) >= (6.0)) {
            if ((input[61]) >= (0.05975)) {
                var84 = 0.010382196;
            } else {
                var84 = -0.022062397;
            }
        } else {
            if ((input[12]) >= (0.01025)) {
                var84 = 0.0077050473;
            } else {
                var84 = 0.06019774;
            }
        }
    }
    double var85;
    if ((input[64]) >= (44.5)) {
        if ((input[66]) >= (9819.0)) {
            if ((input[58]) >= (845.4606)) {
                var85 = 0.0056184432;
            } else {
                var85 = -0.020313436;
            }
        } else {
            if ((input[58]) >= (132.41605)) {
                var85 = 0.04922326;
            } else {
                var85 = 0.007796122;
            }
        }
    } else {
        if ((input[66]) >= (144.5)) {
            if ((input[70]) >= (1.5)) {
                var85 = -0.00070190214;
            } else {
                var85 = -0.01793508;
            }
        } else {
            if ((input[62]) >= (5.8271503)) {
                var85 = 0.031919286;
            } else {
                var85 = 0.0019439545;
            }
        }
    }
    double var86;
    if ((input[0]) >= (0.5)) {
        if ((input[55]) >= (43.9966)) {
            if ((input[0]) >= (6.0)) {
                var86 = -0.012487819;
            } else {
                var86 = 0.0032209312;
            }
        } else {
            if ((input[16]) >= (4.45)) {
                var86 = 0.023016723;
            } else {
                var86 = 0.005774639;
            }
        }
    } else {
        if ((input[1]) >= (2.0625)) {
            if ((input[49]) >= (7.70835)) {
                var86 = -0.037770417;
            } else {
                var86 = -0.011993585;
            }
        } else {
            if ((input[68]) >= (0.5)) {
                var86 = 0.019025618;
            } else {
                var86 = -0.0069823563;
            }
        }
    }
    double var87;
    if ((input[64]) >= (40.5)) {
        if ((input[66]) >= (3033.5)) {
            if ((input[58]) >= (646.4655)) {
                var87 = 0.0047298656;
            } else {
                var87 = -0.011601097;
            }
        } else {
            if ((input[58]) >= (139.58685)) {
                var87 = 0.056268163;
            } else {
                var87 = 0.007858456;
            }
        }
    } else {
        if ((input[58]) >= (1.5215499)) {
            if ((input[71]) >= (55.5)) {
                var87 = -0.0041025667;
            } else {
                var87 = 0.02192585;
            }
        } else {
            if ((input[66]) >= (40.5)) {
                var87 = -0.031172846;
            } else {
                var87 = 0.015041013;
            }
        }
    }
    double var88;
    if ((input[64]) >= (46.5)) {
        if ((input[66]) >= (23184.0)) {
            if ((input[61]) >= (0.31085)) {
                var88 = 0.009815195;
            } else {
                var88 = -0.017262854;
            }
        } else {
            if ((input[51]) >= (2.5)) {
                var88 = 0.06145642;
            } else {
                var88 = 0.014670359;
            }
        }
    } else {
        if ((input[13]) >= (2.5)) {
            if ((input[48]) >= (1.875)) {
                var88 = -0.0043011475;
            } else {
                var88 = 0.015797405;
            }
        } else {
            if ((input[66]) >= (1074.5)) {
                var88 = -0.009833106;
            } else {
                var88 = 0.0031071806;
            }
        }
    }
    double var89;
    if ((input[46]) >= (3.237)) {
        if ((input[72]) >= (23.5)) {
            if ((input[66]) >= (4573.5)) {
                var89 = -0.0075437473;
            } else {
                var89 = 0.0023597032;
            }
        } else {
            if ((input[2]) >= (2.5)) {
                var89 = 0.021443386;
            } else {
                var89 = 0.003263029;
            }
        }
    } else {
        if ((input[53]) >= (0.5)) {
            if ((input[48]) >= (1.875)) {
                var89 = 0.080940835;
            } else {
                var89 = -0.049538042;
            }
        } else {
            if ((input[62]) >= (0.9231)) {
                var89 = -0.022042416;
            } else {
                var89 = 0.060197778;
            }
        }
    }
    double var90;
    if ((input[56]) >= (11.5659)) {
        if ((input[66]) >= (637.5)) {
            if ((input[55]) >= (43.99365)) {
                var90 = -0.0027632422;
            } else {
                var90 = 0.010829685;
            }
        } else {
            if ((input[64]) >= (38.5)) {
                var90 = 0.0508056;
            } else {
                var90 = 0.0104392385;
            }
        }
    } else {
        if ((input[22]) >= (3.2612)) {
            if ((input[66]) >= (220.5)) {
                var90 = -0.029130936;
            } else {
                var90 = 0.0005541309;
            }
        } else {
            if ((input[54]) >= (2.5)) {
                var90 = -0.0065627955;
            } else {
                var90 = 0.009081653;
            }
        }
    }
    double var91;
    if ((input[64]) >= (40.5)) {
        if ((input[66]) >= (4578.5)) {
            if ((input[58]) >= (640.8129)) {
                var91 = 0.0038811818;
            } else {
                var91 = -0.013575164;
            }
        } else {
            if ((input[58]) >= (118.2926)) {
                var91 = 0.037304986;
            } else {
                var91 = 0.004280483;
            }
        }
    } else {
        if ((input[56]) >= (0.072349995)) {
            if ((input[70]) >= (1.5)) {
                var91 = 0.00060257316;
            } else {
                var91 = -0.017128784;
            }
        } else {
            if ((input[66]) >= (12.5)) {
                var91 = -0.049578637;
            } else {
                var91 = 0.08913746;
            }
        }
    }
    double var92;
    if ((input[0]) >= (0.5)) {
        if ((input[24]) >= (0.225)) {
            if ((input[49]) >= (4.125)) {
                var92 = 0.01532733;
            } else {
                var92 = 0.0008010358;
            }
        } else {
            if ((input[70]) >= (8.5)) {
                var92 = -0.03778491;
            } else {
                var92 = -0.004341776;
            }
        }
    } else {
        if ((input[1]) >= (12.454599)) {
            if ((input[35]) >= (0.1)) {
                var92 = -0.021729315;
            } else {
                var92 = -0.060611278;
            }
        } else {
            if ((input[58]) >= (0.9675)) {
                var92 = -0.00064504554;
            } else {
                var92 = -0.02328019;
            }
        }
    }
    double var93;
    if ((input[64]) >= (43.5)) {
        if ((input[66]) >= (9355.5)) {
            if ((input[12]) >= (14.9795)) {
                var93 = -0.021750191;
            } else {
                var93 = 0.0026904126;
            }
        } else {
            if ((input[60]) >= (11.6714)) {
                var93 = 0.05388076;
            } else {
                var93 = 0.009680131;
            }
        }
    } else {
        if ((input[32]) >= (2.5)) {
            if ((input[67]) >= (0.5)) {
                var93 = -0.0038842726;
            } else {
                var93 = 0.026541138;
            }
        } else {
            if ((input[66]) >= (341.5)) {
                var93 = -0.008243484;
            } else {
                var93 = 0.0054328064;
            }
        }
    }
    double var94;
    if ((input[46]) >= (6.16965)) {
        if ((input[48]) >= (1.875)) {
            if ((input[22]) >= (66.54445)) {
                var94 = 0.06031228;
            } else {
                var94 = -0.011114966;
            }
        } else {
            if ((input[57]) >= (2.91645)) {
                var94 = 0.021017123;
            } else {
                var94 = 0.0041175927;
            }
        }
    } else {
        if ((input[1]) >= (2.0845)) {
            if ((input[33]) >= (0.225)) {
                var94 = -0.0055471;
            } else {
                var94 = -0.026506841;
            }
        } else {
            if ((input[58]) >= (6.89165)) {
                var94 = 0.009453834;
            } else {
                var94 = -0.0035891067;
            }
        }
    }
    double var95;
    if ((input[5]) >= (0.1)) {
        if ((input[3]) >= (1.55)) {
            if ((input[66]) >= (918.5)) {
                var95 = -0.0011710757;
            } else {
                var95 = 0.014670618;
            }
        } else {
            if ((input[70]) >= (15.5)) {
                var95 = -0.027842263;
            } else {
                var95 = -0.004042508;
            }
        }
    } else {
        if ((input[0]) >= (6.0)) {
            if ((input[61]) >= (0.04795)) {
                var95 = 0.010515011;
            } else {
                var95 = -0.025766853;
            }
        } else {
            if ((input[12]) >= (0.0122)) {
                var95 = 0.009998858;
            } else {
                var95 = 0.077051274;
            }
        }
    }
    double var96;
    if ((input[47]) >= (2.6764998)) {
        if ((input[71]) >= (526.5)) {
            if ((input[68]) >= (0.5)) {
                var96 = 0.0084488895;
            } else {
                var96 = -0.029148463;
            }
        } else {
            if ((input[59]) >= (1.7696)) {
                var96 = 0.00019659237;
            } else {
                var96 = 0.09249234;
            }
        }
    } else {
        if ((input[61]) >= (0.27034998)) {
            if ((input[66]) >= (1696.5)) {
                var96 = 0.006135193;
            } else {
                var96 = 0.040378224;
            }
        } else {
            if ((input[66]) >= (382.5)) {
                var96 = -0.00458495;
            } else {
                var96 = 0.0058324407;
            }
        }
    }
    double var97;
    if ((input[66]) >= (-236.5)) {
        if ((input[64]) >= (46.5)) {
            if ((input[66]) >= (30030.0)) {
                var97 = -0.0066943723;
            } else {
                var97 = 0.039359868;
            }
        } else {
            if ((input[14]) >= (0.55)) {
                var97 = 0.0005931968;
            } else {
                var97 = -0.012958869;
            }
        }
    } else {
        if ((input[1]) >= (4.31785)) {
            if ((input[24]) >= (1.1)) {
                var97 = -0.089384474;
            } else {
                var97 = 0.058379557;
            }
        } else {
            if ((input[72]) >= (13.5)) {
                var97 = -0.12248745;
            } else {
                var97 = 0.020588871;
            }
        }
    }
    double var98;
    if ((input[0]) >= (0.5)) {
        if ((input[0]) >= (6.0)) {
            if ((input[55]) >= (52.7666)) {
                var98 = -0.012776521;
            } else {
                var98 = 0.0053468104;
            }
        } else {
            if ((input[66]) >= (1079.5)) {
                var98 = 0.00082776276;
            } else {
                var98 = 0.021079002;
            }
        }
    } else {
        if ((input[70]) >= (70.5)) {
            if ((input[55]) >= (56.285652)) {
                var98 = -0.059856247;
            } else {
                var98 = -0.0057506436;
            }
        } else {
            if ((input[33]) >= (1.55)) {
                var98 = 0.001204324;
            } else {
                var98 = -0.01486007;
            }
        }
    }
    double var99;
    if ((input[64]) >= (40.5)) {
        if ((input[66]) >= (1059.5)) {
            if ((input[58]) >= (35.44505)) {
                var99 = 0.0033574668;
            } else {
                var99 = -0.025893554;
            }
        } else {
            if ((input[71]) >= (-335.5)) {
                var99 = 0.02491667;
            } else {
                var99 = -0.04929504;
            }
        }
    } else {
        if ((input[66]) >= (55.5)) {
            if ((input[58]) >= (0.3172)) {
                var99 = -0.0043328223;
            } else {
                var99 = -0.05333772;
            }
        } else {
            if ((input[71]) >= (-221.5)) {
                var99 = 0.01821935;
            } else {
                var99 = -0.06166634;
            }
        }
    }
    double var100;
    var100 = (1.0) / ((1.0) + (exp((0.0) - ((((((((((((((((((((((((((((((((((((((((((((((((((((((((((((((((((((((((((((((((((((((((((((((((((((var0) + (var1)) + (var2)) + (var3)) + (var4)) + (var5)) + (var6)) + (var7)) + (var8)) + (var9)) + (var10)) + (var11)) + (var12)) + (var13)) + (var14)) + (var15)) + (var16)) + (var17)) + (var18)) + (var19)) + (var20)) + (var21)) + (var22)) + (var23)) + (var24)) + (var25)) + (var26)) + (var27)) + (var28)) + (var29)) + (var30)) + (var31)) + (var32)) + (var33)) + (var34)) + (var35)) + (var36)) + (var37)) + (var38)) + (var39)) + (var40)) + (var41)) + (var42)) + (var43)) + (var44)) + (var45)) + (var46)) + (var47)) + (var48)) + (var49)) + (var50)) + (var51)) + (var52)) + (var53)) + (var54)) + (var55)) + (var56)) + (var57)) + (var58)) + (var59)) + (var60)) + (var61)) + (var62)) + (var63)) + (var64)) + (var65)) + (var66)) + (var67)) + (var68)) + (var69)) + (var70)) + (var71)) + (var72)) + (var73)) + (var74)) + (var75)) + (var76)) + (var77)) + (var78)) + (var79)) + (var80)) + (var81)) + (var82)) + (var83)) + (var84)) + (var85)) + (var86)) + (var87)) + (var88)) + (var89)) + (var90)) + (var91)) + (var92)) + (var93)) + (var94)) + (var95)) + (var96)) + (var97)) + (var98)) + (var99)))));
    memcpy(output, (double[]){(1.0) - (var100), var100}, 2 * sizeof(double));
}
