#include <math.h>
#include <string.h>
void score(double * input, double * output) {
    double var0;
    if ((input[70]) >= (4.5)) {
        if ((input[70]) >= (9.5)) {
            if ((input[49]) >= (6.58335)) {
                var0 = -0.17194784;
            } else {
                var0 = -0.12116623;
            }
        } else {
            if ((input[0]) >= (0.5)) {
                var0 = -0.02388605;
            } else {
                var0 = -0.12068683;
            }
        }
    } else {
        if ((input[70]) >= (1.5)) {
            if ((input[50]) >= (1.5)) {
                var0 = 0.073635094;
            } else {
                var0 = 0.0021574346;
            }
        } else {
            if ((input[71]) >= (356.5)) {
                var0 = 0.07216859;
            } else {
                var0 = 0.17632963;
            }
        }
    }
    double var1;
    if ((input[70]) >= (3.5)) {
        if ((input[70]) >= (8.5)) {
            if ((input[50]) >= (1.5)) {
                var1 = -0.10225373;
            } else {
                var1 = -0.1528434;
            }
        } else {
            if ((input[0]) >= (0.5)) {
                var1 = -0.007082812;
            } else {
                var1 = -0.10403097;
            }
        }
    } else {
        if ((input[71]) >= (204.5)) {
            if ((input[0]) >= (0.5)) {
                var1 = 0.057961512;
            } else {
                var1 = -0.08277751;
            }
        } else {
            if ((input[70]) >= (2.5)) {
                var1 = 0.05313552;
            } else {
                var1 = 0.15329899;
            }
        }
    }
    double var2;
    if ((input[70]) >= (4.5)) {
        if ((input[70]) >= (10.5)) {
            if ((input[0]) >= (0.5)) {
                var2 = -0.11545127;
            } else {
                var2 = -0.16214955;
            }
        } else {
            if ((input[0]) >= (0.5)) {
                var2 = -0.021269472;
            } else {
                var2 = -0.10288656;
            }
        }
    } else {
        if ((input[71]) >= (109.5)) {
            if ((input[0]) >= (0.5)) {
                var2 = 0.049167346;
            } else {
                var2 = -0.07864951;
            }
        } else {
            if ((input[70]) >= (2.5)) {
                var2 = 0.036487833;
            } else {
                var2 = 0.14522377;
            }
        }
    }
    double var3;
    if ((input[70]) >= (3.5)) {
        if ((input[70]) >= (8.5)) {
            if ((input[26]) >= (7.1)) {
                var3 = -0.13279565;
            } else {
                var3 = -0.08621841;
            }
        } else {
            if ((input[50]) >= (1.5)) {
                var3 = 0.010095669;
            } else {
                var3 = -0.059918713;
            }
        }
    } else {
        if ((input[71]) >= (2532.5)) {
            if ((input[64]) >= (43.5)) {
                var3 = 0.03174169;
            } else {
                var3 = -0.029605275;
            }
        } else {
            if ((input[70]) >= (1.5)) {
                var3 = 0.06167726;
            } else {
                var3 = 0.12843218;
            }
        }
    }
    double var4;
    if ((input[70]) >= (5.5)) {
        if ((input[70]) >= (11.5)) {
            if ((input[0]) >= (0.5)) {
                var4 = -0.10106035;
            } else {
                var4 = -0.14455198;
            }
        } else {
            if ((input[71]) >= (-29.5)) {
                var4 = -0.056739397;
            } else {
                var4 = 0.06173403;
            }
        }
    } else {
        if ((input[70]) >= (2.5)) {
            if ((input[0]) >= (0.5)) {
                var4 = 0.019612553;
            } else {
                var4 = -0.07400791;
            }
        } else {
            if ((input[71]) >= (508.5)) {
                var4 = 0.034428604;
            } else {
                var4 = 0.117211044;
            }
        }
    }
    double var5;
    if ((input[70]) >= (3.5)) {
        if ((input[70]) >= (10.5)) {
            if ((input[0]) >= (0.5)) {
                var5 = -0.09051793;
            } else {
                var5 = -0.13523169;
            }
        } else {
            if ((input[0]) >= (0.5)) {
                var5 = -0.0062621557;
            } else {
                var5 = -0.08319245;
            }
        }
    } else {
        if ((input[71]) >= (71.5)) {
            if ((input[71]) >= (4474.5)) {
                var5 = -0.019311436;
            } else {
                var5 = 0.05516538;
            }
        } else {
            if ((input[51]) >= (0.5)) {
                var5 = 0.121704474;
            } else {
                var5 = 0.02114481;
            }
        }
    }
    double var6;
    if ((input[70]) >= (5.5)) {
        if ((input[70]) >= (13.5)) {
            if ((input[0]) >= (0.5)) {
                var6 = -0.0928432;
            } else {
                var6 = -0.13210689;
            }
        } else {
            if ((input[0]) >= (0.5)) {
                var6 = -0.02402833;
            } else {
                var6 = -0.08880577;
            }
        }
    } else {
        if ((input[70]) >= (1.5)) {
            if ((input[50]) >= (1.5)) {
                var6 = 0.039929587;
            } else {
                var6 = -0.019160818;
            }
        } else {
            if ((input[71]) >= (509.5)) {
                var6 = 0.039074767;
            } else {
                var6 = 0.115766004;
            }
        }
    }
    double var7;
    if ((input[70]) >= (3.5)) {
        if ((input[70]) >= (11.5)) {
            if ((input[71]) >= (-81.5)) {
                var7 = -0.098753616;
            } else {
                var7 = 0.026776532;
            }
        } else {
            if ((input[51]) >= (0.5)) {
                var7 = -0.0005569726;
            } else {
                var7 = -0.06417424;
            }
        }
    } else {
        if ((input[71]) >= (37.5)) {
            if ((input[0]) >= (0.5)) {
                var7 = 0.043801557;
            } else {
                var7 = -0.06659437;
            }
        } else {
            if ((input[70]) >= (1.5)) {
                var7 = 0.06781005;
            } else {
                var7 = 0.12537448;
            }
        }
    }
    double var8;
    if ((input[70]) >= (5.5)) {
        if ((input[70]) >= (13.5)) {
            if ((input[0]) >= (0.5)) {
                var8 = -0.08015804;
            } else {
                var8 = -0.1226972;
            }
        } else {
            if ((input[71]) >= (-24.5)) {
                var8 = -0.04566171;
            } else {
                var8 = 0.05891291;
            }
        }
    } else {
        if ((input[70]) >= (1.5)) {
            if ((input[71]) >= (-0.5)) {
                var8 = 0.0019463539;
            } else {
                var8 = 0.08762551;
            }
        } else {
            if ((input[71]) >= (1624.5)) {
                var8 = 0.016075375;
            } else {
                var8 = 0.09873568;
            }
        }
    }
    double var9;
    if ((input[70]) >= (2.5)) {
        if ((input[70]) >= (7.5)) {
            if ((input[49]) >= (6.70835)) {
                var9 = -0.093405;
            } else {
                var9 = -0.041569512;
            }
        } else {
            if ((input[50]) >= (1.5)) {
                var9 = 0.019955598;
            } else {
                var9 = -0.035836205;
            }
        }
    } else {
        if ((input[71]) >= (59.5)) {
            if ((input[64]) >= (38.5)) {
                var9 = 0.04334417;
            } else {
                var9 = -0.06405699;
            }
        } else {
            if ((input[64]) >= (37.5)) {
                var9 = 0.112555444;
            } else {
                var9 = 0.053532686;
            }
        }
    }
    double var10;
    if ((input[70]) >= (2.5)) {
        if ((input[70]) >= (10.5)) {
            if ((input[0]) >= (0.5)) {
                var10 = -0.061772563;
            } else {
                var10 = -0.11194382;
            }
        } else {
            if ((input[26]) >= (8.9)) {
                var10 = -0.05175608;
            } else {
                var10 = 0.007902;
            }
        }
    } else {
        if ((input[71]) >= (144.5)) {
            if ((input[64]) >= (38.5)) {
                var10 = 0.032038596;
            } else {
                var10 = -0.09290336;
            }
        } else {
            if ((input[64]) >= (38.5)) {
                var10 = 0.11391206;
            } else {
                var10 = 0.059093397;
            }
        }
    }
    double var11;
    if ((input[70]) >= (6.5)) {
        if ((input[71]) >= (-24.5)) {
            if ((input[49]) >= (6.58335)) {
                var11 = -0.08417117;
            } else {
                var11 = -0.037547465;
            }
        } else {
            if ((input[66]) >= (-6.5)) {
                var11 = 0.015274078;
            } else {
                var11 = 0.09706504;
            }
        }
    } else {
        if ((input[71]) >= (2780.5)) {
            if ((input[64]) >= (43.5)) {
                var11 = 0.00510189;
            } else {
                var11 = -0.045427956;
            }
        } else {
            if ((input[51]) >= (1.5)) {
                var11 = 0.07215229;
            } else {
                var11 = 0.002435452;
            }
        }
    }
    double var12;
    if ((input[70]) >= (2.5)) {
        if ((input[70]) >= (12.5)) {
            if ((input[0]) >= (0.5)) {
                var12 = -0.059387367;
            } else {
                var12 = -0.108879305;
            }
        } else {
            if ((input[0]) >= (0.5)) {
                var12 = 0.0029711842;
            } else {
                var12 = -0.06001085;
            }
        }
    } else {
        if ((input[71]) >= (27.5)) {
            if ((input[64]) >= (37.5)) {
                var12 = 0.03364353;
            } else {
                var12 = -0.105140306;
            }
        } else {
            if ((input[70]) >= (1.5)) {
                var12 = 0.069564514;
            } else {
                var12 = 0.10898651;
            }
        }
    }
    double var13;
    if ((input[70]) >= (2.5)) {
        if ((input[50]) >= (0.5)) {
            if ((input[71]) >= (-11.5)) {
                var13 = -0.016717164;
            } else {
                var13 = 0.0689022;
            }
        } else {
            if ((input[66]) >= (17.5)) {
                var13 = -0.07355407;
            } else {
                var13 = 0.074569725;
            }
        }
    } else {
        if ((input[71]) >= (207.5)) {
            if ((input[71]) >= (7055.5)) {
                var13 = -0.04272632;
            } else {
                var13 = 0.028339813;
            }
        } else {
            if ((input[64]) >= (38.5)) {
                var13 = 0.102857426;
            } else {
                var13 = 0.042721834;
            }
        }
    }
    double var14;
    if ((input[70]) >= (7.5)) {
        if ((input[50]) >= (2.5)) {
            if ((input[71]) >= (144.5)) {
                var14 = -0.02853539;
            } else {
                var14 = 0.050496634;
            }
        } else {
            if ((input[0]) >= (0.5)) {
                var14 = -0.051306225;
            } else {
                var14 = -0.092957534;
            }
        }
    } else {
        if ((input[66]) >= (18.5)) {
            if ((input[26]) >= (8.9)) {
                var14 = -0.038591243;
            } else {
                var14 = 0.024880227;
            }
        } else {
            if ((input[51]) >= (2.5)) {
                var14 = 0.107544675;
            } else {
                var14 = 0.07684121;
            }
        }
    }
    double var15;
    if ((input[70]) >= (4.5)) {
        if ((input[70]) >= (14.5)) {
            if ((input[0]) >= (0.5)) {
                var15 = -0.05578051;
            } else {
                var15 = -0.10336238;
            }
        } else {
            if ((input[50]) >= (2.5)) {
                var15 = 0.017724304;
            } else {
                var15 = -0.030171305;
            }
        }
    } else {
        if ((input[71]) >= (3477.5)) {
            if ((input[64]) >= (45.5)) {
                var15 = 0.012269373;
            } else {
                var15 = -0.043173473;
            }
        } else {
            if ((input[26]) >= (6.775)) {
                var15 = 0.0045047062;
            } else {
                var15 = 0.0625461;
            }
        }
    }
    double var16;
    if ((input[51]) >= (1.5)) {
        if ((input[71]) >= (234.5)) {
            if ((input[64]) >= (40.5)) {
                var16 = 0.017153142;
            } else {
                var16 = -0.03720021;
            }
        } else {
            if ((input[64]) >= (38.5)) {
                var16 = 0.090907775;
            } else {
                var16 = 0.03769536;
            }
        }
    } else {
        if ((input[70]) >= (8.5)) {
            if ((input[0]) >= (0.5)) {
                var16 = -0.04918657;
            } else {
                var16 = -0.092782214;
            }
        } else {
            if ((input[66]) >= (18.5)) {
                var16 = -0.017568478;
            } else {
                var16 = 0.06468724;
            }
        }
    }
    double var17;
    if ((input[70]) >= (1.5)) {
        if ((input[70]) >= (14.5)) {
            if ((input[64]) >= (38.5)) {
                var17 = -0.044333607;
            } else {
                var17 = -0.088715844;
            }
        } else {
            if ((input[0]) >= (0.5)) {
                var17 = 0.0062335613;
            } else {
                var17 = -0.04579733;
            }
        }
    } else {
        if ((input[71]) >= (35.5)) {
            if ((input[64]) >= (38.5)) {
                var17 = 0.036366068;
            } else {
                var17 = -0.05421984;
            }
        } else {
            if ((input[71]) >= (-675.5)) {
                var17 = 0.09780317;
            } else {
                var17 = 0.025531167;
            }
        }
    }
    double var18;
    if ((input[50]) >= (2.5)) {
        if ((input[71]) >= (842.5)) {
            if ((input[64]) >= (43.5)) {
                var18 = 0.027232042;
            } else {
                var18 = -0.023233375;
            }
        } else {
            if ((input[64]) >= (38.5)) {
                var18 = 0.08273547;
            } else {
                var18 = 0.030557439;
            }
        }
    } else {
        if ((input[70]) >= (8.5)) {
            if ((input[0]) >= (0.5)) {
                var18 = -0.0408295;
            } else {
                var18 = -0.08555921;
            }
        } else {
            if ((input[66]) >= (18.5)) {
                var18 = -0.010707343;
            } else {
                var18 = 0.06358015;
            }
        }
    }
    double var19;
    if ((input[51]) >= (0.5)) {
        if ((input[71]) >= (121.5)) {
            if ((input[64]) >= (38.5)) {
                var19 = 0.0039179246;
            } else {
                var19 = -0.071798205;
            }
        } else {
            if ((input[51]) >= (2.5)) {
                var19 = 0.08102296;
            } else {
                var19 = 0.030996187;
            }
        }
    } else {
        if ((input[26]) >= (6.775)) {
            if ((input[66]) >= (18.5)) {
                var19 = -0.06192258;
            } else {
                var19 = 0.047135707;
            }
        } else {
            if ((input[71]) >= (-20.5)) {
                var19 = -0.016469136;
            } else {
                var19 = 0.0566999;
            }
        }
    }
    double var20;
    if ((input[70]) >= (1.5)) {
        if ((input[70]) >= (15.5)) {
            if ((input[0]) >= (0.5)) {
                var20 = -0.044300925;
            } else {
                var20 = -0.09421349;
            }
        } else {
            if ((input[0]) >= (0.5)) {
                var20 = 0.0048556193;
            } else {
                var20 = -0.03968349;
            }
        }
    } else {
        if ((input[71]) >= (28.5)) {
            if ((input[71]) >= (5413.5)) {
                var20 = -0.028178591;
            } else {
                var20 = 0.03587414;
            }
        } else {
            if ((input[66]) >= (-589.5)) {
                var20 = 0.09350666;
            } else {
                var20 = 0.0082612075;
            }
        }
    }
    double var21;
    if ((input[70]) >= (3.5)) {
        if ((input[71]) >= (-13.5)) {
            if ((input[26]) >= (8.325)) {
                var21 = -0.05074602;
            } else {
                var21 = -0.011870801;
            }
        } else {
            if ((input[66]) >= (29.5)) {
                var21 = 0.019099725;
            } else {
                var21 = 0.06590576;
            }
        }
    } else {
        if ((input[71]) >= (1283.5)) {
            if ((input[64]) >= (43.5)) {
                var21 = 0.016384987;
            } else {
                var21 = -0.03121475;
            }
        } else {
            if ((input[64]) >= (38.5)) {
                var21 = 0.06454378;
            } else {
                var21 = 0.002008236;
            }
        }
    }
    double var22;
    if ((input[50]) >= (2.5)) {
        if ((input[71]) >= (355.5)) {
            if ((input[71]) >= (7489.0)) {
                var22 = -0.035794154;
            } else {
                var22 = 0.013913413;
            }
        } else {
            if ((input[64]) >= (38.5)) {
                var22 = 0.07904535;
            } else {
                var22 = 0.032954965;
            }
        }
    } else {
        if ((input[26]) >= (7.1)) {
            if ((input[66]) >= (18.5)) {
                var22 = -0.04184636;
            } else {
                var22 = 0.049340572;
            }
        } else {
            if ((input[71]) >= (5402.5)) {
                var22 = -0.03442084;
            } else {
                var22 = 0.01648399;
            }
        }
    }
    double var23;
    if ((input[66]) >= (23.5)) {
        if ((input[64]) >= (38.5)) {
            if ((input[71]) >= (4224.5)) {
                var23 = -0.03019995;
            } else {
                var23 = 0.024300985;
            }
        } else {
            if ((input[71]) >= (242.5)) {
                var23 = -0.08568688;
            } else {
                var23 = -0.020719815;
            }
        }
    } else {
        if ((input[70]) >= (1.5)) {
            if ((input[53]) >= (0.5)) {
                var23 = 0.029945318;
            } else {
                var23 = 0.065160744;
            }
        } else {
            if ((input[71]) >= (-335.5)) {
                var23 = 0.0899089;
            } else {
                var23 = 0.012688398;
            }
        }
    }
    double var24;
    if ((input[51]) >= (0.5)) {
        if ((input[71]) >= (142.5)) {
            if ((input[64]) >= (39.5)) {
                var24 = 0.0059755347;
            } else {
                var24 = -0.04605591;
            }
        } else {
            if ((input[53]) >= (0.5)) {
                var24 = 0.01603095;
            } else {
                var24 = 0.060933102;
            }
        }
    } else {
        if ((input[70]) >= (11.5)) {
            if ((input[0]) >= (0.5)) {
                var24 = -0.04310752;
            } else {
                var24 = -0.087691784;
            }
        } else {
            if ((input[58]) >= (0.0293)) {
                var24 = -0.014024401;
            } else {
                var24 = -0.09727788;
            }
        }
    }
    double var25;
    if ((input[49]) >= (2.125)) {
        if ((input[70]) >= (14.5)) {
            if ((input[0]) >= (0.5)) {
                var25 = -0.03873388;
            } else {
                var25 = -0.08678227;
            }
        } else {
            if ((input[66]) >= (18.5)) {
                var25 = -0.006741715;
            } else {
                var25 = 0.052177776;
            }
        }
    } else {
        if ((input[71]) >= (578.5)) {
            if ((input[58]) >= (815.584)) {
                var25 = 0.026227636;
            } else {
                var25 = -0.021481648;
            }
        } else {
            if ((input[64]) >= (38.5)) {
                var25 = 0.07722066;
            } else {
                var25 = 0.038790476;
            }
        }
    }
    double var26;
    if ((input[70]) >= (1.5)) {
        if ((input[6]) >= (0.5)) {
            if ((input[71]) >= (5428.5)) {
                var26 = -0.025831206;
            } else {
                var26 = 0.015029924;
            }
        } else {
            if ((input[50]) >= (0.5)) {
                var26 = -0.013044252;
            } else {
                var26 = -0.046989426;
            }
        }
    } else {
        if ((input[71]) >= (26.5)) {
            if ((input[64]) >= (37.5)) {
                var26 = 0.021964474;
            } else {
                var26 = -0.101875715;
            }
        } else {
            if ((input[71]) >= (-335.5)) {
                var26 = 0.08549533;
            } else {
                var26 = 0.004827008;
            }
        }
    }
    double var27;
    if ((input[26]) >= (5.775)) {
        if ((input[66]) >= (18.5)) {
            if ((input[64]) >= (38.5)) {
                var27 = -0.008838571;
            } else {
                var27 = -0.042672914;
            }
        } else {
            if ((input[54]) >= (2.5)) {
                var27 = 0.071949296;
            } else {
                var27 = 0.03690913;
            }
        }
    } else {
        if ((input[71]) >= (1753.5)) {
            if ((input[58]) >= (1058.1094)) {
                var27 = 0.0034852277;
            } else {
                var27 = -0.039802384;
            }
        } else {
            if ((input[70]) >= (3.5)) {
                var27 = 0.010632667;
            } else {
                var27 = 0.05113727;
            }
        }
    }
    double var28;
    if ((input[49]) >= (2.125)) {
        if ((input[70]) >= (15.5)) {
            if ((input[0]) >= (0.5)) {
                var28 = -0.035570197;
            } else {
                var28 = -0.08364473;
            }
        } else {
            if ((input[17]) >= (0.5)) {
                var28 = 0.010757427;
            } else {
                var28 = -0.015855955;
            }
        }
    } else {
        if ((input[71]) >= (490.5)) {
            if ((input[64]) >= (43.5)) {
                var28 = 0.037184432;
            } else {
                var28 = -0.010256427;
            }
        } else {
            if ((input[64]) >= (38.5)) {
                var28 = 0.07141356;
            } else {
                var28 = 0.034442212;
            }
        }
    }
    double var29;
    if ((input[71]) >= (9038.5)) {
        if ((input[64]) >= (43.5)) {
            if ((input[71]) >= (33224.5)) {
                var29 = -0.05936817;
            } else {
                var29 = 0.00027946554;
            }
        } else {
            if ((input[57]) >= (2.23715)) {
                var29 = -0.04824549;
            } else {
                var29 = -0.080880746;
            }
        }
    } else {
        if ((input[42]) >= (3.5)) {
            if ((input[1]) >= (8.77345)) {
                var29 = 0.011602842;
            } else {
                var29 = 0.04117009;
            }
        } else {
            if ((input[66]) >= (31.5)) {
                var29 = -0.01202347;
            } else {
                var29 = 0.04000632;
            }
        }
    }
    double var30;
    if ((input[51]) >= (2.5)) {
        if ((input[71]) >= (419.5)) {
            if ((input[64]) >= (40.5)) {
                var30 = 0.015325365;
            } else {
                var30 = -0.038290467;
            }
        } else {
            if ((input[64]) >= (38.5)) {
                var30 = 0.066629894;
            } else {
                var30 = 0.024468297;
            }
        }
    } else {
        if ((input[17]) >= (0.5)) {
            if ((input[71]) >= (5426.5)) {
                var30 = -0.02171348;
            } else {
                var30 = 0.013589854;
            }
        } else {
            if ((input[66]) >= (13.5)) {
                var30 = -0.025404332;
            } else {
                var30 = 0.04092929;
            }
        }
    }
    double var31;
    if ((input[1]) >= (2.7266002)) {
        if ((input[64]) >= (38.5)) {
            if ((input[71]) >= (3958.5)) {
                var31 = -0.022761025;
            } else {
                var31 = 0.012300181;
            }
        } else {
            if ((input[71]) >= (236.5)) {
                var31 = -0.08200933;
            } else {
                var31 = -0.02087157;
            }
        }
    } else {
        if ((input[64]) >= (37.5)) {
            if ((input[66]) >= (198.5)) {
                var31 = 0.012571241;
            } else {
                var31 = 0.04794562;
            }
        } else {
            if ((input[66]) >= (196.5)) {
                var31 = -0.085481204;
            } else {
                var31 = 0.001979051;
            }
        }
    }
    double var32;
    if ((input[70]) >= (1.5)) {
        if ((input[57]) >= (1.00085)) {
            if ((input[71]) >= (172.5)) {
                var32 = -0.009190919;
            } else {
                var32 = 0.028069496;
            }
        } else {
            if ((input[71]) >= (-2.5)) {
                var32 = -0.04658919;
            } else {
                var32 = 0.011300139;
            }
        }
    } else {
        if ((input[71]) >= (26.5)) {
            if ((input[64]) >= (43.5)) {
                var32 = 0.042880405;
            } else {
                var32 = -0.008044107;
            }
        } else {
            if ((input[71]) >= (-335.5)) {
                var32 = 0.07787581;
            } else {
                var32 = -0.013590276;
            }
        }
    }
    double var33;
    if ((input[71]) >= (9721.0)) {
        if ((input[64]) >= (43.5)) {
            if ((input[71]) >= (44806.5)) {
                var33 = -0.06681674;
            } else {
                var33 = -0.0029471314;
            }
        } else {
            if ((input[57]) >= (2.46155)) {
                var33 = -0.039000846;
            } else {
                var33 = -0.06817655;
            }
        }
    } else {
        if ((input[64]) >= (39.5)) {
            if ((input[66]) >= (203.5)) {
                var33 = 0.011396718;
            } else {
                var33 = 0.057059545;
            }
        } else {
            if ((input[66]) >= (129.5)) {
                var33 = -0.035304364;
            } else {
                var33 = 0.010081808;
            }
        }
    }
    double var34;
    if ((input[0]) >= (0.5)) {
        if ((input[71]) >= (2471.5)) {
            if ((input[64]) >= (43.5)) {
                var34 = 0.011855675;
            } else {
                var34 = -0.02585989;
            }
        } else {
            if ((input[70]) >= (3.5)) {
                var34 = 0.0012558138;
            } else {
                var34 = 0.03217232;
            }
        }
    } else {
        if ((input[66]) >= (91.5)) {
            if ((input[64]) >= (43.5)) {
                var34 = -0.009982535;
            } else {
                var34 = -0.059131797;
            }
        } else {
            if ((input[58]) >= (0.66795003)) {
                var34 = 0.026184246;
            } else {
                var34 = -0.030834807;
            }
        }
    }
    double var35;
    if ((input[49]) >= (0.41665)) {
        if ((input[1]) >= (9.9922)) {
            if ((input[57]) >= (1.95865)) {
                var35 = -0.0053824433;
            } else {
                var35 = -0.039476153;
            }
        } else {
            if ((input[0]) >= (0.5)) {
                var35 = 0.011883978;
            } else {
                var35 = -0.020462412;
            }
        }
    } else {
        if ((input[71]) >= (1380.5)) {
            if ((input[58]) >= (842.96094)) {
                var35 = 0.016694007;
            } else {
                var35 = -0.027127136;
            }
        } else {
            if ((input[64]) >= (40.5)) {
                var35 = 0.062002297;
            } else {
                var35 = 0.03125216;
            }
        }
    }
    double var36;
    if ((input[1]) >= (0.6172)) {
        if ((input[64]) >= (38.5)) {
            if ((input[71]) >= (6040.5)) {
                var36 = -0.022162184;
            } else {
                var36 = 0.011920459;
            }
        } else {
            if ((input[71]) >= (172.5)) {
                var36 = -0.06766465;
            } else {
                var36 = -0.010225509;
            }
        }
    } else {
        if ((input[53]) >= (0.5)) {
            if ((input[62]) >= (0.110750005)) {
                var36 = 0.01637124;
            } else {
                var36 = -0.034685574;
            }
        } else {
            if ((input[71]) >= (75.5)) {
                var36 = 0.020318238;
            } else {
                var36 = 0.062324274;
            }
        }
    }
    double var37;
    if ((input[50]) >= (0.5)) {
        if ((input[71]) >= (7344.5)) {
            if ((input[57]) >= (2.66615)) {
                var37 = -0.005421504;
            } else {
                var37 = -0.036419656;
            }
        } else {
            if ((input[64]) >= (43.5)) {
                var37 = 0.041785948;
            } else {
                var37 = 0.0048971605;
            }
        }
    } else {
        if ((input[57]) >= (0.81855)) {
            if ((input[70]) >= (16.5)) {
                var37 = -0.04753214;
            } else {
                var37 = -0.0044586356;
            }
        } else {
            if ((input[66]) >= (8.5)) {
                var37 = -0.06717759;
            } else {
                var37 = 0.060341697;
            }
        }
    }
    double var38;
    if ((input[1]) >= (4.9922)) {
        if ((input[58]) >= (709.084)) {
            if ((input[71]) >= (3958.5)) {
                var38 = -0.013521068;
            } else {
                var38 = 0.024439475;
            }
        } else {
            if ((input[71]) >= (460.5)) {
                var38 = -0.04843734;
            } else {
                var38 = -0.008719909;
            }
        }
    } else {
        if ((input[66]) >= (12.5)) {
            if ((input[58]) >= (6.8730497)) {
                var38 = 0.02112163;
            } else {
                var38 = -0.009869554;
            }
        } else {
            if ((input[70]) >= (0.5)) {
                var38 = 0.039417353;
            } else {
                var38 = 0.09355421;
            }
        }
    }
    double var39;
    if ((input[1]) >= (0.22659999)) {
        if ((input[57]) >= (1.07445)) {
            if ((input[71]) >= (14269.5)) {
                var39 = -0.03118429;
            } else {
                var39 = 0.006811674;
            }
        } else {
            if ((input[66]) >= (23.5)) {
                var39 = -0.036477435;
            } else {
                var39 = 0.03330842;
            }
        }
    } else {
        if ((input[53]) >= (1.5)) {
            if ((input[57]) >= (0.8385)) {
                var39 = 0.017405426;
            } else {
                var39 = -0.04153362;
            }
        } else {
            if ((input[71]) >= (355.5)) {
                var39 = 0.007032481;
            } else {
                var39 = 0.050311882;
            }
        }
    }
    double var40;
    if ((input[49]) >= (0.41665)) {
        if ((input[58]) >= (0.0293)) {
            if ((input[71]) >= (79.5)) {
                var40 = -0.009380066;
            } else {
                var40 = 0.017131835;
            }
        } else {
            if ((input[66]) >= (16.5)) {
                var40 = -0.07310644;
            } else {
                var40 = 0.04819205;
            }
        }
    } else {
        if ((input[71]) >= (1380.5)) {
            if ((input[64]) >= (43.5)) {
                var40 = 0.026098473;
            } else {
                var40 = -0.017063366;
            }
        } else {
            if ((input[70]) >= (3.5)) {
                var40 = 0.019562013;
            } else {
                var40 = 0.049523897;
            }
        }
    }
    double var41;
    if ((input[42]) >= (3.5)) {
        if ((input[71]) >= (4869.5)) {
            if ((input[71]) >= (33351.5)) {
                var41 = -0.04792794;
            } else {
                var41 = -0.0023640022;
            }
        } else {
            if ((input[56]) >= (1412.7986)) {
                var41 = 0.058105417;
            } else {
                var41 = 0.013047273;
            }
        }
    } else {
        if ((input[71]) >= (185.5)) {
            if ((input[64]) >= (43.5)) {
                var41 = 0.016922051;
            } else {
                var41 = -0.028077373;
            }
        } else {
            if ((input[58]) >= (9.24025)) {
                var41 = 0.03467574;
            } else {
                var41 = -0.0050335187;
            }
        }
    }
    double var42;
    if ((input[0]) >= (0.5)) {
        if ((input[12]) >= (6.8515997)) {
            if ((input[63]) >= (0.99455)) {
                var42 = -0.017682133;
            } else {
                var42 = 0.010617824;
            }
        } else {
            if ((input[71]) >= (1283.5)) {
                var42 = 0.0007480119;
            } else {
                var42 = 0.02360036;
            }
        }
    } else {
        if ((input[66]) >= (92.5)) {
            if ((input[1]) >= (0.0078)) {
                var42 = -0.046877112;
            } else {
                var42 = 0.034737762;
            }
        } else {
            if ((input[56]) >= (1.8094499)) {
                var42 = 0.03867547;
            } else {
                var42 = -0.009593933;
            }
        }
    }
    double var43;
    if ((input[64]) >= (40.5)) {
        if ((input[71]) >= (19882.5)) {
            if ((input[57]) >= (2.68345)) {
                var43 = -0.011817434;
            } else {
                var43 = -0.046908673;
            }
        } else {
            if ((input[70]) >= (1.5)) {
                var43 = 0.0068284543;
            } else {
                var43 = 0.035276916;
            }
        }
    } else {
        if ((input[71]) >= (272.5)) {
            if ((input[58]) >= (11.373051)) {
                var43 = -0.02101657;
            } else {
                var43 = -0.09956737;
            }
        } else {
            if ((input[61]) >= (0.05025)) {
                var43 = 0.030731792;
            } else {
                var43 = -0.00836674;
            }
        }
    }
    double var44;
    if ((input[34]) >= (8.0)) {
        if ((input[66]) >= (47.5)) {
            if ((input[64]) >= (45.5)) {
                var44 = 0.009332726;
            } else {
                var44 = -0.046044618;
            }
        } else {
            if ((input[46]) >= (3.8242)) {
                var44 = 0.035047602;
            } else {
                var44 = -0.02363352;
            }
        }
    } else {
        if ((input[63]) >= (0.98445)) {
            if ((input[71]) >= (1178.5)) {
                var44 = -0.021098798;
            } else {
                var44 = 0.0061278413;
            }
        } else {
            if ((input[71]) >= (14268.0)) {
                var44 = -0.012409324;
            } else {
                var44 = 0.020338612;
            }
        }
    }
    double var45;
    if ((input[64]) >= (38.5)) {
        if ((input[66]) >= (147.5)) {
            if ((input[58]) >= (12.0996)) {
                var45 = 0.0067878775;
            } else {
                var45 = -0.03931198;
            }
        } else {
            if ((input[71]) >= (-214.5)) {
                var45 = 0.06625944;
            } else {
                var45 = 0.00039955508;
            }
        }
    } else {
        if ((input[66]) >= (36.5)) {
            if ((input[57]) >= (0.63685)) {
                var45 = -0.019592946;
            } else {
                var45 = -0.08131274;
            }
        } else {
            if ((input[53]) >= (1.5)) {
                var45 = -0.008768458;
            } else {
                var45 = 0.033834573;
            }
        }
    }
    double var46;
    if ((input[1]) >= (21.992199)) {
        if ((input[64]) >= (43.5)) {
            if ((input[71]) >= (44778.0)) {
                var46 = -0.051473495;
            } else {
                var46 = 0.007998873;
            }
        } else {
            if ((input[70]) >= (16.5)) {
                var46 = -0.05201265;
            } else {
                var46 = -0.017973144;
            }
        }
    } else {
        if ((input[58]) >= (812.65625)) {
            if ((input[71]) >= (2038.5)) {
                var46 = 0.005392961;
            } else {
                var46 = 0.048496883;
            }
        } else {
            if ((input[71]) >= (442.5)) {
                var46 = -0.026837567;
            } else {
                var46 = 0.0095107285;
            }
        }
    }
    double var47;
    if ((input[64]) >= (43.5)) {
        if ((input[71]) >= (21620.5)) {
            if ((input[71]) >= (64312.5)) {
                var47 = -0.06727675;
            } else {
                var47 = -0.013770294;
            }
        } else {
            if ((input[70]) >= (1.5)) {
                var47 = 0.013855529;
            } else {
                var47 = 0.046141576;
            }
        }
    } else {
        if ((input[71]) >= (972.5)) {
            if ((input[58]) >= (1178.1309)) {
                var47 = 0.00007512445;
            } else {
                var47 = -0.04375411;
            }
        } else {
            if ((input[60]) >= (5.5078)) {
                var47 = 0.029236108;
            } else {
                var47 = -0.0063438574;
            }
        }
    }
    double var48;
    if ((input[57]) >= (1.8303499)) {
        if ((input[71]) >= (2742.5)) {
            if ((input[64]) >= (45.5)) {
                var48 = 0.020826174;
            } else {
                var48 = -0.011824078;
            }
        } else {
            if ((input[56]) >= (1373.573)) {
                var48 = 0.05015058;
            } else {
                var48 = 0.01579666;
            }
        }
    } else {
        if ((input[66]) >= (32.5)) {
            if ((input[64]) >= (38.5)) {
                var48 = -0.0057134144;
            } else {
                var48 = -0.035881847;
            }
        } else {
            if ((input[70]) >= (0.5)) {
                var48 = 0.018308591;
            } else {
                var48 = 0.08961229;
            }
        }
    }
    double var49;
    if ((input[1]) >= (16.523449)) {
        if ((input[63]) >= (0.93415)) {
            if ((input[64]) >= (43.5)) {
                var49 = -0.0014435215;
            } else {
                var49 = -0.030518813;
            }
        } else {
            if ((input[70]) >= (18.5)) {
                var49 = -0.028248036;
            } else {
                var49 = 0.014719473;
            }
        }
    } else {
        if ((input[64]) >= (38.5)) {
            if ((input[71]) >= (1754.5)) {
                var49 = -0.0017930347;
            } else {
                var49 = 0.02421952;
            }
        } else {
            if ((input[71]) >= (207.5)) {
                var49 = -0.044342976;
            } else {
                var49 = 0.0009343928;
            }
        }
    }
    double var50;
    if ((input[12]) >= (2.7266002)) {
        if ((input[58]) >= (60.26365)) {
            if ((input[71]) >= (1182.5)) {
                var50 = -0.005872641;
            } else {
                var50 = 0.01917933;
            }
        } else {
            if ((input[66]) >= (135.5)) {
                var50 = -0.047813732;
            } else {
                var50 = -0.00094434246;
            }
        }
    } else {
        if ((input[53]) >= (0.5)) {
            if ((input[56]) >= (1.8094499)) {
                var50 = 0.01227112;
            } else {
                var50 = -0.018792516;
            }
        } else {
            if ((input[71]) >= (75.5)) {
                var50 = 0.0110272765;
            } else {
                var50 = 0.040263847;
            }
        }
    }
    double var51;
    if ((input[57]) >= (2.2455502)) {
        if ((input[70]) >= (19.5)) {
            if ((input[64]) >= (40.5)) {
                var51 = -0.0052090525;
            } else {
                var51 = -0.036671117;
            }
        } else {
            if ((input[71]) >= (19889.5)) {
                var51 = -0.015788797;
            } else {
                var51 = 0.020352332;
            }
        }
    } else {
        if ((input[71]) >= (108.5)) {
            if ((input[58]) >= (29.87305)) {
                var51 = -0.0068868445;
            } else {
                var51 = -0.04936246;
            }
        } else {
            if ((input[53]) >= (0.5)) {
                var51 = -0.008324652;
            } else {
                var51 = 0.029909758;
            }
        }
    }
    double var52;
    if ((input[6]) >= (0.5)) {
        if ((input[66]) >= (338.5)) {
            if ((input[58]) >= (319.6172)) {
                var52 = 0.01130891;
            } else {
                var52 = -0.02244229;
            }
        } else {
            if ((input[0]) >= (6.0)) {
                var52 = 0.006141982;
            } else {
                var52 = 0.04127797;
            }
        }
    } else {
        if ((input[46]) >= (4.3821)) {
            if ((input[70]) >= (16.5)) {
                var52 = -0.030636316;
            } else {
                var52 = 0.0014820491;
            }
        } else {
            if ((input[53]) >= (0.5)) {
                var52 = -0.0384694;
            } else {
                var52 = -0.0024808075;
            }
        }
    }
    double var53;
    if ((input[63]) >= (0.99095)) {
        if ((input[71]) >= (1272.5)) {
            if ((input[64]) >= (43.5)) {
                var53 = 0.006402401;
            } else {
                var53 = -0.033922665;
            }
        } else {
            if ((input[64]) >= (38.5)) {
                var53 = 0.016269883;
            } else {
                var53 = -0.014511593;
            }
        }
    } else {
        if ((input[71]) >= (14268.0)) {
            if ((input[70]) >= (48.5)) {
                var53 = -0.0597818;
            } else {
                var53 = -0.009997906;
            }
        } else {
            if ((input[58]) >= (2220.496)) {
                var53 = 0.03628566;
            } else {
                var53 = 0.008194602;
            }
        }
    }
    double var54;
    if ((input[12]) >= (25.132801)) {
        if ((input[70]) >= (19.5)) {
            if ((input[58]) >= (1221.6309)) {
                var54 = -0.02975295;
            } else {
                var54 = -0.067604735;
            }
        } else {
            if ((input[55]) >= (126.6797)) {
                var54 = -0.036987003;
            } else {
                var54 = -0.0041500097;
            }
        }
    } else {
        if ((input[58]) >= (2382.1309)) {
            if ((input[66]) >= (4785.5)) {
                var54 = 0.006412831;
            } else {
                var54 = 0.049185954;
            }
        } else {
            if ((input[1]) >= (0.22659999)) {
                var54 = -0.0034373906;
            } else {
                var54 = 0.025958532;
            }
        }
    }
    double var55;
    if ((input[57]) >= (1.55895)) {
        if ((input[71]) >= (2478.5)) {
            if ((input[0]) >= (0.5)) {
                var55 = -0.0022725624;
            } else {
                var55 = -0.060232993;
            }
        } else {
            if ((input[56]) >= (1373.573)) {
                var55 = 0.04687841;
            } else {
                var55 = 0.011468693;
            }
        }
    } else {
        if ((input[66]) >= (23.5)) {
            if ((input[62]) >= (0.0807)) {
                var55 = -0.011654008;
            } else {
                var55 = -0.058720093;
            }
        } else {
            if ((input[70]) >= (1.5)) {
                var55 = 0.013730779;
            } else {
                var55 = 0.060013205;
            }
        }
    }
    double var56;
    if ((input[12]) >= (6.8515997)) {
        if ((input[58]) >= (596.2637)) {
            if ((input[71]) >= (2865.5)) {
                var56 = -0.0075956993;
            } else {
                var56 = 0.01820059;
            }
        } else {
            if ((input[71]) >= (563.5)) {
                var56 = -0.043050934;
            } else {
                var56 = -0.008468102;
            }
        }
    } else {
        if ((input[58]) >= (9.0996)) {
            if ((input[71]) >= (617.5)) {
                var56 = 0.005427318;
            } else {
                var56 = 0.03342771;
            }
        } else {
            if ((input[71]) >= (297.5)) {
                var56 = -0.066192314;
            } else {
                var56 = 0.0027477879;
            }
        }
    }
    double var57;
    if ((input[64]) >= (43.5)) {
        if ((input[71]) >= (33224.5)) {
            if ((input[57]) >= (2.68365)) {
                var57 = -0.01207613;
            } else {
                var57 = -0.050507583;
            }
        } else {
            if ((input[70]) >= (0.5)) {
                var57 = 0.015723286;
            } else {
                var57 = 0.059123557;
            }
        }
    } else {
        if ((input[66]) >= (180.5)) {
            if ((input[58]) >= (7.5996)) {
                var57 = -0.0044422755;
            } else {
                var57 = -0.052847087;
            }
        } else {
            if ((input[64]) >= (38.5)) {
                var57 = 0.03950269;
            } else {
                var57 = 0.0006767683;
            }
        }
    }
    double var58;
    if ((input[51]) >= (3.5)) {
        if ((input[71]) >= (580.5)) {
            if ((input[64]) >= (40.5)) {
                var58 = 0.017414792;
            } else {
                var58 = -0.030848125;
            }
        } else {
            if ((input[64]) >= (38.5)) {
                var58 = 0.053094592;
            } else {
                var58 = 0.016271636;
            }
        }
    } else {
        if ((input[57]) >= (1.00705)) {
            if ((input[71]) >= (323.5)) {
                var58 = -0.003860949;
            } else {
                var58 = 0.014145209;
            }
        } else {
            if ((input[71]) >= (8.5)) {
                var58 = -0.034631133;
            } else {
                var58 = 0.0040806346;
            }
        }
    }
    double var59;
    if ((input[64]) >= (40.5)) {
        if ((input[71]) >= (17395.5)) {
            if ((input[57]) >= (2.68345)) {
                var59 = -0.0028977825;
            } else {
                var59 = -0.032742523;
            }
        } else {
            if ((input[70]) >= (0.5)) {
                var59 = 0.00863951;
            } else {
                var59 = 0.049928565;
            }
        }
    } else {
        if ((input[66]) >= (129.5)) {
            if ((input[58]) >= (7.8730497)) {
                var59 = -0.009250942;
            } else {
                var59 = -0.04851931;
            }
        } else {
            if ((input[64]) >= (38.5)) {
                var59 = 0.047785755;
            } else {
                var59 = 0.001874341;
            }
        }
    }
    double var60;
    if ((input[46]) >= (4.6555)) {
        if ((input[71]) >= (4994.5)) {
            if ((input[64]) >= (46.5)) {
                var60 = 0.03703445;
            } else {
                var60 = -0.012236692;
            }
        } else {
            if ((input[56]) >= (1915.7684)) {
                var60 = 0.046474528;
            } else {
                var60 = 0.006064521;
            }
        }
    } else {
        if ((input[53]) >= (1.5)) {
            if ((input[62]) >= (0.1288)) {
                var60 = -0.024220781;
            } else {
                var60 = -0.08097142;
            }
        } else {
            if ((input[71]) >= (16.5)) {
                var60 = -0.008177297;
            } else {
                var60 = 0.020774899;
            }
        }
    }
    double var61;
    if ((input[57]) >= (2.3431501)) {
        if ((input[70]) >= (20.5)) {
            if ((input[59]) >= (1.3413501)) {
                var61 = -0.0027497113;
            } else {
                var61 = -0.033066507;
            }
        } else {
            if ((input[71]) >= (2267.5)) {
                var61 = 0.0062998096;
            } else {
                var61 = 0.0257242;
            }
        }
    } else {
        if ((input[12]) >= (2.7266002)) {
            if ((input[58]) >= (2271.4688)) {
                var61 = 0.0087852655;
            } else {
                var61 = -0.018088471;
            }
        } else {
            if ((input[42]) >= (4.5)) {
                var61 = 0.027213607;
            } else {
                var61 = 0.002004532;
            }
        }
    }
    double var62;
    if ((input[63]) >= (0.72445)) {
        if ((input[71]) >= (766.5)) {
            if ((input[64]) >= (43.5)) {
                var62 = 0.009072004;
            } else {
                var62 = -0.02182374;
            }
        } else {
            if ((input[62]) >= (29.1179)) {
                var62 = 0.021835001;
            } else {
                var62 = -0.0041183564;
            }
        }
    } else {
        if ((input[71]) >= (9945.5)) {
            if ((input[71]) >= (44672.0)) {
                var62 = -0.033779208;
            } else {
                var62 = 0.00090560265;
            }
        } else {
            if ((input[56]) >= (2698.3271)) {
                var62 = 0.05029757;
            } else {
                var62 = 0.016386595;
            }
        }
    }
    double var63;
    if ((input[1]) >= (14.0391)) {
        if ((input[57]) >= (2.53295)) {
            if ((input[70]) >= (19.5)) {
                var63 = -0.021975806;
            } else {
                var63 = 0.009333305;
            }
        } else {
            if ((input[66]) >= (97.5)) {
                var63 = -0.021797018;
            } else {
                var63 = 0.013525695;
            }
        }
    } else {
        if ((input[64]) >= (38.5)) {
            if ((input[71]) >= (1757.5)) {
                var63 = 0.000106027444;
            } else {
                var63 = 0.01945116;
            }
        } else {
            if ((input[71]) >= (330.5)) {
                var63 = -0.043096658;
            } else {
                var63 = -0.00068553403;
            }
        }
    }
    double var64;
    if ((input[34]) >= (8.0)) {
        if ((input[66]) >= (333.5)) {
            if ((input[64]) >= (42.5)) {
                var64 = -0.0163096;
            } else {
                var64 = -0.051387932;
            }
        } else {
            if ((input[58]) >= (3.04295)) {
                var64 = 0.0130977845;
            } else {
                var64 = -0.028350268;
            }
        }
    } else {
        if ((input[58]) >= (0.0293)) {
            if ((input[1]) >= (0.2422)) {
                var64 = 0.0013126847;
            } else {
                var64 = 0.025163425;
            }
        } else {
            if ((input[71]) >= (8.5)) {
                var64 = -0.0864142;
            } else {
                var64 = -0.003210755;
            }
        }
    }
    double var65;
    if ((input[64]) >= (46.5)) {
        if ((input[71]) >= (38495.5)) {
            if ((input[70]) >= (5.5)) {
                var65 = 0.037733223;
            } else {
                var65 = -0.029193258;
            }
        } else {
            if ((input[71]) >= (-687.5)) {
                var65 = 0.050236475;
            } else {
                var65 = -0.052000888;
            }
        }
    } else {
        if ((input[12]) >= (30.8516)) {
            if ((input[55]) >= (130.0547)) {
                var65 = -0.043893483;
            } else {
                var65 = -0.0137619;
            }
        } else {
            if ((input[58]) >= (1831.4336)) {
                var65 = 0.016206788;
            } else {
                var65 = -0.0023019984;
            }
        }
    }
    double var66;
    if ((input[1]) >= (0.6172)) {
        if ((input[58]) >= (90.82615)) {
            if ((input[71]) >= (1757.5)) {
                var66 = -0.0042102095;
            } else {
                var66 = 0.016508652;
            }
        } else {
            if ((input[71]) >= (299.5)) {
                var66 = -0.044956982;
            } else {
                var66 = -0.005097449;
            }
        }
    } else {
        if ((input[70]) >= (3.5)) {
            if ((input[57]) >= (1.4866)) {
                var66 = 0.023618434;
            } else {
                var66 = -0.014514351;
            }
        } else {
            if ((input[71]) >= (53.5)) {
                var66 = 0.010530574;
            } else {
                var66 = 0.040718477;
            }
        }
    }
    double var67;
    if ((input[46]) >= (4.6752996)) {
        if ((input[71]) >= (8996.5)) {
            if ((input[0]) >= (0.5)) {
                var67 = -0.008430508;
            } else {
                var67 = -0.06895821;
            }
        } else {
            if ((input[58]) >= (2220.4297)) {
                var67 = 0.027842093;
            } else {
                var67 = 0.0038671575;
            }
        }
    } else {
        if ((input[53]) >= (0.5)) {
            if ((input[57]) >= (1.4807501)) {
                var67 = -0.0070293583;
            } else {
                var67 = -0.03290257;
            }
        } else {
            if ((input[71]) >= (431.5)) {
                var67 = -0.010519083;
            } else {
                var67 = 0.018782407;
            }
        }
    }
    double var68;
    if ((input[64]) >= (45.5)) {
        if ((input[71]) >= (19803.5)) {
            if ((input[70]) >= (4.5)) {
                var68 = 0.01328923;
            } else {
                var68 = -0.025286434;
            }
        } else {
            if ((input[70]) >= (1.5)) {
                var68 = 0.01248522;
            } else {
                var68 = 0.05011188;
            }
        }
    } else {
        if ((input[71]) >= (455.5)) {
            if ((input[58]) >= (15.9746)) {
                var68 = -0.0054087196;
            } else {
                var68 = -0.072663836;
            }
        } else {
            if ((input[61]) >= (0.06565)) {
                var68 = 0.022479417;
            } else {
                var68 = -0.0030785815;
            }
        }
    }
    double var69;
    if ((input[63]) >= (0.96205)) {
        if ((input[71]) >= (1012.5)) {
            if ((input[64]) >= (43.5)) {
                var69 = 0.005719278;
            } else {
                var69 = -0.02448679;
            }
        } else {
            if ((input[53]) >= (1.5)) {
                var69 = -0.016333118;
            } else {
                var69 = 0.010948452;
            }
        }
    } else {
        if ((input[0]) >= (0.5)) {
            if ((input[66]) >= (6152.5)) {
                var69 = 0.0019770444;
            } else {
                var69 = 0.01959457;
            }
        } else {
            if ((input[66]) >= (209.5)) {
                var69 = -0.031534463;
            } else {
                var69 = 0.0062126894;
            }
        }
    }
    double var70;
    if ((input[64]) >= (40.5)) {
        if ((input[71]) >= (33249.5)) {
            if ((input[71]) >= (66461.0)) {
                var70 = -0.055357452;
            } else {
                var70 = -0.018082354;
            }
        } else {
            if ((input[1]) >= (33.4766)) {
                var70 = -0.0107350955;
            } else {
                var70 = 0.0121929245;
            }
        }
    } else {
        if ((input[66]) >= (174.5)) {
            if ((input[0]) >= (1.0)) {
                var70 = -0.01060799;
            } else {
                var70 = -0.06172527;
            }
        } else {
            if ((input[62]) >= (19.6373)) {
                var70 = 0.04343701;
            } else {
                var70 = 0.00010802121;
            }
        }
    }
    double var71;
    if ((input[57]) >= (2.55285)) {
        if ((input[66]) >= (-163.5)) {
            if ((input[70]) >= (50.5)) {
                var71 = -0.027123753;
            } else {
                var71 = 0.014438971;
            }
        } else {
            if ((input[70]) >= (2.5)) {
                var71 = -0.046776276;
            } else {
                var71 = -0.22834204;
            }
        }
    } else {
        if ((input[66]) >= (47.5)) {
            if ((input[58]) >= (0.91795003)) {
                var71 = -0.004184503;
            } else {
                var71 = -0.038416293;
            }
        } else {
            if ((input[70]) >= (0.5)) {
                var71 = 0.010394155;
            } else {
                var71 = 0.07642355;
            }
        }
    }
    double var72;
    if ((input[46]) >= (4.6555)) {
        if ((input[71]) >= (1733.5)) {
            if ((input[58]) >= (1853.4043)) {
                var72 = 0.008494479;
            } else {
                var72 = -0.01625489;
            }
        } else {
            if ((input[58]) >= (473.16992)) {
                var72 = 0.030189047;
            } else {
                var72 = 0.005712019;
            }
        }
    } else {
        if ((input[70]) >= (1.5)) {
            if ((input[62]) >= (0.1029)) {
                var72 = -0.010121705;
            } else {
                var72 = -0.05402009;
            }
        } else {
            if ((input[71]) >= (26.5)) {
                var72 = -0.0021958516;
            } else {
                var72 = 0.057356246;
            }
        }
    }
    double var73;
    if ((input[1]) >= (4.3828)) {
        if ((input[57]) >= (1.82325)) {
            if ((input[70]) >= (19.5)) {
                var73 = -0.019104086;
            } else {
                var73 = 0.0045789536;
            }
        } else {
            if ((input[66]) >= (40.5)) {
                var73 = -0.02046229;
            } else {
                var73 = 0.019244859;
            }
        }
    } else {
        if ((input[56]) >= (7.5008497)) {
            if ((input[71]) >= (897.5)) {
                var73 = 0.0054782717;
            } else {
                var73 = 0.025724215;
            }
        } else {
            if ((input[71]) >= (32.5)) {
                var73 = -0.018561525;
            } else {
                var73 = 0.011147749;
            }
        }
    }
    double var74;
    if ((input[64]) >= (46.5)) {
        if ((input[71]) >= (-687.5)) {
            if ((input[66]) >= (5345.5)) {
                var74 = 0.023492051;
            } else {
                var74 = 0.07355858;
            }
        } else {
            if ((input[45]) >= (3.5)) {
                var74 = -0.09957908;
            } else {
                var74 = -0.00923557;
            }
        }
    } else {
        if ((input[12]) >= (9.3516)) {
            if ((input[57]) >= (3.04135)) {
                var74 = 0.013105712;
            } else {
                var74 = -0.011995969;
            }
        } else {
            if ((input[64]) >= (38.5)) {
                var74 = 0.009597808;
            } else {
                var74 = -0.0050459336;
            }
        }
    }
    double var75;
    if ((input[63]) >= (0.76094997)) {
        if ((input[71]) >= (715.5)) {
            if ((input[58]) >= (23.013649)) {
                var75 = -0.0074178292;
            } else {
                var75 = -0.06428524;
            }
        } else {
            if ((input[64]) >= (38.5)) {
                var75 = 0.0150261065;
            } else {
                var75 = -0.006336752;
            }
        }
    } else {
        if ((input[71]) >= (7712.5)) {
            if ((input[57]) >= (2.85525)) {
                var75 = 0.008116785;
            } else {
                var75 = -0.012996807;
            }
        } else {
            if ((input[56]) >= (2691.7778)) {
                var75 = 0.04476851;
            } else {
                var75 = 0.012057552;
            }
        }
    }
    double var76;
    if ((input[12]) >= (0.64845)) {
        if ((input[58]) >= (488.36523)) {
            if ((input[71]) >= (2279.5)) {
                var76 = -0.002491703;
            } else {
                var76 = 0.018818526;
            }
        } else {
            if ((input[66]) >= (281.5)) {
                var76 = -0.020466767;
            } else {
                var76 = 0.0014956961;
            }
        }
    } else {
        if ((input[53]) >= (0.5)) {
            if ((input[62]) >= (1.24355)) {
                var76 = 0.0124827735;
            } else {
                var76 = -0.009367782;
            }
        } else {
            if ((input[70]) >= (6.5)) {
                var76 = 0.0031754721;
            } else {
                var76 = 0.028736377;
            }
        }
    }
    double var77;
    if ((input[57]) >= (2.0689502)) {
        if ((input[12]) >= (0.0078)) {
            if ((input[71]) >= (-209.5)) {
                var77 = 0.006423615;
            } else {
                var77 = -0.04330648;
            }
        } else {
            if ((input[61]) >= (0.2568)) {
                var77 = 0.122567594;
            } else {
                var77 = 0.047984254;
            }
        }
    } else {
        if ((input[53]) >= (0.5)) {
            if ((input[46]) >= (3.9024)) {
                var77 = -0.007998268;
            } else {
                var77 = -0.034527954;
            }
        } else {
            if ((input[71]) >= (442.5)) {
                var77 = -0.009364094;
            } else {
                var77 = 0.0157963;
            }
        }
    }
    double var78;
    if ((input[64]) >= (40.5)) {
        if ((input[71]) >= (23961.5)) {
            if ((input[71]) >= (66461.0)) {
                var78 = -0.051660653;
            } else {
                var78 = -0.012479866;
            }
        } else {
            if ((input[70]) >= (0.5)) {
                var78 = 0.0059967577;
            } else {
                var78 = 0.03902793;
            }
        }
    } else {
        if ((input[71]) >= (71.5)) {
            if ((input[58]) >= (6.9355497)) {
                var78 = -0.007856634;
            } else {
                var78 = -0.04051442;
            }
        } else {
            if ((input[62]) >= (19.65665)) {
                var78 = 0.038683724;
            } else {
                var78 = 0.00088627357;
            }
        }
    }
    double var79;
    if ((input[34]) >= (8.0)) {
        if ((input[66]) >= (359.5)) {
            if ((input[0]) >= (0.5)) {
                var79 = -0.019713638;
            } else {
                var79 = -0.053601723;
            }
        } else {
            if ((input[1]) >= (0.64845)) {
                var79 = -0.012831156;
            } else {
                var79 = 0.034533914;
            }
        }
    } else {
        if ((input[57]) >= (0.54465)) {
            if ((input[66]) >= (-117.5)) {
                var79 = 0.0037862973;
            } else {
                var79 = -0.047137838;
            }
        } else {
            if ((input[66]) >= (10.5)) {
                var79 = -0.025087569;
            } else {
                var79 = 0.05576117;
            }
        }
    }
    double var80;
    if ((input[1]) >= (33.8516)) {
        if ((input[55]) >= (108.27345)) {
            if ((input[71]) >= (670.5)) {
                var80 = -0.04400754;
            } else {
                var80 = -0.011978536;
            }
        } else {
            if ((input[70]) >= (17.5)) {
                var80 = -0.03432714;
            } else {
                var80 = 0.002535748;
            }
        }
    } else {
        if ((input[58]) >= (2398.6367)) {
            if ((input[66]) >= (4211.5)) {
                var80 = 0.003607435;
            } else {
                var80 = 0.036462173;
            }
        } else {
            if ((input[1]) >= (1.8359499)) {
                var80 = -0.0052110753;
            } else {
                var80 = 0.008552422;
            }
        }
    }
    double var81;
    if ((input[64]) >= (46.5)) {
        if ((input[71]) >= (-36.5)) {
            if ((input[66]) >= (5345.5)) {
                var81 = 0.022287166;
            } else {
                var81 = 0.07408106;
            }
        } else {
            if ((input[59]) >= (3.6066499)) {
                var81 = 0.12084263;
            } else {
                var81 = -0.04382762;
            }
        }
    } else {
        if ((input[1]) >= (9.4141)) {
            if ((input[63]) >= (0.99095)) {
                var81 = -0.014229955;
            } else {
                var81 = 0.0027684488;
            }
        } else {
            if ((input[3]) >= (2.45)) {
                var81 = 0.008631594;
            } else {
                var81 = -0.0046425904;
            }
        }
    }
    double var82;
    if ((input[46]) >= (4.6912003)) {
        if ((input[71]) >= (1733.5)) {
            if ((input[58]) >= (28.742199)) {
                var82 = -0.001303042;
            } else {
                var82 = -0.086763725;
            }
        } else {
            if ((input[56]) >= (1075.8949)) {
                var82 = 0.040798202;
            } else {
                var82 = 0.007590104;
            }
        }
    } else {
        if ((input[53]) >= (1.5)) {
            if ((input[46]) >= (3.68735)) {
                var82 = -0.010427308;
            } else {
                var82 = -0.04654683;
            }
        } else {
            if ((input[52]) >= (1.5)) {
                var82 = -0.022329248;
            } else {
                var82 = 0.0035799507;
            }
        }
    }
    double var83;
    if ((input[57]) >= (3.12495)) {
        if ((input[70]) >= (55.5)) {
            if ((input[71]) >= (12480.0)) {
                var83 = -0.055162203;
            } else {
                var83 = -0.011933651;
            }
        } else {
            if ((input[70]) >= (4.5)) {
                var83 = 0.03137962;
            } else {
                var83 = 0.008648111;
            }
        }
    } else {
        if ((input[71]) >= (763.5)) {
            if ((input[58]) >= (1176.0059)) {
                var83 = 0.0019305367;
            } else {
                var83 = -0.02101068;
            }
        } else {
            if ((input[70]) >= (0.5)) {
                var83 = 0.0018963388;
            } else {
                var83 = 0.05041459;
            }
        }
    }
    double var84;
    if ((input[64]) >= (43.5)) {
        if ((input[71]) >= (17388.0)) {
            if ((input[70]) >= (4.5)) {
                var84 = 0.01103486;
            } else {
                var84 = -0.02522992;
            }
        } else {
            if ((input[71]) >= (-317.0)) {
                var84 = 0.018637367;
            } else {
                var84 = -0.04076908;
            }
        }
    } else {
        if ((input[66]) >= (338.5)) {
            if ((input[56]) >= (7.95605)) {
                var84 = -0.00432986;
            } else {
                var84 = -0.05460168;
            }
        } else {
            if ((input[62]) >= (15.188601)) {
                var84 = 0.023964169;
            } else {
                var84 = -0.00022822211;
            }
        }
    }
    double var85;
    if ((input[64]) >= (39.5)) {
        if ((input[71]) >= (2065.5)) {
            if ((input[0]) >= (0.5)) {
                var85 = -0.0013726095;
            } else {
                var85 = -0.048632585;
            }
        } else {
            if ((input[70]) >= (1.5)) {
                var85 = 0.0041741203;
            } else {
                var85 = 0.035151463;
            }
        }
    } else {
        if ((input[66]) >= (43.5)) {
            if ((input[58]) >= (0.18555)) {
                var85 = -0.010210744;
            } else {
                var85 = -0.079896405;
            }
        } else {
            if ((input[71]) >= (13.5)) {
                var85 = -0.017139;
            } else {
                var85 = 0.018401185;
            }
        }
    }
    double var86;
    if ((input[64]) >= (46.5)) {
        if ((input[71]) >= (-36.5)) {
            if ((input[66]) >= (5345.5)) {
                var86 = 0.020601526;
            } else {
                var86 = 0.068444684;
            }
        } else {
            if ((input[61]) >= (0.0392)) {
                var86 = -0.047034252;
            } else {
                var86 = 0.039632384;
            }
        }
    } else {
        if ((input[12]) >= (35.21095)) {
            if ((input[55]) >= (130.0547)) {
                var86 = -0.0392607;
            } else {
                var86 = -0.010733483;
            }
        } else {
            if ((input[58]) >= (2783.6543)) {
                var86 = 0.015214293;
            } else {
                var86 = -0.0011191027;
            }
        }
    }
    double var87;
    if ((input[70]) >= (78.5)) {
        if ((input[63]) >= (0.71485)) {
            if ((input[70]) >= (116.5)) {
                var87 = -0.06528677;
            } else {
                var87 = -0.029822785;
            }
        } else {
            if ((input[71]) >= (817.5)) {
                var87 = -0.026524654;
            } else {
                var87 = 0.079604715;
            }
        }
    } else {
        if ((input[57]) >= (1.59165)) {
            if ((input[71]) >= (3477.5)) {
                var87 = -0.003194704;
            } else {
                var87 = 0.010134408;
            }
        } else {
            if ((input[71]) >= (16.5)) {
                var87 = -0.01349619;
            } else {
                var87 = 0.009068085;
            }
        }
    }
    double var88;
    if ((input[46]) >= (4.8725)) {
        if ((input[71]) >= (11587.5)) {
            if ((input[64]) >= (46.5)) {
                var88 = 0.018341875;
            } else {
                var88 = -0.015433746;
            }
        } else {
            if ((input[58]) >= (2530.787)) {
                var88 = 0.023429114;
            } else {
                var88 = 0.004954266;
            }
        }
    } else {
        if ((input[53]) >= (0.5)) {
            if ((input[62]) >= (0.110249996)) {
                var88 = -0.008690913;
            } else {
                var88 = -0.04184349;
            }
        } else {
            if ((input[52]) >= (0.5)) {
                var88 = -0.0066540665;
            } else {
                var88 = 0.011288497;
            }
        }
    }
    double var89;
    if ((input[1]) >= (0.22659999)) {
        if ((input[62]) >= (0.0282)) {
            if ((input[34]) >= (8.0)) {
                var89 = -0.020319754;
            } else {
                var89 = 0.0008163447;
            }
        } else {
            if ((input[71]) >= (6.5)) {
                var89 = -0.07526982;
            } else {
                var89 = -0.003493571;
            }
        }
    } else {
        if ((input[13]) >= (2.5)) {
            if ((input[12]) >= (0.0078)) {
                var89 = 0.014594137;
            } else {
                var89 = 0.048179932;
            }
        } else {
            if ((input[70]) >= (6.5)) {
                var89 = -0.027473966;
            } else {
                var89 = 0.009239572;
            }
        }
    }
    double var90;
    if ((input[63]) >= (0.48865)) {
        if ((input[71]) >= (1182.5)) {
            if ((input[0]) >= (0.5)) {
                var90 = -0.004829917;
            } else {
                var90 = -0.04843428;
            }
        } else {
            if ((input[64]) >= (38.5)) {
                var90 = 0.01130799;
            } else {
                var90 = -0.0060649547;
            }
        }
    } else {
        if ((input[71]) >= (5974.0)) {
            if ((input[70]) >= (4.5)) {
                var90 = 0.011670108;
            } else {
                var90 = -0.009181778;
            }
        } else {
            if ((input[56]) >= (2586.3044)) {
                var90 = 0.058204897;
            } else {
                var90 = 0.01749229;
            }
        }
    }
    double var91;
    if ((input[57]) >= (3.12495)) {
        if ((input[66]) >= (-573.5)) {
            if ((input[66]) >= (2335.5)) {
                var91 = 0.011602117;
            } else {
                var91 = 0.036451824;
            }
        } else {
            if ((input[70]) >= (1.5)) {
                var91 = -0.06345939;
            } else {
                var91 = -0.28727552;
            }
        }
    } else {
        if ((input[71]) >= (450.5)) {
            if ((input[58]) >= (14.79295)) {
                var91 = -0.003869788;
            } else {
                var91 = -0.050753217;
            }
        } else {
            if ((input[62]) >= (92.424805)) {
                var91 = 0.021852797;
            } else {
                var91 = -0.0002657947;
            }
        }
    }
    double var92;
    if ((input[64]) >= (45.5)) {
        if ((input[71]) >= (19803.5)) {
            if ((input[71]) >= (63067.0)) {
                var92 = -0.04490679;
            } else {
                var92 = -0.0012070866;
            }
        } else {
            if ((input[0]) >= (6.0)) {
                var92 = 0.00070521625;
            } else {
                var92 = 0.03415912;
            }
        }
    } else {
        if ((input[66]) >= (211.5)) {
            if ((input[64]) >= (37.5)) {
                var92 = -0.0030671852;
            } else {
                var92 = -0.05940787;
            }
        } else {
            if ((input[71]) >= (-241.5)) {
                var92 = 0.008615422;
            } else {
                var92 = -0.036671326;
            }
        }
    }
    double var93;
    if ((input[46]) >= (4.71035)) {
        if ((input[71]) >= (4262.5)) {
            if ((input[64]) >= (43.5)) {
                var93 = 0.0053561213;
            } else {
                var93 = -0.011939241;
            }
        } else {
            if ((input[56]) >= (2742.6084)) {
                var93 = 0.04707734;
            } else {
                var93 = 0.005211522;
            }
        }
    } else {
        if ((input[53]) >= (1.5)) {
            if ((input[46]) >= (3.6871)) {
                var93 = -0.008541912;
            } else {
                var93 = -0.04150369;
            }
        } else {
            if ((input[52]) >= (1.5)) {
                var93 = -0.019375874;
            } else {
                var93 = 0.00282487;
            }
        }
    }
    double var94;
    if ((input[64]) >= (40.5)) {
        if ((input[66]) >= (-117.5)) {
            if ((input[66]) >= (412.5)) {
                var94 = 0.0026177836;
            } else {
                var94 = 0.03210486;
            }
        } else {
            if ((input[70]) >= (5.5)) {
                var94 = -0.0014702035;
            } else {
                var94 = -0.08327534;
            }
        }
    } else {
        if ((input[66]) >= (128.5)) {
            if ((input[58]) >= (7.8730497)) {
                var94 = -0.005874216;
            } else {
                var94 = -0.034180503;
            }
        } else {
            if ((input[64]) >= (38.5)) {
                var94 = 0.036813136;
            } else {
                var94 = 0.0020281035;
            }
        }
    }
    double var95;
    if ((input[12]) >= (3.89845)) {
        if ((input[56]) >= (145.28079)) {
            if ((input[71]) >= (2741.5)) {
                var95 = -0.005845918;
            } else {
                var95 = 0.008984961;
            }
        } else {
            if ((input[66]) >= (68.5)) {
                var95 = -0.020874817;
            } else {
                var95 = 0.014444768;
            }
        }
    } else {
        if ((input[58]) >= (1.2246001)) {
            if ((input[71]) >= (-113.5)) {
                var95 = 0.010977887;
            } else {
                var95 = -0.038036104;
            }
        } else {
            if ((input[66]) >= (9.5)) {
                var95 = -0.015054646;
            } else {
                var95 = 0.043795146;
            }
        }
    }
    double var96;
    if ((input[57]) >= (2.55285)) {
        if ((input[71]) >= (-335.5)) {
            if ((input[66]) >= (621.5)) {
                var96 = 0.006441634;
            } else {
                var96 = 0.031304155;
            }
        } else {
            if ((input[70]) >= (3.5)) {
                var96 = -0.028544623;
            } else {
                var96 = -0.13236822;
            }
        }
    } else {
        if ((input[66]) >= (338.5)) {
            if ((input[58]) >= (1165.5859)) {
                var96 = 0.0036230048;
            } else {
                var96 = -0.015972665;
            }
        } else {
            if ((input[64]) >= (38.5)) {
                var96 = 0.019607922;
            } else {
                var96 = -0.0027902434;
            }
        }
    }
    double var97;
    if ((input[70]) >= (79.5)) {
        if ((input[61]) >= (0.28254998)) {
            if ((input[58]) >= (1127.9844)) {
                var97 = -0.03923891;
            } else {
                var97 = -0.094569966;
            }
        } else {
            if ((input[71]) >= (817.5)) {
                var97 = -0.023404164;
            } else {
                var97 = 0.031425368;
            }
        }
    } else {
        if ((input[58]) >= (2787.0762)) {
            if ((input[55]) >= (107.89845)) {
                var97 = -0.0057287044;
            } else {
                var97 = 0.024482524;
            }
        } else {
            if ((input[71]) >= (917.5)) {
                var97 = -0.007472133;
            } else {
                var97 = 0.0030226116;
            }
        }
    }
    double var98;
    if ((input[71]) >= (37085.5)) {
        if ((input[57]) >= (2.5622501)) {
            if ((input[64]) >= (46.5)) {
                var98 = 0.012432326;
            } else {
                var98 = -0.023754409;
            }
        } else {
            if ((input[55]) >= (89.6172)) {
                var98 = -0.060734004;
            } else {
                var98 = -0.025710642;
            }
        }
    } else {
        if ((input[64]) >= (43.5)) {
            if ((input[71]) >= (-43.5)) {
                var98 = 0.013812961;
            } else {
                var98 = -0.028786203;
            }
        } else {
            if ((input[63]) >= (0.52825)) {
                var98 = -0.0032099697;
            } else {
                var98 = 0.021839926;
            }
        }
    }
    double var99;
    if ((input[46]) >= (4.8725)) {
        if ((input[71]) >= (9024.5)) {
            if ((input[0]) >= (0.5)) {
                var99 = -0.006059475;
            } else {
                var99 = -0.056219406;
            }
        } else {
            if ((input[64]) >= (43.5)) {
                var99 = 0.022103341;
            } else {
                var99 = 0.0048478413;
            }
        }
    } else {
        if ((input[53]) >= (0.5)) {
            if ((input[57]) >= (1.4872501)) {
                var99 = -0.0031460691;
            } else {
                var99 = -0.019796511;
            }
        } else {
            if ((input[71]) >= (21.5)) {
                var99 = -0.0010258406;
            } else {
                var99 = 0.01835265;
            }
        }
    }
    double var100;
    var100 = (1.0) / ((1.0) + (exp((0.0) - ((((((((((((((((((((((((((((((((((((((((((((((((((((((((((((((((((((((((((((((((((((((((((((((((((((var0) + (var1)) + (var2)) + (var3)) + (var4)) + (var5)) + (var6)) + (var7)) + (var8)) + (var9)) + (var10)) + (var11)) + (var12)) + (var13)) + (var14)) + (var15)) + (var16)) + (var17)) + (var18)) + (var19)) + (var20)) + (var21)) + (var22)) + (var23)) + (var24)) + (var25)) + (var26)) + (var27)) + (var28)) + (var29)) + (var30)) + (var31)) + (var32)) + (var33)) + (var34)) + (var35)) + (var36)) + (var37)) + (var38)) + (var39)) + (var40)) + (var41)) + (var42)) + (var43)) + (var44)) + (var45)) + (var46)) + (var47)) + (var48)) + (var49)) + (var50)) + (var51)) + (var52)) + (var53)) + (var54)) + (var55)) + (var56)) + (var57)) + (var58)) + (var59)) + (var60)) + (var61)) + (var62)) + (var63)) + (var64)) + (var65)) + (var66)) + (var67)) + (var68)) + (var69)) + (var70)) + (var71)) + (var72)) + (var73)) + (var74)) + (var75)) + (var76)) + (var77)) + (var78)) + (var79)) + (var80)) + (var81)) + (var82)) + (var83)) + (var84)) + (var85)) + (var86)) + (var87)) + (var88)) + (var89)) + (var90)) + (var91)) + (var92)) + (var93)) + (var94)) + (var95)) + (var96)) + (var97)) + (var98)) + (var99)))));
    memcpy(output, (double[]){(1.0) - (var100), var100}, 2 * sizeof(double));
}
