#include <math.h>
#include <string.h>
void score(double * input, double * output) {
    double var0;
    if ((input[60]) >= (1.5)) {
        if ((input[39]) >= (0.58335)) {
            if ((input[39]) >= (5.29165)) {
                var0 = -0.19702123;
            } else {
                var0 = -0.18153328;
            }
        } else {
            if ((input[1]) >= (0.02315)) {
                var0 = -0.15359019;
            } else {
                var0 = -0.03068783;
            }
        }
    } else {
        if ((input[12]) >= (0.18725)) {
            if ((input[41]) >= (3.5)) {
                var0 = 0.073127754;
            } else {
                var0 = -0.09170014;
            }
        } else {
            if ((input[39]) >= (0.58335)) {
                var0 = -0.03535109;
            } else {
                var0 = 0.18990888;
            }
        }
    }
    double var1;
    if ((input[60]) >= (1.5)) {
        if ((input[39]) >= (0.58335)) {
            if ((input[41]) >= (1.5)) {
                var1 = -0.16258012;
            } else {
                var1 = -0.17798631;
            }
        } else {
            if ((input[1]) >= (0.02315)) {
                var1 = -0.13909109;
            } else {
                var1 = -0.027658194;
            }
        }
    } else {
        if ((input[1]) >= (0.198)) {
            if ((input[41]) >= (3.5)) {
                var1 = 0.064888924;
            } else {
                var1 = -0.08424126;
            }
        } else {
            if ((input[39]) >= (0.125)) {
                var1 = -0.010182413;
            } else {
                var1 = 0.17248175;
            }
        }
    }
    double var2;
    if ((input[60]) >= (1.5)) {
        if ((input[39]) >= (1.41665)) {
            if ((input[41]) >= (1.5)) {
                var2 = -0.14987326;
            } else {
                var2 = -0.16452701;
            }
        } else {
            if ((input[57]) >= (0.5)) {
                var2 = -0.09535327;
            } else {
                var2 = -0.15038405;
            }
        }
    } else {
        if ((input[12]) >= (0.12145)) {
            if ((input[54]) >= (44.5)) {
                var2 = 0.08457405;
            } else {
                var2 = -0.05974701;
            }
        } else {
            if ((input[39]) >= (0.58335)) {
                var2 = -0.024181083;
            } else {
                var2 = 0.16136762;
            }
        }
    }
    double var3;
    if ((input[60]) >= (1.5)) {
        if ((input[45]) >= (35.1481)) {
            if ((input[41]) >= (2.5)) {
                var3 = -0.11891409;
            } else {
                var3 = -0.15080993;
            }
        } else {
            if ((input[12]) >= (0.0028)) {
                var3 = -0.0822341;
            } else {
                var3 = 0.10219727;
            }
        }
    } else {
        if ((input[1]) >= (0.25744998)) {
            if ((input[39]) >= (0.125)) {
                var3 = -0.11261542;
            } else {
                var3 = 0.03240928;
            }
        } else {
            if ((input[12]) >= (0.037699997)) {
                var3 = 0.07052209;
            } else {
                var3 = 0.1539015;
            }
        }
    }
    double var4;
    if ((input[60]) >= (1.5)) {
        if ((input[39]) >= (0.58335)) {
            if ((input[39]) >= (5.29165)) {
                var4 = -0.14685401;
            } else {
                var4 = -0.13237752;
            }
        } else {
            if ((input[1]) >= (0.02315)) {
                var4 = -0.108630076;
            } else {
                var4 = -0.008436494;
            }
        }
    } else {
        if ((input[12]) >= (0.29065)) {
            if ((input[54]) >= (44.5)) {
                var4 = 0.06507673;
            } else {
                var4 = -0.066691935;
            }
        } else {
            if ((input[39]) >= (0.58335)) {
                var4 = -0.0290993;
            } else {
                var4 = 0.13927323;
            }
        }
    }
    double var5;
    if ((input[60]) >= (1.5)) {
        if ((input[39]) >= (1.41665)) {
            if ((input[39]) >= (5.29165)) {
                var5 = -0.13982342;
            } else {
                var5 = -0.12512097;
            }
        } else {
            if ((input[60]) >= (8.5)) {
                var5 = -0.12216171;
            } else {
                var5 = -0.06791304;
            }
        }
    } else {
        if ((input[1]) >= (0.25744998)) {
            if ((input[41]) >= (3.5)) {
                var5 = 0.047075056;
            } else {
                var5 = -0.07304568;
            }
        } else {
            if ((input[13]) >= (0.5)) {
                var5 = 0.052485324;
            } else {
                var5 = 0.13781814;
            }
        }
    }
    double var6;
    if ((input[60]) >= (1.5)) {
        if ((input[41]) >= (2.5)) {
            if ((input[1]) >= (0.0443)) {
                var6 = -0.094542556;
            } else {
                var6 = 0.012744235;
            }
        } else {
            if ((input[45]) >= (30.9674)) {
                var6 = -0.12899101;
            } else {
                var6 = -0.057593714;
            }
        }
    } else {
        if ((input[12]) >= (0.12145)) {
            if ((input[2]) >= (0.5)) {
                var6 = -0.071923785;
            } else {
                var6 = 0.050583597;
            }
        } else {
            if ((input[39]) >= (0.125)) {
                var6 = -0.018416286;
            } else {
                var6 = 0.12950656;
            }
        }
    }
    double var7;
    if ((input[60]) >= (1.5)) {
        if ((input[39]) >= (0.58335)) {
            if ((input[39]) >= (5.29165)) {
                var7 = -0.12918642;
            } else {
                var7 = -0.112807356;
            }
        } else {
            if ((input[45]) >= (39.10205)) {
                var7 = -0.09251824;
            } else {
                var7 = -0.017413285;
            }
        }
    } else {
        if ((input[12]) >= (0.0724)) {
            if ((input[38]) >= (0.125)) {
                var7 = -0.081579216;
            } else {
                var7 = 0.043493833;
            }
        } else {
            if ((input[39]) >= (0.58335)) {
                var7 = -0.03054404;
            } else {
                var7 = 0.12570493;
            }
        }
    }
    double var8;
    if ((input[60]) >= (1.5)) {
        if ((input[39]) >= (1.41665)) {
            if ((input[39]) >= (5.29165)) {
                var8 = -0.12489823;
            } else {
                var8 = -0.1078321;
            }
        } else {
            if ((input[57]) >= (0.5)) {
                var8 = -0.050932344;
            } else {
                var8 = -0.10729934;
            }
        }
    } else {
        if ((input[1]) >= (0.06825)) {
            if ((input[60]) >= (0.5)) {
                var8 = -0.07656337;
            } else {
                var8 = 0.042029914;
            }
        } else {
            if ((input[39]) >= (1.125)) {
                var8 = -0.03702027;
            } else {
                var8 = 0.121101335;
            }
        }
    }
    double var9;
    if ((input[60]) >= (1.5)) {
        if ((input[41]) >= (2.5)) {
            if ((input[1]) >= (0.0443)) {
                var9 = -0.077384375;
            } else {
                var9 = 0.025085062;
            }
        } else {
            if ((input[45]) >= (30.9674)) {
                var9 = -0.11498535;
            } else {
                var9 = -0.04149407;
            }
        }
    } else {
        if ((input[12]) >= (0.03895)) {
            if ((input[13]) >= (0.5)) {
                var9 = -0.06281596;
            } else {
                var9 = 0.053423442;
            }
        } else {
            if ((input[39]) >= (2.625)) {
                var9 = -0.0949954;
            } else {
                var9 = 0.11791867;
            }
        }
    }
    double var10;
    if ((input[60]) >= (0.5)) {
        if ((input[1]) >= (0.01575)) {
            if ((input[41]) >= (2.5)) {
                var10 = -0.061779797;
            } else {
                var10 = -0.10853118;
            }
        } else {
            if ((input[39]) >= (1.875)) {
                var10 = -0.11234768;
            } else {
                var10 = 0.08878489;
            }
        }
    } else {
        if ((input[56]) >= (8527.0)) {
            if ((input[54]) >= (47.5)) {
                var10 = 0.09469939;
            } else {
                var10 = -0.06704384;
            }
        } else {
            if ((input[39]) >= (1.375)) {
                var10 = -0.019179238;
            } else {
                var10 = 0.113835804;
            }
        }
    }
    double var11;
    if ((input[60]) >= (1.5)) {
        if ((input[39]) >= (1.41665)) {
            if ((input[39]) >= (6.29165)) {
                var11 = -0.115714006;
            } else {
                var11 = -0.09529577;
            }
        } else {
            if ((input[60]) >= (8.5)) {
                var11 = -0.091804795;
            } else {
                var11 = -0.034420386;
            }
        }
    } else {
        if ((input[12]) >= (0.037699997)) {
            if ((input[2]) >= (0.5)) {
                var11 = -0.05719411;
            } else {
                var11 = 0.044861697;
            }
        } else {
            if ((input[1]) >= (0.31405002)) {
                var11 = -0.030919677;
            } else {
                var11 = 0.11317086;
            }
        }
    }
    double var12;
    if ((input[60]) >= (0.5)) {
        if ((input[39]) >= (0.125)) {
            if ((input[39]) >= (5.29165)) {
                var12 = -0.11392367;
            } else {
                var12 = -0.08567746;
            }
        } else {
            if ((input[12]) >= (0.00575)) {
                var12 = -0.053007066;
            } else {
                var12 = 0.09390951;
            }
        }
    } else {
        if ((input[56]) >= (5949.5)) {
            if ((input[54]) >= (45.5)) {
                var12 = 0.05433925;
            } else {
                var12 = -0.07695239;
            }
        } else {
            if ((input[39]) >= (1.375)) {
                var12 = -0.009265694;
            } else {
                var12 = 0.1085095;
            }
        }
    }
    double var13;
    if ((input[60]) >= (0.5)) {
        if ((input[41]) >= (3.5)) {
            if ((input[12]) >= (0.00915)) {
                var13 = -0.030060062;
            } else {
                var13 = 0.10512859;
            }
        } else {
            if ((input[45]) >= (31.705551)) {
                var13 = -0.09068362;
            } else {
                var13 = 0.012500124;
            }
        }
    } else {
        if ((input[13]) >= (0.5)) {
            if ((input[3]) >= (0.1)) {
                var13 = -0.04609003;
            } else {
                var13 = 0.08817988;
            }
        } else {
            if ((input[39]) >= (1.875)) {
                var13 = -0.038455226;
            } else {
                var13 = 0.1065128;
            }
        }
    }
    double var14;
    if ((input[60]) >= (1.5)) {
        if ((input[39]) >= (2.625)) {
            if ((input[45]) >= (17.096802)) {
                var14 = -0.103222705;
            } else {
                var14 = 0.109659545;
            }
        } else {
            if ((input[60]) >= (8.5)) {
                var14 = -0.08393928;
            } else {
                var14 = -0.031274937;
            }
        }
    } else {
        if ((input[12]) >= (0.00915)) {
            if ((input[7]) >= (4.5)) {
                var14 = 0.07641547;
            } else {
                var14 = -0.025766378;
            }
        } else {
            if ((input[1]) >= (0.3169)) {
                var14 = -0.040706918;
            } else {
                var14 = 0.10850754;
            }
        }
    }
    double var15;
    if ((input[60]) >= (0.5)) {
        if ((input[39]) >= (0.58335)) {
            if ((input[39]) >= (5.29165)) {
                var15 = -0.107174985;
            } else {
                var15 = -0.075371444;
            }
        } else {
            if ((input[12]) >= (0.00255)) {
                var15 = -0.040907804;
            } else {
                var15 = 0.08715632;
            }
        }
    } else {
        if ((input[56]) >= (4789.0)) {
            if ((input[54]) >= (45.5)) {
                var15 = 0.053210795;
            } else {
                var15 = -0.06547851;
            }
        } else {
            if ((input[1]) >= (2.0045)) {
                var15 = 0.01915776;
            } else {
                var15 = 0.103086494;
            }
        }
    }
    double var16;
    if ((input[60]) >= (1.5)) {
        if ((input[41]) >= (2.5)) {
            if ((input[60]) >= (7.5)) {
                var16 = -0.066657245;
            } else {
                var16 = -0.010998632;
            }
        } else {
            if ((input[51]) >= (0.00945)) {
                var16 = -0.08178746;
            } else {
                var16 = -0.11010017;
            }
        }
    } else {
        if ((input[12]) >= (0.00915)) {
            if ((input[54]) >= (44.5)) {
                var16 = 0.054664552;
            } else {
                var16 = -0.032148898;
            }
        } else {
            if ((input[1]) >= (0.3169)) {
                var16 = -0.037943244;
            } else {
                var16 = 0.104425035;
            }
        }
    }
    double var17;
    if ((input[39]) >= (0.125)) {
        if ((input[39]) >= (2.58335)) {
            if ((input[48]) >= (1.66735)) {
                var17 = -0.084157705;
            } else {
                var17 = -0.114023626;
            }
        } else {
            if ((input[56]) >= (1617.0)) {
                var17 = -0.06669987;
            } else {
                var17 = -0.0054279375;
            }
        }
    } else {
        if ((input[14]) >= (0.225)) {
            if ((input[3]) >= (0.225)) {
                var17 = -0.043788187;
            } else {
                var17 = 0.049352348;
            }
        } else {
            if ((input[60]) >= (2.5)) {
                var17 = -0.039012548;
            } else {
                var17 = 0.099189244;
            }
        }
    }
    double var18;
    if ((input[1]) >= (0.35975)) {
        if ((input[41]) >= (3.5)) {
            if ((input[14]) >= (0.225)) {
                var18 = -0.03700113;
            } else {
                var18 = 0.05824706;
            }
        } else {
            if ((input[39]) >= (2.625)) {
                var18 = -0.09505569;
            } else {
                var18 = -0.05027358;
            }
        }
    } else {
        if ((input[39]) >= (0.58335)) {
            if ((input[47]) >= (0.068450004)) {
                var18 = -0.005676443;
            } else {
                var18 = -0.101928174;
            }
        } else {
            if ((input[13]) >= (0.5)) {
                var18 = 0.0056135375;
            } else {
                var18 = 0.09789007;
            }
        }
    }
    double var19;
    if ((input[60]) >= (0.5)) {
        if ((input[39]) >= (0.58335)) {
            if ((input[39]) >= (6.29165)) {
                var19 = -0.09997736;
            } else {
                var19 = -0.06168247;
            }
        } else {
            if ((input[12]) >= (0.00255)) {
                var19 = -0.032474555;
            } else {
                var19 = 0.07565574;
            }
        }
    } else {
        if ((input[56]) >= (3837.5)) {
            if ((input[54]) >= (46.5)) {
                var19 = 0.07425253;
            } else {
                var19 = -0.03866595;
            }
        } else {
            if ((input[54]) >= (42.5)) {
                var19 = 0.11017964;
            } else {
                var19 = 0.053672936;
            }
        }
    }
    double var20;
    if ((input[1]) >= (0.35975)) {
        if ((input[54]) >= (46.5)) {
            if ((input[56]) >= (12080.0)) {
                var20 = -0.0053434437;
            } else {
                var20 = 0.13067418;
            }
        } else {
            if ((input[41]) >= (2.5)) {
                var20 = -0.028629279;
            } else {
                var20 = -0.08149653;
            }
        }
    } else {
        if ((input[12]) >= (0.00255)) {
            if ((input[54]) >= (42.5)) {
                var20 = 0.06309622;
            } else {
                var20 = -0.028854473;
            }
        } else {
            if ((input[39]) >= (3.75)) {
                var20 = -0.07790966;
            } else {
                var20 = 0.10005295;
            }
        }
    }
    double var21;
    if ((input[12]) >= (0.7666)) {
        if ((input[39]) >= (0.58335)) {
            if ((input[47]) >= (0.47324997)) {
                var21 = -0.06772431;
            } else {
                var21 = -0.113217294;
            }
        } else {
            if ((input[54]) >= (45.5)) {
                var21 = 0.043455575;
            } else {
                var21 = -0.043952707;
            }
        }
    } else {
        if ((input[3]) >= (0.225)) {
            if ((input[14]) >= (0.1)) {
                var21 = -0.019835537;
            } else {
                var21 = 0.06531237;
            }
        } else {
            if ((input[60]) >= (1.5)) {
                var21 = -0.059358414;
            } else {
                var21 = 0.09704666;
            }
        }
    }
    double var22;
    if ((input[41]) >= (3.5)) {
        if ((input[14]) >= (0.1)) {
            if ((input[56]) >= (13686.0)) {
                var22 = -0.056889206;
            } else {
                var22 = 0.02839464;
            }
        } else {
            if ((input[12]) >= (2.3667002)) {
                var22 = 0.019387959;
            } else {
                var22 = 0.10129937;
            }
        }
    } else {
        if ((input[1]) >= (1.47535)) {
            if ((input[39]) >= (2.625)) {
                var22 = -0.09125847;
            } else {
                var22 = -0.051899016;
            }
        } else {
            if ((input[5]) >= (2.225)) {
                var22 = -0.039988574;
            } else {
                var22 = 0.031198665;
            }
        }
    }
    double var23;
    if ((input[5]) >= (0.1)) {
        if ((input[18]) >= (3.5)) {
            if ((input[56]) >= (2713.0)) {
                var23 = -0.019805053;
            } else {
                var23 = 0.053852063;
            }
        } else {
            if ((input[41]) >= (2.5)) {
                var23 = -0.030625422;
            } else {
                var23 = -0.073873885;
            }
        }
    } else {
        if ((input[39]) >= (0.125)) {
            if ((input[47]) >= (0.91425)) {
                var23 = -0.0036332742;
            } else {
                var23 = -0.09968019;
            }
        } else {
            if ((input[2]) >= (0.5)) {
                var23 = -0.025181482;
            } else {
                var23 = 0.09060508;
            }
        }
    }
    double var24;
    if ((input[12]) >= (0.7666)) {
        if ((input[39]) >= (2.875)) {
            if ((input[51]) >= (0.00955)) {
                var24 = -0.07233731;
            } else {
                var24 = -0.1081621;
            }
        } else {
            if ((input[54]) >= (47.5)) {
                var24 = 0.07606723;
            } else {
                var24 = -0.034560695;
            }
        }
    } else {
        if ((input[1]) >= (0.00255)) {
            if ((input[54]) >= (43.5)) {
                var24 = 0.07211422;
            } else {
                var24 = -0.017494118;
            }
        } else {
            if ((input[41]) >= (0.5)) {
                var24 = 0.09282368;
            } else {
                var24 = -0.08774961;
            }
        }
    }
    double var25;
    if ((input[60]) >= (0.5)) {
        if ((input[60]) >= (7.5)) {
            if ((input[45]) >= (46.000397)) {
                var25 = -0.07736789;
            } else {
                var25 = -0.0060357875;
            }
        } else {
            if ((input[51]) >= (0.01255)) {
                var25 = 0.008877492;
            } else {
                var25 = -0.06486648;
            }
        }
    } else {
        if ((input[56]) >= (5898.5)) {
            if ((input[54]) >= (48.5)) {
                var25 = 0.09618014;
            } else {
                var25 = -0.040199567;
            }
        } else {
            if ((input[54]) >= (40.5)) {
                var25 = 0.09217549;
            } else {
                var25 = 0.021573711;
            }
        }
    }
    double var26;
    if ((input[1]) >= (1.5899501)) {
        if ((input[39]) >= (2.625)) {
            if ((input[47]) >= (0.90275)) {
                var26 = -0.06579369;
            } else {
                var26 = -0.10398521;
            }
        } else {
            if ((input[54]) >= (47.5)) {
                var26 = 0.055829145;
            } else {
                var26 = -0.039227083;
            }
        }
    } else {
        if ((input[14]) >= (0.1)) {
            if ((input[56]) >= (2327.5)) {
                var26 = -0.025605539;
            } else {
                var26 = 0.032773774;
            }
        } else {
            if ((input[39]) >= (0.125)) {
                var26 = -0.05068594;
            } else {
                var26 = 0.091657095;
            }
        }
    }
    double var27;
    if ((input[5]) >= (0.1)) {
        if ((input[41]) >= (2.5)) {
            if ((input[56]) >= (2432.0)) {
                var27 = -0.028375486;
            } else {
                var27 = 0.02843583;
            }
        } else {
            if ((input[51]) >= (0.00945)) {
                var27 = -0.045375418;
            } else {
                var27 = -0.09453184;
            }
        }
    } else {
        if ((input[56]) >= (2974.0)) {
            if ((input[54]) >= (45.5)) {
                var27 = 0.050095648;
            } else {
                var27 = -0.032961395;
            }
        } else {
            if ((input[60]) >= (2.5)) {
                var27 = -0.040877342;
            } else {
                var27 = 0.09422844;
            }
        }
    }
    double var28;
    if ((input[1]) >= (1.5899501)) {
        if ((input[39]) >= (2.625)) {
            if ((input[47]) >= (0.90275)) {
                var28 = -0.06076398;
            } else {
                var28 = -0.10153951;
            }
        } else {
            if ((input[54]) >= (48.5)) {
                var28 = 0.08390996;
            } else {
                var28 = -0.032795835;
            }
        }
    } else {
        if ((input[12]) >= (0.00255)) {
            if ((input[54]) >= (43.5)) {
                var28 = 0.06324918;
            } else {
                var28 = -0.01700477;
            }
        } else {
            if ((input[41]) >= (0.5)) {
                var28 = 0.087567255;
            } else {
                var28 = -0.081031;
            }
        }
    }
    double var29;
    if ((input[10]) >= (3.5)) {
        if ((input[56]) >= (2972.0)) {
            if ((input[54]) >= (48.5)) {
                var29 = 0.09950281;
            } else {
                var29 = -0.012385706;
            }
        } else {
            if ((input[60]) >= (2.5)) {
                var29 = -0.03499313;
            } else {
                var29 = 0.08718058;
            }
        }
    } else {
        if ((input[21]) >= (3.5)) {
            if ((input[13]) >= (0.5)) {
                var29 = -0.028967498;
            } else {
                var29 = 0.040583044;
            }
        } else {
            if ((input[51]) >= (0.01275)) {
                var29 = -0.033586908;
            } else {
                var29 = -0.08218852;
            }
        }
    }
    double var30;
    if ((input[12]) >= (1.89145)) {
        if ((input[47]) >= (0.95135)) {
            if ((input[0]) >= (6.0)) {
                var30 = -0.07252195;
            } else {
                var30 = -0.01250374;
            }
        } else {
            if ((input[56]) >= (55.5)) {
                var30 = -0.08431601;
            } else {
                var30 = 0.09710297;
            }
        }
    } else {
        if ((input[3]) >= (0.1)) {
            if ((input[61]) >= (17400.0)) {
                var30 = -0.051339775;
            } else {
                var30 = 0.010810872;
            }
        } else {
            if ((input[60]) >= (2.5)) {
                var30 = -0.072106294;
            } else {
                var30 = 0.08402946;
            }
        }
    }
    double var31;
    if ((input[41]) >= (3.5)) {
        if ((input[14]) >= (0.1)) {
            if ((input[61]) >= (17732.5)) {
                var31 = -0.050536048;
            } else {
                var31 = 0.017941616;
            }
        } else {
            if ((input[12]) >= (2.3667002)) {
                var31 = 0.014129149;
            } else {
                var31 = 0.08979865;
            }
        }
    } else {
        if ((input[39]) >= (5.29165)) {
            if ((input[46]) >= (1.52555)) {
                var31 = -0.06414737;
            } else {
                var31 = -0.104547255;
            }
        } else {
            if ((input[12]) >= (1.42905)) {
                var31 = -0.040473294;
            } else {
                var31 = 0.0048861383;
            }
        }
    }
    double var32;
    if ((input[60]) >= (7.5)) {
        if ((input[47]) >= (1.12785)) {
            if ((input[45]) >= (42.79225)) {
                var32 = -0.049029425;
            } else {
                var32 = 0.029088084;
            }
        } else {
            if ((input[62]) >= (2.5)) {
                var32 = -0.09383526;
            } else {
                var32 = 0.008207361;
            }
        }
    } else {
        if ((input[61]) >= (4786.0)) {
            if ((input[47]) >= (1.67605)) {
                var32 = -0.0071722753;
            } else {
                var32 = -0.089515634;
            }
        } else {
            if ((input[47]) >= (0.79355)) {
                var32 = 0.06463364;
            } else {
                var32 = -0.017276928;
            }
        }
    }
    double var33;
    if ((input[10]) >= (3.5)) {
        if ((input[56]) >= (2052.0)) {
            if ((input[54]) >= (45.5)) {
                var33 = 0.05007403;
            } else {
                var33 = -0.0206668;
            }
        } else {
            if ((input[60]) >= (2.5)) {
                var33 = -0.033478342;
            } else {
                var33 = 0.08531965;
            }
        }
    } else {
        if ((input[51]) >= (0.01275)) {
            if ((input[56]) >= (1346.5)) {
                var33 = -0.026007859;
            } else {
                var33 = 0.042351533;
            }
        } else {
            if ((input[56]) >= (49.5)) {
                var33 = -0.07882852;
            } else {
                var33 = 0.07201293;
            }
        }
    }
    double var34;
    if ((input[16]) >= (0.1)) {
        if ((input[47]) >= (0.5094)) {
            if ((input[56]) >= (737.5)) {
                var34 = -0.017235693;
            } else {
                var34 = 0.057475604;
            }
        } else {
            if ((input[56]) >= (49.5)) {
                var34 = -0.08246487;
            } else {
                var34 = 0.06326923;
            }
        }
    } else {
        if ((input[13]) >= (0.5)) {
            if ((input[56]) >= (767.0)) {
                var34 = -0.03180263;
            } else {
                var34 = 0.10388564;
            }
        } else {
            if ((input[39]) >= (2.125)) {
                var34 = -0.052657403;
            } else {
                var34 = 0.07490268;
            }
        }
    }
    double var35;
    if ((input[60]) >= (8.5)) {
        if ((input[45]) >= (42.79225)) {
            if ((input[3]) >= (0.45)) {
                var35 = -0.047156848;
            } else {
                var35 = -0.090947784;
            }
        } else {
            if ((input[47]) >= (1.6584)) {
                var35 = 0.04415733;
            } else {
                var35 = -0.05917687;
            }
        }
    } else {
        if ((input[61]) >= (13495.5)) {
            if ((input[47]) >= (1.67605)) {
                var35 = -0.025498886;
            } else {
                var35 = -0.10564828;
            }
        } else {
            if ((input[54]) >= (42.5)) {
                var35 = 0.067306474;
            } else {
                var35 = -0.003999724;
            }
        }
    }
    double var36;
    if ((input[1]) >= (1.5899501)) {
        if ((input[39]) >= (5.29165)) {
            if ((input[50]) >= (1.6716499)) {
                var36 = -0.06684911;
            } else {
                var36 = -0.10016956;
            }
        } else {
            if ((input[47]) >= (0.9522)) {
                var36 = -0.009603474;
            } else {
                var36 = -0.055195075;
            }
        }
    } else {
        if ((input[54]) >= (40.5)) {
            if ((input[61]) >= (17400.0)) {
                var36 = -0.027162304;
            } else {
                var36 = 0.070709065;
            }
        } else {
            if ((input[12]) >= (0.0006)) {
                var36 = -0.028218498;
            } else {
                var36 = 0.045072027;
            }
        }
    }
    double var37;
    if ((input[7]) >= (4.5)) {
        if ((input[56]) >= (2479.5)) {
            if ((input[54]) >= (43.5)) {
                var37 = 0.04320827;
            } else {
                var37 = -0.033356942;
            }
        } else {
            if ((input[41]) >= (2.5)) {
                var37 = 0.088691644;
            } else {
                var37 = -0.06478932;
            }
        }
    } else {
        if ((input[51]) >= (0.01275)) {
            if ((input[56]) >= (1588.5)) {
                var37 = -0.014921608;
            } else {
                var37 = 0.042097494;
            }
        } else {
            if ((input[56]) >= (49.5)) {
                var37 = -0.06591976;
            } else {
                var37 = 0.060252994;
            }
        }
    }
    double var38;
    if ((input[12]) >= (2.34535)) {
        if ((input[39]) >= (2.875)) {
            if ((input[47]) >= (0.70145)) {
                var38 = -0.055028953;
            } else {
                var38 = -0.09888169;
            }
        } else {
            if ((input[54]) >= (48.5)) {
                var38 = 0.082671516;
            } else {
                var38 = -0.022827521;
            }
        }
    } else {
        if ((input[54]) >= (41.5)) {
            if ((input[56]) >= (10749.5)) {
                var38 = -0.0071666846;
            } else {
                var38 = 0.073402174;
            }
        } else {
            if ((input[56]) >= (1176.5)) {
                var38 = -0.037757445;
            } else {
                var38 = 0.017761366;
            }
        }
    }
    double var39;
    if ((input[39]) >= (5.29165)) {
        if ((input[46]) >= (1.52555)) {
            if ((input[56]) >= (414.5)) {
                var39 = -0.060525723;
            } else {
                var39 = 0.056731608;
            }
        } else {
            if ((input[56]) >= (25.5)) {
                var39 = -0.10426235;
            } else {
                var39 = -0.024108412;
            }
        }
    } else {
        if ((input[12]) >= (0.0006)) {
            if ((input[54]) >= (46.5)) {
                var39 = 0.063148394;
            } else {
                var39 = -0.010437518;
            }
        } else {
            if ((input[1]) >= (0.05455)) {
                var39 = -0.05462527;
            } else {
                var39 = 0.07741804;
            }
        }
    }
    double var40;
    if ((input[41]) >= (0.5)) {
        if ((input[12]) >= (0.00035000002)) {
            if ((input[47]) >= (1.10515)) {
                var40 = 0.008232168;
            } else {
                var40 = -0.037397247;
            }
        } else {
            if ((input[1]) >= (0.0121)) {
                var40 = -0.047518928;
            } else {
                var40 = 0.07788458;
            }
        }
    } else {
        if ((input[51]) >= (0.69445)) {
            if ((input[16]) >= (3.3)) {
                var40 = -0.036377873;
            } else {
                var40 = 0.18063824;
            }
        } else {
            if ((input[48]) >= (4.26075)) {
                var40 = -0.05932808;
            } else {
                var40 = -0.09758767;
            }
        }
    }
    double var41;
    if ((input[10]) >= (3.5)) {
        if ((input[56]) >= (2052.0)) {
            if ((input[54]) >= (46.5)) {
                var41 = 0.06370963;
            } else {
                var41 = -0.00998773;
            }
        } else {
            if ((input[0]) >= (6.0)) {
                var41 = -0.03986523;
            } else {
                var41 = 0.07274044;
            }
        }
    } else {
        if ((input[21]) >= (3.5)) {
            if ((input[54]) >= (39.5)) {
                var41 = 0.031698175;
            } else {
                var41 = -0.020005224;
            }
        } else {
            if ((input[47]) >= (0.34845)) {
                var41 = -0.021954224;
            } else {
                var41 = -0.06770916;
            }
        }
    }
    double var42;
    if ((input[54]) >= (42.5)) {
        if ((input[56]) >= (3372.5)) {
            if ((input[47]) >= (1.7061)) {
                var42 = 0.019375456;
            } else {
                var42 = -0.061026424;
            }
        } else {
            if ((input[39]) >= (0.875)) {
                var42 = -0.0031472188;
            } else {
                var42 = 0.099255286;
            }
        }
    } else {
        if ((input[51]) >= (0.00405)) {
            if ((input[56]) >= (740.5)) {
                var42 = -0.026109695;
            } else {
                var42 = 0.053448398;
            }
        } else {
            if ((input[56]) >= (49.5)) {
                var42 = -0.097408965;
            } else {
                var42 = 0.04269376;
            }
        }
    }
    double var43;
    if ((input[41]) >= (0.5)) {
        if ((input[12]) >= (0.00035000002)) {
            if ((input[47]) >= (1.81265)) {
                var43 = 0.013680816;
            } else {
                var43 = -0.023102503;
            }
        } else {
            if ((input[39]) >= (2.0)) {
                var43 = -0.0464447;
            } else {
                var43 = 0.0738685;
            }
        }
    } else {
        if ((input[15]) >= (3.0)) {
            if ((input[60]) >= (0.5)) {
                var43 = -0.08696114;
            } else {
                var43 = 0.024873212;
            }
        } else {
            if ((input[49]) >= (0.98775)) {
                var43 = -0.057362773;
            } else {
                var43 = 0.08425649;
            }
        }
    }
    double var44;
    if ((input[54]) >= (43.5)) {
        if ((input[56]) >= (4779.0)) {
            if ((input[51]) >= (0.05905)) {
                var44 = 0.021914605;
            } else {
                var44 = -0.06479811;
            }
        } else {
            if ((input[43]) >= (1.5)) {
                var44 = -0.062273413;
            } else {
                var44 = 0.09740084;
            }
        }
    } else {
        if ((input[53]) >= (0.98725)) {
            if ((input[56]) >= (390.5)) {
                var44 = -0.039611578;
            } else {
                var44 = 0.012689925;
            }
        } else {
            if ((input[56]) >= (31846.5)) {
                var44 = -0.05341458;
            } else {
                var44 = 0.026415551;
            }
        }
    }
    double var45;
    if ((input[39]) >= (6.29165)) {
        if ((input[46]) >= (1.6361)) {
            if ((input[4]) >= (3.0)) {
                var45 = -0.06238376;
            } else {
                var45 = 0.007987845;
            }
        } else {
            if ((input[36]) >= (0.84319997)) {
                var45 = -0.10062625;
            } else {
                var45 = -0.0016561976;
            }
        }
    } else {
        if ((input[56]) >= (7640.0)) {
            if ((input[51]) >= (0.042850003)) {
                var45 = -0.012002155;
            } else {
                var45 = -0.081498794;
            }
        } else {
            if ((input[54]) >= (40.5)) {
                var45 = 0.056577183;
            } else {
                var45 = -0.011664945;
            }
        }
    }
    double var46;
    if ((input[0]) >= (6.0)) {
        if ((input[1]) >= (0.29005)) {
            if ((input[50]) >= (2.09705)) {
                var46 = -0.04734097;
            } else {
                var46 = -0.08975191;
            }
        } else {
            if ((input[51]) >= (0.1352)) {
                var46 = 0.06874054;
            } else {
                var46 = -0.03115958;
            }
        }
    } else {
        if ((input[54]) >= (42.5)) {
            if ((input[56]) >= (15668.5)) {
                var46 = -0.021114504;
            } else {
                var46 = 0.06617651;
            }
        } else {
            if ((input[56]) >= (738.5)) {
                var46 = -0.025347574;
            } else {
                var46 = 0.031925768;
            }
        }
    }
    double var47;
    if ((input[47]) >= (0.88865)) {
        if ((input[56]) >= (1588.5)) {
            if ((input[38]) >= (0.125)) {
                var47 = -0.022846749;
            } else {
                var47 = 0.018646425;
            }
        } else {
            if ((input[54]) >= (37.5)) {
                var47 = 0.08551823;
            } else {
                var47 = 0.00396302;
            }
        }
    } else {
        if ((input[56]) >= (434.5)) {
            if ((input[54]) >= (46.5)) {
                var47 = 0.024474159;
            } else {
                var47 = -0.06625736;
            }
        } else {
            if ((input[54]) >= (40.5)) {
                var47 = 0.11244382;
            } else {
                var47 = -0.024013959;
            }
        }
    }
    double var48;
    if ((input[51]) >= (0.01275)) {
        if ((input[56]) >= (2464.5)) {
            if ((input[54]) >= (46.5)) {
                var48 = 0.051435042;
            } else {
                var48 = -0.014363055;
            }
        } else {
            if ((input[54]) >= (40.5)) {
                var48 = 0.09220306;
            } else {
                var48 = 0.011237342;
            }
        }
    } else {
        if ((input[56]) >= (49.5)) {
            if ((input[54]) >= (44.5)) {
                var48 = -0.0031196994;
            } else {
                var48 = -0.062401026;
            }
        } else {
            if ((input[60]) >= (1.5)) {
                var48 = -0.09807774;
            } else {
                var48 = 0.109790266;
            }
        }
    }
    double var49;
    if ((input[47]) >= (1.81265)) {
        if ((input[56]) >= (13928.5)) {
            if ((input[45]) >= (31.560299)) {
                var49 = -0.023177326;
            } else {
                var49 = 0.05099348;
            }
        } else {
            if ((input[54]) >= (41.5)) {
                var49 = 0.08405378;
            } else {
                var49 = 0.012363225;
            }
        }
    } else {
        if ((input[56]) >= (574.5)) {
            if ((input[54]) >= (44.5)) {
                var49 = 0.0038978679;
            } else {
                var49 = -0.045789134;
            }
        } else {
            if ((input[60]) >= (2.5)) {
                var49 = -0.056984585;
            } else {
                var49 = 0.05462713;
            }
        }
    }
    double var50;
    if ((input[0]) >= (6.0)) {
        if ((input[1]) >= (2.9475)) {
            if ((input[45]) >= (31.41795)) {
                var50 = -0.070760064;
            } else {
                var50 = 0.025715211;
            }
        } else {
            if ((input[50]) >= (4.9046497)) {
                var50 = 0.009376018;
            } else {
                var50 = -0.042218987;
            }
        }
    } else {
        if ((input[47]) >= (0.26735002)) {
            if ((input[56]) >= (742.5)) {
                var50 = 0.0048330915;
            } else {
                var50 = 0.083398774;
            }
        } else {
            if ((input[56]) >= (31.5)) {
                var50 = -0.053641643;
            } else {
                var50 = 0.11645945;
            }
        }
    }
    double var51;
    if ((input[41]) >= (0.5)) {
        if ((input[56]) >= (575.5)) {
            if ((input[47]) >= (1.7066)) {
                var51 = 0.01234881;
            } else {
                var51 = -0.028050626;
            }
        } else {
            if ((input[54]) >= (40.5)) {
                var51 = 0.105362915;
            } else {
                var51 = 0.022452356;
            }
        }
    } else {
        if ((input[15]) >= (3.0)) {
            if ((input[60]) >= (1.5)) {
                var51 = -0.08527889;
            } else {
                var51 = -0.033364844;
            }
        } else {
            if ((input[38]) >= (1.125)) {
                var51 = 0.09394199;
            } else {
                var51 = -0.045595583;
            }
        }
    }
    double var52;
    if ((input[6]) >= (2.5)) {
        if ((input[61]) >= (1991.5)) {
            if ((input[47]) >= (1.7061)) {
                var52 = 0.013732848;
            } else {
                var52 = -0.03768382;
            }
        } else {
            if ((input[60]) >= (7.5)) {
                var52 = -0.06133939;
            } else {
                var52 = 0.05381694;
            }
        }
    } else {
        if ((input[21]) >= (3.5)) {
            if ((input[1]) >= (7.4674)) {
                var52 = -0.054020613;
            } else {
                var52 = 0.02151288;
            }
        } else {
            if ((input[50]) >= (1.1925)) {
                var52 = -0.018274443;
            } else {
                var52 = -0.056289136;
            }
        }
    }
    double var53;
    if ((input[54]) >= (48.5)) {
        if ((input[56]) >= (569376.5)) {
            if ((input[13]) >= (1.5)) {
                var53 = 0.037976135;
            } else {
                var53 = -0.11208754;
            }
        } else {
            if ((input[40]) >= (0.5)) {
                var53 = 0.09688842;
            } else {
                var53 = -0.038666766;
            }
        }
    } else {
        if ((input[61]) >= (31405.0)) {
            if ((input[60]) >= (1.5)) {
                var53 = -0.0125718815;
            } else {
                var53 = -0.06931696;
            }
        } else {
            if ((input[47]) >= (1.85875)) {
                var53 = 0.027010238;
            } else {
                var53 = -0.016550288;
            }
        }
    }
    double var54;
    if ((input[54]) >= (40.5)) {
        if ((input[56]) >= (5337.5)) {
            if ((input[47]) >= (1.81265)) {
                var54 = 0.005404988;
            } else {
                var54 = -0.059663035;
            }
        } else {
            if ((input[47]) >= (0.9511)) {
                var54 = 0.07915435;
            } else {
                var54 = 0.0009757583;
            }
        }
    } else {
        if ((input[50]) >= (0.38244998)) {
            if ((input[56]) >= (382.5)) {
                var54 = -0.019829845;
            } else {
                var54 = 0.07150813;
            }
        } else {
            if ((input[56]) >= (49.5)) {
                var54 = -0.08685639;
            } else {
                var54 = 0.03737747;
            }
        }
    }
    double var55;
    if ((input[0]) >= (6.0)) {
        if ((input[1]) >= (0.29005)) {
            if ((input[46]) >= (36.71685)) {
                var55 = -0.031061877;
            } else {
                var55 = -0.06711867;
            }
        } else {
            if ((input[51]) >= (0.1352)) {
                var55 = 0.06239885;
            } else {
                var55 = -0.030035218;
            }
        }
    } else {
        if ((input[54]) >= (45.5)) {
            if ((input[56]) >= (9703.5)) {
                var55 = 0.005132387;
            } else {
                var55 = 0.0975207;
            }
        } else {
            if ((input[56]) >= (1111.5)) {
                var55 = -0.013445796;
            } else {
                var55 = 0.03177066;
            }
        }
    }
    double var56;
    if ((input[47]) >= (0.31485)) {
        if ((input[56]) >= (1588.5)) {
            if ((input[54]) >= (46.5)) {
                var56 = 0.044694126;
            } else {
                var56 = -0.010545499;
            }
        } else {
            if ((input[54]) >= (37.5)) {
                var56 = 0.065955095;
            } else {
                var56 = -0.0053998455;
            }
        }
    } else {
        if ((input[56]) >= (27.5)) {
            if ((input[54]) >= (44.5)) {
                var56 = 0.0039851028;
            } else {
                var56 = -0.06756703;
            }
        } else {
            if ((input[54]) >= (35.5)) {
                var56 = 0.115280665;
            } else {
                var56 = -0.03744505;
            }
        }
    }
    double var57;
    if ((input[0]) >= (6.0)) {
        if ((input[1]) >= (2.9475)) {
            if ((input[45]) >= (31.41795)) {
                var57 = -0.06368627;
            } else {
                var57 = 0.030989427;
            }
        } else {
            if ((input[51]) >= (0.0783)) {
                var57 = 0.008706653;
            } else {
                var57 = -0.03733961;
            }
        }
    } else {
        if ((input[54]) >= (42.5)) {
            if ((input[56]) >= (18138.0)) {
                var57 = -0.020601582;
            } else {
                var57 = 0.05705294;
            }
        } else {
            if ((input[53]) >= (0.98715)) {
                var57 = -0.025827637;
            } else {
                var57 = 0.013951569;
            }
        }
    }
    double var58;
    if ((input[1]) >= (5.5665503)) {
        if ((input[39]) >= (1.875)) {
            if ((input[25]) >= (0.225)) {
                var58 = -0.027233684;
            } else {
                var58 = -0.075640045;
            }
        } else {
            if ((input[25]) >= (1.29165)) {
                var58 = -0.059339143;
            } else {
                var58 = 0.009566848;
            }
        }
    } else {
        if ((input[54]) >= (42.5)) {
            if ((input[61]) >= (17642.0)) {
                var58 = -0.01746883;
            } else {
                var58 = 0.051729828;
            }
        } else {
            if ((input[51]) >= (0.00084999995)) {
                var58 = -0.0012114417;
            } else {
                var58 = -0.069517285;
            }
        }
    }
    double var59;
    if ((input[0]) >= (6.0)) {
        if ((input[36]) >= (6.9739)) {
            if ((input[45]) >= (102.71385)) {
                var59 = -0.060351707;
            } else {
                var59 = 0.07514293;
            }
        } else {
            if ((input[1]) >= (0.00305)) {
                var59 = -0.044522908;
            } else {
                var59 = 0.0028516906;
            }
        }
    } else {
        if ((input[56]) >= (740.5)) {
            if ((input[47]) >= (1.08955)) {
                var59 = 0.00834192;
            } else {
                var59 = -0.038614895;
            }
        } else {
            if ((input[47]) >= (0.20664999)) {
                var59 = 0.07102981;
            } else {
                var59 = -0.013467659;
            }
        }
    }
    double var60;
    if ((input[54]) >= (48.5)) {
        if ((input[56]) >= (375017.0)) {
            if ((input[46]) >= (848.78125)) {
                var60 = 0.0117697725;
            } else {
                var60 = -0.14161807;
            }
        } else {
            if ((input[12]) >= (10.596649)) {
                var60 = -0.008597716;
            } else {
                var60 = 0.09828372;
            }
        }
    } else {
        if ((input[56]) >= (2469.5)) {
            if ((input[51]) >= (0.042850003)) {
                var60 = -0.0031244918;
            } else {
                var60 = -0.054838635;
            }
        } else {
            if ((input[54]) >= (42.5)) {
                var60 = 0.07178011;
            } else {
                var60 = -0.000498102;
            }
        }
    }
    double var61;
    if ((input[43]) >= (2.5)) {
        if ((input[47]) >= (0.71385)) {
            if ((input[22]) >= (0.5)) {
                var61 = -0.07101858;
            } else {
                var61 = 0.025287842;
            }
        } else {
            if ((input[52]) >= (30.2583)) {
                var61 = 0.019818313;
            } else {
                var61 = -0.10239408;
            }
        }
    } else {
        if ((input[61]) >= (31405.0)) {
            if ((input[46]) >= (896.45435)) {
                var61 = -0.0011097682;
            } else {
                var61 = -0.049337726;
            }
        } else {
            if ((input[54]) >= (43.5)) {
                var61 = 0.04649434;
            } else {
                var61 = -0.0021224315;
            }
        }
    }
    double var62;
    if ((input[51]) >= (0.01275)) {
        if ((input[56]) >= (7633.0)) {
            if ((input[60]) >= (1.5)) {
                var62 = 0.00645013;
            } else {
                var62 = -0.026246509;
            }
        } else {
            if ((input[54]) >= (40.5)) {
                var62 = 0.056511708;
            } else {
                var62 = -0.0032655236;
            }
        }
    } else {
        if ((input[56]) >= (434.5)) {
            if ((input[54]) >= (44.5)) {
                var62 = -0.012454301;
            } else {
                var62 = -0.06698511;
            }
        } else {
            if ((input[54]) >= (40.5)) {
                var62 = 0.108589545;
            } else {
                var62 = -0.013853787;
            }
        }
    }
    double var63;
    if ((input[47]) >= (1.85865)) {
        if ((input[56]) >= (7563.5)) {
            if ((input[32]) >= (1.5)) {
                var63 = 0.0039550797;
            } else {
                var63 = -0.044853885;
            }
        } else {
            if ((input[54]) >= (40.5)) {
                var63 = 0.07463183;
            } else {
                var63 = 0.0155108115;
            }
        }
    } else {
        if ((input[56]) >= (390.5)) {
            if ((input[54]) >= (48.5)) {
                var63 = 0.06696402;
            } else {
                var63 = -0.025430942;
            }
        } else {
            if ((input[60]) >= (1.5)) {
                var63 = -0.034368798;
            } else {
                var63 = 0.060384;
            }
        }
    }
    double var64;
    if ((input[0]) >= (6.0)) {
        if ((input[3]) >= (0.45)) {
            if ((input[36]) >= (6.363)) {
                var64 = 0.021528134;
            } else {
                var64 = -0.031448126;
            }
        } else {
            if ((input[61]) >= (2740.0)) {
                var64 = -0.08858391;
            } else {
                var64 = -0.029819233;
            }
        }
    } else {
        if ((input[56]) >= (2048.5)) {
            if ((input[54]) >= (45.5)) {
                var64 = 0.0286583;
            } else {
                var64 = -0.014326604;
            }
        } else {
            if ((input[54]) >= (42.5)) {
                var64 = 0.09780977;
            } else {
                var64 = 0.010394389;
            }
        }
    }
    double var65;
    if ((input[50]) >= (0.3639)) {
        if ((input[56]) >= (1176.5)) {
            if ((input[54]) >= (39.0)) {
                var65 = 0.007274527;
            } else {
                var65 = -0.020904908;
            }
        } else {
            if ((input[54]) >= (35.5)) {
                var65 = 0.046798255;
            } else {
                var65 = -0.03976387;
            }
        }
    } else {
        if ((input[56]) >= (49.5)) {
            if ((input[54]) >= (44.5)) {
                var65 = -0.0018265834;
            } else {
                var65 = -0.062278748;
            }
        } else {
            if ((input[60]) >= (1.5)) {
                var65 = -0.08640386;
            } else {
                var65 = 0.102873825;
            }
        }
    }
    double var66;
    if ((input[47]) >= (1.85865)) {
        if ((input[61]) >= (31405.0)) {
            if ((input[45]) >= (30.9203)) {
                var66 = -0.02687268;
            } else {
                var66 = 0.09222893;
            }
        } else {
            if ((input[37]) >= (0.01515)) {
                var66 = 0.0012740842;
            } else {
                var66 = 0.04162107;
            }
        }
    } else {
        if ((input[56]) >= (390.5)) {
            if ((input[48]) >= (73.83295)) {
                var66 = 0.009775932;
            } else {
                var66 = -0.029787851;
            }
        } else {
            if ((input[54]) >= (37.5)) {
                var66 = 0.06763714;
            } else {
                var66 = -0.016934698;
            }
        }
    }
    double var67;
    if ((input[43]) >= (2.5)) {
        if ((input[47]) >= (0.71385)) {
            if ((input[22]) >= (0.5)) {
                var67 = -0.0682226;
            } else {
                var67 = 0.022081686;
            }
        } else {
            if ((input[52]) >= (30.2583)) {
                var67 = 0.01899592;
            } else {
                var67 = -0.10174497;
            }
        }
    } else {
        if ((input[56]) >= (574.5)) {
            if ((input[47]) >= (1.1233001)) {
                var67 = 0.0049686898;
            } else {
                var67 = -0.030036882;
            }
        } else {
            if ((input[54]) >= (40.5)) {
                var67 = 0.10310619;
            } else {
                var67 = 0.0145290615;
            }
        }
    }
    double var68;
    if ((input[0]) >= (6.0)) {
        if ((input[3]) >= (0.45)) {
            if ((input[1]) >= (3.3336)) {
                var68 = -0.0463841;
            } else {
                var68 = 0.005771897;
            }
        } else {
            if ((input[61]) >= (2740.0)) {
                var68 = -0.083198115;
            } else {
                var68 = -0.028284136;
            }
        }
    } else {
        if ((input[54]) >= (42.5)) {
            if ((input[56]) >= (13931.0)) {
                var68 = -0.012161354;
            } else {
                var68 = 0.051885393;
            }
        } else {
            if ((input[56]) >= (406.5)) {
                var68 = -0.013035933;
            } else {
                var68 = 0.036990568;
            }
        }
    }
    double var69;
    if ((input[47]) >= (0.26735002)) {
        if ((input[56]) >= (357.5)) {
            if ((input[54]) >= (40.5)) {
                var69 = 0.011890901;
            } else {
                var69 = -0.012592419;
            }
        } else {
            if ((input[54]) >= (35.5)) {
                var69 = 0.085288405;
            } else {
                var69 = -0.027543098;
            }
        }
    } else {
        if ((input[56]) >= (27.5)) {
            if ((input[54]) >= (43.5)) {
                var69 = -0.0047607003;
            } else {
                var69 = -0.060516335;
            }
        } else {
            if ((input[54]) >= (35.5)) {
                var69 = 0.11280997;
            } else {
                var69 = -0.025762504;
            }
        }
    }
    double var70;
    if ((input[51]) >= (0.02395)) {
        if ((input[56]) >= (2460.5)) {
            if ((input[61]) >= (536605.5)) {
                var70 = -0.063598275;
            } else {
                var70 = 0.00078968704;
            }
        } else {
            if ((input[54]) >= (37.5)) {
                var70 = 0.059355695;
            } else {
                var70 = -0.0049972394;
            }
        }
    } else {
        if ((input[56]) >= (5545.5)) {
            if ((input[37]) >= (1.10605)) {
                var70 = 0.085686244;
            } else {
                var70 = -0.07791107;
            }
        } else {
            if ((input[54]) >= (45.5)) {
                var70 = 0.06655069;
            } else {
                var70 = -0.020507429;
            }
        }
    }
    double var71;
    if ((input[54]) >= (48.5)) {
        if ((input[56]) >= (375017.0)) {
            if ((input[48]) >= (1295.4694)) {
                var71 = 0.0101059815;
            } else {
                var71 = -0.14583002;
            }
        } else {
            if ((input[40]) >= (0.5)) {
                var71 = 0.091370575;
            } else {
                var71 = -0.040960144;
            }
        }
    } else {
        if ((input[47]) >= (1.85875)) {
            if ((input[56]) >= (3836.5)) {
                var71 = -0.002947239;
            } else {
                var71 = 0.03829184;
            }
        } else {
            if ((input[56]) >= (2132.5)) {
                var71 = -0.03414299;
            } else {
                var71 = 0.0012271035;
            }
        }
    }
    double var72;
    if ((input[43]) >= (2.5)) {
        if ((input[36]) >= (5.4262)) {
            if ((input[22]) >= (0.5)) {
                var72 = -0.059263565;
            } else {
                var72 = 0.061394304;
            }
        } else {
            if ((input[53]) >= (0.75345004)) {
                var72 = -0.086049;
            } else {
                var72 = 0.031109056;
            }
        }
    } else {
        if ((input[61]) >= (329690.0)) {
            if ((input[60]) >= (1.5)) {
                var72 = -0.016498871;
            } else {
                var72 = -0.07862775;
            }
        } else {
            if ((input[47]) >= (2.7366)) {
                var72 = 0.026791772;
            } else {
                var72 = -0.004827942;
            }
        }
    }
    double var73;
    if ((input[0]) >= (6.0)) {
        if ((input[2]) >= (1.5)) {
            if ((input[38]) >= (1.70835)) {
                var73 = -0.076310694;
            } else {
                var73 = 0.038916446;
            }
        } else {
            if ((input[46]) >= (32.12185)) {
                var73 = -0.010603874;
            } else {
                var73 = -0.04827972;
            }
        }
    } else {
        if ((input[54]) >= (45.5)) {
            if ((input[56]) >= (8391.5)) {
                var73 = 0.0054778117;
            } else {
                var73 = 0.09395548;
            }
        } else {
            if ((input[56]) >= (2000.5)) {
                var73 = -0.011986489;
            } else {
                var73 = 0.018645054;
            }
        }
    }
    double var74;
    if ((input[1]) >= (12.7711)) {
        if ((input[62]) >= (7.5)) {
            if ((input[45]) >= (58.039047)) {
                var74 = -0.0679121;
            } else {
                var74 = 0.019591456;
            }
        } else {
            if ((input[25]) >= (1.225)) {
                var74 = -0.056262698;
            } else {
                var74 = 0.11451385;
            }
        }
    } else {
        if ((input[54]) >= (46.5)) {
            if ((input[56]) >= (33929.0)) {
                var74 = -0.007112544;
            } else {
                var74 = 0.086147204;
            }
        } else {
            if ((input[47]) >= (0.12405)) {
                var74 = 0.0025809829;
            } else {
                var74 = -0.034956522;
            }
        }
    }
    double var75;
    if ((input[6]) >= (2.5)) {
        if ((input[12]) >= (0.00035000002)) {
            if ((input[60]) >= (1.5)) {
                var75 = 0.024326127;
            } else {
                var75 = -0.0050581302;
            }
        } else {
            if ((input[39]) >= (0.75)) {
                var75 = -0.034070905;
            } else {
                var75 = 0.066003494;
            }
        }
    } else {
        if ((input[41]) >= (1.5)) {
            if ((input[60]) >= (1.5)) {
                var75 = 0.013861472;
            } else {
                var75 = -0.016841505;
            }
        } else {
            if ((input[60]) >= (1.5)) {
                var75 = -0.04814877;
            } else {
                var75 = -0.005038706;
            }
        }
    }
    double var76;
    if ((input[47]) >= (1.2039)) {
        if ((input[56]) >= (1588.5)) {
            if ((input[54]) >= (39.0)) {
                var76 = 0.010183427;
            } else {
                var76 = -0.020157753;
            }
        } else {
            if ((input[0]) >= (6.0)) {
                var76 = -0.02239625;
            } else {
                var76 = 0.060495626;
            }
        }
    } else {
        if ((input[56]) >= (204.5)) {
            if ((input[14]) >= (0.9)) {
                var76 = 0.01409079;
            } else {
                var76 = -0.030642677;
            }
        } else {
            if ((input[60]) >= (1.5)) {
                var76 = -0.055607807;
            } else {
                var76 = 0.079048716;
            }
        }
    }
    double var77;
    if ((input[54]) >= (48.5)) {
        if ((input[56]) >= (569376.5)) {
            if ((input[13]) >= (1.5)) {
                var77 = 0.040588934;
            } else {
                var77 = -0.087002166;
            }
        } else {
            if ((input[45]) >= (116.881)) {
                var77 = 0.024151333;
            } else {
                var77 = 0.097467944;
            }
        }
    } else {
        if ((input[56]) >= (4787.5)) {
            if ((input[60]) >= (1.5)) {
                var77 = 0.010400299;
            } else {
                var77 = -0.029541;
            }
        } else {
            if ((input[54]) >= (40.5)) {
                var77 = 0.036718853;
            } else {
                var77 = -0.008607181;
            }
        }
    }
    double var78;
    if ((input[47]) >= (2.4780998)) {
        if ((input[61]) >= (42850.0)) {
            if ((input[46]) >= (881.93567)) {
                var78 = 0.0034170211;
            } else {
                var78 = -0.050319653;
            }
        } else {
            if ((input[0]) >= (6.0)) {
                var78 = -0.01917263;
            } else {
                var78 = 0.03668141;
            }
        }
    } else {
        if ((input[56]) >= (1176.5)) {
            if ((input[48]) >= (80.237)) {
                var78 = 0.0049446383;
            } else {
                var78 = -0.03138119;
            }
        } else {
            if ((input[54]) >= (42.5)) {
                var78 = 0.09555418;
            } else {
                var78 = -0.00084052293;
            }
        }
    }
    double var79;
    if ((input[50]) >= (0.3639)) {
        if ((input[56]) >= (332.5)) {
            if ((input[54]) >= (39.0)) {
                var79 = 0.0097002825;
            } else {
                var79 = -0.011865369;
            }
        } else {
            if ((input[36]) >= (4.1792)) {
                var79 = 0.085447714;
            } else {
                var79 = -0.026543984;
            }
        }
    } else {
        if ((input[56]) >= (49.5)) {
            if ((input[43]) >= (1.5)) {
                var79 = -0.10089471;
            } else {
                var79 = -0.025028823;
            }
        } else {
            if ((input[60]) >= (1.5)) {
                var79 = -0.075933985;
            } else {
                var79 = 0.09578907;
            }
        }
    }
    double var80;
    if ((input[1]) >= (12.7711)) {
        if ((input[45]) >= (58.039047)) {
            if ((input[62]) >= (28.5)) {
                var80 = -0.077385;
            } else {
                var80 = -0.018114468;
            }
        } else {
            if ((input[4]) >= (5.5)) {
                var80 = -0.022140881;
            } else {
                var80 = 0.12286141;
            }
        }
    } else {
        if ((input[54]) >= (46.5)) {
            if ((input[61]) >= (23874.0)) {
                var80 = -0.0014884893;
            } else {
                var80 = 0.08763605;
            }
        } else {
            if ((input[51]) >= (0.02395)) {
                var80 = 0.0048052934;
            } else {
                var80 = -0.017524544;
            }
        }
    }
    double var81;
    if ((input[61]) >= (536605.5)) {
        if ((input[45]) >= (138.07675)) {
            var81 = 0.05176645;
        } else {
            if ((input[52]) >= (1948.9587)) {
                var81 = 0.018243147;
            } else {
                var81 = -0.06870518;
            }
        }
    } else {
        if ((input[47]) >= (2.7366)) {
            if ((input[49]) >= (1.8309)) {
                var81 = -0.02385336;
            } else {
                var81 = 0.026871493;
            }
        } else {
            if ((input[56]) >= (2132.5)) {
                var81 = -0.017551249;
            } else {
                var81 = 0.008301145;
            }
        }
    }
    double var82;
    if ((input[0]) >= (6.0)) {
        if ((input[3]) >= (0.45)) {
            if ((input[36]) >= (6.363)) {
                var82 = 0.026046133;
            } else {
                var82 = -0.02389179;
            }
        } else {
            if ((input[61]) >= (2740.0)) {
                var82 = -0.07351669;
            } else {
                var82 = -0.025196835;
            }
        }
    } else {
        if ((input[54]) >= (42.5)) {
            if ((input[56]) >= (12083.5)) {
                var82 = -0.009215885;
            } else {
                var82 = 0.050396997;
            }
        } else {
            if ((input[39]) >= (0.29165)) {
                var82 = 0.018194042;
            } else {
                var82 = -0.017983975;
            }
        }
    }
    double var83;
    if ((input[43]) >= (2.5)) {
        if ((input[47]) >= (0.71385)) {
            if ((input[46]) >= (8.529551)) {
                var83 = -0.044481017;
            } else {
                var83 = 0.061651636;
            }
        } else {
            if ((input[52]) >= (30.2583)) {
                var83 = 0.026906127;
            } else {
                var83 = -0.09928232;
            }
        }
    } else {
        if ((input[54]) >= (43.5)) {
            if ((input[56]) >= (3097.5)) {
                var83 = 0.0046232548;
            } else {
                var83 = 0.09130307;
            }
        } else {
            if ((input[60]) >= (1.5)) {
                var83 = 0.010737833;
            } else {
                var83 = -0.015487358;
            }
        }
    }
    double var84;
    if ((input[56]) >= (231.5)) {
        if ((input[47]) >= (0.37)) {
            if ((input[36]) >= (3.10145)) {
                var84 = 0.002624211;
            } else {
                var84 = -0.11650013;
            }
        } else {
            if ((input[54]) >= (43.5)) {
                var84 = -0.0032175102;
            } else {
                var84 = -0.06289212;
            }
        }
    } else {
        if ((input[54]) >= (37.5)) {
            if ((input[60]) >= (3.5)) {
                var84 = -0.07430368;
            } else {
                var84 = 0.10206943;
            }
        } else {
            if ((input[47]) >= (0.09819999)) {
                var84 = 0.045182604;
            } else {
                var84 = -0.063639194;
            }
        }
    }
    double var85;
    if ((input[25]) >= (2.36665)) {
        if ((input[3]) >= (1.225)) {
            if ((input[41]) >= (1.5)) {
                var85 = 0.036493056;
            } else {
                var85 = -0.053372066;
            }
        } else {
            if ((input[56]) >= (36041.5)) {
                var85 = -0.095629886;
            } else {
                var85 = -0.02994839;
            }
        }
    } else {
        if ((input[47]) >= (1.7038)) {
            if ((input[61]) >= (1992.5)) {
                var85 = 0.005038973;
            } else {
                var85 = 0.046883885;
            }
        } else {
            if ((input[56]) >= (204.5)) {
                var85 = -0.01484058;
            } else {
                var85 = 0.04080023;
            }
        }
    }
    double var86;
    if ((input[61]) >= (609648.5)) {
        if ((input[47]) >= (4.8554)) {
            if ((input[12]) >= (3.7557502)) {
                var86 = -0.057538237;
            } else {
                var86 = 0.092697255;
            }
        } else {
            if ((input[51]) >= (0.45515)) {
                var86 = -0.10883304;
            } else {
                var86 = -0.05012309;
            }
        }
    } else {
        if ((input[47]) >= (2.7366)) {
            if ((input[3]) >= (2.45)) {
                var86 = -0.050166238;
            } else {
                var86 = 0.021197675;
            }
        } else {
            if ((input[56]) >= (2132.5)) {
                var86 = -0.015909398;
            } else {
                var86 = 0.007862246;
            }
        }
    }
    double var87;
    if ((input[0]) >= (6.0)) {
        if ((input[36]) >= (7.0037003)) {
            if ((input[45]) >= (99.91065)) {
                var87 = -0.047098573;
            } else {
                var87 = 0.08754197;
            }
        } else {
            if ((input[2]) >= (0.5)) {
                var87 = -0.010664768;
            } else {
                var87 = -0.03912544;
            }
        }
    } else {
        if ((input[54]) >= (41.5)) {
            if ((input[56]) >= (4126.0)) {
                var87 = 0.00048040505;
            } else {
                var87 = 0.05337147;
            }
        } else {
            if ((input[39]) >= (0.29165)) {
                var87 = 0.01889064;
            } else {
                var87 = -0.021600164;
            }
        }
    }
    double var88;
    if ((input[48]) >= (8.991501)) {
        if ((input[56]) >= (7633.0)) {
            if ((input[60]) >= (1.5)) {
                var88 = 0.012083919;
            } else {
                var88 = -0.023545917;
            }
        } else {
            if ((input[54]) >= (39.0)) {
                var88 = 0.044852193;
            } else {
                var88 = 0.0008779545;
            }
        }
    } else {
        if ((input[61]) >= (1698.5)) {
            if ((input[54]) >= (46.5)) {
                var88 = 0.013900781;
            } else {
                var88 = -0.062591575;
            }
        } else {
            if ((input[60]) >= (5.5)) {
                var88 = -0.049572624;
            } else {
                var88 = 0.010401385;
            }
        }
    }
    double var89;
    if ((input[36]) >= (4.6136503)) {
        if ((input[56]) >= (1094.5)) {
            if ((input[48]) >= (10.84945)) {
                var89 = 0.0035135378;
            } else {
                var89 = -0.033900738;
            }
        } else {
            if ((input[54]) >= (40.5)) {
                var89 = 0.0867112;
            } else {
                var89 = 0.014583595;
            }
        }
    } else {
        if ((input[45]) >= (25.052)) {
            if ((input[54]) >= (44.5)) {
                var89 = 0.014580654;
            } else {
                var89 = -0.043728724;
            }
        } else {
            if ((input[54]) >= (36.5)) {
                var89 = 0.09174898;
            } else {
                var89 = -0.014401368;
            }
        }
    }
    double var90;
    if ((input[54]) >= (48.5)) {
        if ((input[61]) >= (55506.5)) {
            if ((input[36]) >= (5.23765)) {
                var90 = 0.03923236;
            } else {
                var90 = -0.1543302;
            }
        } else {
            if ((input[39]) >= (3.375)) {
                var90 = -0.067145966;
            } else {
                var90 = 0.09536691;
            }
        }
    } else {
        if ((input[61]) >= (31253.5)) {
            if ((input[60]) >= (1.5)) {
                var90 = 0.0035191455;
            } else {
                var90 = -0.04778027;
            }
        } else {
            if ((input[13]) >= (1.5)) {
                var90 = 0.027963653;
            } else {
                var90 = -0.0034455073;
            }
        }
    }
    double var91;
    if ((input[54]) >= (43.5)) {
        if ((input[56]) >= (2578.5)) {
            if ((input[51]) >= (0.1521)) {
                var91 = 0.03482979;
            } else {
                var91 = -0.018871501;
            }
        } else {
            if ((input[39]) >= (1.375)) {
                var91 = 0.032300815;
            } else {
                var91 = 0.10747619;
            }
        }
    } else {
        if ((input[60]) >= (1.5)) {
            if ((input[1]) >= (5.5665503)) {
                var91 = -0.03256778;
            } else {
                var91 = 0.016007053;
            }
        } else {
            if ((input[61]) >= (515.5)) {
                var91 = -0.026077682;
            } else {
                var91 = 0.034926586;
            }
        }
    }
    double var92;
    if ((input[54]) >= (37.5)) {
        if ((input[56]) >= (2132.5)) {
            if ((input[51]) >= (0.07875)) {
                var92 = 0.0065977843;
            } else {
                var92 = -0.025654448;
            }
        } else {
            if ((input[36]) >= (6.02435)) {
                var92 = 0.06814395;
            } else {
                var92 = 0.012247832;
            }
        }
    } else {
        if ((input[60]) >= (1.5)) {
            if ((input[45]) >= (47.1741)) {
                var92 = -0.013142335;
            } else {
                var92 = 0.055376917;
            }
        } else {
            if ((input[39]) >= (0.375)) {
                var92 = 0.0072093806;
            } else {
                var92 = -0.06578346;
            }
        }
    }
    double var93;
    if ((input[61]) >= (490888.0)) {
        if ((input[40]) >= (2.5)) {
            if ((input[1]) >= (0.40235)) {
                var93 = -0.09244566;
            } else {
                var93 = 0.026334671;
            }
        } else {
            if ((input[5]) >= (6.55)) {
                var93 = -0.0692125;
            } else {
                var93 = 0.010177824;
            }
        }
    } else {
        if ((input[54]) >= (43.5)) {
            if ((input[56]) >= (3086.5)) {
                var93 = 0.009488149;
            } else {
                var93 = 0.077855796;
            }
        } else {
            if ((input[14]) >= (0.70835)) {
                var93 = 0.006234136;
            } else {
                var93 = -0.01617918;
            }
        }
    }
    double var94;
    if ((input[0]) >= (6.0)) {
        if ((input[36]) >= (7.0037003)) {
            if ((input[57]) >= (0.5)) {
                var94 = 0.10341239;
            } else {
                var94 = -0.0138585;
            }
        } else {
            if ((input[45]) >= (31.32175)) {
                var94 = -0.031475715;
            } else {
                var94 = 0.000034982386;
            }
        }
    } else {
        if ((input[54]) >= (42.5)) {
            if ((input[56]) >= (13931.0)) {
                var94 = -0.008967002;
            } else {
                var94 = 0.043981623;
            }
        } else {
            if ((input[39]) >= (0.29165)) {
                var94 = 0.014669537;
            } else {
                var94 = -0.014776637;
            }
        }
    }
    double var95;
    if ((input[51]) >= (0.03575)) {
        if ((input[56]) >= (367.5)) {
            if ((input[54]) >= (39.0)) {
                var95 = 0.013573739;
            } else {
                var95 = -0.010012883;
            }
        } else {
            if ((input[60]) >= (5.5)) {
                var95 = -0.016580759;
            } else {
                var95 = 0.099799775;
            }
        }
    } else {
        if ((input[61]) >= (5031.0)) {
            if ((input[52]) >= (33.295647)) {
                var95 = -0.012619485;
            } else {
                var95 = -0.0742185;
            }
        } else {
            if ((input[12]) >= (0.75415003)) {
                var95 = -0.022049949;
            } else {
                var95 = 0.010208177;
            }
        }
    }
    double var96;
    if ((input[48]) >= (1.51955)) {
        if ((input[56]) >= (1176.5)) {
            if ((input[60]) >= (1.5)) {
                var96 = 0.010649412;
            } else {
                var96 = -0.011253705;
            }
        } else {
            if ((input[36]) >= (5.41)) {
                var96 = 0.053165782;
            } else {
                var96 = -0.008290759;
            }
        }
    } else {
        if ((input[16]) >= (0.6)) {
            if ((input[61]) >= (40.5)) {
                var96 = -0.05964117;
            } else {
                var96 = 0.014546252;
            }
        } else {
            if ((input[43]) >= (0.5)) {
                var96 = -0.05248911;
            } else {
                var96 = 0.044660952;
            }
        }
    }
    double var97;
    if ((input[43]) >= (2.5)) {
        if ((input[47]) >= (0.71385)) {
            if ((input[22]) >= (0.5)) {
                var97 = -0.056954693;
            } else {
                var97 = 0.028930131;
            }
        } else {
            if ((input[52]) >= (30.2583)) {
                var97 = 0.025555262;
            } else {
                var97 = -0.09826892;
            }
        }
    } else {
        if ((input[61]) >= (31405.0)) {
            if ((input[46]) >= (896.45435)) {
                var97 = 0.010271258;
            } else {
                var97 = -0.03813215;
            }
        } else {
            if ((input[54]) >= (43.5)) {
                var97 = 0.03242707;
            } else {
                var97 = -0.0012667173;
            }
        }
    }
    double var98;
    if ((input[1]) >= (12.7711)) {
        if ((input[45]) >= (58.039047)) {
            if ((input[62]) >= (30.5)) {
                var98 = -0.071407065;
            } else {
                var98 = -0.01639927;
            }
        } else {
            if ((input[47]) >= (3.4516)) {
                var98 = 0.14057049;
            } else {
                var98 = -0.008386807;
            }
        }
    } else {
        if ((input[54]) >= (46.5)) {
            if ((input[32]) >= (0.5)) {
                var98 = 0.04782097;
            } else {
                var98 = -0.12134903;
            }
        } else {
            if ((input[48]) >= (8.991751)) {
                var98 = 0.0046610227;
            } else {
                var98 = -0.01522551;
            }
        }
    }
    double var99;
    if ((input[61]) >= (609648.5)) {
        if ((input[47]) >= (4.8554)) {
            if ((input[32]) >= (2.5)) {
                var99 = 0.061826535;
            } else {
                var99 = -0.07101397;
            }
        } else {
            if ((input[1]) >= (9.0503)) {
                var99 = 0.0077150725;
            } else {
                var99 = -0.07637315;
            }
        }
    } else {
        if ((input[47]) >= (2.7366)) {
            if ((input[3]) >= (2.55)) {
                var99 = -0.05254034;
            } else {
                var99 = 0.018368628;
            }
        } else {
            if ((input[49]) >= (1.4051499)) {
                var99 = 0.007609889;
            } else {
                var99 = -0.01541208;
            }
        }
    }
    double var100;
    var100 = (1.0) / ((1.0) + (exp((0.0) - ((((((((((((((((((((((((((((((((((((((((((((((((((((((((((((((((((((((((((((((((((((((((((((((((((((var0) + (var1)) + (var2)) + (var3)) + (var4)) + (var5)) + (var6)) + (var7)) + (var8)) + (var9)) + (var10)) + (var11)) + (var12)) + (var13)) + (var14)) + (var15)) + (var16)) + (var17)) + (var18)) + (var19)) + (var20)) + (var21)) + (var22)) + (var23)) + (var24)) + (var25)) + (var26)) + (var27)) + (var28)) + (var29)) + (var30)) + (var31)) + (var32)) + (var33)) + (var34)) + (var35)) + (var36)) + (var37)) + (var38)) + (var39)) + (var40)) + (var41)) + (var42)) + (var43)) + (var44)) + (var45)) + (var46)) + (var47)) + (var48)) + (var49)) + (var50)) + (var51)) + (var52)) + (var53)) + (var54)) + (var55)) + (var56)) + (var57)) + (var58)) + (var59)) + (var60)) + (var61)) + (var62)) + (var63)) + (var64)) + (var65)) + (var66)) + (var67)) + (var68)) + (var69)) + (var70)) + (var71)) + (var72)) + (var73)) + (var74)) + (var75)) + (var76)) + (var77)) + (var78)) + (var79)) + (var80)) + (var81)) + (var82)) + (var83)) + (var84)) + (var85)) + (var86)) + (var87)) + (var88)) + (var89)) + (var90)) + (var91)) + (var92)) + (var93)) + (var94)) + (var95)) + (var96)) + (var97)) + (var98)) + (var99)))));
    memcpy(output, (double[]){(1.0) - (var100), var100}, 2 * sizeof(double));
}
