#include <math.h>
#include <string.h>
void score(double * input, double * output) {
    double var0;
    if ((input[60]) >= (2.5)) {
        if ((input[60]) >= (7.5)) {
            if ((input[40]) >= (1.5)) {
                var0 = -0.102204956;
            } else {
                var0 = -0.16330674;
            }
        } else {
            if ((input[41]) >= (1.5)) {
                var0 = -0.0066794725;
            } else {
                var0 = -0.08227074;
            }
        }
    } else {
        if ((input[61]) >= (532.5)) {
            if ((input[41]) >= (2.5)) {
                var0 = 0.06595286;
            } else {
                var0 = 0.009226325;
            }
        } else {
            if ((input[43]) >= (0.5)) {
                var0 = 0.11134603;
            } else {
                var0 = 0.18691565;
            }
        }
    }
    double var1;
    if ((input[60]) >= (1.5)) {
        if ((input[60]) >= (7.5)) {
            if ((input[39]) >= (6.70835)) {
                var1 = -0.15232782;
            } else {
                var1 = -0.09652174;
            }
        } else {
            if ((input[40]) >= (1.5)) {
                var1 = 0.00044842606;
            } else {
                var1 = -0.06697812;
            }
        }
    } else {
        if ((input[61]) >= (494.5)) {
            if ((input[1]) >= (2.68945)) {
                var1 = 0.023315476;
            } else {
                var1 = 0.07623439;
            }
        } else {
            if ((input[61]) >= (100.5)) {
                var1 = 0.12842214;
            } else {
                var1 = 0.17696993;
            }
        }
    }
    double var2;
    if ((input[60]) >= (2.5)) {
        if ((input[60]) >= (8.5)) {
            if ((input[40]) >= (1.5)) {
                var2 = -0.08545943;
            } else {
                var2 = -0.13795744;
            }
        } else {
            if ((input[40]) >= (2.5)) {
                var2 = 0.0019337606;
            } else {
                var2 = -0.062173765;
            }
        }
    } else {
        if ((input[61]) >= (494.5)) {
            if ((input[1]) >= (2.68165)) {
                var2 = 0.010074687;
            } else {
                var2 = 0.061740678;
            }
        } else {
            if ((input[43]) >= (1.5)) {
                var2 = 0.044450086;
            } else {
                var2 = 0.15152894;
            }
        }
    }
    double var3;
    if ((input[60]) >= (1.5)) {
        if ((input[60]) >= (6.5)) {
            if ((input[39]) >= (4.29165)) {
                var3 = -0.11931332;
            } else {
                var3 = -0.06322126;
            }
        } else {
            if ((input[40]) >= (1.5)) {
                var3 = 0.007682949;
            } else {
                var3 = -0.05276333;
            }
        }
    } else {
        if ((input[61]) >= (729.5)) {
            if ((input[54]) >= (40.5)) {
                var3 = 0.054524947;
            } else {
                var3 = -0.006184136;
            }
        } else {
            if ((input[61]) >= (110.5)) {
                var3 = 0.10184004;
            } else {
                var3 = 0.15282881;
            }
        }
    }
    double var4;
    if ((input[60]) >= (1.5)) {
        if ((input[60]) >= (7.5)) {
            if ((input[40]) >= (1.5)) {
                var4 = -0.0682837;
            } else {
                var4 = -0.11793929;
            }
        } else {
            if ((input[1]) >= (2.92775)) {
                var4 = -0.0413485;
            } else {
                var4 = 0.011469326;
            }
        }
    } else {
        if ((input[61]) >= (235.5)) {
            if ((input[61]) >= (1319.5)) {
                var4 = 0.02198035;
            } else {
                var4 = 0.078156725;
            }
        } else {
            if ((input[54]) >= (36.5)) {
                var4 = 0.14632915;
            } else {
                var4 = 0.10996508;
            }
        }
    }
    double var5;
    if ((input[60]) >= (2.5)) {
        if ((input[57]) >= (0.5)) {
            if ((input[40]) >= (2.5)) {
                var5 = 0.0058012144;
            } else {
                var5 = -0.04943231;
            }
        } else {
            if ((input[39]) >= (6.70835)) {
                var5 = -0.11542014;
            } else {
                var5 = -0.068134755;
            }
        }
    } else {
        if ((input[61]) >= (216.5)) {
            if ((input[12]) >= (1.45505)) {
                var5 = 0.012590502;
            } else {
                var5 = 0.06763127;
            }
        } else {
            if ((input[43]) >= (0.5)) {
                var5 = 0.07837614;
            } else {
                var5 = 0.13767803;
            }
        }
    }
    double var6;
    if ((input[60]) >= (1.5)) {
        if ((input[60]) >= (5.5)) {
            if ((input[39]) >= (6.70835)) {
                var6 = -0.105488494;
            } else {
                var6 = -0.0539195;
            }
        } else {
            if ((input[40]) >= (1.5)) {
                var6 = 0.01751299;
            } else {
                var6 = -0.040151622;
            }
        }
    } else {
        if ((input[61]) >= (173.5)) {
            if ((input[61]) >= (1319.5)) {
                var6 = 0.017264051;
            } else {
                var6 = 0.06990512;
            }
        } else {
            if ((input[54]) >= (36.5)) {
                var6 = 0.1351131;
            } else {
                var6 = 0.100520454;
            }
        }
    }
    double var7;
    if ((input[60]) >= (1.5)) {
        if ((input[57]) >= (0.5)) {
            if ((input[1]) >= (2.45505)) {
                var7 = -0.03404892;
            } else {
                var7 = 0.012141909;
            }
        } else {
            if ((input[41]) >= (1.5)) {
                var7 = -0.04973847;
            } else {
                var7 = -0.096774004;
            }
        }
    } else {
        if ((input[61]) >= (173.5)) {
            if ((input[12]) >= (0.3418)) {
                var7 = 0.023724541;
            } else {
                var7 = 0.08606746;
            }
        } else {
            if ((input[54]) >= (36.5)) {
                var7 = 0.12978703;
            } else {
                var7 = 0.09460855;
            }
        }
    }
    double var8;
    if ((input[60]) >= (1.5)) {
        if ((input[60]) >= (8.5)) {
            if ((input[39]) >= (4.29165)) {
                var8 = -0.089503795;
            } else {
                var8 = -0.04074412;
            }
        } else {
            if ((input[43]) >= (1.5)) {
                var8 = -0.055640765;
            } else {
                var8 = -0.0009931724;
            }
        }
    } else {
        if ((input[61]) >= (173.5)) {
            if ((input[1]) >= (3.81835)) {
                var8 = 0.004811495;
            } else {
                var8 = 0.05306813;
            }
        } else {
            if ((input[43]) >= (0.5)) {
                var8 = 0.08285051;
            } else {
                var8 = 0.12375226;
            }
        }
    }
    double var9;
    if ((input[60]) >= (2.5)) {
        if ((input[41]) >= (1.5)) {
            if ((input[60]) >= (5.5)) {
                var9 = -0.035005234;
            } else {
                var9 = 0.015883781;
            }
        } else {
            if ((input[25]) >= (5.1)) {
                var9 = -0.111557536;
            } else {
                var9 = -0.058209416;
            }
        }
    } else {
        if ((input[61]) >= (175.5)) {
            if ((input[41]) >= (3.5)) {
                var9 = 0.06616882;
            } else {
                var9 = 0.008972517;
            }
        } else {
            if ((input[43]) >= (0.5)) {
                var9 = 0.060406413;
            } else {
                var9 = 0.11955189;
            }
        }
    }
    double var10;
    if ((input[60]) >= (1.5)) {
        if ((input[60]) >= (11.5)) {
            if ((input[25]) >= (5.29165)) {
                var10 = -0.105537355;
            } else {
                var10 = -0.056053348;
            }
        } else {
            if ((input[51]) >= (0.01095)) {
                var10 = -0.0059914715;
            } else {
                var10 = -0.07582449;
            }
        }
    } else {
        if ((input[61]) >= (110.5)) {
            if ((input[61]) >= (1319.5)) {
                var10 = 0.007795457;
            } else {
                var10 = 0.057261534;
            }
        } else {
            if ((input[54]) >= (35.5)) {
                var10 = 0.11867771;
            } else {
                var10 = 0.07810111;
            }
        }
    }
    double var11;
    if ((input[60]) >= (4.5)) {
        if ((input[41]) >= (0.5)) {
            if ((input[12]) >= (4.6269503)) {
                var11 = -0.05074811;
            } else {
                var11 = -0.012255126;
            }
        } else {
            if ((input[0]) >= (1.5)) {
                var11 = -0.093290195;
            } else {
                var11 = -0.034620162;
            }
        }
    } else {
        if ((input[1]) >= (0.16605)) {
            if ((input[41]) >= (2.5)) {
                var11 = 0.04244362;
            } else {
                var11 = -0.0045303074;
            }
        } else {
            if ((input[43]) >= (1.5)) {
                var11 = 0.008710724;
            } else {
                var11 = 0.10796201;
            }
        }
    }
    double var12;
    if ((input[60]) >= (1.5)) {
        if ((input[41]) >= (0.5)) {
            if ((input[1]) >= (3.75975)) {
                var12 = -0.037625592;
            } else {
                var12 = 0.0071802237;
            }
        } else {
            if ((input[25]) >= (4.55)) {
                var12 = -0.102651;
            } else {
                var12 = -0.058792125;
            }
        }
    } else {
        if ((input[61]) >= (100.5)) {
            if ((input[54]) >= (40.5)) {
                var12 = 0.049062714;
            } else {
                var12 = -0.0008078984;
            }
        } else {
            if ((input[54]) >= (35.5)) {
                var12 = 0.11415116;
            } else {
                var12 = 0.07239332;
            }
        }
    }
    double var13;
    if ((input[12]) >= (0.99025)) {
        if ((input[0]) >= (6.0)) {
            if ((input[41]) >= (2.5)) {
                var13 = -0.028175065;
            } else {
                var13 = -0.08388143;
            }
        } else {
            if ((input[60]) >= (4.5)) {
                var13 = -0.031643156;
            } else {
                var13 = 0.013964904;
            }
        }
    } else {
        if ((input[60]) >= (2.5)) {
            if ((input[51]) >= (0.00245)) {
                var13 = 0.014995723;
            } else {
                var13 = -0.09808855;
            }
        } else {
            if ((input[61]) >= (295.5)) {
                var13 = 0.040218882;
            } else {
                var13 = 0.10338906;
            }
        }
    }
    double var14;
    if ((input[1]) >= (0.32615)) {
        if ((input[60]) >= (5.5)) {
            if ((input[0]) >= (6.0)) {
                var14 = -0.07603586;
            } else {
                var14 = -0.030115241;
            }
        } else {
            if ((input[39]) >= (2.125)) {
                var14 = -0.0064524873;
            } else {
                var14 = 0.03392149;
            }
        }
    } else {
        if ((input[60]) >= (2.5)) {
            if ((input[51]) >= (0.00215)) {
                var14 = 0.031088958;
            } else {
                var14 = -0.096006416;
            }
        } else {
            if ((input[61]) >= (229.5)) {
                var14 = 0.04953759;
            } else {
                var14 = 0.105618656;
            }
        }
    }
    double var15;
    if ((input[12]) >= (0.24805)) {
        if ((input[60]) >= (6.5)) {
            if ((input[25]) >= (5.29165)) {
                var15 = -0.0860263;
            } else {
                var15 = -0.033258338;
            }
        } else {
            if ((input[41]) >= (2.5)) {
                var15 = 0.026329879;
            } else {
                var15 = -0.010578008;
            }
        }
    } else {
        if ((input[60]) >= (1.5)) {
            if ((input[51]) >= (0.00215)) {
                var15 = 0.039150715;
            } else {
                var15 = -0.0637398;
            }
        } else {
            if ((input[61]) >= (118.5)) {
                var15 = 0.06371107;
            } else {
                var15 = 0.10883217;
            }
        }
    }
    double var16;
    if ((input[1]) >= (1.16995)) {
        if ((input[0]) >= (6.0)) {
            if ((input[51]) >= (0.031549998)) {
                var16 = -0.052273482;
            } else {
                var16 = -0.09482426;
            }
        } else {
            if ((input[54]) >= (41.5)) {
                var16 = 0.019708028;
            } else {
                var16 = -0.023327587;
            }
        }
    } else {
        if ((input[12]) >= (0.04495)) {
            if ((input[4]) >= (3.5)) {
                var16 = 0.0046702544;
            } else {
                var16 = 0.0538508;
            }
        } else {
            if ((input[43]) >= (0.5)) {
                var16 = 0.027796505;
            } else {
                var16 = 0.10496962;
            }
        }
    }
    double var17;
    if ((input[12]) >= (1.45505)) {
        if ((input[41]) >= (0.5)) {
            if ((input[54]) >= (40.5)) {
                var17 = 0.01122399;
            } else {
                var17 = -0.02605532;
            }
        } else {
            if ((input[46]) >= (21.034199)) {
                var17 = -0.053388007;
            } else {
                var17 = -0.09904819;
            }
        }
    } else {
        if ((input[60]) >= (0.5)) {
            if ((input[15]) >= (3.5)) {
                var17 = 0.0011914;
            } else {
                var17 = 0.051817883;
            }
        } else {
            if ((input[56]) >= (469.5)) {
                var17 = 0.04394568;
            } else {
                var17 = 0.10424595;
            }
        }
    }
    double var18;
    if ((input[60]) >= (0.5)) {
        if ((input[1]) >= (3.75975)) {
            if ((input[0]) >= (6.0)) {
                var18 = -0.0694648;
            } else {
                var18 = -0.021507816;
            }
        } else {
            if ((input[4]) >= (3.5)) {
                var18 = -0.0058686743;
            } else {
                var18 = 0.03907638;
            }
        }
    } else {
        if ((input[56]) >= (729.5)) {
            if ((input[54]) >= (40.5)) {
                var18 = 0.041501246;
            } else {
                var18 = -0.024605343;
            }
        } else {
            if ((input[54]) >= (37.5)) {
                var18 = 0.10972264;
            } else {
                var18 = 0.0644237;
            }
        }
    }
    double var19;
    if ((input[1]) >= (0.06055)) {
        if ((input[60]) >= (5.5)) {
            if ((input[39]) >= (6.70835)) {
                var19 = -0.059093293;
            } else {
                var19 = -0.017754262;
            }
        } else {
            if ((input[61]) >= (1753.5)) {
                var19 = -0.008525932;
            } else {
                var19 = 0.031083647;
            }
        }
    } else {
        if ((input[43]) >= (0.5)) {
            if ((input[60]) >= (2.5)) {
                var19 = -0.04561409;
            } else {
                var19 = 0.047658604;
            }
        } else {
            if ((input[61]) >= (206.5)) {
                var19 = 0.06338033;
            } else {
                var19 = 0.10384321;
            }
        }
    }
    double var20;
    if ((input[41]) >= (2.5)) {
        if ((input[56]) >= (455.5)) {
            if ((input[54]) >= (40.5)) {
                var20 = 0.02634396;
            } else {
                var20 = -0.0050802077;
            }
        } else {
            if ((input[54]) >= (37.5)) {
                var20 = 0.10366782;
            } else {
                var20 = 0.045945156;
            }
        }
    } else {
        if ((input[24]) >= (8.0)) {
            if ((input[52]) >= (1.63665)) {
                var20 = -0.06419371;
            } else {
                var20 = -0.09649553;
            }
        } else {
            if ((input[15]) >= (3.5)) {
                var20 = -0.025174636;
            } else {
                var20 = 0.016054882;
            }
        }
    }
    double var21;
    if ((input[12]) >= (0.06055)) {
        if ((input[41]) >= (0.5)) {
            if ((input[1]) >= (4.8105497)) {
                var21 = -0.017117022;
            } else {
                var21 = 0.014214175;
            }
        } else {
            if ((input[54]) >= (37.5)) {
                var21 = -0.02716254;
            } else {
                var21 = -0.06832464;
            }
        }
    } else {
        if ((input[43]) >= (0.5)) {
            if ((input[45]) >= (73.90235)) {
                var21 = -0.030390834;
            } else {
                var21 = 0.044939723;
            }
        } else {
            if ((input[61]) >= (110.5)) {
                var21 = 0.06107358;
            } else {
                var21 = 0.10300845;
            }
        }
    }
    double var22;
    if ((input[60]) >= (0.5)) {
        if ((input[12]) >= (4.70115)) {
            if ((input[54]) >= (40.5)) {
                var22 = -0.0053501413;
            } else {
                var22 = -0.044478692;
            }
        } else {
            if ((input[15]) >= (3.5)) {
                var22 = -0.006734177;
            } else {
                var22 = 0.0327253;
            }
        }
    } else {
        if ((input[56]) >= (729.5)) {
            if ((input[54]) >= (40.5)) {
                var22 = 0.036601834;
            } else {
                var22 = -0.023999441;
            }
        } else {
            if ((input[54]) >= (37.5)) {
                var22 = 0.10453711;
            } else {
                var22 = 0.053262096;
            }
        }
    }
    double var23;
    if ((input[1]) >= (0.05275)) {
        if ((input[0]) >= (6.0)) {
            if ((input[46]) >= (1.9849999)) {
                var23 = -0.030688345;
            } else {
                var23 = -0.081363656;
            }
        } else {
            if ((input[56]) >= (837.5)) {
                var23 = -0.0069236867;
            } else {
                var23 = 0.036585;
            }
        }
    } else {
        if ((input[43]) >= (0.5)) {
            if ((input[45]) >= (81.70115)) {
                var23 = -0.04065221;
            } else {
                var23 = 0.04092082;
            }
        } else {
            if ((input[61]) >= (110.5)) {
                var23 = 0.057314154;
            } else {
                var23 = 0.10010642;
            }
        }
    }
    double var24;
    if ((input[41]) >= (2.5)) {
        if ((input[56]) >= (99.5)) {
            if ((input[56]) >= (1929.5)) {
                var24 = 0.0011227404;
            } else {
                var24 = 0.03142399;
            }
        } else {
            if ((input[54]) >= (35.5)) {
                var24 = 0.10278175;
            } else {
                var24 = 0.042848732;
            }
        }
    } else {
        if ((input[24]) >= (8.0)) {
            if ((input[57]) >= (0.5)) {
                var24 = -0.04290549;
            } else {
                var24 = -0.07186436;
            }
        } else {
            if ((input[4]) >= (3.5)) {
                var24 = -0.02019491;
            } else {
                var24 = 0.014205745;
            }
        }
    }
    double var25;
    if ((input[60]) >= (4.5)) {
        if ((input[46]) >= (6.31815)) {
            if ((input[60]) >= (200.5)) {
                var25 = -0.0672031;
            } else {
                var25 = -0.006354676;
            }
        } else {
            if ((input[47]) >= (0.77115)) {
                var25 = -0.051296104;
            } else {
                var25 = -0.09750178;
            }
        }
    } else {
        if ((input[61]) >= (61.5)) {
            if ((input[47]) >= (0.1392)) {
                var25 = 0.010991483;
            } else {
                var25 = -0.1522718;
            }
        } else {
            if ((input[60]) >= (1.5)) {
                var25 = 0.017054247;
            } else {
                var25 = 0.09419738;
            }
        }
    }
    double var26;
    if ((input[1]) >= (2.44725)) {
        if ((input[54]) >= (40.5)) {
            if ((input[56]) >= (3241.0)) {
                var26 = -0.0025658328;
            } else {
                var26 = 0.055723645;
            }
        } else {
            if ((input[40]) >= (0.5)) {
                var26 = -0.023302628;
            } else {
                var26 = -0.06465577;
            }
        }
    } else {
        if ((input[60]) >= (0.5)) {
            if ((input[32]) >= (1.5)) {
                var26 = 0.029639218;
            } else {
                var26 = -0.0053998525;
            }
        } else {
            if ((input[56]) >= (230.5)) {
                var26 = 0.03217271;
            } else {
                var26 = 0.09499781;
            }
        }
    }
    double var27;
    if ((input[39]) >= (2.125)) {
        if ((input[32]) >= (1.5)) {
            if ((input[1]) >= (10.337851)) {
                var27 = -0.025310053;
            } else {
                var27 = 0.017056838;
            }
        } else {
            if ((input[47]) >= (1.2222)) {
                var27 = -0.019755377;
            } else {
                var27 = -0.057106603;
            }
        }
    } else {
        if ((input[61]) >= (321.5)) {
            if ((input[54]) >= (40.5)) {
                var27 = 0.025862498;
            } else {
                var27 = -0.0049626543;
            }
        } else {
            if ((input[60]) >= (4.5)) {
                var27 = 0.025612528;
            } else {
                var27 = 0.08618224;
            }
        }
    }
    double var28;
    if ((input[15]) >= (3.5)) {
        if ((input[4]) >= (3.5)) {
            if ((input[41]) >= (0.5)) {
                var28 = -0.015679736;
            } else {
                var28 = -0.049784396;
            }
        } else {
            if ((input[56]) >= (93.5)) {
                var28 = 0.009529604;
            } else {
                var28 = 0.09311498;
            }
        }
    } else {
        if ((input[12]) >= (0.10744999)) {
            if ((input[12]) >= (10.86915)) {
                var28 = -0.015190412;
            } else {
                var28 = 0.022616338;
            }
        } else {
            if ((input[32]) >= (1.5)) {
                var28 = 0.08823597;
            } else {
                var28 = 0.028801916;
            }
        }
    }
    double var29;
    if ((input[12]) >= (1.62695)) {
        if ((input[54]) >= (37.5)) {
            if ((input[1]) >= (10.712851)) {
                var29 = -0.019345608;
            } else {
                var29 = 0.0113666495;
            }
        } else {
            if ((input[45]) >= (42.75975)) {
                var29 = -0.041739695;
            } else {
                var29 = -0.0017041346;
            }
        }
    } else {
        if ((input[1]) >= (0.017549999)) {
            if ((input[54]) >= (36.5)) {
                var29 = 0.024323814;
            } else {
                var29 = -0.012111951;
            }
        } else {
            if ((input[44]) >= (1.5)) {
                var29 = 0.08002058;
            } else {
                var29 = -0.017728;
            }
        }
    }
    double var30;
    if ((input[56]) >= (50.5)) {
        if ((input[54]) >= (37.5)) {
            if ((input[56]) >= (1590.5)) {
                var30 = -0.00362913;
            } else {
                var30 = 0.04456692;
            }
        } else {
            if ((input[51]) >= (0.00355)) {
                var30 = -0.018334394;
            } else {
                var30 = -0.1165415;
            }
        }
    } else {
        if ((input[60]) >= (2.5)) {
            if ((input[51]) >= (0.01445)) {
                var30 = 0.049233317;
            } else {
                var30 = -0.07555288;
            }
        } else {
            if ((input[54]) >= (35.5)) {
                var30 = 0.10179998;
            } else {
                var30 = 0.049299803;
            }
        }
    }
    double var31;
    if ((input[12]) >= (4.59575)) {
        if ((input[54]) >= (40.5)) {
            if ((input[56]) >= (3132.5)) {
                var31 = -0.0062742406;
            } else {
                var31 = 0.04868033;
            }
        } else {
            if ((input[51]) >= (0.02265)) {
                var31 = -0.024514234;
            } else {
                var31 = -0.06848968;
            }
        }
    } else {
        if ((input[1]) >= (0.02535)) {
            if ((input[47]) >= (1.40045)) {
                var31 = 0.016810572;
            } else {
                var31 = -0.01627871;
            }
        } else {
            if ((input[43]) >= (0.5)) {
                var31 = 0.006176974;
            } else {
                var31 = 0.07808408;
            }
        }
    }
    double var32;
    if ((input[15]) >= (3.5)) {
        if ((input[4]) >= (3.5)) {
            if ((input[56]) >= (50.5)) {
                var32 = -0.022945117;
            } else {
                var32 = 0.035528123;
            }
        } else {
            if ((input[56]) >= (181.5)) {
                var32 = 0.0074179037;
            } else {
                var32 = 0.0725014;
            }
        }
    } else {
        if ((input[56]) >= (449.5)) {
            if ((input[47]) >= (2.64745)) {
                var32 = 0.026946692;
            } else {
                var32 = -0.005505697;
            }
        } else {
            if ((input[0]) >= (6.0)) {
                var32 = -0.008985707;
            } else {
                var32 = 0.0759876;
            }
        }
    }
    double var33;
    if ((input[39]) >= (2.125)) {
        if ((input[25]) >= (5.1)) {
            if ((input[57]) >= (0.5)) {
                var33 = -0.031547572;
            } else {
                var33 = -0.059536275;
            }
        } else {
            if ((input[1]) >= (9.93165)) {
                var33 = -0.02418127;
            } else {
                var33 = 0.0036822588;
            }
        }
    } else {
        if ((input[61]) >= (321.5)) {
            if ((input[54]) >= (40.5)) {
                var33 = 0.021371892;
            } else {
                var33 = -0.0048640086;
            }
        } else {
            if ((input[0]) >= (6.0)) {
                var33 = 0.0260171;
            } else {
                var33 = 0.078297906;
            }
        }
    }
    double var34;
    if ((input[56]) >= (50.5)) {
        if ((input[47]) >= (1.11625)) {
            if ((input[56]) >= (828.5)) {
                var34 = -0.004629413;
            } else {
                var34 = 0.032803636;
            }
        } else {
            if ((input[50]) >= (0.02145)) {
                var34 = -0.029202586;
            } else {
                var34 = -0.10316926;
            }
        }
    } else {
        if ((input[60]) >= (2.5)) {
            if ((input[51]) >= (0.01445)) {
                var34 = 0.04112233;
            } else {
                var34 = -0.07150941;
            }
        } else {
            if ((input[54]) >= (35.5)) {
                var34 = 0.098970704;
            } else {
                var34 = 0.04312568;
            }
        }
    }
    double var35;
    if ((input[32]) >= (0.5)) {
        if ((input[56]) >= (699.5)) {
            if ((input[54]) >= (40.5)) {
                var35 = 0.012643183;
            } else {
                var35 = -0.0111737745;
            }
        } else {
            if ((input[54]) >= (37.5)) {
                var35 = 0.069922656;
            } else {
                var35 = 0.012100518;
            }
        }
    } else {
        if ((input[25]) >= (7.1)) {
            if ((input[56]) >= (18.5)) {
                var35 = -0.05445075;
            } else {
                var35 = 0.08103121;
            }
        } else {
            if ((input[47]) >= (1.0009)) {
                var35 = -0.008670153;
            } else {
                var35 = -0.04326259;
            }
        }
    }
    double var36;
    if ((input[41]) >= (2.5)) {
        if ((input[56]) >= (69.5)) {
            if ((input[61]) >= (22763.5)) {
                var36 = -0.02226057;
            } else {
                var36 = 0.015828488;
            }
        } else {
            if ((input[54]) >= (35.5)) {
                var36 = 0.0992768;
            } else {
                var36 = 0.037822425;
            }
        }
    } else {
        if ((input[24]) >= (8.0)) {
            if ((input[12]) >= (20.412151)) {
                var36 = -0.06564426;
            } else {
                var36 = -0.036085356;
            }
        } else {
            if ((input[60]) >= (254.5)) {
                var36 = -0.060982134;
            } else {
                var36 = -0.0019707435;
            }
        }
    }
    double var37;
    if ((input[15]) >= (3.5)) {
        if ((input[4]) >= (3.5)) {
            if ((input[54]) >= (40.5)) {
                var37 = 0.001574665;
            } else {
                var37 = -0.024263011;
            }
        } else {
            if ((input[56]) >= (93.5)) {
                var37 = 0.007574013;
            } else {
                var37 = 0.08233314;
            }
        }
    } else {
        if ((input[56]) >= (133.5)) {
            if ((input[47]) >= (1.6963)) {
                var37 = 0.020274198;
            } else {
                var37 = -0.014675478;
            }
        } else {
            if ((input[54]) >= (35.5)) {
                var37 = 0.085803665;
            } else {
                var37 = -0.0056960946;
            }
        }
    }
    double var38;
    if ((input[12]) >= (5.84575)) {
        if ((input[50]) >= (3.83395)) {
            if ((input[54]) >= (37.5)) {
                var38 = -0.0011100186;
            } else {
                var38 = -0.029779537;
            }
        } else {
            if ((input[56]) >= (59.5)) {
                var38 = -0.055000525;
            } else {
                var38 = 0.057080608;
            }
        }
    } else {
        if ((input[54]) >= (40.5)) {
            if ((input[56]) >= (3899.0)) {
                var38 = 0.009198146;
            } else {
                var38 = 0.07358022;
            }
        } else {
            if ((input[47]) >= (1.6029501)) {
                var38 = 0.012549325;
            } else {
                var38 = -0.014538179;
            }
        }
    }
    double var39;
    if ((input[56]) >= (50.5)) {
        if ((input[51]) >= (0.00315)) {
            if ((input[61]) >= (31223.5)) {
                var39 = -0.024712056;
            } else {
                var39 = 0.0047025485;
            }
        } else {
            if ((input[61]) >= (43.5)) {
                var39 = -0.10796892;
            } else {
                var39 = -0.04107268;
            }
        }
    } else {
        if ((input[60]) >= (1.5)) {
            if ((input[51]) >= (0.00175)) {
                var39 = 0.02734213;
            } else {
                var39 = -0.062886275;
            }
        } else {
            if ((input[54]) >= (35.5)) {
                var39 = 0.10067626;
            } else {
                var39 = 0.051882204;
            }
        }
    }
    double var40;
    if ((input[0]) >= (6.0)) {
        if ((input[56]) >= (11.5)) {
            if ((input[51]) >= (0.03345)) {
                var40 = -0.009572441;
            } else {
                var40 = -0.051133137;
            }
        } else {
            if ((input[60]) >= (1.5)) {
                var40 = 0.011393376;
            } else {
                var40 = 0.100508235;
            }
        }
    } else {
        if ((input[56]) >= (133.5)) {
            if ((input[54]) >= (41.5)) {
                var40 = 0.018007493;
            } else {
                var40 = -0.0066278423;
            }
        } else {
            if ((input[51]) >= (0.00055)) {
                var40 = 0.083326146;
            } else {
                var40 = 0.008175401;
            }
        }
    }
    double var41;
    if ((input[1]) >= (4.60745)) {
        if ((input[51]) >= (0.028949998)) {
            if ((input[60]) >= (349.5)) {
                var41 = -0.068255715;
            } else {
                var41 = -0.0045527453;
            }
        } else {
            if ((input[56]) >= (59.5)) {
                var41 = -0.0589575;
            } else {
                var41 = 0.041679833;
            }
        }
    } else {
        if ((input[12]) >= (0.017549999)) {
            if ((input[47]) >= (1.66165)) {
                var41 = 0.015028958;
            } else {
                var41 = -0.010156955;
            }
        } else {
            if ((input[43]) >= (0.5)) {
                var41 = -0.0005331147;
            } else {
                var41 = 0.06774525;
            }
        }
    }
    double var42;
    if ((input[12]) >= (12.123051)) {
        if ((input[25]) >= (6.775)) {
            if ((input[60]) >= (3.5)) {
                var42 = -0.06909255;
            } else {
                var42 = -0.022659127;
            }
        } else {
            if ((input[54]) >= (43.5)) {
                var42 = 0.0056008114;
            } else {
                var42 = -0.020717978;
            }
        }
    } else {
        if ((input[54]) >= (40.5)) {
            if ((input[56]) >= (2100.5)) {
                var42 = 0.009564592;
            } else {
                var42 = 0.07542127;
            }
        } else {
            if ((input[56]) >= (46.5)) {
                var42 = -0.0046345065;
            } else {
                var42 = 0.04607666;
            }
        }
    }
    double var43;
    if ((input[32]) >= (0.5)) {
        if ((input[56]) >= (1094.5)) {
            if ((input[61]) >= (71229.5)) {
                var43 = -0.03938196;
            } else {
                var43 = 0.0015710499;
            }
        } else {
            if ((input[54]) >= (37.5)) {
                var43 = 0.057224847;
            } else {
                var43 = 0.0056244126;
            }
        }
    } else {
        if ((input[47]) >= (1.16195)) {
            if ((input[60]) >= (335.5)) {
                var43 = -0.07259912;
            } else {
                var43 = -0.0072106062;
            }
        } else {
            if ((input[56]) >= (19.5)) {
                var43 = -0.04586588;
            } else {
                var43 = 0.049433015;
            }
        }
    }
    double var44;
    if ((input[43]) >= (2.5)) {
        if ((input[47]) >= (1.1286)) {
            if ((input[60]) >= (12.5)) {
                var44 = -0.048821572;
            } else {
                var44 = -0.007686246;
            }
        } else {
            if ((input[50]) >= (0.52145004)) {
                var44 = -0.055092942;
            } else {
                var44 = -0.09535705;
            }
        }
    } else {
        if ((input[56]) >= (87.5)) {
            if ((input[48]) >= (9.623899)) {
                var44 = 0.003921781;
            } else {
                var44 = -0.027752025;
            }
        } else {
            if ((input[54]) >= (35.5)) {
                var44 = 0.08053576;
            } else {
                var44 = 0.0017948613;
            }
        }
    }
    double var45;
    if ((input[15]) >= (3.5)) {
        if ((input[4]) >= (3.5)) {
            if ((input[60]) >= (311.5)) {
                var45 = -0.06518782;
            } else {
                var45 = -0.011146139;
            }
        } else {
            if ((input[56]) >= (434.5)) {
                var45 = 0.0032900914;
            } else {
                var45 = 0.041585095;
            }
        }
    } else {
        if ((input[56]) >= (819.5)) {
            if ((input[47]) >= (2.64745)) {
                var45 = 0.0194334;
            } else {
                var45 = -0.009604706;
            }
        } else {
            if ((input[0]) >= (6.0)) {
                var45 = -0.012910606;
            } else {
                var45 = 0.05257022;
            }
        }
    }
    double var46;
    if ((input[61]) >= (31223.5)) {
        if ((input[38]) >= (2.625)) {
            if ((input[60]) >= (383.5)) {
                var46 = -0.08782613;
            } else {
                var46 = -0.035080697;
            }
        } else {
            if ((input[60]) >= (3.5)) {
                var46 = 0.0025702338;
            } else {
                var46 = -0.03193989;
            }
        }
    } else {
        if ((input[54]) >= (41.5)) {
            if ((input[56]) >= (2351.5)) {
                var46 = 0.014131901;
            } else {
                var46 = 0.06854244;
            }
        } else {
            if ((input[47]) >= (1.82145)) {
                var46 = 0.0075720483;
            } else {
                var46 = -0.015857844;
            }
        }
    }
    double var47;
    if ((input[25]) >= (5.29165)) {
        if ((input[41]) >= (1.5)) {
            if ((input[51]) >= (0.41575)) {
                var47 = 0.04614862;
            } else {
                var47 = -0.017368514;
            }
        } else {
            if ((input[60]) >= (11.5)) {
                var47 = -0.0548648;
            } else {
                var47 = -0.028580798;
            }
        }
    } else {
        if ((input[56]) >= (1061.5)) {
            if ((input[47]) >= (2.21105)) {
                var47 = 0.0029574735;
            } else {
                var47 = -0.02049304;
            }
        } else {
            if ((input[54]) >= (37.5)) {
                var47 = 0.049498778;
            } else {
                var47 = 0.0010743728;
            }
        }
    }
    double var48;
    if ((input[1]) >= (10.810551)) {
        if ((input[40]) >= (0.5)) {
            if ((input[56]) >= (103.5)) {
                var48 = -0.0117160855;
            } else {
                var48 = 0.06451084;
            }
        } else {
            if ((input[47]) >= (0.99979997)) {
                var48 = -0.037031483;
            } else {
                var48 = -0.09123619;
            }
        }
    } else {
        if ((input[47]) >= (1.7873499)) {
            if ((input[61]) >= (11323.0)) {
                var48 = -0.006240304;
            } else {
                var48 = 0.024584595;
            }
        } else {
            if ((input[56]) >= (45.5)) {
                var48 = -0.01432494;
            } else {
                var48 = 0.041330587;
            }
        }
    }
    double var49;
    if ((input[41]) >= (3.5)) {
        if ((input[61]) >= (319.5)) {
            if ((input[46]) >= (10.5368)) {
                var49 = 0.014485629;
            } else {
                var49 = -0.03871431;
            }
        } else {
            if ((input[54]) >= (37.5)) {
                var49 = 0.08736665;
            } else {
                var49 = 0.03687685;
            }
        }
    } else {
        if ((input[51]) >= (0.0015499999)) {
            if ((input[12]) >= (15.79885)) {
                var49 = -0.021635817;
            } else {
                var49 = 0.0022648578;
            }
        } else {
            if ((input[61]) >= (9.5)) {
                var49 = -0.10058657;
            } else {
                var49 = -0.01336931;
            }
        }
    }
    double var50;
    if ((input[0]) >= (6.0)) {
        if ((input[56]) >= (7.5)) {
            if ((input[46]) >= (2.3737001)) {
                var50 = -0.008935783;
            } else {
                var50 = -0.048127946;
            }
        } else {
            if ((input[61]) >= (-5.5)) {
                var50 = 0.10169583;
            } else {
                var50 = -0.05539465;
            }
        }
    } else {
        if ((input[56]) >= (462.5)) {
            if ((input[54]) >= (42.5)) {
                var50 = 0.01719258;
            } else {
                var50 = -0.0078071128;
            }
        } else {
            if ((input[47]) >= (0.84239995)) {
                var50 = 0.058749445;
            } else {
                var50 = -0.004936189;
            }
        }
    }
    double var51;
    if ((input[61]) >= (24396.0)) {
        if ((input[38]) >= (2.375)) {
            if ((input[54]) >= (37.5)) {
                var51 = -0.024138672;
            } else {
                var51 = -0.061573382;
            }
        } else {
            if ((input[60]) >= (6.5)) {
                var51 = 0.017571477;
            } else {
                var51 = -0.016692266;
            }
        }
    } else {
        if ((input[47]) >= (2.6500502)) {
            if ((input[54]) >= (42.5)) {
                var51 = 0.047343243;
            } else {
                var51 = 0.015360425;
            }
        } else {
            if ((input[56]) >= (99.5)) {
                var51 = -0.008340413;
            } else {
                var51 = 0.02971876;
            }
        }
    }
    double var52;
    if ((input[43]) >= (2.5)) {
        if ((input[47]) >= (0.99615)) {
            if ((input[60]) >= (11.5)) {
                var52 = -0.041491054;
            } else {
                var52 = -0.007725887;
            }
        } else {
            if ((input[1]) >= (4.52735)) {
                var52 = -0.095720544;
            } else {
                var52 = -0.050639957;
            }
        }
    } else {
        if ((input[56]) >= (69.5)) {
            if ((input[48]) >= (9.623899)) {
                var52 = 0.003913917;
            } else {
                var52 = -0.023734974;
            }
        } else {
            if ((input[54]) >= (35.5)) {
                var52 = 0.08160307;
            } else {
                var52 = 0.004528917;
            }
        }
    }
    double var53;
    if ((input[1]) >= (1.41215)) {
        if ((input[48]) >= (17.091301)) {
            if ((input[56]) >= (837.5)) {
                var53 = -0.0042544142;
            } else {
                var53 = 0.030922366;
            }
        } else {
            if ((input[56]) >= (163.5)) {
                var53 = -0.048693165;
            } else {
                var53 = -0.005379127;
            }
        }
    } else {
        if ((input[61]) >= (235.5)) {
            if ((input[48]) >= (8.75135)) {
                var53 = 0.010571875;
            } else {
                var53 = -0.032644834;
            }
        } else {
            if ((input[0]) >= (3.0)) {
                var53 = 0.011457449;
            } else {
                var53 = 0.06302575;
            }
        }
    }
    double var54;
    if ((input[51]) >= (0.00005)) {
        if ((input[56]) >= (99.5)) {
            if ((input[54]) >= (37.5)) {
                var54 = 0.0050882692;
            } else {
                var54 = -0.0119123;
            }
        } else {
            if ((input[54]) >= (35.5)) {
                var54 = 0.07860019;
            } else {
                var54 = 0.0054565077;
            }
        }
    } else {
        if ((input[56]) >= (7.5)) {
            if ((input[61]) >= (29.5)) {
                var54 = -0.11237182;
            } else {
                var54 = -0.037307497;
            }
        } else {
            if ((input[62]) >= (91.5)) {
                var54 = 0.00699949;
            } else {
                var54 = 0.1000407;
            }
        }
    }
    double var55;
    if ((input[61]) >= (68096.0)) {
        if ((input[54]) >= (40.5)) {
            if ((input[61]) >= (143647.5)) {
                var55 = -0.056608558;
            } else {
                var55 = -0.014579932;
            }
        } else {
            if ((input[45]) >= (69.6289)) {
                var55 = -0.07058629;
            } else {
                var55 = -0.01672797;
            }
        }
    } else {
        if ((input[54]) >= (44.5)) {
            if ((input[56]) >= (12605.5)) {
                var55 = 0.017202925;
            } else {
                var55 = 0.075525574;
            }
        } else {
            if ((input[47]) >= (0.72515)) {
                var55 = 0.0022806772;
            } else {
                var55 = -0.026830662;
            }
        }
    }
    double var56;
    if ((input[12]) >= (0.53325)) {
        if ((input[46]) >= (10.2101)) {
            if ((input[56]) >= (837.5)) {
                var56 = -0.0037579422;
            } else {
                var56 = 0.031996544;
            }
        } else {
            if ((input[56]) >= (166.5)) {
                var56 = -0.04178094;
            } else {
                var56 = -0.003676346;
            }
        }
    } else {
        if ((input[61]) >= (252.5)) {
            if ((input[48]) >= (1.96365)) {
                var56 = 0.010096411;
            } else {
                var56 = -0.064633004;
            }
        } else {
            if ((input[47]) >= (0.5027)) {
                var56 = 0.053136017;
            } else {
                var56 = -0.00053822214;
            }
        }
    }
    double var57;
    if ((input[24]) >= (8.0)) {
        if ((input[51]) >= (0.33735)) {
            if ((input[44]) >= (1.5)) {
                var57 = 0.039247822;
            } else {
                var57 = -0.033288613;
            }
        } else {
            if ((input[56]) >= (27.5)) {
                var57 = -0.028736914;
            } else {
                var57 = 0.049236894;
            }
        }
    } else {
        if ((input[61]) >= (6604.5)) {
            if ((input[38]) >= (2.58335)) {
                var57 = -0.020951876;
            } else {
                var57 = -0.00091033906;
            }
        } else {
            if ((input[54]) >= (41.5)) {
                var57 = 0.04550713;
            } else {
                var57 = 0.0033720774;
            }
        }
    }
    double var58;
    if ((input[0]) >= (6.0)) {
        if ((input[39]) >= (2.125)) {
            if ((input[45]) >= (46.9707)) {
                var58 = -0.028857375;
            } else {
                var58 = -0.0022334314;
            }
        } else {
            if ((input[56]) >= (46.5)) {
                var58 = 0.0052986466;
            } else {
                var58 = 0.07796436;
            }
        }
    } else {
        if ((input[56]) >= (462.5)) {
            if ((input[47]) >= (2.14695)) {
                var58 = 0.0049562575;
            } else {
                var58 = -0.015052891;
            }
        } else {
            if ((input[54]) >= (37.5)) {
                var58 = 0.0779219;
            } else {
                var58 = 0.013101764;
            }
        }
    }
    double var59;
    if ((input[12]) >= (15.724649)) {
        if ((input[51]) >= (0.10955)) {
            if ((input[56]) >= (584.0)) {
                var59 = -0.011706138;
            } else {
                var59 = 0.09892758;
            }
        } else {
            if ((input[60]) >= (15.5)) {
                var59 = -0.06658203;
            } else {
                var59 = -0.018892968;
            }
        }
    } else {
        if ((input[47]) >= (1.1703501)) {
            if ((input[56]) >= (743.5)) {
                var59 = 0.0016271943;
            } else {
                var59 = 0.029253507;
            }
        } else {
            if ((input[56]) >= (20.5)) {
                var59 = -0.021016508;
            } else {
                var59 = 0.05084876;
            }
        }
    }
    double var60;
    if ((input[4]) >= (3.5)) {
        if ((input[54]) >= (40.5)) {
            if ((input[56]) >= (2564.0)) {
                var60 = -0.002149253;
            } else {
                var60 = 0.052000005;
            }
        } else {
            if ((input[56]) >= (22878.5)) {
                var60 = -0.035485473;
            } else {
                var60 = -0.007745371;
            }
        }
    } else {
        if ((input[1]) >= (0.017549999)) {
            if ((input[52]) >= (1.6983)) {
                var60 = 0.009983956;
            } else {
                var60 = -0.035367228;
            }
        } else {
            if ((input[0]) >= (6.0)) {
                var60 = 0.008404635;
            } else {
                var60 = 0.07298113;
            }
        }
    }
    double var61;
    if ((input[43]) >= (2.5)) {
        if ((input[50]) >= (0.56055)) {
            if ((input[56]) >= (71.5)) {
                var61 = -0.02322403;
            } else {
                var61 = 0.036990657;
            }
        } else {
            if ((input[36]) >= (5.3438)) {
                var61 = -0.02684158;
            } else {
                var61 = -0.0921649;
            }
        }
    } else {
        if ((input[56]) >= (33.5)) {
            if ((input[50]) >= (0.02145)) {
                var61 = 0.0015038;
            } else {
                var61 = -0.063230865;
            }
        } else {
            if ((input[60]) >= (1.5)) {
                var61 = -0.012677214;
            } else {
                var61 = 0.08644518;
            }
        }
    }
    double var62;
    if ((input[61]) >= (71198.5)) {
        if ((input[45]) >= (141.75586)) {
            if ((input[45]) >= (146.80275)) {
                var62 = -0.05857722;
            } else {
                var62 = -0.12532067;
            }
        } else {
            if ((input[61]) >= (141133.5)) {
                var62 = -0.050146896;
            } else {
                var62 = -0.017865537;
            }
        }
    } else {
        if ((input[54]) >= (44.5)) {
            if ((input[56]) >= (12605.5)) {
                var62 = 0.016197195;
            } else {
                var62 = 0.06813971;
            }
        } else {
            if ((input[47]) >= (2.2021499)) {
                var62 = 0.006618914;
            } else {
                var62 = -0.008219443;
            }
        }
    }
    double var63;
    if ((input[60]) >= (334.5)) {
        if ((input[38]) >= (2.125)) {
            if ((input[48]) >= (2648.769)) {
                var63 = -0.040826306;
            } else {
                var63 = -0.07328006;
            }
        } else {
            if ((input[45]) >= (95.96875)) {
                var63 = 0.10157724;
            } else {
                var63 = -0.04009535;
            }
        }
    } else {
        if ((input[43]) >= (1.5)) {
            if ((input[52]) >= (1.71015)) {
                var63 = -0.0071288147;
            } else {
                var63 = -0.052629586;
            }
        } else {
            if ((input[56]) >= (467.5)) {
                var63 = -0.000039743823;
            } else {
                var63 = 0.023057867;
            }
        }
    }
    double var64;
    if ((input[0]) >= (6.0)) {
        if ((input[48]) >= (33.609253)) {
            if ((input[1]) >= (4.8496504)) {
                var64 = -0.016856646;
            } else {
                var64 = 0.017418055;
            }
        } else {
            if ((input[56]) >= (11.5)) {
                var64 = -0.02832455;
            } else {
                var64 = 0.06716625;
            }
        }
    } else {
        if ((input[56]) >= (181.5)) {
            if ((input[47]) >= (1.69505)) {
                var64 = 0.004877479;
            } else {
                var64 = -0.0153269395;
            }
        } else {
            if ((input[47]) >= (0.39665002)) {
                var64 = 0.06508522;
            } else {
                var64 = 0.00039687022;
            }
        }
    }
    double var65;
    if ((input[54]) >= (37.5)) {
        if ((input[56]) >= (1592.5)) {
            if ((input[47]) >= (2.6536999)) {
                var65 = 0.0065862495;
            } else {
                var65 = -0.017407939;
            }
        } else {
            if ((input[0]) >= (6.0)) {
                var65 = -0.0010075967;
            } else {
                var65 = 0.05091387;
            }
        }
    } else {
        if ((input[45]) >= (42.86915)) {
            if ((input[47]) >= (0.1814)) {
                var65 = -0.013080234;
            } else {
                var65 = -0.06270113;
            }
        } else {
            if ((input[60]) >= (1.5)) {
                var65 = 0.022559643;
            } else {
                var65 = -0.01118923;
            }
        }
    }
    double var66;
    if ((input[61]) >= (24396.0)) {
        if ((input[60]) >= (3.5)) {
            if ((input[38]) >= (2.125)) {
                var66 = -0.014283384;
            } else {
                var66 = 0.015825724;
            }
        } else {
            if ((input[55]) >= (40.5)) {
                var66 = -0.011756722;
            } else {
                var66 = -0.045675866;
            }
        }
    } else {
        if ((input[47]) >= (2.66625)) {
            if ((input[56]) >= (1381.5)) {
                var66 = 0.013172219;
            } else {
                var66 = 0.04828371;
            }
        } else {
            if ((input[1]) >= (0.50584996)) {
                var66 = -0.007991828;
            } else {
                var66 = 0.014265939;
            }
        }
    }
    double var67;
    if ((input[12]) >= (20.611351)) {
        if ((input[60]) >= (16.5)) {
            if ((input[51]) >= (0.2225)) {
                var67 = -0.014265256;
            } else {
                var67 = -0.052516736;
            }
        } else {
            if ((input[61]) >= (2227.5)) {
                var67 = -0.021091098;
            } else {
                var67 = 0.015351697;
            }
        }
    } else {
        if ((input[54]) >= (40.5)) {
            if ((input[56]) >= (2452.5)) {
                var67 = 0.0042905626;
            } else {
                var67 = 0.05566552;
            }
        } else {
            if ((input[50]) >= (1.37695)) {
                var67 = 0.00089483504;
            } else {
                var67 = -0.019492902;
            }
        }
    }
    double var68;
    if ((input[56]) >= (50.5)) {
        if ((input[46]) >= (0.1909)) {
            if ((input[60]) >= (334.5)) {
                var68 = -0.049767967;
            } else {
                var68 = 0.00087467005;
            }
        } else {
            if ((input[61]) >= (107.5)) {
                var68 = -0.110586755;
            } else {
                var68 = -0.033875305;
            }
        }
    } else {
        if ((input[60]) >= (1.5)) {
            if ((input[48]) >= (0.0077)) {
                var68 = 0.025314895;
            } else {
                var68 = -0.048595384;
            }
        } else {
            if ((input[54]) >= (35.5)) {
                var68 = 0.093121566;
            } else {
                var68 = 0.03164114;
            }
        }
    }
    double var69;
    if ((input[15]) >= (3.5)) {
        if ((input[60]) >= (316.5)) {
            if ((input[52]) >= (1417.2815)) {
                var69 = -0.023722468;
            } else {
                var69 = -0.064047985;
            }
        } else {
            if ((input[47]) >= (1.5148499)) {
                var69 = 0.00021655462;
            } else {
                var69 = -0.014917053;
            }
        }
    } else {
        if ((input[56]) >= (201.5)) {
            if ((input[46]) >= (10.565149)) {
                var69 = 0.009389016;
            } else {
                var69 = -0.025464898;
            }
        } else {
            if ((input[54]) >= (36.5)) {
                var69 = 0.064008564;
            } else {
                var69 = -0.0010733571;
            }
        }
    }
    double var70;
    if ((input[61]) >= (93380.5)) {
        if ((input[47]) >= (2.7422)) {
            if ((input[10]) >= (0.5)) {
                var70 = -0.015176778;
            } else {
                var70 = -0.044685762;
            }
        } else {
            if ((input[36]) >= (5.8091497)) {
                var70 = -0.04126488;
            } else {
                var70 = -0.10665866;
            }
        }
    } else {
        if ((input[54]) >= (44.5)) {
            if ((input[56]) >= (7685.5)) {
                var70 = 0.01676119;
            } else {
                var70 = 0.07268863;
            }
        } else {
            if ((input[12]) >= (7.58005)) {
                var70 = -0.01070186;
            } else {
                var70 = 0.0033755729;
            }
        }
    }
    double var71;
    if ((input[56]) >= (33.5)) {
        if ((input[48]) >= (0.0077)) {
            if ((input[0]) >= (6.0)) {
                var71 = -0.012264807;
            } else {
                var71 = 0.0032293112;
            }
        } else {
            if ((input[61]) >= (46.5)) {
                var71 = -0.09182713;
            } else {
                var71 = -0.026860297;
            }
        }
    } else {
        if ((input[60]) >= (1.5)) {
            if ((input[46]) >= (2.1213999)) {
                var71 = 0.06920453;
            } else {
                var71 = -0.031486552;
            }
        } else {
            if ((input[61]) >= (14.5)) {
                var71 = 0.045535125;
            } else {
                var71 = 0.09188278;
            }
        }
    }
    double var72;
    if ((input[61]) >= (16645.0)) {
        if ((input[60]) >= (3.5)) {
            if ((input[54]) >= (37.5)) {
                var72 = 0.0024139462;
            } else {
                var72 = -0.030878186;
            }
        } else {
            if ((input[54]) >= (46.5)) {
                var72 = 0.028667256;
            } else {
                var72 = -0.02745677;
            }
        }
    } else {
        if ((input[47]) >= (2.29585)) {
            if ((input[56]) >= (516.5)) {
                var72 = 0.012157015;
            } else {
                var72 = 0.054928638;
            }
        } else {
            if ((input[56]) >= (106.5)) {
                var72 = -0.008733569;
            } else {
                var72 = 0.020624457;
            }
        }
    }
    double var73;
    if ((input[1]) >= (10.810551)) {
        if ((input[51]) >= (0.101050004)) {
            if ((input[56]) >= (647.5)) {
                var73 = -0.0060961065;
            } else {
                var73 = 0.05867448;
            }
        } else {
            if ((input[60]) >= (13.5)) {
                var73 = -0.056496203;
            } else {
                var73 = -0.01140288;
            }
        }
    } else {
        if ((input[54]) >= (40.5)) {
            if ((input[56]) >= (4031.0)) {
                var73 = 0.0032726084;
            } else {
                var73 = 0.048836004;
            }
        } else {
            if ((input[60]) >= (1.5)) {
                var73 = 0.0032055487;
            } else {
                var73 = -0.014817299;
            }
        }
    }
    double var74;
    if ((input[56]) >= (1313.5)) {
        if ((input[48]) >= (466.7334)) {
            if ((input[61]) >= (6592.5)) {
                var74 = -0.0032154496;
            } else {
                var74 = 0.026348416;
            }
        } else {
            if ((input[45]) >= (117.63475)) {
                var74 = 0.0039858767;
            } else {
                var74 = -0.021456733;
            }
        }
    } else {
        if ((input[54]) >= (37.5)) {
            if ((input[60]) >= (3.5)) {
                var74 = -0.0070762546;
            } else {
                var74 = 0.047650438;
            }
        } else {
            if ((input[51]) >= (0.048550002)) {
                var74 = 0.012281238;
            } else {
                var74 = -0.016732255;
            }
        }
    }
    double var75;
    if ((input[56]) >= (247.5)) {
        if ((input[48]) >= (16.49485)) {
            if ((input[56]) >= (1261.5)) {
                var75 = -0.0023261753;
            } else {
                var75 = 0.019330341;
            }
        } else {
            if ((input[12]) >= (1.91215)) {
                var75 = -0.04858815;
            } else {
                var75 = -0.015175539;
            }
        }
    } else {
        if ((input[54]) >= (36.5)) {
            if ((input[47]) >= (1.26395)) {
                var75 = 0.07400289;
            } else {
                var75 = 0.023080539;
            }
        } else {
            if ((input[51]) >= (0.03355)) {
                var75 = 0.028948998;
            } else {
                var75 = -0.019394131;
            }
        }
    }
    double var76;
    if ((input[54]) >= (43.5)) {
        if ((input[56]) >= (7637.0)) {
            if ((input[46]) >= (238.9595)) {
                var76 = 0.011553974;
            } else {
                var76 = -0.040309537;
            }
        } else {
            if ((input[60]) >= (1.5)) {
                var76 = -0.0037788611;
            } else {
                var76 = 0.09342339;
            }
        }
    } else {
        if ((input[56]) >= (467.5)) {
            if ((input[48]) >= (16.8701)) {
                var76 = -0.002505903;
            } else {
                var76 = -0.03741269;
            }
        } else {
            if ((input[48]) >= (33.9032)) {
                var76 = 0.051624365;
            } else {
                var76 = 0.0018661242;
            }
        }
    }
    double var77;
    if ((input[49]) >= (1.02805)) {
        if ((input[61]) >= (59703.5)) {
            if ((input[45]) >= (132.11136)) {
                var77 = -0.058773316;
            } else {
                var77 = -0.013134698;
            }
        } else {
            if ((input[32]) >= (0.5)) {
                var77 = 0.009308386;
            } else {
                var77 = -0.0052769426;
            }
        }
    } else {
        if ((input[53]) >= (0.98975)) {
            if ((input[56]) >= (6.5)) {
                var77 = -0.02444405;
            } else {
                var77 = 0.09360582;
            }
        } else {
            if ((input[56]) >= (697.5)) {
                var77 = -0.0054225377;
            } else {
                var77 = 0.022547958;
            }
        }
    }
    double var78;
    if ((input[56]) >= (33.5)) {
        if ((input[47]) >= (0.21535)) {
            if ((input[0]) >= (6.0)) {
                var78 = -0.011065561;
            } else {
                var78 = 0.003162358;
            }
        } else {
            if ((input[45]) >= (74.03515)) {
                var78 = -0.063701965;
            } else {
                var78 = 0.012298127;
            }
        }
    } else {
        if ((input[60]) >= (1.5)) {
            if ((input[46]) >= (2.1213999)) {
                var78 = 0.06060061;
            } else {
                var78 = -0.026371181;
            }
        } else {
            if ((input[61]) >= (14.5)) {
                var78 = 0.04098249;
            } else {
                var78 = 0.08965989;
            }
        }
    }
    double var79;
    if ((input[56]) >= (105.5)) {
        if ((input[48]) >= (5.9369)) {
            if ((input[56]) >= (837.5)) {
                var79 = -0.0020075326;
            } else {
                var79 = 0.017438924;
            }
        } else {
            if ((input[54]) >= (40.5)) {
                var79 = 0.0146948295;
            } else {
                var79 = -0.03243902;
            }
        }
    } else {
        if ((input[54]) >= (35.5)) {
            if ((input[51]) >= (0.00055)) {
                var79 = 0.065876;
            } else {
                var79 = 0.015676687;
            }
        } else {
            if ((input[51]) >= (0.03125)) {
                var79 = 0.040505208;
            } else {
                var79 = -0.022800049;
            }
        }
    }
    double var80;
    if ((input[54]) >= (37.5)) {
        if ((input[56]) >= (1756.5)) {
            if ((input[47]) >= (2.17645)) {
                var80 = 0.0035168212;
            } else {
                var80 = -0.022761147;
            }
        } else {
            if ((input[0]) >= (6.0)) {
                var80 = -0.0029982214;
            } else {
                var80 = 0.040863156;
            }
        }
    } else {
        if ((input[45]) >= (42.86915)) {
            if ((input[48]) >= (0.81630003)) {
                var80 = -0.010624043;
            } else {
                var80 = -0.04600501;
            }
        } else {
            if ((input[60]) >= (1.5)) {
                var80 = 0.019880472;
            } else {
                var80 = -0.012831138;
            }
        }
    }
    double var81;
    if ((input[56]) >= (50.5)) {
        if ((input[48]) >= (9.5933)) {
            if ((input[56]) >= (827.5)) {
                var81 = -0.0014266437;
            } else {
                var81 = 0.02141571;
            }
        } else {
            if ((input[36]) >= (4.7661)) {
                var81 = -0.007995191;
            } else {
                var81 = -0.04122946;
            }
        }
    } else {
        if ((input[60]) >= (3.5)) {
            if ((input[61]) >= (15.5)) {
                var81 = 0.03168186;
            } else {
                var81 = -0.04902654;
            }
        } else {
            if ((input[54]) >= (35.5)) {
                var81 = 0.076844126;
            } else {
                var81 = 0.024038522;
            }
        }
    }
    double var82;
    if ((input[61]) >= (96464.0)) {
        if ((input[46]) >= (3565.5857)) {
            if ((input[61]) >= (98243.0)) {
                var82 = -0.08376297;
            } else {
                var82 = 0.11166121;
            }
        } else {
            if ((input[52]) >= (2363.894)) {
                var82 = 0.027365772;
            } else {
                var82 = -0.027341545;
            }
        }
    } else {
        if ((input[54]) >= (44.5)) {
            if ((input[56]) >= (12605.5)) {
                var82 = 0.012551688;
            } else {
                var82 = 0.055350352;
            }
        } else {
            if ((input[2]) >= (1.5)) {
                var82 = 0.0015456069;
            } else {
                var82 = -0.0153286485;
            }
        }
    }
    double var83;
    if ((input[56]) >= (164.5)) {
        if ((input[48]) >= (33.904198)) {
            if ((input[61]) >= (916.5)) {
                var83 = -0.0012343797;
            } else {
                var83 = 0.022906868;
            }
        } else {
            if ((input[12]) >= (2.30665)) {
                var83 = -0.036733594;
            } else {
                var83 = -0.0051218723;
            }
        }
    } else {
        if ((input[54]) >= (36.5)) {
            if ((input[60]) >= (3.5)) {
                var83 = -0.019310018;
            } else {
                var83 = 0.05950102;
            }
        } else {
            if ((input[56]) >= (19.5)) {
                var83 = -0.009097926;
            } else {
                var83 = 0.047164153;
            }
        }
    }
    double var84;
    if ((input[54]) >= (41.5)) {
        if ((input[56]) >= (3884.0)) {
            if ((input[46]) >= (229.3917)) {
                var84 = 0.0059306016;
            } else {
                var84 = -0.031882998;
            }
        } else {
            if ((input[60]) >= (1.5)) {
                var84 = 0.0010633221;
            } else {
                var84 = 0.072183006;
            }
        }
    } else {
        if ((input[12]) >= (0.49025)) {
            if ((input[60]) >= (1.5)) {
                var84 = -0.0018391594;
            } else {
                var84 = -0.023279468;
            }
        } else {
            if ((input[56]) >= (249.5)) {
                var84 = 0.0018850825;
            } else {
                var84 = 0.025260136;
            }
        }
    }
    double var85;
    if ((input[61]) >= (31223.5)) {
        if ((input[50]) >= (8.33395)) {
            if ((input[60]) >= (6.5)) {
                var85 = 0.004839146;
            } else {
                var85 = -0.017719429;
            }
        } else {
            if ((input[47]) >= (3.08825)) {
                var85 = -0.023155618;
            } else {
                var85 = -0.077332444;
            }
        }
    } else {
        if ((input[47]) >= (2.8188)) {
            if ((input[61]) >= (7011.5)) {
                var85 = 0.00691306;
            } else {
                var85 = 0.02762785;
            }
        } else {
            if ((input[43]) >= (0.5)) {
                var85 = -0.010930472;
            } else {
                var85 = 0.004366809;
            }
        }
    }
    double var86;
    if ((input[60]) >= (334.5)) {
        if ((input[38]) >= (2.625)) {
            if ((input[61]) >= (8182.5)) {
                var86 = -0.06239117;
            } else {
                var86 = -0.0057217414;
            }
        } else {
            if ((input[52]) >= (816.36316)) {
                var86 = 0.012494033;
            } else {
                var86 = -0.07405668;
            }
        }
    } else {
        if ((input[47]) >= (2.81855)) {
            if ((input[61]) >= (17344.0)) {
                var86 = -0.002620888;
            } else {
                var86 = 0.019673994;
            }
        } else {
            if ((input[56]) >= (247.5)) {
                var86 = -0.006785297;
            } else {
                var86 = 0.011979463;
            }
        }
    }
    double var87;
    if ((input[49]) >= (1.02805)) {
        if ((input[12]) >= (16.712849)) {
            if ((input[51]) >= (0.1816)) {
                var87 = -0.000146377;
            } else {
                var87 = -0.023822408;
            }
        } else {
            if ((input[61]) >= (16416.5)) {
                var87 = -0.004233198;
            } else {
                var87 = 0.008802624;
            }
        }
    } else {
        if ((input[53]) >= (0.98364997)) {
            if ((input[61]) >= (2298.5)) {
                var87 = -0.036812477;
            } else {
                var87 = -0.009584042;
            }
        } else {
            if ((input[60]) >= (15.5)) {
                var87 = -0.02097475;
            } else {
                var87 = 0.008995143;
            }
        }
    }
    double var88;
    if ((input[54]) >= (43.5)) {
        if ((input[56]) >= (7637.0)) {
            if ((input[53]) >= (0.98434997)) {
                var88 = -0.013272722;
            } else {
                var88 = 0.017551335;
            }
        } else {
            if ((input[60]) >= (1.5)) {
                var88 = -0.004121429;
            } else {
                var88 = 0.084671535;
            }
        }
    } else {
        if ((input[2]) >= (1.5)) {
            if ((input[61]) >= (6604.5)) {
                var88 = -0.008034868;
            } else {
                var88 = 0.005866897;
            }
        } else {
            if ((input[41]) >= (2.5)) {
                var88 = 0.0020357675;
            } else {
                var88 = -0.028097903;
            }
        }
    }
    double var89;
    if ((input[54]) >= (37.5)) {
        if ((input[56]) >= (1058.5)) {
            if ((input[48]) >= (34.167953)) {
                var89 = 0.0019280469;
            } else {
                var89 = -0.041776814;
            }
        } else {
            if ((input[0]) >= (6.0)) {
                var89 = -0.002474263;
            } else {
                var89 = 0.046377767;
            }
        }
    } else {
        if ((input[60]) >= (1.5)) {
            if ((input[45]) >= (33.38085)) {
                var89 = -0.006385474;
            } else {
                var89 = 0.0241224;
            }
        } else {
            if ((input[61]) >= (39.5)) {
                var89 = -0.034495573;
            } else {
                var89 = 0.05452652;
            }
        }
    }
    double var90;
    if ((input[47]) >= (0.72515)) {
        if ((input[56]) >= (254.5)) {
            if ((input[48]) >= (33.7947)) {
                var90 = 0.0016141884;
            } else {
                var90 = -0.01533784;
            }
        } else {
            if ((input[0]) >= (6.0)) {
                var90 = 0.000508564;
            } else {
                var90 = 0.047913086;
            }
        }
    } else {
        if ((input[45]) >= (74.00195)) {
            if ((input[61]) >= (80.5)) {
                var90 = -0.057509016;
            } else {
                var90 = -0.017910684;
            }
        } else {
            if ((input[61]) >= (2.5)) {
                var90 = -0.0016465326;
            } else {
                var90 = 0.07753702;
            }
        }
    }
    double var91;
    if ((input[54]) >= (40.5)) {
        if ((input[56]) >= (2492.0)) {
            if ((input[48]) >= (317.43555)) {
                var91 = 0.006011666;
            } else {
                var91 = -0.024146533;
            }
        } else {
            if ((input[60]) >= (1.5)) {
                var91 = 0.0011190153;
            } else {
                var91 = 0.06867905;
            }
        }
    } else {
        if ((input[60]) >= (1.5)) {
            if ((input[49]) >= (1.8691499)) {
                var91 = 0.012330892;
            } else {
                var91 = -0.005194951;
            }
        } else {
            if ((input[61]) >= (39.5)) {
                var91 = -0.02186713;
            } else {
                var91 = 0.060605537;
            }
        }
    }
    double var92;
    if ((input[47]) >= (1.5783501)) {
        if ((input[56]) >= (516.5)) {
            if ((input[54]) >= (37.5)) {
                var92 = 0.0037703214;
            } else {
                var92 = -0.010408918;
            }
        } else {
            if ((input[0]) >= (6.0)) {
                var92 = 0.0047565387;
            } else {
                var92 = 0.051646896;
            }
        }
    } else {
        if ((input[45]) >= (74.4043)) {
            if ((input[47]) >= (0.23765)) {
                var92 = -0.014227608;
            } else {
                var92 = -0.04573595;
            }
        } else {
            if ((input[16]) >= (9.675)) {
                var92 = 0.064635314;
            } else {
                var92 = -0.0011365504;
            }
        }
    }
    double var93;
    if ((input[61]) >= (71198.5)) {
        if ((input[30]) >= (0.5)) {
            if ((input[56]) >= (77445.0)) {
                var93 = -0.026388172;
            } else {
                var93 = -0.08762338;
            }
        } else {
            if ((input[54]) >= (42.5)) {
                var93 = 0.005773131;
            } else {
                var93 = -0.029570922;
            }
        }
    } else {
        if ((input[54]) >= (44.5)) {
            if ((input[56]) >= (12605.5)) {
                var93 = 0.0120284;
            } else {
                var93 = 0.047167826;
            }
        } else {
            if ((input[3]) >= (2.225)) {
                var93 = 0.0042334176;
            } else {
                var93 = -0.006691976;
            }
        }
    }
    double var94;
    if ((input[4]) >= (3.5)) {
        if ((input[12]) >= (24.169949)) {
            if ((input[45]) >= (139.67775)) {
                var94 = -0.060725857;
            } else {
                var94 = -0.015903015;
            }
        } else {
            if ((input[54]) >= (40.5)) {
                var94 = 0.007888232;
            } else {
                var94 = -0.0061575994;
            }
        }
    } else {
        if ((input[47]) >= (1.13815)) {
            if ((input[56]) >= (397.5)) {
                var94 = 0.006427443;
            } else {
                var94 = 0.035616986;
            }
        } else {
            if ((input[1]) >= (0.13865)) {
                var94 = -0.021851217;
            } else {
                var94 = 0.020780459;
            }
        }
    }
    double var95;
    if ((input[61]) >= (140237.0)) {
        if ((input[48]) >= (2831.226)) {
            if ((input[56]) >= (175107.0)) {
                var95 = -0.050074395;
            } else {
                var95 = -0.09759524;
            }
        } else {
            if ((input[12]) >= (5.89255)) {
                var95 = 0.0028737814;
            } else {
                var95 = -0.05930185;
            }
        }
    } else {
        if ((input[54]) >= (46.5)) {
            if ((input[56]) >= (30663.0)) {
                var95 = 0.030241463;
            } else {
                var95 = 0.095151834;
            }
        } else {
            if ((input[14]) >= (1.225)) {
                var95 = 0.0016447817;
            } else {
                var95 = -0.013813985;
            }
        }
    }
    double var96;
    if ((input[60]) >= (456.5)) {
        if ((input[47]) >= (2.4703)) {
            if ((input[46]) >= (2203.892)) {
                var96 = -0.041717116;
            } else {
                var96 = -0.0859387;
            }
        } else {
            if ((input[60]) >= (522.0)) {
                var96 = -0.050575268;
            } else {
                var96 = 0.1719506;
            }
        }
    } else {
        if ((input[43]) >= (2.5)) {
            if ((input[36]) >= (4.35035)) {
                var96 = -0.010997169;
            } else {
                var96 = -0.04983064;
            }
        } else {
            if ((input[56]) >= (128.5)) {
                var96 = 0.00009161758;
            } else {
                var96 = 0.019975444;
            }
        }
    }
    double var97;
    if ((input[62]) >= (26.5)) {
        if ((input[1]) >= (0.27535)) {
            if ((input[54]) >= (37.5)) {
                var97 = -0.00047907582;
            } else {
                var97 = -0.012856907;
            }
        } else {
            if ((input[39]) >= (0.875)) {
                var97 = 0.0024341808;
            } else {
                var97 = 0.032364003;
            }
        }
    } else {
        if ((input[61]) >= (59317.5)) {
            if ((input[60]) >= (7.5)) {
                var97 = 0.010283237;
            } else {
                var97 = -0.03585767;
            }
        } else {
            if ((input[48]) >= (484.9398)) {
                var97 = 0.020742653;
            } else {
                var97 = 0.0024226566;
            }
        }
    }
    double var98;
    if ((input[61]) >= (6604.5)) {
        if ((input[60]) >= (7.5)) {
            if ((input[38]) >= (2.58335)) {
                var98 = -0.009809653;
            } else {
                var98 = 0.018591302;
            }
        } else {
            if ((input[54]) >= (42.5)) {
                var98 = -0.0014475061;
            } else {
                var98 = -0.025604377;
            }
        }
    } else {
        if ((input[48]) >= (703.19214)) {
            if ((input[53]) >= (0.9489)) {
                var98 = 0.026602585;
            } else {
                var98 = 0.07669154;
            }
        } else {
            if ((input[54]) >= (40.5)) {
                var98 = 0.017901203;
            } else {
                var98 = -0.0028673804;
            }
        }
    }
    double var99;
    if ((input[25]) >= (5.225)) {
        if ((input[51]) >= (0.44965)) {
            if ((input[40]) >= (2.5)) {
                var99 = 0.07834713;
            } else {
                var99 = -0.013594592;
            }
        } else {
            if ((input[56]) >= (9.5)) {
                var99 = -0.017020015;
            } else {
                var99 = 0.10587736;
            }
        }
    } else {
        if ((input[61]) >= (5866.5)) {
            if ((input[57]) >= (0.5)) {
                var99 = -0.010450383;
            } else {
                var99 = 0.0074046194;
            }
        } else {
            if ((input[47]) >= (2.2021499)) {
                var99 = 0.018776668;
            } else {
                var99 = -0.0012026965;
            }
        }
    }
    double var100;
    var100 = (1.0) / ((1.0) + (exp((0.0) - ((((((((((((((((((((((((((((((((((((((((((((((((((((((((((((((((((((((((((((((((((((((((((((((((((((var0) + (var1)) + (var2)) + (var3)) + (var4)) + (var5)) + (var6)) + (var7)) + (var8)) + (var9)) + (var10)) + (var11)) + (var12)) + (var13)) + (var14)) + (var15)) + (var16)) + (var17)) + (var18)) + (var19)) + (var20)) + (var21)) + (var22)) + (var23)) + (var24)) + (var25)) + (var26)) + (var27)) + (var28)) + (var29)) + (var30)) + (var31)) + (var32)) + (var33)) + (var34)) + (var35)) + (var36)) + (var37)) + (var38)) + (var39)) + (var40)) + (var41)) + (var42)) + (var43)) + (var44)) + (var45)) + (var46)) + (var47)) + (var48)) + (var49)) + (var50)) + (var51)) + (var52)) + (var53)) + (var54)) + (var55)) + (var56)) + (var57)) + (var58)) + (var59)) + (var60)) + (var61)) + (var62)) + (var63)) + (var64)) + (var65)) + (var66)) + (var67)) + (var68)) + (var69)) + (var70)) + (var71)) + (var72)) + (var73)) + (var74)) + (var75)) + (var76)) + (var77)) + (var78)) + (var79)) + (var80)) + (var81)) + (var82)) + (var83)) + (var84)) + (var85)) + (var86)) + (var87)) + (var88)) + (var89)) + (var90)) + (var91)) + (var92)) + (var93)) + (var94)) + (var95)) + (var96)) + (var97)) + (var98)) + (var99)))));
    memcpy(output, (double[]){(1.0) - (var100), var100}, 2 * sizeof(double));
}
