#include <math.h>
#include <string.h>
void score(double * input, double * output) {
    double var0;
    if ((input[70]) >= (2.5)) {
        if ((input[51]) >= (1.5)) {
            if ((input[70]) >= (7.5)) {
                var0 = -0.062210698;
            } else {
                var0 = 0.034372505;
            }
        } else {
            if ((input[70]) >= (7.5)) {
                var0 = -0.15440264;
            } else {
                var0 = -0.075124435;
            }
        }
    } else {
        if ((input[71]) >= (616.5)) {
            if ((input[26]) >= (5.55)) {
                var0 = -0.0011311055;
            } else {
                var0 = 0.074082844;
            }
        } else {
            if ((input[70]) >= (1.5)) {
                var0 = 0.07397005;
            } else {
                var0 = 0.16517623;
            }
        }
    }
    double var1;
    if ((input[70]) >= (4.5)) {
        if ((input[50]) >= (1.5)) {
            if ((input[70]) >= (8.5)) {
                var1 = -0.066295825;
            } else {
                var1 = -0.00070529594;
            }
        } else {
            if ((input[27]) >= (0.5)) {
                var1 = -0.091024145;
            } else {
                var1 = -0.15328443;
            }
        }
    } else {
        if ((input[70]) >= (1.5)) {
            if ((input[51]) >= (1.5)) {
                var1 = 0.059538282;
            } else {
                var1 = -0.032180615;
            }
        } else {
            if ((input[71]) >= (810.5)) {
                var1 = 0.06386935;
            } else {
                var1 = 0.14810823;
            }
        }
    }
    double var2;
    if ((input[70]) >= (3.5)) {
        if ((input[50]) >= (1.5)) {
            if ((input[70]) >= (6.5)) {
                var2 = -0.050422486;
            } else {
                var2 = 0.019677894;
            }
        } else {
            if ((input[26]) >= (7.1)) {
                var2 = -0.13592772;
            } else {
                var2 = -0.06956252;
            }
        }
    } else {
        if ((input[70]) >= (1.5)) {
            if ((input[49]) >= (4.375)) {
                var2 = -0.01053823;
            } else {
                var2 = 0.073148;
            }
        } else {
            if ((input[71]) >= (273.5)) {
                var2 = 0.06947481;
            } else {
                var2 = 0.14348613;
            }
        }
    }
    double var3;
    if ((input[70]) >= (4.5)) {
        if ((input[26]) >= (7.1)) {
            if ((input[49]) >= (6.58335)) {
                var3 = -0.13007745;
            } else {
                var3 = -0.07445033;
            }
        } else {
            if ((input[70]) >= (12.5)) {
                var3 = -0.06862899;
            } else {
                var3 = 0.0007028218;
            }
        }
    } else {
        if ((input[70]) >= (1.5)) {
            if ((input[27]) >= (0.5)) {
                var3 = 0.044466436;
            } else {
                var3 = -0.039350487;
            }
        } else {
            if ((input[71]) >= (978.5)) {
                var3 = 0.04858307;
            } else {
                var3 = 0.124933675;
            }
        }
    }
    double var4;
    if ((input[70]) >= (2.5)) {
        if ((input[51]) >= (1.5)) {
            if ((input[70]) >= (7.5)) {
                var4 = -0.040263794;
            } else {
                var4 = 0.025703719;
            }
        } else {
            if ((input[70]) >= (8.5)) {
                var4 = -0.11506416;
            } else {
                var4 = -0.054687645;
            }
        }
    } else {
        if ((input[71]) >= (145.5)) {
            if ((input[26]) >= (7.55)) {
                var4 = -0.025396535;
            } else {
                var4 = 0.062214024;
            }
        } else {
            if ((input[64]) >= (37.5)) {
                var4 = 0.13239223;
            } else {
                var4 = 0.045152426;
            }
        }
    }
    double var5;
    if ((input[70]) >= (5.5)) {
        if ((input[31]) >= (0.5)) {
            if ((input[54]) >= (2.5)) {
                var5 = 0.0030226018;
            } else {
                var5 = -0.054373797;
            }
        } else {
            if ((input[50]) >= (0.5)) {
                var5 = -0.083021276;
            } else {
                var5 = -0.12702636;
            }
        }
    } else {
        if ((input[70]) >= (1.5)) {
            if ((input[50]) >= (2.5)) {
                var5 = 0.052049268;
            } else {
                var5 = -0.020380728;
            }
        } else {
            if ((input[71]) >= (476.5)) {
                var5 = 0.046348542;
            } else {
                var5 = 0.11380839;
            }
        }
    }
    double var6;
    if ((input[70]) >= (3.5)) {
        if ((input[26]) >= (6.775)) {
            if ((input[49]) >= (4.29165)) {
                var6 = -0.099125996;
            } else {
                var6 = -0.033681717;
            }
        } else {
            if ((input[70]) >= (12.5)) {
                var6 = -0.052279394;
            } else {
                var6 = 0.009173131;
            }
        }
    } else {
        if ((input[51]) >= (2.5)) {
            if ((input[71]) >= (1483.5)) {
                var6 = 0.038208093;
            } else {
                var6 = 0.11118972;
            }
        } else {
            if ((input[71]) >= (23.5)) {
                var6 = 0.007450835;
            } else {
                var6 = 0.083430134;
            }
        }
    }
    double var7;
    if ((input[70]) >= (2.5)) {
        if ((input[49]) >= (6.58335)) {
            if ((input[16]) >= (8.9)) {
                var7 = -0.098762855;
            } else {
                var7 = -0.040414434;
            }
        } else {
            if ((input[70]) >= (9.5)) {
                var7 = -0.04264212;
            } else {
                var7 = 0.012370624;
            }
        }
    } else {
        if ((input[71]) >= (61.5)) {
            if ((input[27]) >= (0.5)) {
                var7 = 0.05557553;
            } else {
                var7 = -0.02572093;
            }
        } else {
            if ((input[64]) >= (38.5)) {
                var7 = 0.12903808;
            } else {
                var7 = 0.07690351;
            }
        }
    }
    double var8;
    if ((input[70]) >= (5.5)) {
        if ((input[16]) >= (8.45)) {
            if ((input[51]) >= (0.5)) {
                var8 = -0.05928042;
            } else {
                var8 = -0.105784915;
            }
        } else {
            if ((input[54]) >= (2.5)) {
                var8 = 0.007097227;
            } else {
                var8 = -0.03773845;
            }
        }
    } else {
        if ((input[51]) >= (2.5)) {
            if ((input[71]) >= (1080.5)) {
                var8 = 0.027917713;
            } else {
                var8 = 0.09735681;
            }
        } else {
            if ((input[16]) >= (6.775)) {
                var8 = -0.01900913;
            } else {
                var8 = 0.04011595;
            }
        }
    }
    double var9;
    if ((input[70]) >= (2.5)) {
        if ((input[27]) >= (0.5)) {
            if ((input[70]) >= (12.5)) {
                var9 = -0.043337695;
            } else {
                var9 = 0.011299671;
            }
        } else {
            if ((input[70]) >= (10.5)) {
                var9 = -0.09768473;
            } else {
                var9 = -0.050831992;
            }
        }
    } else {
        if ((input[71]) >= (37.5)) {
            if ((input[26]) >= (5.55)) {
                var9 = -0.013801805;
            } else {
                var9 = 0.05264324;
            }
        } else {
            if ((input[64]) >= (38.5)) {
                var9 = 0.12071963;
            } else {
                var9 = 0.079675876;
            }
        }
    }
    double var10;
    if ((input[70]) >= (1.5)) {
        if ((input[51]) >= (0.5)) {
            if ((input[49]) >= (2.125)) {
                var10 = -0.02156376;
            } else {
                var10 = 0.030833198;
            }
        } else {
            if ((input[70]) >= (8.5)) {
                var10 = -0.095379986;
            } else {
                var10 = -0.050741345;
            }
        }
    } else {
        if ((input[71]) >= (273.5)) {
            if ((input[71]) >= (13708.5)) {
                var10 = -0.013541986;
            } else {
                var10 = 0.043505885;
            }
        } else {
            if ((input[64]) >= (38.5)) {
                var10 = 0.11601456;
            } else {
                var10 = 0.049318198;
            }
        }
    }
    double var11;
    if ((input[70]) >= (6.5)) {
        if ((input[49]) >= (6.70835)) {
            if ((input[0]) >= (0.5)) {
                var11 = -0.05846989;
            } else {
                var11 = -0.096754745;
            }
        } else {
            if ((input[51]) >= (2.5)) {
                var11 = -0.00043375973;
            } else {
                var11 = -0.038107812;
            }
        }
    } else {
        if ((input[49]) >= (2.125)) {
            if ((input[66]) >= (18.5)) {
                var11 = -0.0025704242;
            } else {
                var11 = 0.094642535;
            }
        } else {
            if ((input[71]) >= (1637.5)) {
                var11 = 0.017633237;
            } else {
                var11 = 0.08764645;
            }
        }
    }
    double var12;
    if ((input[51]) >= (1.5)) {
        if ((input[70]) >= (3.5)) {
            if ((input[51]) >= (3.5)) {
                var12 = 0.029891377;
            } else {
                var12 = -0.011898647;
            }
        } else {
            if ((input[71]) >= (1481.5)) {
                var12 = 0.012005945;
            } else {
                var12 = 0.07436267;
            }
        }
    } else {
        if ((input[16]) >= (8.325)) {
            if ((input[66]) >= (18.5)) {
                var12 = -0.06884006;
            } else {
                var12 = 0.07365476;
            }
        } else {
            if ((input[12]) >= (3.32225)) {
                var12 = -0.025049388;
            } else {
                var12 = 0.023815623;
            }
        }
    }
    double var13;
    if ((input[70]) >= (1.5)) {
        if ((input[27]) >= (0.5)) {
            if ((input[1]) >= (4.02145)) {
                var13 = -0.017257841;
            } else {
                var13 = 0.023482954;
            }
        } else {
            if ((input[66]) >= (18.5)) {
                var13 = -0.059759963;
            } else {
                var13 = 0.06308748;
            }
        }
    } else {
        if ((input[71]) >= (105.5)) {
            if ((input[64]) >= (37.5)) {
                var13 = 0.03397681;
            } else {
                var13 = -0.10254703;
            }
        } else {
            if ((input[64]) >= (38.5)) {
                var13 = 0.11262983;
            } else {
                var13 = 0.05262136;
            }
        }
    }
    double var14;
    if ((input[70]) >= (7.5)) {
        if ((input[49]) >= (6.70835)) {
            if ((input[0]) >= (0.5)) {
                var14 = -0.052892175;
            } else {
                var14 = -0.090459034;
            }
        } else {
            if ((input[0]) >= (0.5)) {
                var14 = -0.013343886;
            } else {
                var14 = -0.056020904;
            }
        }
    } else {
        if ((input[51]) >= (2.5)) {
            if ((input[71]) >= (1078.5)) {
                var14 = 0.013349369;
            } else {
                var14 = 0.07147376;
            }
        } else {
            if ((input[66]) >= (17.5)) {
                var14 = -0.0066809054;
            } else {
                var14 = 0.07699036;
            }
        }
    }
    double var15;
    if ((input[51]) >= (0.5)) {
        if ((input[70]) >= (1.5)) {
            if ((input[15]) >= (3.5)) {
                var15 = -0.015923072;
            } else {
                var15 = 0.021024639;
            }
        } else {
            if ((input[71]) >= (49.5)) {
                var15 = 0.03069353;
            } else {
                var15 = 0.092855774;
            }
        }
    } else {
        if ((input[57]) >= (0.99145)) {
            if ((input[70]) >= (10.5)) {
                var15 = -0.0715188;
            } else {
                var15 = -0.020654386;
            }
        } else {
            if ((input[66]) >= (12.5)) {
                var15 = -0.097431414;
            } else {
                var15 = 0.05636343;
            }
        }
    }
    double var16;
    if ((input[26]) >= (4.775)) {
        if ((input[66]) >= (18.5)) {
            if ((input[50]) >= (0.5)) {
                var16 = -0.02160659;
            } else {
                var16 = -0.072056524;
            }
        } else {
            if ((input[53]) >= (0.5)) {
                var16 = 0.05366387;
            } else {
                var16 = 0.083914496;
            }
        }
    } else {
        if ((input[66]) >= (964.5)) {
            if ((input[64]) >= (43.5)) {
                var16 = 0.02381746;
            } else {
                var16 = -0.012847898;
            }
        } else {
            if ((input[70]) >= (4.5)) {
                var16 = 0.01661225;
            } else {
                var16 = 0.07371704;
            }
        }
    }
    double var17;
    if ((input[70]) >= (8.5)) {
        if ((input[0]) >= (0.5)) {
            if ((input[1]) >= (9.626949)) {
                var17 = -0.045488037;
            } else {
                var17 = -0.005062619;
            }
        } else {
            if ((input[50]) >= (0.5)) {
                var17 = -0.060601354;
            } else {
                var17 = -0.0924054;
            }
        }
    } else {
        if ((input[49]) >= (2.125)) {
            if ((input[66]) >= (17.5)) {
                var17 = -0.0049474654;
            } else {
                var17 = 0.07019771;
            }
        } else {
            if ((input[71]) >= (779.5)) {
                var17 = 0.01617856;
            } else {
                var17 = 0.070580795;
            }
        }
    }
    double var18;
    if ((input[26]) >= (5.55)) {
        if ((input[70]) >= (10.5)) {
            if ((input[0]) >= (0.5)) {
                var18 = -0.036517914;
            } else {
                var18 = -0.07998848;
            }
        } else {
            if ((input[66]) >= (17.5)) {
                var18 = -0.020362668;
            } else {
                var18 = 0.05932268;
            }
        }
    } else {
        if ((input[66]) >= (1231.5)) {
            if ((input[64]) >= (43.5)) {
                var18 = 0.018505758;
            } else {
                var18 = -0.014626537;
            }
        } else {
            if ((input[70]) >= (3.5)) {
                var18 = 0.013753006;
            } else {
                var18 = 0.06623321;
            }
        }
    }
    double var19;
    if ((input[51]) >= (1.5)) {
        if ((input[71]) >= (55.5)) {
            if ((input[4]) >= (3.5)) {
                var19 = -0.005661249;
            } else {
                var19 = 0.025900725;
            }
        } else {
            if ((input[70]) >= (1.5)) {
                var19 = 0.0286592;
            } else {
                var19 = 0.085665174;
            }
        }
    } else {
        if ((input[5]) >= (8.325)) {
            if ((input[70]) >= (10.5)) {
                var19 = -0.06911571;
            } else {
                var19 = -0.029444858;
            }
        } else {
            if ((input[61]) >= (0.00025)) {
                var19 = 0.0017521102;
            } else {
                var19 = -0.099211715;
            }
        }
    }
    double var20;
    if ((input[51]) >= (2.5)) {
        if ((input[71]) >= (325.5)) {
            if ((input[64]) >= (43.5)) {
                var20 = 0.029798228;
            } else {
                var20 = 0.0004195813;
            }
        } else {
            if ((input[64]) >= (38.5)) {
                var20 = 0.08230389;
            } else {
                var20 = 0.014925258;
            }
        }
    } else {
        if ((input[16]) >= (8.325)) {
            if ((input[70]) >= (10.5)) {
                var20 = -0.06124128;
            } else {
                var20 = -0.021709098;
            }
        } else {
            if ((input[12]) >= (7.0878496)) {
                var20 = -0.019156577;
            } else {
                var20 = 0.019343628;
            }
        }
    }
    double var21;
    if ((input[51]) >= (0.5)) {
        if ((input[12]) >= (0.49025)) {
            if ((input[64]) >= (38.5)) {
                var21 = 0.008467451;
            } else {
                var21 = -0.028114473;
            }
        } else {
            if ((input[64]) >= (38.5)) {
                var21 = 0.061610788;
            } else {
                var21 = 0.022467215;
            }
        }
    } else {
        if ((input[57]) >= (0.6077)) {
            if ((input[70]) >= (10.5)) {
                var21 = -0.05619384;
            } else {
                var21 = -0.014891753;
            }
        } else {
            if ((input[66]) >= (12.5)) {
                var21 = -0.09775507;
            } else {
                var21 = 0.049583003;
            }
        }
    }
    double var22;
    if ((input[5]) >= (6.775)) {
        if ((input[66]) >= (23.5)) {
            if ((input[16]) >= (6.1)) {
                var22 = -0.033368137;
            } else {
                var22 = 0.011546502;
            }
        } else {
            if ((input[53]) >= (0.5)) {
                var22 = 0.032421302;
            } else {
                var22 = 0.07712405;
            }
        }
    } else {
        if ((input[66]) >= (763.5)) {
            if ((input[1]) >= (13.82615)) {
                var22 = -0.017698547;
            } else {
                var22 = 0.011827288;
            }
        } else {
            if ((input[0]) >= (6.0)) {
                var22 = 0.015756113;
            } else {
                var22 = 0.0724131;
            }
        }
    }
    double var23;
    if ((input[70]) >= (1.5)) {
        if ((input[57]) >= (1.10555)) {
            if ((input[70]) >= (15.5)) {
                var23 = -0.032582052;
            } else {
                var23 = 0.0071034464;
            }
        } else {
            if ((input[53]) >= (0.5)) {
                var23 = -0.063064046;
            } else {
                var23 = -0.010199563;
            }
        }
    } else {
        if ((input[71]) >= (30.5)) {
            if ((input[64]) >= (38.5)) {
                var23 = 0.029062852;
            } else {
                var23 = -0.04229166;
            }
        } else {
            if ((input[64]) >= (38.5)) {
                var23 = 0.09650147;
            } else {
                var23 = 0.056867637;
            }
        }
    }
    double var24;
    if ((input[49]) >= (2.125)) {
        if ((input[50]) >= (0.5)) {
            if ((input[66]) >= (23.5)) {
                var24 = -0.007197797;
            } else {
                var24 = 0.053314168;
            }
        } else {
            if ((input[58]) >= (0.5272)) {
                var24 = -0.036688574;
            } else {
                var24 = -0.09224882;
            }
        }
    } else {
        if ((input[71]) >= (1712.5)) {
            if ((input[64]) >= (44.5)) {
                var24 = 0.021579295;
            } else {
                var24 = -0.010589701;
            }
        } else {
            if ((input[64]) >= (40.5)) {
                var24 = 0.0725461;
            } else {
                var24 = 0.029864302;
            }
        }
    }
    double var25;
    if ((input[15]) >= (3.5)) {
        if ((input[50]) >= (0.5)) {
            if ((input[66]) >= (30.5)) {
                var25 = -0.009488984;
            } else {
                var25 = 0.046605043;
            }
        } else {
            if ((input[58]) >= (0.2025)) {
                var25 = -0.038692288;
            } else {
                var25 = -0.098746754;
            }
        }
    } else {
        if ((input[12]) >= (7.01755)) {
            if ((input[66]) >= (285.5)) {
                var25 = -0.0070221126;
            } else {
                var25 = 0.033151645;
            }
        } else {
            if ((input[71]) >= (2559.5)) {
                var25 = 0.013569529;
            } else {
                var25 = 0.04467057;
            }
        }
    }
    double var26;
    if ((input[0]) >= (0.5)) {
        if ((input[1]) >= (4.02145)) {
            if ((input[57]) >= (0.44835)) {
                var26 = -0.0047667893;
            } else {
                var26 = -0.069081165;
            }
        } else {
            if ((input[70]) >= (3.5)) {
                var26 = 0.008086227;
            } else {
                var26 = 0.040747385;
            }
        }
    } else {
        if ((input[66]) >= (53.5)) {
            if ((input[57]) >= (1.6235499)) {
                var26 = -0.02494719;
            } else {
                var26 = -0.060985833;
            }
        } else {
            if ((input[56]) >= (1.48695)) {
                var26 = 0.053980302;
            } else {
                var26 = -0.013430418;
            }
        }
    }
    double var27;
    if ((input[70]) >= (9.5)) {
        if ((input[57]) >= (1.3975501)) {
            if ((input[12]) >= (21.099651)) {
                var27 = -0.04593945;
            } else {
                var27 = -0.0065271365;
            }
        } else {
            if ((input[58]) >= (28.44505)) {
                var27 = -0.040871322;
            } else {
                var27 = -0.08181729;
            }
        }
    } else {
        if ((input[71]) >= (13060.5)) {
            if ((input[64]) >= (45.5)) {
                var27 = -0.008831123;
            } else {
                var27 = -0.03425562;
            }
        } else {
            if ((input[26]) >= (5.29165)) {
                var27 = -0.0026124378;
            } else {
                var27 = 0.028102553;
            }
        }
    }
    double var28;
    if ((input[70]) >= (4.5)) {
        if ((input[57]) >= (1.11385)) {
            if ((input[70]) >= (15.5)) {
                var28 = -0.025439715;
            } else {
                var28 = 0.0032057378;
            }
        } else {
            if ((input[71]) >= (-19.5)) {
                var28 = -0.06362891;
            } else {
                var28 = 0.008447922;
            }
        }
    } else {
        if ((input[71]) >= (222.5)) {
            if ((input[64]) >= (43.5)) {
                var28 = 0.02346067;
            } else {
                var28 = -0.015089813;
            }
        } else {
            if ((input[64]) >= (38.5)) {
                var28 = 0.06815299;
            } else {
                var28 = 0.0053567323;
            }
        }
    }
    double var29;
    if ((input[49]) >= (2.125)) {
        if ((input[1]) >= (9.50975)) {
            if ((input[57]) >= (0.44494998)) {
                var29 = -0.023581004;
            } else {
                var29 = -0.08170462;
            }
        } else {
            if ((input[56]) >= (1.86265)) {
                var29 = 0.008888852;
            } else {
                var29 = -0.027395999;
            }
        }
    } else {
        if ((input[71]) >= (780.5)) {
            if ((input[64]) >= (43.5)) {
                var29 = 0.02260041;
            } else {
                var29 = -0.0063642263;
            }
        } else {
            if ((input[64]) >= (38.5)) {
                var29 = 0.060331788;
            } else {
                var29 = 0.009848752;
            }
        }
    }
    double var30;
    if ((input[4]) >= (3.5)) {
        if ((input[66]) >= (23.5)) {
            if ((input[58]) >= (0.5272)) {
                var30 = -0.009566697;
            } else {
                var30 = -0.064293854;
            }
        } else {
            if ((input[53]) >= (0.5)) {
                var30 = 0.026125643;
            } else {
                var30 = 0.0641553;
            }
        }
    } else {
        if ((input[66]) >= (327.5)) {
            if ((input[62]) >= (9.587549)) {
                var30 = 0.0142812;
            } else {
                var30 = -0.032721158;
            }
        } else {
            if ((input[64]) >= (38.5)) {
                var30 = 0.07159217;
            } else {
                var30 = 0.00812323;
            }
        }
    }
    double var31;
    if ((input[12]) >= (1.63865)) {
        if ((input[0]) >= (0.5)) {
            if ((input[64]) >= (40.5)) {
                var31 = 0.0068932907;
            } else {
                var31 = -0.01475654;
            }
        } else {
            if ((input[66]) >= (27.5)) {
                var31 = -0.041779563;
            } else {
                var31 = 0.038732678;
            }
        }
    } else {
        if ((input[64]) >= (37.5)) {
            if ((input[70]) >= (2.5)) {
                var31 = 0.011696725;
            } else {
                var31 = 0.0422752;
            }
        } else {
            if ((input[56]) >= (2.4615002)) {
                var31 = 0.017879702;
            } else {
                var31 = -0.025886208;
            }
        }
    }
    double var32;
    if ((input[1]) >= (0.75584996)) {
        if ((input[64]) >= (38.5)) {
            if ((input[66]) >= (183.5)) {
                var32 = -0.0030633924;
            } else {
                var32 = 0.05819684;
            }
        } else {
            if ((input[66]) >= (36.5)) {
                var32 = -0.036122497;
            } else {
                var32 = 0.026403109;
            }
        }
    } else {
        if ((input[70]) >= (1.5)) {
            if ((input[56]) >= (2.96285)) {
                var32 = 0.030106882;
            } else {
                var32 = -0.012034383;
            }
        } else {
            if ((input[64]) >= (38.5)) {
                var32 = 0.06108612;
            } else {
                var32 = 0.009279634;
            }
        }
    }
    double var33;
    if ((input[53]) >= (1.5)) {
        if ((input[57]) >= (0.6727)) {
            if ((input[70]) >= (8.5)) {
                var33 = -0.03518201;
            } else {
                var33 = -0.0029870707;
            }
        } else {
            if ((input[66]) >= (12.5)) {
                var33 = -0.077913426;
            } else {
                var33 = 0.0606058;
            }
        }
    } else {
        if ((input[66]) >= (42.5)) {
            if ((input[0]) >= (0.5)) {
                var33 = 0.007278026;
            } else {
                var33 = -0.022140125;
            }
        } else {
            if ((input[70]) >= (0.5)) {
                var33 = 0.038026;
            } else {
                var33 = 0.08737504;
            }
        }
    }
    double var34;
    if ((input[12]) >= (2.84965)) {
        if ((input[57]) >= (1.4409499)) {
            if ((input[71]) >= (17823.5)) {
                var34 = -0.023290012;
            } else {
                var34 = 0.0043521016;
            }
        } else {
            if ((input[66]) >= (45.5)) {
                var34 = -0.04368027;
            } else {
                var34 = 0.034603607;
            }
        }
    } else {
        if ((input[64]) >= (37.5)) {
            if ((input[66]) >= (420.5)) {
                var34 = 0.00841084;
            } else {
                var34 = 0.03452052;
            }
        } else {
            if ((input[62]) >= (1.5348)) {
                var34 = 0.010446429;
            } else {
                var34 = -0.031269755;
            }
        }
    }
    double var35;
    if ((input[70]) >= (0.5)) {
        if ((input[12]) >= (10.49025)) {
            if ((input[70]) >= (15.5)) {
                var35 = -0.038019344;
            } else {
                var35 = -0.011717888;
            }
        } else {
            if ((input[62]) >= (3.4399)) {
                var35 = 0.011217377;
            } else {
                var35 = -0.015301309;
            }
        }
    } else {
        if ((input[66]) >= (2216.5)) {
            if ((input[64]) >= (43.5)) {
                var35 = 0.023503214;
            } else {
                var35 = -0.052711632;
            }
        } else {
            if ((input[64]) >= (40.5)) {
                var35 = 0.086253636;
            } else {
                var35 = 0.03032121;
            }
        }
    }
    double var36;
    if ((input[53]) >= (0.5)) {
        if ((input[57]) >= (0.13525)) {
            if ((input[70]) >= (12.5)) {
                var36 = -0.02667885;
            } else {
                var36 = -0.0017870164;
            }
        } else {
            if ((input[66]) >= (18.5)) {
                var36 = -0.08436618;
            } else {
                var36 = 0.040133696;
            }
        }
    } else {
        if ((input[71]) >= (2101.5)) {
            if ((input[64]) >= (43.5)) {
                var36 = 0.0077157207;
            } else {
                var36 = -0.016676227;
            }
        } else {
            if ((input[64]) >= (39.5)) {
                var36 = 0.043213468;
            } else {
                var36 = 0.0065844553;
            }
        }
    }
    double var37;
    if ((input[66]) >= (46.5)) {
        if ((input[61]) >= (0.03505)) {
            if ((input[66]) >= (1339.5)) {
                var37 = -0.0053201467;
            } else {
                var37 = 0.023271367;
            }
        } else {
            if ((input[70]) >= (10.5)) {
                var37 = -0.061020363;
            } else {
                var37 = -0.01769552;
            }
        }
    } else {
        if ((input[64]) >= (38.5)) {
            if ((input[71]) >= (-66.5)) {
                var37 = 0.09317099;
            } else {
                var37 = 0.03448155;
            }
        } else {
            if ((input[56]) >= (0.00195)) {
                var37 = 0.029629407;
            } else {
                var37 = -0.024570681;
            }
        }
    }
    double var38;
    if ((input[15]) >= (3.5)) {
        if ((input[66]) >= (64.5)) {
            if ((input[57]) >= (1.57005)) {
                var38 = -0.0033809654;
            } else {
                var38 = -0.031365644;
            }
        } else {
            if ((input[56]) >= (2.46455)) {
                var38 = 0.04971688;
            } else {
                var38 = 0.006330854;
            }
        }
    } else {
        if ((input[0]) >= (6.0)) {
            if ((input[66]) >= (23.5)) {
                var38 = -0.010227698;
            } else {
                var38 = 0.04293306;
            }
        } else {
            if ((input[66]) >= (660.5)) {
                var38 = 0.010849483;
            } else {
                var38 = 0.056738596;
            }
        }
    }
    double var39;
    if ((input[1]) >= (0.19335)) {
        if ((input[64]) >= (38.5)) {
            if ((input[66]) >= (218.5)) {
                var39 = -0.0015324856;
            } else {
                var39 = 0.048213135;
            }
        } else {
            if ((input[66]) >= (67.5)) {
                var39 = -0.029110208;
            } else {
                var39 = 0.007293753;
            }
        }
    } else {
        if ((input[53]) >= (1.5)) {
            if ((input[57]) >= (0.0514)) {
                var39 = 0.0029538267;
            } else {
                var39 = -0.07237681;
            }
        } else {
            if ((input[64]) >= (38.5)) {
                var39 = 0.049981304;
            } else {
                var39 = 0.02025402;
            }
        }
    }
    double var40;
    if ((input[4]) >= (3.5)) {
        if ((input[12]) >= (2.8418)) {
            if ((input[57]) >= (1.10555)) {
                var40 = -0.010080847;
            } else {
                var40 = -0.043562975;
            }
        } else {
            if ((input[62]) >= (1.61985)) {
                var40 = 0.0117258085;
            } else {
                var40 = -0.012321717;
            }
        }
    } else {
        if ((input[0]) >= (6.0)) {
            if ((input[66]) >= (23.5)) {
                var40 = -0.008834104;
            } else {
                var40 = 0.038456343;
            }
        } else {
            if ((input[71]) >= (927.5)) {
                var40 = 0.007293626;
            } else {
                var40 = 0.045709487;
            }
        }
    }
    double var41;
    if ((input[51]) >= (3.5)) {
        if ((input[71]) >= (2730.5)) {
            if ((input[58]) >= (993.0941)) {
                var41 = 0.017507782;
            } else {
                var41 = -0.016453177;
            }
        } else {
            if ((input[64]) >= (40.5)) {
                var41 = 0.057977464;
            } else {
                var41 = 0.015102113;
            }
        }
    } else {
        if ((input[12]) >= (20.80665)) {
            if ((input[66]) >= (115.5)) {
                var41 = -0.028373925;
            } else {
                var41 = 0.02549685;
            }
        } else {
            if ((input[57]) >= (1.66025)) {
                var41 = 0.007653025;
            } else {
                var41 = -0.013255685;
            }
        }
    }
    double var42;
    if ((input[1]) >= (0.14645)) {
        if ((input[57]) >= (0.34085)) {
            if ((input[64]) >= (43.5)) {
                var42 = 0.013682181;
            } else {
                var42 = -0.005683319;
            }
        } else {
            if ((input[66]) >= (20.5)) {
                var42 = -0.057481945;
            } else {
                var42 = 0.04357441;
            }
        }
    } else {
        if ((input[58]) >= (7.2113)) {
            if ((input[66]) >= (754.5)) {
                var42 = 0.026382541;
            } else {
                var42 = 0.07106131;
            }
        } else {
            if ((input[64]) >= (38.5)) {
                var42 = 0.044336893;
            } else {
                var42 = -0.0021041965;
            }
        }
    }
    double var43;
    if ((input[1]) >= (7.85745)) {
        if ((input[66]) >= (87.5)) {
            if ((input[60]) >= (4.72075)) {
                var43 = -0.007380695;
            } else {
                var43 = -0.04250594;
            }
        } else {
            if ((input[58]) >= (782.6553)) {
                var43 = -0.05648696;
            } else {
                var43 = 0.038661182;
            }
        }
    } else {
        if ((input[56]) >= (9.724449)) {
            if ((input[71]) >= (822.5)) {
                var43 = 0.00411115;
            } else {
                var43 = 0.039938685;
            }
        } else {
            if ((input[66]) >= (112.5)) {
                var43 = -0.023156395;
            } else {
                var43 = 0.012615183;
            }
        }
    }
    double var44;
    if ((input[70]) >= (0.5)) {
        if ((input[0]) >= (0.5)) {
            if ((input[71]) >= (19752.5)) {
                var44 = -0.016006982;
            } else {
                var44 = 0.0059146443;
            }
        } else {
            if ((input[70]) >= (11.5)) {
                var44 = -0.04571582;
            } else {
                var44 = -0.009232096;
            }
        }
    } else {
        if ((input[66]) >= (2460.5)) {
            if ((input[64]) >= (43.5)) {
                var44 = 0.01786447;
            } else {
                var44 = -0.04559665;
            }
        } else {
            if ((input[64]) >= (43.5)) {
                var44 = 0.10773213;
            } else {
                var44 = 0.032248605;
            }
        }
    }
    double var45;
    if ((input[53]) >= (1.5)) {
        if ((input[57]) >= (0.6727)) {
            if ((input[70]) >= (13.5)) {
                var45 = -0.03002647;
            } else {
                var45 = -0.0029566146;
            }
        } else {
            if ((input[66]) >= (12.5)) {
                var45 = -0.06166042;
            } else {
                var45 = 0.051144805;
            }
        }
    } else {
        if ((input[66]) >= (232.5)) {
            if ((input[56]) >= (9.7696)) {
                var45 = 0.0031279065;
            } else {
                var45 = -0.028263444;
            }
        } else {
            if ((input[64]) >= (38.5)) {
                var45 = 0.059483893;
            } else {
                var45 = 0.0051194555;
            }
        }
    }
    double var46;
    if ((input[1]) >= (1.73245)) {
        if ((input[60]) >= (2.76755)) {
            if ((input[66]) >= (738.5)) {
                var46 = -0.0049750046;
            } else {
                var46 = 0.027044712;
            }
        } else {
            if ((input[66]) >= (71.5)) {
                var46 = -0.03711413;
            } else {
                var46 = 0.010033926;
            }
        }
    } else {
        if ((input[56]) >= (4.6581497)) {
            if ((input[66]) >= (837.5)) {
                var46 = 0.0074556344;
            } else {
                var46 = 0.03887755;
            }
        } else {
            if ((input[66]) >= (12.5)) {
                var46 = -0.006312366;
            } else {
                var46 = 0.047005296;
            }
        }
    }
    double var47;
    if ((input[15]) >= (3.5)) {
        if ((input[1]) >= (0.087850004)) {
            if ((input[58]) >= (0.5272)) {
                var47 = -0.005576026;
            } else {
                var47 = -0.04159057;
            }
        } else {
            if ((input[55]) >= (83.96484)) {
                var47 = -0.013103351;
            } else {
                var47 = 0.034272145;
            }
        }
    } else {
        if ((input[0]) >= (6.0)) {
            if ((input[66]) >= (28.5)) {
                var47 = -0.008991274;
            } else {
                var47 = 0.027911684;
            }
        } else {
            if ((input[66]) >= (288.5)) {
                var47 = 0.0106781;
            } else {
                var47 = 0.057505872;
            }
        }
    }
    double var48;
    if ((input[64]) >= (43.5)) {
        if ((input[66]) >= (5468.5)) {
            if ((input[60]) >= (3.76365)) {
                var48 = -0.0005695702;
            } else {
                var48 = -0.06387183;
            }
        } else {
            if ((input[70]) >= (1.5)) {
                var48 = 0.014444423;
            } else {
                var48 = 0.08040762;
            }
        }
    } else {
        if ((input[66]) >= (231.5)) {
            if ((input[56]) >= (9.77205)) {
                var48 = -0.004746162;
            } else {
                var48 = -0.038350206;
            }
        } else {
            if ((input[64]) >= (38.5)) {
                var48 = 0.04535659;
            } else {
                var48 = -0.0007378073;
            }
        }
    }
    double var49;
    if ((input[1]) >= (14.060551)) {
        if ((input[66]) >= (1330.5)) {
            if ((input[57]) >= (2.16415)) {
                var49 = -0.012828796;
            } else {
                var49 = -0.040836465;
            }
        } else {
            if ((input[70]) >= (10.5)) {
                var49 = -0.047457773;
            } else {
                var49 = 0.018942727;
            }
        }
    } else {
        if ((input[61]) >= (0.06805)) {
            if ((input[71]) >= (812.5)) {
                var49 = 0.0035940637;
            } else {
                var49 = 0.033267897;
            }
        } else {
            if ((input[66]) >= (53.5)) {
                var49 = -0.012142361;
            } else {
                var49 = 0.018090114;
            }
        }
    }
    double var50;
    if ((input[4]) >= (3.5)) {
        if ((input[66]) >= (112.5)) {
            if ((input[57]) >= (1.53405)) {
                var50 = -0.00301265;
            } else {
                var50 = -0.026776388;
            }
        } else {
            if ((input[64]) >= (38.5)) {
                var50 = 0.051568527;
            } else {
                var50 = 0.0030392797;
            }
        }
    } else {
        if ((input[0]) >= (6.0)) {
            if ((input[55]) >= (36.86135)) {
                var50 = -0.012155152;
            } else {
                var50 = 0.011838858;
            }
        } else {
            if ((input[71]) >= (923.5)) {
                var50 = 0.00635807;
            } else {
                var50 = 0.03633296;
            }
        }
    }
    double var51;
    if ((input[64]) >= (43.5)) {
        if ((input[66]) >= (6106.5)) {
            if ((input[71]) >= (24349.5)) {
                var51 = -0.015052457;
            } else {
                var51 = 0.0076559247;
            }
        } else {
            if ((input[70]) >= (1.5)) {
                var51 = 0.013070794;
            } else {
                var51 = 0.074082285;
            }
        }
    } else {
        if ((input[66]) >= (177.5)) {
            if ((input[58]) >= (9.375851)) {
                var51 = -0.003746966;
            } else {
                var51 = -0.03224239;
            }
        } else {
            if ((input[64]) >= (38.5)) {
                var51 = 0.046907306;
            } else {
                var51 = -0.00014554955;
            }
        }
    }
    double var52;
    if ((input[12]) >= (1.05275)) {
        if ((input[57]) >= (1.5218501)) {
            if ((input[71]) >= (21071.0)) {
                var52 = -0.016194358;
            } else {
                var52 = 0.0062489393;
            }
        } else {
            if ((input[66]) >= (28.5)) {
                var52 = -0.023413312;
            } else {
                var52 = 0.024954902;
            }
        }
    } else {
        if ((input[56]) >= (4.65615)) {
            if ((input[66]) >= (551.5)) {
                var52 = 0.010904825;
            } else {
                var52 = 0.040795665;
            }
        } else {
            if ((input[66]) >= (12.5)) {
                var52 = -0.0033492134;
            } else {
                var52 = 0.04092401;
            }
        }
    }
    double var53;
    if ((input[53]) >= (1.5)) {
        if ((input[46]) >= (4.6321497)) {
            if ((input[62]) >= (0.101349995)) {
                var53 = -0.002142062;
            } else {
                var53 = -0.051075656;
            }
        } else {
            if ((input[58]) >= (0.744)) {
                var53 = -0.031710796;
            } else {
                var53 = -0.07514583;
            }
        }
    } else {
        if ((input[71]) >= (2725.5)) {
            if ((input[58]) >= (827.4404)) {
                var53 = 0.0025601278;
            } else {
                var53 = -0.021826757;
            }
        } else {
            if ((input[64]) >= (43.5)) {
                var53 = 0.05340861;
            } else {
                var53 = 0.0059262966;
            }
        }
    }
    double var54;
    if ((input[0]) >= (0.5)) {
        if ((input[71]) >= (61974.5)) {
            if ((input[70]) >= (7.5)) {
                var54 = -0.00827771;
            } else {
                var54 = -0.04152512;
            }
        } else {
            if ((input[64]) >= (40.5)) {
                var54 = 0.013116725;
            } else {
                var54 = -0.0027165334;
            }
        }
    } else {
        if ((input[70]) >= (13.5)) {
            if ((input[51]) >= (0.5)) {
                var54 = -0.016700782;
            } else {
                var54 = -0.06153651;
            }
        } else {
            if ((input[71]) >= (1121.5)) {
                var54 = -0.034730803;
            } else {
                var54 = -0.0006348456;
            }
        }
    }
    double var55;
    if ((input[12]) >= (10.93165)) {
        if ((input[64]) >= (46.5)) {
            if ((input[66]) >= (7777.5)) {
                var55 = 0.002826101;
            } else {
                var55 = 0.073823504;
            }
        } else {
            if ((input[66]) >= (267.5)) {
                var55 = -0.016678704;
            } else {
                var55 = 0.012418674;
            }
        }
    } else {
        if ((input[61]) >= (0.06925)) {
            if ((input[71]) >= (798.5)) {
                var55 = 0.004349118;
            } else {
                var55 = 0.030403256;
            }
        } else {
            if ((input[66]) >= (30.5)) {
                var55 = -0.008305963;
            } else {
                var55 = 0.02114661;
            }
        }
    }
    double var56;
    if ((input[57]) >= (2.16475)) {
        if ((input[71]) >= (12818.5)) {
            if ((input[70]) >= (6.5)) {
                var56 = 0.004833219;
            } else {
                var56 = -0.020158965;
            }
        } else {
            if ((input[70]) >= (15.5)) {
                var56 = -0.0073696286;
            } else {
                var56 = 0.020855328;
            }
        }
    } else {
        if ((input[66]) >= (112.5)) {
            if ((input[64]) >= (43.5)) {
                var56 = 0.010830724;
            } else {
                var56 = -0.016439008;
            }
        } else {
            if ((input[64]) >= (38.5)) {
                var56 = 0.0536154;
            } else {
                var56 = -0.0018127932;
            }
        }
    }
    double var57;
    if ((input[61]) >= (0.00014999999)) {
        if ((input[66]) >= (483.5)) {
            if ((input[58]) >= (29.4789)) {
                var57 = 0.00022401827;
            } else {
                var57 = -0.02744922;
            }
        } else {
            if ((input[64]) >= (38.5)) {
                var57 = 0.031986766;
            } else {
                var57 = -0.00019857679;
            }
        }
    } else {
        if ((input[70]) >= (1.5)) {
            if ((input[71]) >= (8.5)) {
                var57 = -0.102982044;
            } else {
                var57 = -0.040077016;
            }
        } else {
            if ((input[71]) >= (14.5)) {
                var57 = -0.03255492;
            } else {
                var57 = 0.08684751;
            }
        }
    }
    double var58;
    if ((input[64]) >= (40.5)) {
        if ((input[66]) >= (2935.5)) {
            if ((input[58]) >= (827.29297)) {
                var58 = 0.006245687;
            } else {
                var58 = -0.020490939;
            }
        } else {
            if ((input[70]) >= (2.5)) {
                var58 = 0.0019211164;
            } else {
                var58 = 0.04219815;
            }
        }
    } else {
        if ((input[66]) >= (46.5)) {
            if ((input[56]) >= (0.27225)) {
                var58 = -0.006560148;
            } else {
                var58 = -0.06450589;
            }
        } else {
            if ((input[62]) >= (3.61205)) {
                var58 = 0.040122192;
            } else {
                var58 = 0.009459233;
            }
        }
    }
    double var59;
    if ((input[1]) >= (16.673851)) {
        if ((input[66]) >= (1806.5)) {
            if ((input[60]) >= (17.576149)) {
                var59 = -0.01054492;
            } else {
                var59 = -0.036552183;
            }
        } else {
            if ((input[70]) >= (14.5)) {
                var59 = -0.04697601;
            } else {
                var59 = 0.0143190175;
            }
        }
    } else {
        if ((input[58]) >= (9.36655)) {
            if ((input[71]) >= (317.5)) {
                var59 = 0.0034752998;
            } else {
                var59 = 0.030020773;
            }
        } else {
            if ((input[66]) >= (64.5)) {
                var59 = -0.015949627;
            } else {
                var59 = 0.009581593;
            }
        }
    }
    double var60;
    if ((input[12]) >= (0.087850004)) {
        if ((input[57]) >= (0.98875)) {
            if ((input[71]) >= (490.5)) {
                var60 = -0.0034682916;
            } else {
                var60 = 0.011946882;
            }
        } else {
            if ((input[66]) >= (14.5)) {
                var60 = -0.023315815;
            } else {
                var60 = 0.031899266;
            }
        }
    } else {
        if ((input[58]) >= (6.6591)) {
            if ((input[71]) >= (4439.0)) {
                var60 = 0.01020207;
            } else {
                var60 = 0.050072517;
            }
        } else {
            if ((input[55]) >= (53.87695)) {
                var60 = -0.019742075;
            } else {
                var60 = 0.02131225;
            }
        }
    }
    double var61;
    if ((input[64]) >= (43.5)) {
        if ((input[66]) >= (7572.5)) {
            if ((input[57]) >= (2.5247998)) {
                var61 = 0.004219027;
            } else {
                var61 = -0.01916994;
            }
        } else {
            if ((input[70]) >= (1.5)) {
                var61 = 0.0081853885;
            } else {
                var61 = 0.062208664;
            }
        }
    } else {
        if ((input[1]) >= (3.58395)) {
            if ((input[46]) >= (4.86135)) {
                var61 = -0.006120724;
            } else {
                var61 = -0.026785119;
            }
        } else {
            if ((input[58]) >= (6.92555)) {
                var61 = 0.010689543;
            } else {
                var61 = -0.0047313613;
            }
        }
    }
    double var62;
    if ((input[0]) >= (0.5)) {
        if ((input[71]) >= (71362.5)) {
            if ((input[70]) >= (7.5)) {
                var62 = -0.006919469;
            } else {
                var62 = -0.041467663;
            }
        } else {
            if ((input[57]) >= (2.36695)) {
                var62 = 0.012031357;
            } else {
                var62 = -0.0015013574;
            }
        }
    } else {
        if ((input[70]) >= (14.5)) {
            if ((input[51]) >= (0.5)) {
                var62 = -0.01260563;
            } else {
                var62 = -0.057433754;
            }
        } else {
            if ((input[71]) >= (4787.0)) {
                var62 = -0.0466659;
            } else {
                var62 = -0.0035793607;
            }
        }
    }
    double var63;
    if ((input[53]) >= (0.5)) {
        if ((input[46]) >= (3.79455)) {
            if ((input[61]) >= (0.00014999999)) {
                var63 = -0.0014015778;
            } else {
                var63 = -0.048546534;
            }
        } else {
            if ((input[57]) >= (1.87535)) {
                var63 = -0.0053494573;
            } else {
                var63 = -0.05225438;
            }
        }
    } else {
        if ((input[71]) >= (1749.5)) {
            if ((input[64]) >= (45.5)) {
                var63 = 0.014443256;
            } else {
                var63 = -0.00860277;
            }
        } else {
            if ((input[64]) >= (40.5)) {
                var63 = 0.0350691;
            } else {
                var63 = 0.00539357;
            }
        }
    }
    double var64;
    if ((input[12]) >= (0.087850004)) {
        if ((input[57]) >= (0.09735)) {
            if ((input[64]) >= (43.5)) {
                var64 = 0.009399611;
            } else {
                var64 = -0.0037587944;
            }
        } else {
            if ((input[66]) >= (17.5)) {
                var64 = -0.050955333;
            } else {
                var64 = 0.04031911;
            }
        }
    } else {
        if ((input[13]) >= (1.5)) {
            if ((input[53]) >= (0.5)) {
                var64 = 0.009908321;
            } else {
                var64 = 0.038984414;
            }
        } else {
            if ((input[64]) >= (38.5)) {
                var64 = 0.024768157;
            } else {
                var64 = -0.015650438;
            }
        }
    }
    double var65;
    if ((input[12]) >= (18.412151)) {
        if ((input[66]) >= (879.5)) {
            if ((input[61]) >= (0.23414999)) {
                var65 = -0.006647465;
            } else {
                var65 = -0.029556653;
            }
        } else {
            if ((input[70]) >= (14.5)) {
                var65 = -0.05178518;
            } else {
                var65 = 0.015413743;
            }
        }
    } else {
        if ((input[61]) >= (0.06805)) {
            if ((input[71]) >= (540.5)) {
                var65 = 0.0030447731;
            } else {
                var65 = 0.02611577;
            }
        } else {
            if ((input[66]) >= (109.5)) {
                var65 = -0.0111729745;
            } else {
                var65 = 0.0074457424;
            }
        }
    }
    double var66;
    if ((input[0]) >= (0.5)) {
        if ((input[71]) >= (19752.5)) {
            if ((input[70]) >= (6.5)) {
                var66 = 0.0067955772;
            } else {
                var66 = -0.024014203;
            }
        } else {
            if ((input[57]) >= (2.5718498)) {
                var66 = 0.01870562;
            } else {
                var66 = 0.000030075907;
            }
        }
    } else {
        if ((input[66]) >= (5626.5)) {
            if ((input[49]) >= (8.875)) {
                var66 = -0.061165195;
            } else {
                var66 = -0.024395153;
            }
        } else {
            if ((input[46]) >= (4.62285)) {
                var66 = -0.0011236737;
            } else {
                var66 = -0.025703697;
            }
        }
    }
    double var67;
    if ((input[64]) >= (40.5)) {
        if ((input[66]) >= (2935.5)) {
            if ((input[58]) >= (827.29297)) {
                var67 = 0.0059707365;
            } else {
                var67 = -0.018033182;
            }
        } else {
            if ((input[70]) >= (2.5)) {
                var67 = 0.0010280035;
            } else {
                var67 = 0.036754142;
            }
        }
    } else {
        if ((input[66]) >= (153.5)) {
            if ((input[70]) >= (1.5)) {
                var67 = -0.005839445;
            } else {
                var67 = -0.0374895;
            }
        } else {
            if ((input[58]) >= (6.4334497)) {
                var67 = 0.043671176;
            } else {
                var67 = -0.0021197728;
            }
        }
    }
    double var68;
    if ((input[70]) >= (433.5)) {
        if ((input[46]) >= (6.417)) {
            if ((input[1]) >= (14.4258)) {
                var68 = -0.040311422;
            } else {
                var68 = 0.23452397;
            }
        } else {
            if ((input[16]) >= (9.45)) {
                var68 = -0.08369305;
            } else {
                var68 = -0.043605722;
            }
        }
    } else {
        if ((input[57]) >= (1.87305)) {
            if ((input[71]) >= (17813.5)) {
                var68 = -0.00897704;
            } else {
                var68 = 0.009528518;
            }
        } else {
            if ((input[66]) >= (23.5)) {
                var68 = -0.008460189;
            } else {
                var68 = 0.0215132;
            }
        }
    }
    double var69;
    if ((input[64]) >= (43.5)) {
        if ((input[66]) >= (5468.5)) {
            if ((input[56]) >= (42.859703)) {
                var69 = 0.0012519917;
            } else {
                var69 = -0.0604895;
            }
        } else {
            if ((input[70]) >= (1.5)) {
                var69 = 0.0061816536;
            } else {
                var69 = 0.060698003;
            }
        }
    } else {
        if ((input[66]) >= (232.5)) {
            if ((input[58]) >= (29.4315)) {
                var69 = -0.002006335;
            } else {
                var69 = -0.023182867;
            }
        } else {
            if ((input[64]) >= (38.5)) {
                var69 = 0.03276785;
            } else {
                var69 = -0.00051381096;
            }
        }
    }
    double var70;
    if ((input[12]) >= (1.11135)) {
        if ((input[60]) >= (3.97075)) {
            if ((input[71]) >= (526.5)) {
                var70 = -0.0017447369;
            } else {
                var70 = 0.02181388;
            }
        } else {
            if ((input[66]) >= (258.5)) {
                var70 = -0.02679495;
            } else {
                var70 = -0.0020986313;
            }
        }
    } else {
        if ((input[58]) >= (20.091301)) {
            if ((input[66]) >= (2850.5)) {
                var70 = 0.0027266457;
            } else {
                var70 = 0.030513814;
            }
        } else {
            if ((input[71]) >= (41.5)) {
                var70 = -0.0040387865;
            } else {
                var70 = 0.012286576;
            }
        }
    }
    double var71;
    if ((input[46]) >= (4.9050503)) {
        if ((input[71]) >= (2188.5)) {
            if ((input[58]) >= (827.29297)) {
                var71 = 0.004045828;
            } else {
                var71 = -0.01621052;
            }
        } else {
            if ((input[58]) >= (29.3679)) {
                var71 = 0.020419674;
            } else {
                var71 = 0.0006305289;
            }
        }
    } else {
        if ((input[53]) >= (0.5)) {
            if ((input[57]) >= (2.90305)) {
                var71 = 0.017628256;
            } else {
                var71 = -0.025719443;
            }
        } else {
            if ((input[71]) >= (20.5)) {
                var71 = -0.0014942138;
            } else {
                var71 = 0.03197592;
            }
        }
    }
    double var72;
    if ((input[64]) >= (46.5)) {
        if ((input[66]) >= (11980.5)) {
            if ((input[61]) >= (0.24785)) {
                var72 = 0.013543698;
            } else {
                var72 = -0.015066764;
            }
        } else {
            if ((input[70]) >= (3.5)) {
                var72 = 0.0041547376;
            } else {
                var72 = 0.074540325;
            }
        }
    } else {
        if ((input[12]) >= (10.93165)) {
            if ((input[66]) >= (879.5)) {
                var72 = -0.01456271;
            } else {
                var72 = 0.0039694225;
            }
        } else {
            if ((input[3]) >= (1.775)) {
                var72 = 0.0057085035;
            } else {
                var72 = -0.008693646;
            }
        }
    }
    double var73;
    if ((input[66]) >= (-352.5)) {
        if ((input[64]) >= (40.5)) {
            if ((input[66]) >= (419.5)) {
                var73 = 0.0019420615;
            } else {
                var73 = 0.037225865;
            }
        } else {
            if ((input[66]) >= (72.5)) {
                var73 = -0.0076865987;
            } else {
                var73 = 0.00934043;
            }
        }
    } else {
        if ((input[3]) >= (2.325)) {
            if ((input[70]) >= (2.5)) {
                var73 = -0.094235785;
            } else {
                var73 = -0.37696916;
            }
        } else {
            if ((input[1]) >= (18.2207)) {
                var73 = 0.03539167;
            } else {
                var73 = -0.06452107;
            }
        }
    }
    double var74;
    if ((input[57]) >= (0.069800004)) {
        if ((input[71]) >= (71212.0)) {
            if ((input[70]) >= (7.5)) {
                var74 = -0.0068971626;
            } else {
                var74 = -0.036482867;
            }
        } else {
            if ((input[64]) >= (45.5)) {
                var74 = 0.016414708;
            } else {
                var74 = 0.000027144828;
            }
        }
    } else {
        if ((input[70]) >= (1.5)) {
            if ((input[71]) >= (11.5)) {
                var74 = -0.08625395;
            } else {
                var74 = -0.030704005;
            }
        } else {
            if ((input[71]) >= (11.5)) {
                var74 = -0.023373803;
            } else {
                var74 = 0.08483125;
            }
        }
    }
    double var75;
    if ((input[46]) >= (5.36445)) {
        if ((input[71]) >= (17823.5)) {
            if ((input[70]) >= (5.5)) {
                var75 = 0.0027795834;
            } else {
                var75 = -0.020457685;
            }
        } else {
            if ((input[58]) >= (830.6571)) {
                var75 = 0.02152396;
            } else {
                var75 = 0.003217565;
            }
        }
    } else {
        if ((input[53]) >= (1.5)) {
            if ((input[57]) >= (0.99)) {
                var75 = -0.01082733;
            } else {
                var75 = -0.0407503;
            }
        } else {
            if ((input[71]) >= (30.5)) {
                var75 = -0.004942917;
            } else {
                var75 = 0.01434713;
            }
        }
    }
    double var76;
    if ((input[70]) >= (433.5)) {
        if ((input[46]) >= (6.417)) {
            if ((input[33]) >= (2.325)) {
                var76 = -0.056442987;
            } else {
                var76 = 0.18662642;
            }
        } else {
            if ((input[16]) >= (9.45)) {
                var76 = -0.08047079;
            } else {
                var76 = -0.03992888;
            }
        }
    } else {
        if ((input[57]) >= (2.16475)) {
            if ((input[71]) >= (10656.5)) {
                var76 = -0.004319811;
            } else {
                var76 = 0.011895068;
            }
        } else {
            if ((input[1]) >= (1.65035)) {
                var76 = -0.010329596;
            } else {
                var76 = 0.003946993;
            }
        }
    }
    double var77;
    if ((input[0]) >= (0.5)) {
        if ((input[66]) >= (475.5)) {
            if ((input[58]) >= (12.31005)) {
                var77 = 0.0014069054;
            } else {
                var77 = -0.030587858;
            }
        } else {
            if ((input[61]) >= (0.059550002)) {
                var77 = 0.03426076;
            } else {
                var77 = 0.0031746272;
            }
        }
    } else {
        if ((input[1]) >= (3.16605)) {
            if ((input[50]) >= (0.5)) {
                var77 = -0.011431595;
            } else {
                var77 = -0.0365729;
            }
        } else {
            if ((input[58]) >= (0.9984)) {
                var77 = 0.0062474757;
            } else {
                var77 = -0.019075733;
            }
        }
    }
    double var78;
    if ((input[64]) >= (43.5)) {
        if ((input[66]) >= (2941.5)) {
            if ((input[58]) >= (111.931046)) {
                var78 = 0.0044938093;
            } else {
                var78 = -0.03841607;
            }
        } else {
            if ((input[70]) >= (1.5)) {
                var78 = 0.0065303952;
            } else {
                var78 = 0.064987384;
            }
        }
    } else {
        if ((input[66]) >= (258.5)) {
            if ((input[70]) >= (2.5)) {
                var78 = -0.0017675617;
            } else {
                var78 = -0.019637689;
            }
        } else {
            if ((input[58]) >= (16.9363)) {
                var78 = 0.039136704;
            } else {
                var78 = 0.0009349606;
            }
        }
    }
    double var79;
    if ((input[66]) >= (-352.5)) {
        if ((input[64]) >= (39.5)) {
            if ((input[66]) >= (698.5)) {
                var79 = -0.00058233866;
            } else {
                var79 = 0.024604723;
            }
        } else {
            if ((input[66]) >= (36.5)) {
                var79 = -0.008432022;
            } else {
                var79 = 0.012613343;
            }
        }
    } else {
        if ((input[56]) >= (4.01115)) {
            if ((input[70]) >= (4.5)) {
                var79 = -0.0662454;
            } else {
                var79 = -0.16211753;
            }
        } else {
            if ((input[66]) >= (-1406.5)) {
                var79 = -0.020742754;
            } else {
                var79 = 0.11789002;
            }
        }
    }
    double var80;
    if ((input[46]) >= (5.36445)) {
        if ((input[71]) >= (17823.5)) {
            if ((input[70]) >= (6.5)) {
                var80 = 0.0050060647;
            } else {
                var80 = -0.016603542;
            }
        } else {
            if ((input[56]) >= (2135.297)) {
                var80 = 0.037104275;
            } else {
                var80 = 0.0049399496;
            }
        }
    } else {
        if ((input[53]) >= (1.5)) {
            if ((input[46]) >= (3.36195)) {
                var80 = -0.012545796;
            } else {
                var80 = -0.05148297;
            }
        } else {
            if ((input[52]) >= (0.5)) {
                var80 = -0.009717817;
            } else {
                var80 = 0.0049489625;
            }
        }
    }
    double var81;
    if ((input[70]) >= (297.5)) {
        if ((input[70]) >= (501.5)) {
            if ((input[46]) >= (6.4169)) {
                var81 = 0.0867678;
            } else {
                var81 = -0.07704136;
            }
        } else {
            if ((input[16]) >= (7.1)) {
                var81 = -0.037549544;
            } else {
                var81 = 0.0049396744;
            }
        }
    } else {
        if ((input[57]) >= (2.57545)) {
            if ((input[71]) >= (42418.0)) {
                var81 = -0.013035265;
            } else {
                var81 = 0.011482792;
            }
        } else {
            if ((input[71]) >= (803.5)) {
                var81 = -0.009745472;
            } else {
                var81 = 0.0017701352;
            }
        }
    }
    double var82;
    if ((input[64]) >= (46.5)) {
        if ((input[66]) >= (11980.5)) {
            if ((input[61]) >= (0.24785)) {
                var82 = 0.013217151;
            } else {
                var82 = -0.012514946;
            }
        } else {
            if ((input[70]) >= (2.5)) {
                var82 = 0.008732547;
            } else {
                var82 = 0.06982686;
            }
        }
    } else {
        if ((input[3]) >= (1.775)) {
            if ((input[12]) >= (19.58395)) {
                var82 = -0.014042682;
            } else {
                var82 = 0.0042289454;
            }
        } else {
            if ((input[70]) >= (10.5)) {
                var82 = -0.02866206;
            } else {
                var82 = -0.005254666;
            }
        }
    }
    double var83;
    if ((input[9]) >= (1.5)) {
        if ((input[46]) >= (4.89125)) {
            if ((input[71]) >= (-288.5)) {
                var83 = -0.0012371063;
            } else {
                var83 = -0.07131303;
            }
        } else {
            if ((input[70]) >= (2.5)) {
                var83 = -0.024774684;
            } else {
                var83 = 0.0019839809;
            }
        }
    } else {
        if ((input[2]) >= (1.5)) {
            if ((input[71]) >= (490.5)) {
                var83 = 0.0025234923;
            } else {
                var83 = 0.019890677;
            }
        } else {
            if ((input[0]) >= (6.0)) {
                var83 = -0.016497783;
            } else {
                var83 = 0.000080841266;
            }
        }
    }
    double var84;
    if ((input[1]) >= (0.11525001)) {
        if ((input[56]) >= (0.88815)) {
            if ((input[66]) >= (475.5)) {
                var84 = -0.0024848997;
            } else {
                var84 = 0.008690813;
            }
        } else {
            if ((input[66]) >= (14.5)) {
                var84 = -0.024226176;
            } else {
                var84 = 0.029334515;
            }
        }
    } else {
        if ((input[55]) >= (84.03905)) {
            if ((input[58]) >= (4.573)) {
                var84 = 0.013908523;
            } else {
                var84 = -0.030043034;
            }
        } else {
            if ((input[14]) >= (1.325)) {
                var84 = 0.027445767;
            } else {
                var84 = 0.0007381421;
            }
        }
    }
    double var85;
    if ((input[61]) >= (0.09655)) {
        if ((input[66]) >= (1403.5)) {
            if ((input[58]) >= (708.07117)) {
                var85 = 0.005369397;
            } else {
                var85 = -0.011383576;
            }
        } else {
            if ((input[64]) >= (38.5)) {
                var85 = 0.03760736;
            } else {
                var85 = -0.0037710776;
            }
        }
    } else {
        if ((input[66]) >= (116.5)) {
            if ((input[46]) >= (5.36495)) {
                var85 = -0.0013561228;
            } else {
                var85 = -0.02115742;
            }
        } else {
            if ((input[64]) >= (38.5)) {
                var85 = 0.037640836;
            } else {
                var85 = -0.00014635379;
            }
        }
    }
    double var86;
    if ((input[66]) >= (-352.5)) {
        if ((input[64]) >= (43.5)) {
            if ((input[66]) >= (2941.5)) {
                var86 = 0.0017884945;
            } else {
                var86 = 0.037656736;
            }
        } else {
            if ((input[66]) >= (177.5)) {
                var86 = -0.005074057;
            } else {
                var86 = 0.00692285;
            }
        }
    } else {
        if ((input[56]) >= (16.762901)) {
            if ((input[70]) >= (2.5)) {
                var86 = -0.080928795;
            } else {
                var86 = -0.20053439;
            }
        } else {
            if ((input[62]) >= (0.49230003)) {
                var86 = -0.039595474;
            } else {
                var86 = 0.070279025;
            }
        }
    }
    double var87;
    if ((input[0]) >= (0.5)) {
        if ((input[0]) >= (1.5)) {
            if ((input[55]) >= (46.06835)) {
                var87 = -0.003982224;
            } else {
                var87 = 0.007270156;
            }
        } else {
            if ((input[71]) >= (2157.5)) {
                var87 = 0.0023855034;
            } else {
                var87 = 0.033152875;
            }
        }
    } else {
        if ((input[1]) >= (3.16605)) {
            if ((input[71]) >= (-3.5)) {
                var87 = -0.019857427;
            } else {
                var87 = 0.026267478;
            }
        } else {
            if ((input[68]) >= (0.5)) {
                var87 = 0.015201797;
            } else {
                var87 = -0.008489582;
            }
        }
    }
    double var88;
    if ((input[58]) >= (17.493649)) {
        if ((input[66]) >= (965.5)) {
            if ((input[58]) >= (760.83435)) {
                var88 = 0.0051464536;
            } else {
                var88 = -0.008198132;
            }
        } else {
            if ((input[70]) >= (12.5)) {
                var88 = -0.020202205;
            } else {
                var88 = 0.02505351;
            }
        }
    } else {
        if ((input[66]) >= (372.5)) {
            if ((input[22]) >= (3.11525)) {
                var88 = -0.035765283;
            } else {
                var88 = -0.0061057913;
            }
        } else {
            if ((input[64]) >= (39.5)) {
                var88 = 0.020973282;
            } else {
                var88 = -0.0051123537;
            }
        }
    }
    double var89;
    if ((input[46]) >= (2.85085)) {
        if ((input[70]) >= (251.5)) {
            if ((input[64]) >= (38.5)) {
                var89 = -0.016181933;
            } else {
                var89 = -0.05378752;
            }
        } else {
            if ((input[60]) >= (32.892548)) {
                var89 = 0.013585016;
            } else {
                var89 = -0.00032886275;
            }
        }
    } else {
        if ((input[49]) >= (0.125)) {
            if ((input[66]) >= (10.5)) {
                var89 = -0.049555466;
            } else {
                var89 = 0.07755273;
            }
        } else {
            if ((input[71]) >= (115.5)) {
                var89 = 0.0025304593;
            } else {
                var89 = 0.06732865;
            }
        }
    }
    double var90;
    if ((input[66]) >= (-143.5)) {
        if ((input[64]) >= (46.5)) {
            if ((input[66]) >= (6106.5)) {
                var90 = 0.0066873366;
            } else {
                var90 = 0.068786226;
            }
        } else {
            if ((input[1]) >= (21.0918)) {
                var90 = -0.011250588;
            } else {
                var90 = 0.00093227084;
            }
        }
    } else {
        if ((input[58]) >= (4.0028)) {
            if ((input[70]) >= (2.5)) {
                var90 = -0.06019345;
            } else {
                var90 = -0.13247119;
            }
        } else {
            if ((input[62]) >= (0.44005)) {
                var90 = -0.014215916;
            } else {
                var90 = 0.070367396;
            }
        }
    }
    double var91;
    if ((input[71]) >= (93754.0)) {
        if ((input[68]) >= (0.5)) {
            if ((input[47]) >= (2.05555)) {
                var91 = -0.011894665;
            } else {
                var91 = 0.03281426;
            }
        } else {
            if ((input[24]) >= (0.675)) {
                var91 = -0.027947828;
            } else {
                var91 = -0.07857425;
            }
        }
    } else {
        if ((input[57]) >= (2.36695)) {
            if ((input[71]) >= (10656.5)) {
                var91 = -0.0018562757;
            } else {
                var91 = 0.012103813;
            }
        } else {
            if ((input[46]) >= (5.27065)) {
                var91 = 0.001536933;
            } else {
                var91 = -0.009382282;
            }
        }
    }
    double var92;
    if ((input[62]) >= (0.10155)) {
        if ((input[66]) >= (475.5)) {
            if ((input[58]) >= (50.53305)) {
                var92 = 0.0009690661;
            } else {
                var92 = -0.016936699;
            }
        } else {
            if ((input[58]) >= (37.5028)) {
                var92 = 0.029387265;
            } else {
                var92 = 0.0026626934;
            }
        }
    } else {
        if ((input[66]) >= (17.5)) {
            if ((input[64]) >= (38.5)) {
                var92 = -0.0069554457;
            } else {
                var92 = -0.06839612;
            }
        } else {
            if ((input[70]) >= (1.5)) {
                var92 = 0.016244156;
            } else {
                var92 = 0.08118961;
            }
        }
    }
    double var93;
    if ((input[12]) >= (37.61915)) {
        if ((input[22]) >= (9.5175495)) {
            if ((input[55]) >= (114.1543)) {
                var93 = -0.04620532;
            } else {
                var93 = -0.016296595;
            }
        } else {
            if ((input[41]) >= (3.5)) {
                var93 = -0.0019393134;
            } else {
                var93 = 0.03458402;
            }
        }
    } else {
        if ((input[64]) >= (43.5)) {
            if ((input[66]) >= (6106.5)) {
                var93 = 0.00076886354;
            } else {
                var93 = 0.027333582;
            }
        } else {
            if ((input[3]) >= (1.775)) {
                var93 = 0.0015267775;
            } else {
                var93 = -0.009277506;
            }
        }
    }
    double var94;
    if ((input[71]) >= (-824.5)) {
        if ((input[64]) >= (46.5)) {
            if ((input[66]) >= (7556.5)) {
                var94 = 0.00541505;
            } else {
                var94 = 0.06189242;
            }
        } else {
            if ((input[66]) >= (153.5)) {
                var94 = -0.0026730557;
            } else {
                var94 = 0.00784517;
            }
        }
    } else {
        if ((input[55]) >= (109.40235)) {
            if ((input[46]) >= (6.2846003)) {
                var94 = 0.074860126;
            } else {
                var94 = -0.12439511;
            }
        } else {
            if ((input[70]) >= (2.5)) {
                var94 = -0.017468512;
            } else {
                var94 = -0.1065315;
            }
        }
    }
    double var95;
    if ((input[70]) >= (433.5)) {
        if ((input[22]) >= (100.318344)) {
            var95 = 0.09863646;
        } else {
            if ((input[16]) >= (9.45)) {
                var95 = -0.07232084;
            } else {
                var95 = -0.029285679;
            }
        }
    } else {
        if ((input[9]) >= (0.5)) {
            if ((input[66]) >= (-124.5)) {
                var95 = -0.0019853367;
            } else {
                var95 = -0.06542007;
            }
        } else {
            if ((input[0]) >= (6.0)) {
                var95 = -0.0051659015;
            } else {
                var95 = 0.010720353;
            }
        }
    }
    double var96;
    if ((input[1]) >= (0.041050002)) {
        if ((input[58]) >= (0.50084996)) {
            if ((input[66]) >= (197.5)) {
                var96 = -0.0016655888;
            } else {
                var96 = 0.00846942;
            }
        } else {
            if ((input[66]) >= (17.5)) {
                var96 = -0.03113589;
            } else {
                var96 = 0.029318063;
            }
        }
    } else {
        if ((input[14]) >= (1.775)) {
            if ((input[55]) >= (83.16015)) {
                var96 = -0.0040534674;
            } else {
                var96 = 0.03240179;
            }
        } else {
            if ((input[64]) >= (38.5)) {
                var96 = 0.023562042;
            } else {
                var96 = -0.012901259;
            }
        }
    }
    double var97;
    if ((input[46]) >= (5.40475)) {
        if ((input[71]) >= (5237.5)) {
            if ((input[67]) >= (0.5)) {
                var97 = -0.00805479;
            } else {
                var97 = 0.008282287;
            }
        } else {
            if ((input[58]) >= (703.14404)) {
                var97 = 0.030020813;
            } else {
                var97 = 0.0044606808;
            }
        }
    } else {
        if ((input[53]) >= (0.5)) {
            if ((input[48]) >= (1.41665)) {
                var97 = -0.0052050706;
            } else {
                var97 = -0.034000948;
            }
        } else {
            if ((input[71]) >= (24.5)) {
                var97 = -0.0019682192;
            } else {
                var97 = 0.021216786;
            }
        }
    }
    double var98;
    if ((input[60]) >= (32.892548)) {
        if ((input[71]) >= (12818.5)) {
            if ((input[4]) >= (8.0)) {
                var98 = -0.009266472;
            } else {
                var98 = 0.016268868;
            }
        } else {
            if ((input[42]) >= (4.5)) {
                var98 = 0.050534606;
            } else {
                var98 = 0.017593766;
            }
        }
    } else {
        if ((input[12]) >= (2.85745)) {
            if ((input[60]) >= (7.3769503)) {
                var98 = -0.00011093716;
            } else {
                var98 = -0.01327972;
            }
        } else {
            if ((input[58]) >= (6.92555)) {
                var98 = 0.008371453;
            } else {
                var98 = -0.0024080907;
            }
        }
    }
    double var99;
    if ((input[71]) >= (-196.5)) {
        if ((input[66]) >= (112.5)) {
            if ((input[58]) >= (37.091652)) {
                var99 = 0.0022982785;
            } else {
                var99 = -0.010871814;
            }
        } else {
            if ((input[64]) >= (38.5)) {
                var99 = 0.051667124;
            } else {
                var99 = 0.002151499;
            }
        }
    } else {
        if ((input[66]) >= (133.5)) {
            if ((input[1]) >= (3.32225)) {
                var99 = 0.019419333;
            } else {
                var99 = -0.032020103;
            }
        } else {
            if ((input[56]) >= (873.81946)) {
                var99 = -0.13776249;
            } else {
                var99 = -0.044692952;
            }
        }
    }
    double var100;
    var100 = (1.0) / ((1.0) + (exp((0.0) - ((((((((((((((((((((((((((((((((((((((((((((((((((((((((((((((((((((((((((((((((((((((((((((((((((((var0) + (var1)) + (var2)) + (var3)) + (var4)) + (var5)) + (var6)) + (var7)) + (var8)) + (var9)) + (var10)) + (var11)) + (var12)) + (var13)) + (var14)) + (var15)) + (var16)) + (var17)) + (var18)) + (var19)) + (var20)) + (var21)) + (var22)) + (var23)) + (var24)) + (var25)) + (var26)) + (var27)) + (var28)) + (var29)) + (var30)) + (var31)) + (var32)) + (var33)) + (var34)) + (var35)) + (var36)) + (var37)) + (var38)) + (var39)) + (var40)) + (var41)) + (var42)) + (var43)) + (var44)) + (var45)) + (var46)) + (var47)) + (var48)) + (var49)) + (var50)) + (var51)) + (var52)) + (var53)) + (var54)) + (var55)) + (var56)) + (var57)) + (var58)) + (var59)) + (var60)) + (var61)) + (var62)) + (var63)) + (var64)) + (var65)) + (var66)) + (var67)) + (var68)) + (var69)) + (var70)) + (var71)) + (var72)) + (var73)) + (var74)) + (var75)) + (var76)) + (var77)) + (var78)) + (var79)) + (var80)) + (var81)) + (var82)) + (var83)) + (var84)) + (var85)) + (var86)) + (var87)) + (var88)) + (var89)) + (var90)) + (var91)) + (var92)) + (var93)) + (var94)) + (var95)) + (var96)) + (var97)) + (var98)) + (var99)))));
    memcpy(output, (double[]){(1.0) - (var100), var100}, 2 * sizeof(double));
}
